{
  "name": "DT2Genome Comparison 10000",
  "state_channels": 14,
  "genome_channels": 2,
  "hidden_channels": 9,
  "state_quantization_scale": 4.0,
  "hidden_quantization_scale": 8.0,
  "perception_quantization_scale": 12.0,
  "update_probability": 0.5,
  "layers": [
    {
      "name": "conv1",
      "in_channels": 64,
      "out_channels": 128,
      "activation": "relu",
      "weights": [
        [
          -0.20587264001369476,
          0.10598062723875046,
          0.09579497575759888,
          -0.05508678779006004,
          -0.11933495849370956,
          -0.10771011561155319,
          -0.018539004027843475,
          -0.1130623072385788,
          0.016104739159345627,
          -0.016598157584667206,
          -0.1276366114616394,
          -0.01738656312227249,
          -0.12751621007919312,
          0.13420170545578003,
          0.0,
          0.0,
          -0.04218076169490814,
          -0.0078058564104139805,
          -0.02176836133003235,
          -0.05472118407487869,
          -0.11538788676261902,
          0.019686024636030197,
          -0.07096797227859497,
          0.0068379780277609825,
          0.1029520332813263,
          -0.013955802656710148,
          0.11569671332836151,
          0.07868333160877228,
          -0.19002975523471832,
          0.06322770565748215,
          0.0,
          0.0,
          -0.06264540553092957,
          0.047239795327186584,
          -0.09155602753162384,
          -0.03844248875975609,
          -0.05805730074644089,
          0.1251196712255478,
          0.02160126157104969,
          -0.14163817465305328,
          0.010071221739053726,
          0.09417521208524704,
          0.01713263988494873,
          0.09109719097614288,
          -0.008202108554542065,
          -0.0012716641649603844,
          0.0,
          0.0,
          0.0027201962657272816,
          -0.02799130417406559,
          0.10492576658725739,
          -0.04279077798128128,
          -0.02572135627269745,
          0.08951491117477417,
          -0.0563671700656414,
          0.09151027351617813,
          0.08961030840873718,
          0.013422897085547447,
          -0.0008524181903339922,
          -0.008213634602725506,
          -0.03792179375886917,
          -0.05442855879664421,
          0.0,
          0.0
        ],
        [
          -0.1633979082107544,
          -0.0720406249165535,
          0.09754963964223862,
          -0.07031022757291794,
          -0.10952062159776688,
          0.01181847881525755,
          0.03968215361237526,
          0.02893175184726715,
          0.09465507417917252,
          -0.06721027940511703,
          0.014117886312305927,
          0.06619661301374435,
          0.08741088956594467,
          0.018225068226456642,
          0.0,
          0.0,
          -0.0026032226160168648,
          -0.067406564950943,
          0.00586411077529192,
          0.04663882777094841,
          0.0020785497035831213,
          0.07487388700246811,
          0.16097880899906158,
          -0.0975218266248703,
          0.1527131348848343,
          0.16227972507476807,
          0.08877238631248474,
          -0.052418053150177,
          0.04969071224331856,
          -0.12986089289188385,
          0.0,
          0.0,
          -0.08998950570821762,
          -0.02208905667066574,
          -0.14319342374801636,
          -0.14929728209972382,
          0.058715254068374634,
          -0.06977090239524841,
          -0.05344432219862938,
          -0.08973267674446106,
          -0.11842916905879974,
          0.06105661019682884,
          0.010129312053322792,
          0.010698235593736172,
          0.11759178340435028,
          0.053120434284210205,
          0.0,
          0.0,
          0.024655135348439217,
          -0.05306726694107056,
          0.06931991130113602,
          -0.014944791793823242,
          0.12369360029697418,
          0.05334698036313057,
          0.13025277853012085,
          0.09437092393636703,
          0.10406848788261414,
          0.035355888307094574,
          -0.01833496242761612,
          0.039471711963415146,
          0.11956071853637695,
          -0.010704948566854,
          0.0,
          0.0
        ],
        [
          -0.045676760375499725,
          0.08771675080060959,
          0.14513283967971802,
          -0.16672633588314056,
          -0.15995953977108002,
          -0.1680281013250351,
          0.10163050144910812,
          -0.1836940348148346,
          0.10240812599658966,
          0.2581043541431427,
          0.024017663672566414,
          0.17787718772888184,
          -0.08547946810722351,
          0.008817275054752827,
          0.0,
          0.0,
          -0.0340997576713562,
          0.02783428691327572,
          -0.01383338961750269,
          0.1406104415655136,
          -0.10409380495548248,
          -0.15431523323059082,
          0.03805220127105713,
          -0.17184977233409882,
          0.05710228160023689,
          0.03167983144521713,
          -0.1663437932729721,
          0.0501963272690773,
          0.001169227296486497,
          -0.02891651913523674,
          0.0,
          0.0,
          -0.031005188822746277,
          0.012232374399900436,
          0.0021947985514998436,
          -0.030654119327664375,
          0.11549468338489532,
          0.13434872031211853,
          -0.029772061854600906,
          -0.074786476790905,
          -0.05265608802437782,
          0.01672164723277092,
          0.09664292633533478,
          0.03239412233233452,
          -0.07232032716274261,
          0.05395659804344177,
          0.0,
          0.0,
          -0.07189588248729706,
          -0.04695933312177658,
          0.025650745257735252,
          -0.053483713418245316,
          0.04281830042600632,
          -0.108320452272892,
          -0.07272254675626755,
          0.0996885895729065,
          -0.0024583921767771244,
          -0.012089258059859276,
          0.024342967197299004,
          0.03645462542772293,
          -0.08830868452787399,
          0.14126554131507874,
          0.0,
          0.0
        ],
        [
          0.09284656494855881,
          0.001465466688387096,
          0.03209714964032173,
          -0.05070323869585991,
          -0.06945735961198807,
          0.11510878801345825,
          0.13581068813800812,
          -0.10831727832555771,
          -0.03796336054801941,
          0.06694765388965607,
          -0.044060178101062775,
          0.10362756252288818,
          -0.03946297615766525,
          -0.027890987694263458,
          0.0,
          0.0,
          -0.1151110976934433,
          -0.035553477704524994,
          0.11070633679628372,
          0.0763307437300682,
          0.001404722686856985,
          0.040266167372465134,
          0.028033317998051643,
          -0.04234418645501137,
          0.18676219880580902,
          0.1470661759376526,
          0.028844153508543968,
          0.13611851632595062,
          -0.002546615432947874,
          0.124267578125,
          0.0,
          0.0,
          -0.020858485251665115,
          -0.02131902426481247,
          0.030216936022043228,
          -0.10254555940628052,
          0.09250202775001526,
          -0.09284345805644989,
          0.01473042368888855,
          -0.15018895268440247,
          0.1472846120595932,
          -0.11499656736850739,
          0.028285883367061615,
          -0.040964726358652115,
          0.040420014411211014,
          0.07042475789785385,
          0.0,
          0.0,
          -0.10414843261241913,
          0.09772726893424988,
          0.014901392161846161,
          0.07118933647871017,
          -0.09699700027704239,
          0.14343348145484924,
          -0.02915591560304165,
          0.026814918965101242,
          0.15935583412647247,
          0.11653943359851837,
          -0.08395662158727646,
          0.04405083879828453,
          -0.08475361764431,
          -0.08158750832080841,
          0.0,
          0.0
        ],
        [
          -0.18568673729896545,
          0.05831789970397949,
          -0.04420972615480423,
          0.05039554461836815,
          -0.006330127827823162,
          0.07901640981435776,
          0.14900413155555725,
          -0.07861152291297913,
          -0.0035782065242528915,
          -0.14883820712566376,
          -0.13097000122070312,
          -0.06607751548290253,
          -0.09357646107673645,
          0.05271344259381294,
          0.0,
          0.0,
          0.07778852432966232,
          -0.14770759642124176,
          0.02374076470732689,
          -0.0096946582198143,
          0.08746352046728134,
          0.10144997388124466,
          0.005462256260216236,
          0.09567144513130188,
          0.05834062024950981,
          0.02288348227739334,
          0.004425662104040384,
          -0.022782592102885246,
          -0.024632057175040245,
          -0.051922623068094254,
          0.0,
          0.0,
          -0.034280769526958466,
          0.11680901795625687,
          -0.05151742324233055,
          -0.016546135768294334,
          -0.13463044166564941,
          0.04351051151752472,
          0.12462642788887024,
          -0.10323499888181686,
          -0.1731981784105301,
          -0.03780167177319527,
          0.09014320373535156,
          0.02180487848818302,
          -0.041800860315561295,
          0.04599544405937195,
          0.0,
          0.0,
          0.04037909209728241,
          -0.08573246002197266,
          0.0783848762512207,
          -0.17474138736724854,
          -0.10529173165559769,
          0.09347281605005264,
          -0.12396256625652313,
          0.14573927223682404,
          0.11414819955825806,
          -0.07483889907598495,
          0.07673810422420502,
          -0.03004269301891327,
          0.11975758522748947,
          -0.06859266012907028,
          0.0,
          0.0
        ],
        [
          0.17230919003486633,
          0.3214293420314789,
          -0.15754224359989166,
          -0.0505000576376915,
          0.04244531691074371,
          -0.003214116906747222,
          -0.08652741461992264,
          0.0227054376155138,
          -0.045432087033987045,
          -0.023881444707512856,
          -0.02711796574294567,
          0.08771736174821854,
          -0.017183993011713028,
          0.0340665839612484,
          0.0,
          0.0,
          -0.06397213041782379,
          0.019769063219428062,
          -0.040124595165252686,
          0.00899635348469019,
          -0.1767934411764145,
          0.060869041830301285,
          0.10727625340223312,
          0.12261810898780823,
          0.05243537575006485,
          0.014735735021531582,
          -0.015844784677028656,
          -0.021840384230017662,
          0.0004179912793915719,
          -0.04811764881014824,
          0.0,
          0.0,
          0.05094832554459572,
          -0.10752377659082413,
          0.12575845420360565,
          -0.09461738169193268,
          0.06348908692598343,
          -0.056254420429468155,
          -0.11324504017829895,
          -0.01481699664145708,
          -0.14647634327411652,
          -0.027157379314303398,
          -0.020992673933506012,
          0.08022157847881317,
          0.034543734043836594,
          -0.14646713435649872,
          0.0,
          0.0,
          0.04348454251885414,
          -0.0849415510892868,
          0.07729034870862961,
          -0.07111881673336029,
          0.017913764342665672,
          0.05532144382596016,
          0.01877935416996479,
          -0.1137189045548439,
          -0.009863551706075668,
          -0.10576296597719193,
          -0.09771677851676941,
          0.10668577998876572,
          -0.08808096498250961,
          0.04337083920836449,
          0.0,
          0.0
        ],
        [
          0.18348455429077148,
          0.14867757260799408,
          -0.06034994125366211,
          0.0642300546169281,
          -0.07931477576494217,
          0.05613035336136818,
          0.017912335693836212,
          0.07161403447389603,
          0.06142586097121239,
          -0.10584724694490433,
          -0.049512848258018494,
          -0.004510271828621626,
          -0.07368753105401993,
          -0.1976454257965088,
          0.0,
          0.0,
          -0.050150055438280106,
          0.10535965114831924,
          0.01674007438123226,
          0.12799885869026184,
          -0.03037414699792862,
          0.012939110398292542,
          0.15548107028007507,
          -0.05296604707837105,
          0.009074689820408821,
          0.05027148872613907,
          0.014103949069976807,
          0.05194929987192154,
          0.08200300484895706,
          0.020756766200065613,
          0.0,
          0.0,
          -0.03257540240883827,
          -0.015284618362784386,
          0.008790606632828712,
          -0.015208435244858265,
          0.01086035743355751,
          0.12303157150745392,
          -0.02285434491932392,
          -0.18751254677772522,
          0.05568932369351387,
          0.10049504041671753,
          0.01488806027919054,
          -0.02801821380853653,
          0.0325663723051548,
          -0.04512547701597214,
          0.0,
          0.0,
          -0.07177896052598953,
          -0.07638531923294067,
          0.0658174604177475,
          -0.008863503113389015,
          0.013573816046118736,
          -0.08321071416139603,
          0.11200307309627533,
          0.009672368876636028,
          0.022395262494683266,
          -0.07890293002128601,
          -0.005377572029829025,
          0.05762195214629173,
          -0.08151226490736008,
          0.040260620415210724,
          0.0,
          0.0
        ],
        [
          0.08365125209093094,
          -0.01591598428785801,
          0.12609407305717468,
          -0.08684408664703369,
          -0.04217485710978508,
          0.0863247737288475,
          -0.04976905882358551,
          -0.06528152525424957,
          0.1657126396894455,
          0.0006374571239575744,
          -0.010030237026512623,
          0.04581795632839203,
          -0.12972824275493622,
          0.06572725623846054,
          0.0,
          0.0,
          -0.09280215948820114,
          0.10617535561323166,
          -0.025535481050610542,
          0.050331950187683105,
          -0.13729393482208252,
          -0.0652734786272049,
          0.10487406700849533,
          0.07268648594617844,
          0.0122449966147542,
          0.024847572669386864,
          -0.08795295655727386,
          -0.099763423204422,
          0.005644223187118769,
          -0.0314246229827404,
          0.0,
          0.0,
          -0.07066115736961365,
          0.12937839329242706,
          0.04567881301045418,
          -0.17245593667030334,
          -0.0567857027053833,
          0.0023137207608669996,
          -0.04545271396636963,
          0.1498679667711258,
          0.03728777915239334,
          0.004686397034674883,
          0.055397879332304,
          0.07865291833877563,
          0.11123069375753403,
          0.15125271677970886,
          0.0,
          0.0,
          -0.0010292369406670332,
          0.07544155418872833,
          0.05920358747243881,
          -0.02257491834461689,
          -0.06907399743795395,
          0.0014124822337180376,
          0.05003013089299202,
          0.010093816556036472,
          -0.02711346559226513,
          -0.0251770056784153,
          0.12363504618406296,
          -0.07320014387369156,
          0.010860742069780827,
          -0.013988732360303402,
          0.0,
          0.0
        ],
        [
          -0.01609422266483307,
          -0.040892377495765686,
          0.05968243256211281,
          0.13710562884807587,
          -0.021475795656442642,
          -0.15501587092876434,
          0.04623798280954361,
          -0.03623742237687111,
          0.015043099410831928,
          0.12639857828617096,
          -0.1603921502828598,
          0.08867348730564117,
          -0.024433685466647148,
          -0.07355447858572006,
          0.0,
          0.0,
          0.1635143756866455,
          0.0846175104379654,
          0.029406044632196426,
          0.06463266909122467,
          0.05033779516816139,
          0.03561437502503395,
          -0.053232692182064056,
          0.07169556617736816,
          -0.027905859053134918,
          0.03460859879851341,
          0.1517174392938614,
          -0.025701021775603294,
          0.11329235881567001,
          -0.024895504117012024,
          0.0,
          0.0,
          -0.10937650501728058,
          0.14406298100948334,
          0.07903098315000534,
          0.038871269673109055,
          0.010928209871053696,
          0.12630107998847961,
          0.05884631350636482,
          0.2016705423593521,
          -0.01013166457414627,
          -0.10991726815700531,
          0.07398122549057007,
          0.1009119376540184,
          -0.013233114965260029,
          0.0029004395473748446,
          0.0,
          0.0,
          -0.05537498742341995,
          -0.05871716886758804,
          -0.0939696878194809,
          0.09594884514808655,
          -0.08469516038894653,
          -0.049231961369514465,
          -0.01544818002730608,
          0.14687354862689972,
          -0.08401002734899521,
          0.032121408730745316,
          0.011577227152884007,
          0.04500974342226982,
          -0.004672136157751083,
          0.05179162696003914,
          0.0,
          0.0
        ],
        [
          -0.123233363032341,
          0.28844204545021057,
          0.21332047879695892,
          0.1870821714401245,
          -0.1335550993680954,
          -0.03831898793578148,
          0.038679856806993484,
          0.02798793651163578,
          -0.0776335746049881,
          0.05858169123530388,
          0.06403746455907822,
          0.1549973040819168,
          -0.13164176046848297,
          -0.029345111921429634,
          0.0,
          0.0,
          0.03923245891928673,
          0.0028609493747353554,
          -0.06901925057172775,
          -0.04720478877425194,
          -0.033373232930898666,
          0.011861110106110573,
          -0.01718720607459545,
          -0.0002900577965192497,
          -0.10431341081857681,
          0.014668024145066738,
          0.015805663540959358,
          0.07513775676488876,
          0.026567203924059868,
          0.1012483760714531,
          0.0,
          0.0,
          0.028688011690974236,
          0.09678754955530167,
          -0.059005968272686005,
          -0.01104430016130209,
          -0.03105691261589527,
          -0.04387114942073822,
          0.06849826872348785,
          -0.03221358358860016,
          -0.0733262225985527,
          -0.05799021199345589,
          -0.1480320245027542,
          0.19336503744125366,
          -0.1069825291633606,
          -0.07025238126516342,
          0.0,
          0.0,
          0.06838974356651306,
          0.031527794897556305,
          -0.006644134875386953,
          0.04426049813628197,
          0.08759184926748276,
          0.03875238448381424,
          -0.044026557356119156,
          0.10065869987010956,
          -0.008486957289278507,
          -0.014231590554118156,
          -0.19870392978191376,
          0.047200798988342285,
          0.016506066545844078,
          -0.14397361874580383,
          0.0,
          0.0
        ],
        [
          -0.0073879314586520195,
          -0.18005730211734772,
          0.26343390345573425,
          0.1030033528804779,
          0.007137250620871782,
          0.00440628407523036,
          -0.042587760835886,
          0.010543393902480602,
          0.10724584758281708,
          -0.06562405079603195,
          0.051419004797935486,
          0.1664958894252777,
          -0.04852693900465965,
          0.00923973135650158,
          0.0,
          0.0,
          -0.03230194374918938,
          0.12427674978971481,
          -0.05825604125857353,
          0.09891512244939804,
          -0.04379902780056,
          -0.006431506015360355,
          -0.07011493295431137,
          -0.11342483013868332,
          -0.07278110086917877,
          0.07220122963190079,
          0.02887585200369358,
          0.03115829825401306,
          0.10533230006694794,
          -0.03205350786447525,
          0.0,
          0.0,
          0.038786631077528,
          -0.09229196608066559,
          0.07487932592630386,
          -0.016967371106147766,
          0.05303884297609329,
          0.018892770633101463,
          0.14208325743675232,
          0.011972100473940372,
          0.035012632608413696,
          -0.04438314586877823,
          0.12229516357183456,
          0.08503669500350952,
          0.0018169841496273875,
          -0.07937721908092499,
          0.0,
          0.0,
          0.003434913931414485,
          -0.006219394970685244,
          -0.0818253681063652,
          0.02862647920846939,
          -0.08065182715654373,
          -0.08593065291643143,
          -0.11579351127147675,
          0.10922113060951233,
          0.10418492555618286,
          -0.030833911150693893,
          0.11440272629261017,
          -0.06568349152803421,
          -0.01058798935264349,
          0.1440311074256897,
          0.0,
          0.0
        ],
        [
          -0.1896507889032364,
          -0.027968302369117737,
          -0.11802329123020172,
          0.014732377603650093,
          -0.06263039261102676,
          -0.009063070639967918,
          0.011741296388208866,
          0.038926757872104645,
          0.018948717042803764,
          0.1648722141981125,
          -0.05961364880204201,
          0.10450003296136856,
          -0.02589615434408188,
          -0.012851997278630733,
          0.0,
          0.0,
          0.028526099398732185,
          -0.08431048691272736,
          -0.005364985205233097,
          -0.07507944107055664,
          -0.11311160027980804,
          -0.022224942222237587,
          -0.039536818861961365,
          0.04238247498869896,
          -7.56311637815088e-05,
          0.13967479765415192,
          -0.18088045716285706,
          -0.10617008060216904,
          -0.0626334398984909,
          0.08375608921051025,
          0.0,
          0.0,
          -0.006953503005206585,
          0.08217420428991318,
          0.050077375024557114,
          0.00904439203441143,
          0.06947235018014908,
          0.10657280683517456,
          0.06647557020187378,
          -0.10092676430940628,
          0.005505724344402552,
          0.1151365339756012,
          -0.10806328803300858,
          -0.0034736688248813152,
          0.04098520055413246,
          -0.13603028655052185,
          0.0,
          0.0,
          -0.09815844893455505,
          0.10793383419513702,
          0.04591243341565132,
          -0.06581346690654755,
          -0.028529677540063858,
          0.08306293189525604,
          -0.012853408232331276,
          0.06907062977552414,
          0.008220886811614037,
          -0.060571104288101196,
          -0.07931648194789886,
          -0.006082347594201565,
          0.018083298578858376,
          -0.07526460289955139,
          0.0,
          0.0
        ],
        [
          0.03051939234137535,
          0.04627161845564842,
          -0.025364508852362633,
          -0.0628013014793396,
          -0.046160440891981125,
          -0.1262410432100296,
          0.07852761447429657,
          -0.0005024418351240456,
          -0.018015677109360695,
          0.030951589345932007,
          0.02319771610200405,
          0.12472236156463623,
          0.057131800800561905,
          0.007687325589358807,
          0.0,
          0.0,
          -0.07087896019220352,
          -0.07947482913732529,
          0.13010844588279724,
          -0.07023165374994278,
          0.01900501176714897,
          -0.04001399502158165,
          0.03538277745246887,
          -0.045423075556755066,
          -0.04995943605899811,
          0.1275683343410492,
          -0.016392547637224197,
          0.09687911719083786,
          0.02977760136127472,
          0.1461467444896698,
          0.0,
          0.0,
          0.0008385978871956468,
          -0.02375609427690506,
          -0.11630674451589584,
          0.03739624843001366,
          0.045506712049245834,
          -0.04317815974354744,
          0.005423847585916519,
          0.01877618581056595,
          -0.11855663359165192,
          0.0887475535273552,
          0.20081281661987305,
          -0.1666409969329834,
          -0.05219365283846855,
          0.12912990152835846,
          0.0,
          0.0,
          0.01325873751193285,
          0.027913829311728477,
          -0.07791244238615036,
          0.004631607793271542,
          -0.09989739209413528,
          -0.09915277361869812,
          0.05758843198418617,
          -0.05855562165379524,
          -0.06773333996534348,
          0.11343579739332199,
          -0.0013605902204290032,
          0.13694074749946594,
          0.08174047619104385,
          -0.0046036443673074245,
          0.0,
          0.0
        ],
        [
          0.24928928911685944,
          -0.30806320905685425,
          0.23915334045886993,
          0.10661517083644867,
          0.08371173590421677,
          -0.06538613140583038,
          -0.09451127797365189,
          0.05418405309319496,
          -0.09623930603265762,
          0.04683521389961243,
          0.08305942267179489,
          0.05369315296411514,
          -0.007613812573254108,
          0.033886805176734924,
          0.0,
          0.0,
          0.015445491299033165,
          0.09953609853982925,
          -0.08184143900871277,
          0.01782766543328762,
          0.007176991552114487,
          0.06206866353750229,
          0.12714041769504547,
          0.037256885319948196,
          0.040054041892290115,
          -0.07152360677719116,
          -0.08607402443885803,
          -0.0082851592451334,
          -0.03436712920665741,
          -0.026346974074840546,
          0.0,
          0.0,
          0.02629503794014454,
          0.006675041280686855,
          0.03264155238866806,
          0.07314056903123856,
          0.11194609850645065,
          0.11340297013521194,
          0.09387091547250748,
          -0.0136035131290555,
          -0.07494942098855972,
          -0.10706540197134018,
          -0.10769810527563095,
          0.005076326429843903,
          -0.017412938177585602,
          0.006351341027766466,
          0.0,
          0.0,
          -0.09800571203231812,
          0.18208535015583038,
          -0.0728287622332573,
          -0.0014342647045850754,
          -0.11834579706192017,
          -0.026989081874489784,
          -0.03715124353766441,
          -0.10402319580316544,
          0.10796584188938141,
          -0.0855916291475296,
          0.07869572937488556,
          -0.04436361789703369,
          0.04326803237199783,
          0.055968377739191055,
          0.0,
          0.0
        ],
        [
          -0.19825883209705353,
          0.2611442506313324,
          -0.13692094385623932,
          0.0019301773281767964,
          0.1799621284008026,
          0.04237188398838043,
          -0.07369647175073624,
          -0.13078491389751434,
          0.059110481292009354,
          -0.16317808628082275,
          -0.07950673997402191,
          -0.024126151576638222,
          0.002379335230216384,
          0.09222710877656937,
          0.0,
          0.0,
          -0.04296505078673363,
          -0.02056269720196724,
          0.04866094887256622,
          0.07698161900043488,
          -0.05475481599569321,
          -0.03741445392370224,
          0.013553994707763195,
          -0.14984644949436188,
          0.06273952126502991,
          0.006827978417277336,
          -0.07681645452976227,
          0.06698882579803467,
          -0.052834972739219666,
          0.10264625400304794,
          0.0,
          0.0,
          -0.047406669706106186,
          -0.0435478538274765,
          0.042664457112550735,
          -0.05158323422074318,
          0.020555667579174042,
          0.10600177943706512,
          -0.06558123975992203,
          -0.02802049182355404,
          0.07587865740060806,
          0.031408220529556274,
          0.004469519946724176,
          -0.0107810590416193,
          -0.11448699235916138,
          -0.17091229557991028,
          0.0,
          0.0,
          0.06229208782315254,
          -0.09068408608436584,
          -0.02728305198252201,
          -0.1553450971841812,
          -0.11797849833965302,
          -0.08066023141145706,
          -0.03905874863266945,
          -0.04184429347515106,
          0.003210265189409256,
          0.0618647038936615,
          -0.11528612673282623,
          -0.14511945843696594,
          0.02309276908636093,
          -0.07617158442735672,
          0.0,
          0.0
        ],
        [
          -0.1291089504957199,
          0.19641847908496857,
          -0.11033111810684204,
          -0.0950518399477005,
          0.07399436086416245,
          -0.13808339834213257,
          -0.11880583316087723,
          -0.05577860027551651,
          -0.042367324233055115,
          0.0021634111180901527,
          -0.10204337537288666,
          0.1365058869123459,
          -0.12153415381908417,
          0.08593647181987762,
          0.0,
          0.0,
          -0.10629688203334808,
          0.06495576351881027,
          0.04842628911137581,
          -0.022972192615270615,
          -0.046729348599910736,
          0.03433613106608391,
          0.0448942668735981,
          0.06454402208328247,
          0.01285362709313631,
          0.15546880662441254,
          -0.09733302891254425,
          -0.08181384205818176,
          0.01332126371562481,
          -0.0495913103222847,
          0.0,
          0.0,
          0.020923152565956116,
          -0.010062453337013721,
          0.02521604858338833,
          -0.03937326371669769,
          0.04635129123926163,
          0.1264694780111313,
          -0.029839465394616127,
          -0.008836422115564346,
          0.009507509879767895,
          -0.03369968384504318,
          -0.10197733342647552,
          -0.09051325917243958,
          -0.025320034474134445,
          -0.03831435367465019,
          0.0,
          0.0,
          -0.007111105602234602,
          -0.12537601590156555,
          0.03691380098462105,
          -0.056162431836128235,
          -0.023224812000989914,
          -0.016979163512587547,
          -0.08399015665054321,
          0.02491290681064129,
          -0.07576064020395279,
          0.04590131342411041,
          -0.050446320325136185,
          0.1207263320684433,
          -0.02249438874423504,
          -0.02224220335483551,
          0.0,
          0.0
        ],
        [
          -0.0802980437874794,
          -0.12308552861213684,
          0.1312159150838852,
          -0.08745567500591278,
          -0.01834026351571083,
          0.06976314634084702,
          -0.05090692639350891,
          -0.018919989466667175,
          -0.03144661709666252,
          -0.04624972119927406,
          -0.09492945671081543,
          -0.09963761270046234,
          0.20372630655765533,
          0.14103055000305176,
          0.0,
          0.0,
          0.043122392147779465,
          -0.11866216361522675,
          -0.17276448011398315,
          0.06894803792238235,
          0.04996722191572189,
          -0.016271745786070824,
          0.021314648911356926,
          -0.08246748894453049,
          -0.11274769902229309,
          -0.02784665673971176,
          -0.124688521027565,
          -0.047644536942243576,
          -0.08825112879276276,
          -0.016940278932452202,
          0.0,
          0.0,
          -0.027197305113077164,
          0.0012087273644283414,
          0.07208661735057831,
          0.04007931798696518,
          0.0575961098074913,
          0.0548948235809803,
          0.1290561407804489,
          -0.014972849749028683,
          -0.107054702937603,
          -0.0695500373840332,
          0.07154597342014313,
          0.1342836618423462,
          0.0029577361419796944,
          -0.04524680972099304,
          0.0,
          0.0,
          -0.07256007939577103,
          -0.05141090229153633,
          0.05191606283187866,
          0.018693480640649796,
          -0.07009860128164291,
          0.10945891588926315,
          0.05564272403717041,
          0.010556322522461414,
          0.08511362224817276,
          0.062247470021247864,
          0.1374107152223587,
          0.07321382313966751,
          -0.09409503638744354,
          -0.007368565537035465,
          0.0,
          0.0
        ],
        [
          0.27690762281417847,
          -0.34990623593330383,
          0.22836652398109436,
          -0.0227676834911108,
          0.08471919596195221,
          -0.0004229801706969738,
          -0.13553208112716675,
          0.03839680179953575,
          0.03351280093193054,
          -0.0692935436964035,
          -0.02628055214881897,
          -0.06566992402076721,
          -0.123000867664814,
          0.05385978892445564,
          0.0,
          0.0,
          -0.02568740025162697,
          0.07056478410959244,
          -0.09872319549322128,
          -0.08786071836948395,
          -0.1226385086774826,
          0.03872358798980713,
          0.10186062753200531,
          0.012369124218821526,
          0.01098580565303564,
          0.014067948795855045,
          -0.03881673514842987,
          -0.039887554943561554,
          0.014672510325908661,
          -0.05858719348907471,
          0.0,
          0.0,
          -0.02930936962366104,
          -0.017829224467277527,
          0.023999162018299103,
          -0.06623821705579758,
          -0.024325158447027206,
          -0.06878036260604858,
          -0.09264260530471802,
          -0.09644167870283127,
          -0.10201700031757355,
          0.0702623724937439,
          -0.02216421067714691,
          0.04679691046476364,
          -0.027590734884142876,
          0.06577404588460922,
          0.0,
          0.0,
          -0.011920551769435406,
          0.032628145068883896,
          -0.013117621652781963,
          -0.07706070691347122,
          -0.058520421385765076,
          0.05141117796301842,
          0.08053326606750488,
          0.03198467195034027,
          0.009481844492256641,
          0.09003564715385437,
          -0.05906252562999725,
          -0.05714500695466995,
          0.03925115242600441,
          0.03969239071011543,
          0.0,
          0.0
        ],
        [
          -0.007051102817058563,
          -0.2328883856534958,
          0.17631693184375763,
          -0.05163848400115967,
          0.043550241738557816,
          -0.10943424701690674,
          0.011224411427974701,
          -0.034406714141368866,
          0.03329138830304146,
          -0.09375907480716705,
          0.04870555177330971,
          -0.07814841717481613,
          0.08757320046424866,
          -0.00793733075261116,
          0.0,
          0.0,
          0.07365558296442032,
          0.05953551456332207,
          -0.034622736275196075,
          0.008381900377571583,
          0.0043859402649104595,
          0.04035770148038864,
          0.02916082553565502,
          0.07392783463001251,
          0.12848563492298126,
          0.047081250697374344,
          0.012933149002492428,
          0.046444326639175415,
          0.1258552074432373,
          -0.13303318619728088,
          0.0,
          0.0,
          0.011665445752441883,
          -0.040091175585985184,
          -0.02706279791891575,
          -0.179546058177948,
          0.04449845850467682,
          0.08911379426717758,
          0.10804782807826996,
          0.11291633546352386,
          -0.043949346989393234,
          0.04489114508032799,
          0.030584512278437614,
          0.044118862599134445,
          0.09348999708890915,
          0.05211048573255539,
          0.0,
          0.0,
          0.04495440796017647,
          0.09671764820814133,
          -0.041915975511074066,
          0.07304767519235611,
          -0.031731151044368744,
          -0.03133579343557358,
          0.031026199460029602,
          -0.03296280652284622,
          -0.1449238806962967,
          -0.0830504298210144,
          -0.06620525568723679,
          0.09549465775489807,
          -0.10033521801233292,
          -0.046210046857595444,
          0.0,
          0.0
        ],
        [
          0.07891733944416046,
          0.07563434541225433,
          -0.23178991675376892,
          0.10044237971305847,
          0.07191027700901031,
          0.017253903672099113,
          -0.028332410380244255,
          -0.12926889955997467,
          -0.1117456927895546,
          0.10289657860994339,
          0.019298071041703224,
          -0.06638357788324356,
          -0.029026228934526443,
          0.10174334049224854,
          0.0,
          0.0,
          0.05133621022105217,
          0.004971240647137165,
          0.0022384547628462315,
          0.13713045418262482,
          0.09608788043260574,
          0.014989698305726051,
          0.04860997200012207,
          0.04702143743634224,
          -0.013611090369522572,
          0.09369396418333054,
          -0.025873899459838867,
          0.016066774725914,
          0.035689279437065125,
          -0.05044354870915413,
          0.0,
          0.0,
          0.12770375609397888,
          -0.0627821609377861,
          -0.03741352632641792,
          -0.04183600842952728,
          0.0738043412566185,
          0.03227873891592026,
          0.04668426886200905,
          0.11472256481647491,
          0.02102307416498661,
          0.027582593262195587,
          0.07608874142169952,
          -0.09791044890880585,
          -0.04357851669192314,
          -0.02992606721818447,
          0.0,
          0.0,
          -0.02037844806909561,
          -0.08972040563821793,
          0.04908028244972229,
          -0.045399609953165054,
          -0.0867120549082756,
          0.004670802503824234,
          0.004668961279094219,
          0.06948781758546829,
          0.17058716714382172,
          -0.07618538290262222,
          -0.05052949860692024,
          0.04880940541625023,
          -0.13594359159469604,
          0.0792408287525177,
          0.0,
          0.0
        ],
        [
          -0.03519736975431442,
          -0.04477131366729736,
          0.03315258026123047,
          0.016825983300805092,
          0.05772535875439644,
          -0.10782541334629059,
          0.016886578872799873,
          0.017567504197359085,
          0.11531729251146317,
          -0.06873703747987747,
          -0.06137940287590027,
          -0.03281814977526665,
          0.03240753710269928,
          -0.033623065799474716,
          0.0,
          0.0,
          -0.00932976696640253,
          -0.018106264993548393,
          0.07158971577882767,
          0.23331156373023987,
          -0.060977011919021606,
          0.037211913615465164,
          0.09829361736774445,
          0.12154336273670197,
          0.00288345105946064,
          -0.058766964823007584,
          0.11035654693841934,
          -0.16683414578437805,
          0.0835617408156395,
          0.05041923373937607,
          0.0,
          0.0,
          -0.06447992473840714,
          0.06507623940706253,
          0.036847177892923355,
          0.19212129712104797,
          -0.11019686609506607,
          0.10616006702184677,
          -0.04353042319417,
          0.024686861783266068,
          0.007139102090150118,
          0.008450045250356197,
          0.09049718081951141,
          0.033188506960868835,
          0.035881806164979935,
          -0.005000093020498753,
          0.0,
          0.0,
          0.09729728102684021,
          -0.1262291967868805,
          -0.0340011790394783,
          0.023872992023825645,
          0.0559120737016201,
          -0.017543461173772812,
          -0.09071659296751022,
          -0.11425000429153442,
          -0.018739277496933937,
          0.07918025553226471,
          0.0030690922867506742,
          -0.1036962941288948,
          0.035141970962285995,
          0.10790764540433884,
          0.0,
          0.0
        ],
        [
          -0.09694654494524002,
          0.06245243549346924,
          0.038649555295705795,
          0.005797595717012882,
          -0.14884339272975922,
          -0.12277741730213165,
          0.08703403174877167,
          0.023328633978962898,
          0.09230370074510574,
          0.0939030796289444,
          -0.07919175177812576,
          0.1713988035917282,
          -0.029459575191140175,
          -0.12544500827789307,
          0.0,
          0.0,
          -0.08499274402856827,
          0.13050764799118042,
          -0.08683376014232635,
          -0.04959552362561226,
          0.08207878470420837,
          0.09103735536336899,
          -0.016384905204176903,
          0.10222984105348587,
          0.1368856430053711,
          0.04220007359981537,
          -0.12275517731904984,
          -0.02676253765821457,
          -0.10978206247091293,
          0.005441370885819197,
          0.0,
          0.0,
          0.042194608598947525,
          0.08169801533222198,
          -0.12767700850963593,
          0.028546741232275963,
          0.12734355032444,
          -0.06689763814210892,
          0.03604245185852051,
          -0.0168648362159729,
          -0.09357739984989166,
          0.06612027436494827,
          0.13456644117832184,
          0.03657430037856102,
          -0.01388479396700859,
          -0.1758108139038086,
          0.0,
          0.0,
          -0.06791669130325317,
          0.08509092777967453,
          0.0492100827395916,
          -0.09309983998537064,
          -0.04532971233129501,
          0.08349424600601196,
          0.09203773736953735,
          0.11397382616996765,
          -0.10691537708044052,
          0.05667213350534439,
          -0.06753533333539963,
          0.047469060868024826,
          -0.06429416686296463,
          0.048489056527614594,
          0.0,
          0.0
        ],
        [
          0.018232086673378944,
          -0.018121836706995964,
          -0.04260341078042984,
          -0.12915769219398499,
          0.10829702019691467,
          0.16943174600601196,
          0.13963575661182404,
          -0.06653318554162979,
          0.16290314495563507,
          -0.08344915509223938,
          -0.06951893866062164,
          0.031451623886823654,
          0.17229482531547546,
          0.12504950165748596,
          0.0,
          0.0,
          -0.023496612906455994,
          0.12509866058826447,
          -0.11279839277267456,
          0.006919148378074169,
          0.031385261565446854,
          0.13938181102275848,
          0.1313445270061493,
          -0.036566805094480515,
          0.059523601084947586,
          0.06678573787212372,
          0.051929060369729996,
          0.008857530541718006,
          -0.07345011085271835,
          -0.015843123197555542,
          0.0,
          0.0,
          0.1321503072977066,
          0.05338079482316971,
          -0.1693517118692398,
          0.15467923879623413,
          -0.028515325859189034,
          -0.025716565549373627,
          -0.08451663702726364,
          -0.07108838111162186,
          -0.07281267642974854,
          -0.20754894614219666,
          0.04973273351788521,
          -0.012845946475863457,
          -0.05820336937904358,
          0.17604050040245056,
          0.0,
          0.0,
          0.03762662038207054,
          -0.047832272946834564,
          -0.03901549056172371,
          -0.022441372275352478,
          -0.024195147678256035,
          0.005723861977458,
          -0.044161029160022736,
          0.01948208175599575,
          0.05060603842139244,
          -0.1907881200313568,
          0.0565325990319252,
          0.06677407026290894,
          0.05835821479558945,
          -0.11339549720287323,
          0.0,
          0.0
        ],
        [
          0.2144649177789688,
          -0.24709667265415192,
          0.03392922133207321,
          0.08711130172014236,
          0.07455643266439438,
          0.0776371881365776,
          -0.09344708919525146,
          0.0005981362774036825,
          -0.02486737258732319,
          -0.11229868233203888,
          -0.05857758969068527,
          0.09953028708696365,
          0.09002836793661118,
          -0.07693757861852646,
          0.0,
          0.0,
          -0.028094463050365448,
          -0.12058991938829422,
          0.06929389387369156,
          0.11364990472793579,
          -0.10158682614564896,
          -0.006809402722865343,
          -0.005612559616565704,
          -0.035557374358177185,
          0.06464236974716187,
          -0.021509751677513123,
          0.011930308304727077,
          -0.017095327377319336,
          0.0202278234064579,
          -0.10352367162704468,
          0.0,
          0.0,
          -0.021800005808472633,
          -0.07750175148248672,
          0.019628986716270447,
          0.0338393971323967,
          0.023686138913035393,
          -0.03443837910890579,
          -0.025516562163829803,
          -0.029321858659386635,
          -0.020513031631708145,
          0.10014668852090836,
          -0.02189711667597294,
          0.07926984876394272,
          0.020189598202705383,
          -0.14876453578472137,
          0.0,
          0.0,
          -0.042600493878126144,
          0.011891846545040607,
          -0.008977009914815426,
          -0.12332326173782349,
          0.09134301543235779,
          -0.1435241401195526,
          -0.06504257768392563,
          -0.030277445912361145,
          0.05811246484518051,
          0.05163094401359558,
          -0.059070948511362076,
          0.002230422804132104,
          -0.11165525764226913,
          0.04570579156279564,
          0.0,
          0.0
        ],
        [
          -0.13575884699821472,
          -0.0507434606552124,
          0.053304433822631836,
          0.05697525665163994,
          -0.06575372070074081,
          0.08689317852258682,
          0.07368721812963486,
          -0.11163754761219025,
          0.1322748363018036,
          0.1523505598306656,
          -0.12286164611577988,
          0.12614144384860992,
          0.03967404365539551,
          0.1000756174325943,
          0.0,
          0.0,
          -0.1128145158290863,
          0.03453515097498894,
          0.08424371480941772,
          -0.07947149872779846,
          0.018887026235461235,
          -0.10785438120365143,
          -0.13348451256752014,
          0.007450656034052372,
          -0.06565891206264496,
          0.12605807185173035,
          -0.018925808370113373,
          0.01021611224859953,
          -0.025247469544410706,
          0.06890671700239182,
          0.0,
          0.0,
          -0.026517877355217934,
          0.09670279175043106,
          -0.11683887988328934,
          -0.11124210059642792,
          -0.005017463117837906,
          -0.08182238042354584,
          0.09370145946741104,
          -0.029843447729945183,
          -0.12695357203483582,
          -0.06959505379199982,
          -0.11543083935976028,
          0.03290829807519913,
          0.04274161905050278,
          0.08211362361907959,
          0.0,
          0.0,
          0.017815738916397095,
          -0.12047751247882843,
          0.019939487800002098,
          0.034585874527692795,
          0.06903215497732162,
          0.0059929825365543365,
          0.11051356792449951,
          0.06193947419524193,
          0.09934971481561661,
          -0.05736880749464035,
          0.12090424448251724,
          -0.022968752309679985,
          -0.1783829927444458,
          -0.09529993683099747,
          0.0,
          0.0
        ],
        [
          0.03833272308111191,
          -0.22383907437324524,
          -0.13471496105194092,
          -0.059073518961668015,
          -0.14311672747135162,
          -0.02353980951011181,
          0.07608149200677872,
          -0.1422032117843628,
          -0.0016567507991567254,
          0.15960247814655304,
          -0.020673342049121857,
          0.02871953696012497,
          -0.11724051088094711,
          0.06345868110656738,
          0.0,
          0.0,
          0.0417349673807621,
          -0.10443297773599625,
          0.04514813423156738,
          0.06886842101812363,
          -0.006334405392408371,
          -0.006037535145878792,
          0.04926062375307083,
          -0.1345299780368805,
          0.004429061897099018,
          -0.019523877650499344,
          -0.023613808676600456,
          0.04420563578605652,
          -0.0482846163213253,
          0.10551676154136658,
          0.0,
          0.0,
          -0.06766296178102493,
          -0.08590370416641235,
          0.08092673122882843,
          -0.18289385735988617,
          0.06838364154100418,
          -0.1047930046916008,
          -0.06992592662572861,
          0.027693971991539,
          0.003517234232276678,
          0.1131667047739029,
          -0.08461672812700272,
          0.1389656364917755,
          -0.08072999864816666,
          -0.01591566577553749,
          0.0,
          0.0,
          -0.03796472027897835,
          0.04533974081277847,
          -0.04717346653342247,
          0.08423078060150146,
          -0.10685772448778152,
          -0.05785642936825752,
          0.02189924195408821,
          0.10507999360561371,
          0.11047572642564774,
          0.017919592559337616,
          -0.026554828509688377,
          -0.11086738109588623,
          0.06449271738529205,
          -0.10715560615062714,
          0.0,
          0.0
        ],
        [
          0.07701850682497025,
          -0.059970028698444366,
          -0.2723686397075653,
          0.1260806918144226,
          -0.11051063239574432,
          -0.10706053674221039,
          0.13519607484340668,
          -0.06825447827577591,
          -0.046600788831710815,
          -0.09109606593847275,
          0.021914631128311157,
          0.039169792085886,
          0.10430098325014114,
          -0.05961402878165245,
          0.0,
          0.0,
          -0.01704736426472664,
          0.03258559852838516,
          0.08654478192329407,
          -0.058457933366298676,
          -0.0481603629887104,
          0.1373896598815918,
          -0.028932005167007446,
          -0.03527243062853813,
          0.084121473133564,
          0.08918792754411697,
          -0.009409655816853046,
          -0.06339079886674881,
          -0.10982117801904678,
          0.04585490748286247,
          0.0,
          0.0,
          -0.02422243542969227,
          0.11165375262498856,
          0.12420293688774109,
          0.08216843754053116,
          -0.015100371092557907,
          -0.0012457401026040316,
          0.10261368006467819,
          0.010218965820968151,
          -0.03518843278288841,
          -0.015089409425854683,
          -0.13855251669883728,
          0.054581452161073685,
          0.006610949989408255,
          -0.027611246332526207,
          0.0,
          0.0,
          0.01673576980829239,
          0.0392034612596035,
          0.05386267974972725,
          -0.04308261722326279,
          0.10521700233221054,
          0.10089731216430664,
          0.07927929610013962,
          -0.011907347477972507,
          -0.05351492390036583,
          -0.084645576775074,
          0.07619690895080566,
          0.07895156741142273,
          0.1587745100259781,
          0.0017756015295162797,
          0.0,
          0.0
        ],
        [
          0.057769857347011566,
          -0.06104426085948944,
          -0.01973404362797737,
          -0.06128214672207832,
          -0.005193240009248257,
          -0.08841586858034134,
          0.11250853538513184,
          -0.09343235939741135,
          -0.06869775056838989,
          0.048561032861471176,
          -0.1644088327884674,
          -0.03754717856645584,
          0.05511920154094696,
          -0.019677111878991127,
          0.0,
          0.0,
          -0.052231501787900925,
          -0.012579130940139294,
          0.06688534468412399,
          -0.07789203524589539,
          0.011011546477675438,
          0.035414744168519974,
          -0.006249642465263605,
          0.06084679439663887,
          0.06816115975379944,
          0.008536175824701786,
          -0.16373059153556824,
          0.0445859469473362,
          -0.18740160763263702,
          0.019337203353643417,
          0.0,
          0.0,
          -0.028056442737579346,
          0.10553763061761856,
          -0.028983045369386673,
          0.08958085626363754,
          -0.06852702051401138,
          -0.049818914383649826,
          0.031651806086301804,
          -0.09996961057186127,
          0.0429825484752655,
          0.11544518172740936,
          -0.21669486165046692,
          0.039277710020542145,
          -0.04510645940899849,
          -0.08988401293754578,
          0.0,
          0.0,
          -0.02195144258439541,
          0.03899005055427551,
          0.033877644687891006,
          -0.10056797415018082,
          0.05067560449242592,
          -0.09381579607725143,
          0.04112721607089043,
          0.04374242201447487,
          0.08789023011922836,
          -0.01697326824069023,
          0.05702975019812584,
          0.09220295399427414,
          -0.07411730289459229,
          -0.1446445733308792,
          0.0,
          0.0
        ],
        [
          -0.16864585876464844,
          -0.15465542674064636,
          0.136478453874588,
          -0.02859662100672722,
          -0.009851982817053795,
          -0.12042632699012756,
          -0.06835941225290298,
          -0.04769245162606239,
          -0.053123168647289276,
          -0.07708336412906647,
          0.06641057133674622,
          0.11127077043056488,
          -0.07144919782876968,
          0.01346729975193739,
          0.0,
          0.0,
          0.07567761093378067,
          -0.0687146782875061,
          -0.035041701048612595,
          -0.0668436586856842,
          0.01747782528400421,
          0.08307797461748123,
          -0.0033174664713442326,
          0.011371782049536705,
          0.07290717959403992,
          -0.030529767274856567,
          0.1082172617316246,
          -0.0004858073079958558,
          0.09806066751480103,
          0.0889996662735939,
          0.0,
          0.0,
          -0.0023072464391589165,
          0.0198623389005661,
          0.08408290892839432,
          -0.06315628439188004,
          0.10251004993915558,
          0.09554742276668549,
          0.03022248111665249,
          0.022161833941936493,
          -0.05194051191210747,
          0.01429287251085043,
          -0.03792228922247887,
          0.04778231307864189,
          -0.03014875017106533,
          0.008340511471033096,
          0.0,
          0.0,
          0.02107691392302513,
          0.08928205072879791,
          -0.021724818274378777,
          0.10118710249662399,
          0.15289008617401123,
          0.0644405335187912,
          0.11807321757078171,
          0.10434606671333313,
          -0.08105478435754776,
          0.02900598756968975,
          -0.1368320733308792,
          -0.08216267079114914,
          -0.024499380961060524,
          -0.045881759375333786,
          0.0,
          0.0
        ],
        [
          -0.04219928756356239,
          0.08703189343214035,
          0.060830071568489075,
          0.06302943825721741,
          0.007689245976507664,
          0.1153499186038971,
          -0.10014138370752335,
          -0.15036974847316742,
          0.11349760740995407,
          -0.03159436956048012,
          0.1082875058054924,
          -0.08580342680215836,
          -0.05624988675117493,
          -0.11078570783138275,
          0.0,
          0.0,
          0.05502556636929512,
          0.040834687650203705,
          0.0869135707616806,
          0.22533772885799408,
          -0.020552512258291245,
          -0.06759592890739441,
          -0.023359140381217003,
          0.0724271908402443,
          0.04638030007481575,
          0.10303373634815216,
          0.06937596201896667,
          -0.1943046897649765,
          0.005635665729641914,
          -0.0020831325091421604,
          0.0,
          0.0,
          -0.008369199931621552,
          -0.021596141159534454,
          0.032230522483587265,
          0.02257660962641239,
          -0.07730187475681305,
          0.016142558306455612,
          0.052913982421159744,
          0.04630409553647041,
          0.05987025797367096,
          0.08680616319179535,
          -0.0531381256878376,
          -0.18084630370140076,
          -0.007084668148308992,
          -0.10676542669534683,
          0.0,
          0.0,
          -0.05871210992336273,
          -0.06962578743696213,
          0.04920964315533638,
          -0.08044833689928055,
          0.02449103817343712,
          -0.10374121367931366,
          0.008998525328934193,
          0.09506135433912277,
          -0.22447016835212708,
          -0.059771325439214706,
          0.07160250097513199,
          -0.03729867935180664,
          0.13065126538276672,
          0.1434711515903473,
          0.0,
          0.0
        ],
        [
          -0.10554642975330353,
          0.08297571539878845,
          -0.08818836510181427,
          0.06997455656528473,
          0.034244682639837265,
          0.035818345844745636,
          -0.07768835872411728,
          0.025100132450461388,
          -0.04293859377503395,
          0.13511353731155396,
          -0.13419556617736816,
          0.08217249065637589,
          0.08315936475992203,
          0.022539252415299416,
          0.0,
          0.0,
          0.10199489444494247,
          0.015879059210419655,
          -0.0602257214486599,
          0.12648746371269226,
          -0.008705466985702515,
          0.154961958527565,
          0.09966011345386505,
          0.1400974839925766,
          0.14626076817512512,
          0.02102450095117092,
          0.13326001167297363,
          -0.10012831538915634,
          -0.0653112381696701,
          0.12129973620176315,
          0.0,
          0.0,
          0.0501822791993618,
          -0.03126687929034233,
          0.021299466490745544,
          0.1221587136387825,
          -0.04597980156540871,
          0.16760416328907013,
          -0.013802952133119106,
          -0.07787425816059113,
          -0.030497239902615547,
          0.020799312740564346,
          -0.03646447882056236,
          -0.15793514251708984,
          0.011197961866855621,
          -0.11985746771097183,
          0.0,
          0.0,
          0.06510358303785324,
          -0.05776409059762955,
          -0.040171533823013306,
          -0.05902948975563049,
          -0.014272582717239857,
          -0.10918234288692474,
          0.04640757665038109,
          0.0957217589020729,
          0.10066450387239456,
          -0.06823857128620148,
          0.07037472724914551,
          0.075874924659729,
          0.027950474992394447,
          0.039914026856422424,
          0.0,
          0.0
        ],
        [
          -0.19040024280548096,
          -0.1393904834985733,
          -0.12270373106002808,
          -0.007459905929863453,
          0.045296233147382736,
          0.02013634517788887,
          -0.08244934678077698,
          -0.05356043949723244,
          0.08309783786535263,
          0.12511365115642548,
          -0.026079457253217697,
          0.015542429871857166,
          -0.14792411029338837,
          -0.1477881371974945,
          0.0,
          0.0,
          -0.06457918137311935,
          0.01790008880198002,
          0.07654523104429245,
          -0.06327014416456223,
          0.0006952043040655553,
          0.10464607924222946,
          0.002190249040722847,
          -0.02933628484606743,
          0.05411594733595848,
          0.00022669672034680843,
          -0.08919337391853333,
          -0.07968714833259583,
          0.07997176796197891,
          -0.13078127801418304,
          0.0,
          0.0,
          0.15507052838802338,
          0.08777021616697311,
          -0.06424453854560852,
          -0.0015139126917347312,
          0.021022601053118706,
          0.06103239953517914,
          -0.0904853343963623,
          -0.002370852045714855,
          0.0004905491368845105,
          -0.044505003839731216,
          -0.0020537409000098705,
          -0.040662433952093124,
          0.04292336478829384,
          -0.04547528550028801,
          0.0,
          0.0,
          0.07060124725103378,
          -0.1126791387796402,
          -0.025699753314256668,
          0.01900401897728443,
          0.1197800263762474,
          -0.12467832863330841,
          0.0565645694732666,
          0.12993602454662323,
          -0.05465168505907059,
          -0.02403050847351551,
          0.06463189423084259,
          0.0027630473487079144,
          -0.10744453221559525,
          0.01444182824343443,
          0.0,
          0.0
        ],
        [
          -0.06813524663448334,
          0.1787557750940323,
          0.20272070169448853,
          -0.09596245735883713,
          -0.18162097036838531,
          -0.00332728773355484,
          0.052181076258420944,
          -0.13790012896060944,
          0.12909433245658875,
          0.17504070699214935,
          -0.03998367115855217,
          0.10928384959697723,
          0.18782907724380493,
          -0.151717409491539,
          0.0,
          0.0,
          0.12172387540340424,
          -0.11904267966747284,
          0.09569303691387177,
          0.04257618635892868,
          0.07505764067173004,
          0.12927858531475067,
          0.043045807629823685,
          -0.012944109737873077,
          0.011713478714227676,
          -0.07500924170017242,
          0.010696911253035069,
          -0.10260706394910812,
          -0.002348235109820962,
          -0.07746247202157974,
          0.0,
          0.0,
          0.01884320378303528,
          0.07235328108072281,
          -0.010742935352027416,
          0.11817650496959686,
          -0.00048153509851545095,
          -0.08944163471460342,
          -0.09940601140260696,
          0.13326461613178253,
          -0.06745588034391403,
          -0.0674746036529541,
          -0.010582966729998589,
          0.002994262846186757,
          0.07475276291370392,
          -0.03905456140637398,
          0.0,
          0.0,
          -0.08059439063072205,
          0.09071683883666992,
          0.06240805611014366,
          0.07805393636226654,
          0.045121923089027405,
          -0.038616474717855453,
          -0.05803587660193443,
          -0.07224925607442856,
          0.04473143070936203,
          0.03382725641131401,
          0.03423484414815903,
          -0.02767508290708065,
          0.0375695563852787,
          -0.012427160516381264,
          0.0,
          0.0
        ],
        [
          0.04246453568339348,
          0.026580827310681343,
          0.004293930716812611,
          -0.15481165051460266,
          -0.18005673587322235,
          -0.083658866584301,
          0.05049910023808479,
          -0.1389334797859192,
          0.1447516530752182,
          0.14261603355407715,
          0.006863911170512438,
          0.014534607529640198,
          0.1389816850423813,
          0.06957966089248657,
          0.0,
          0.0,
          -0.13019202649593353,
          0.06072869524359703,
          -0.11034446209669113,
          -0.24372227489948273,
          0.007115185726433992,
          0.028277430683374405,
          -0.08180084079504013,
          0.08154898881912231,
          -0.1444462686777115,
          0.0684230625629425,
          0.07452350109815598,
          -0.0009678866481408477,
          -0.0382794514298439,
          0.14284750819206238,
          0.0,
          0.0,
          -0.04274095967411995,
          -0.07874315232038498,
          -0.039630696177482605,
          0.08367879688739777,
          -0.017990952357649803,
          0.1318853497505188,
          -0.11010594666004181,
          -0.09151886403560638,
          0.10094740986824036,
          0.13518792390823364,
          0.09235963970422745,
          0.11746636033058167,
          -0.06167774647474289,
          -0.03778256103396416,
          0.0,
          0.0,
          -0.036304619163274765,
          0.029982490465044975,
          -0.019084595143795013,
          -0.014250190928578377,
          -0.036238882690668106,
          -0.10475163161754608,
          0.10827451199293137,
          -0.03272872790694237,
          0.03006199188530445,
          -0.018900500610470772,
          0.09758342802524567,
          -0.056302230805158615,
          -0.026253892108798027,
          0.018158502876758575,
          0.0,
          0.0
        ],
        [
          0.11976663023233414,
          0.0046439808793365955,
          -0.22036109864711761,
          0.1683432012796402,
          -0.056707173585891724,
          0.05948842689394951,
          -0.03974299877882004,
          0.0900069996714592,
          0.08774448186159134,
          0.016425464302301407,
          -0.1807105541229248,
          -0.08403588086366653,
          -0.013874433003365993,
          -0.12273195385932922,
          0.0,
          0.0,
          -0.013879329897463322,
          0.1010894775390625,
          0.009847908280789852,
          -0.14783070981502533,
          -0.01868353597819805,
          0.03558552265167236,
          -0.10527126491069794,
          0.19405575096607208,
          -0.006101628299802542,
          0.040704745799303055,
          0.012017501518130302,
          -0.05268891528248787,
          0.0677904337644577,
          -0.04465325176715851,
          0.0,
          0.0,
          -0.029441026970744133,
          0.034636639058589935,
          0.06857859343290329,
          -0.029313985258340836,
          0.0035325121134519577,
          0.14263826608657837,
          -0.08706557005643845,
          0.054815083742141724,
          0.023977717384696007,
          0.0788659080862999,
          -0.034678973257541656,
          0.024411406368017197,
          -0.06790105253458023,
          -0.10480594635009766,
          0.0,
          0.0,
          0.011179872788488865,
          -0.08141863346099854,
          0.06846767663955688,
          -0.05462959036231041,
          0.027231372892856598,
          -0.06903533637523651,
          -0.04533948749303818,
          -0.0427708625793457,
          -0.04603128880262375,
          -0.0815952867269516,
          0.11614314466714859,
          -0.04574901610612869,
          -0.06453319638967514,
          0.12936373054981232,
          0.0,
          0.0
        ],
        [
          0.033220548182725906,
          -0.06993582099676132,
          0.08307482302188873,
          0.024175936356186867,
          0.07435920089483261,
          0.05462111160159111,
          0.15344299376010895,
          -0.013254272751510143,
          -0.09770942479372025,
          0.2266409546136856,
          -0.08167266845703125,
          0.1625860631465912,
          0.05243661627173424,
          0.10340126603841782,
          0.0,
          0.0,
          0.12040921300649643,
          0.050550609827041626,
          -0.05266938358545303,
          0.1356380581855774,
          -0.060488466173410416,
          0.11075811833143234,
          -0.027691571041941643,
          0.03996489197015762,
          0.01671518385410309,
          0.15373560786247253,
          0.10039537400007248,
          0.10670865327119827,
          -0.0414947085082531,
          0.06630466133356094,
          0.0,
          0.0,
          0.04119662567973137,
          -0.09414754807949066,
          0.07172680646181107,
          0.09898495674133301,
          -0.10038591921329498,
          0.14215223491191864,
          0.038607463240623474,
          -0.03598608076572418,
          0.03612954914569855,
          -0.10423856973648071,
          -0.09305570274591446,
          -0.056684430688619614,
          0.07440339773893356,
          -0.06546565145254135,
          0.0,
          0.0,
          0.062445588409900665,
          -0.024673569947481155,
          -0.04797034338116646,
          -0.04634200409054756,
          0.07634983211755753,
          -0.06774398684501648,
          0.01444668136537075,
          -0.03739563003182411,
          -0.08204258233308792,
          0.12364310771226883,
          0.08100626617670059,
          0.03255811706185341,
          0.04771893844008446,
          -0.10861754417419434,
          0.0,
          0.0
        ],
        [
          -0.0004947438137605786,
          -0.26955825090408325,
          0.09230175614356995,
          -0.074611134827137,
          0.0796537771821022,
          0.093449667096138,
          -0.07743983715772629,
          0.0016719924751669168,
          -0.05874604359269142,
          -0.01105421781539917,
          0.03173961490392685,
          0.04413739591836929,
          -0.046335622668266296,
          0.005345107987523079,
          0.0,
          0.0,
          0.05811920762062073,
          -0.019884992390871048,
          0.003726679366081953,
          -0.038411274552345276,
          0.023798329755663872,
          0.04506837576627731,
          -0.07843834906816483,
          0.0033940845169126987,
          0.06072014570236206,
          0.08756846189498901,
          0.014821309596300125,
          -0.07398128509521484,
          -0.0038396543823182583,
          -0.053721651434898376,
          0.0,
          0.0,
          -0.10908294469118118,
          0.06789331883192062,
          -0.07645413279533386,
          0.1279297173023224,
          -0.018334748223423958,
          -0.05466039478778839,
          -0.08902105689048767,
          -0.024784762412309647,
          0.04461853951215744,
          0.037678733468055725,
          -0.1257644146680832,
          -0.05454158037900925,
          -0.03805984929203987,
          0.016155751422047615,
          0.0,
          0.0,
          0.06521741300821304,
          0.07282852381467819,
          -0.13507553935050964,
          -0.01633480004966259,
          0.11594278365373611,
          -0.0662335604429245,
          0.0026382990181446075,
          0.005118072032928467,
          -0.026224369183182716,
          0.119621142745018,
          0.11751613020896912,
          -0.004901783540844917,
          0.03063483163714409,
          -0.01827494613826275,
          0.0,
          0.0
        ],
        [
          0.10980997234582901,
          -0.18763591349124908,
          -0.091444231569767,
          0.0902763083577156,
          -0.02465420961380005,
          -0.07974111288785934,
          0.05595136061310768,
          -0.0045438045635819435,
          0.015619684010744095,
          0.03424974903464317,
          -0.002285946160554886,
          0.17047029733657837,
          -0.010208328254520893,
          -0.15844905376434326,
          0.0,
          0.0,
          -0.09855971485376358,
          -0.10781608521938324,
          0.09743713587522507,
          0.12439791858196259,
          -0.06219109520316124,
          -0.07758475095033646,
          -0.06506183743476868,
          -0.09484092891216278,
          0.04041113704442978,
          0.07641658931970596,
          0.026008928194642067,
          -0.018895309418439865,
          -0.053025729954242706,
          -0.0661565512418747,
          0.0,
          0.0,
          -0.10134187340736389,
          -0.08052189648151398,
          -0.06846325844526291,
          -0.016890963539481163,
          0.057241570204496384,
          -0.03586200624704361,
          -0.024368969723582268,
          -0.00204055686481297,
          0.001848009997047484,
          0.07990770787000656,
          0.09148436039686203,
          0.00837617926299572,
          0.11351149529218674,
          -0.11099467426538467,
          0.0,
          0.0,
          0.0682041198015213,
          -0.002596428385004401,
          -0.06401198357343674,
          -0.014471241272985935,
          -0.05100519210100174,
          0.038856953382492065,
          0.04691215977072716,
          -0.04632914066314697,
          -0.09354416280984879,
          -0.027646228671073914,
          -0.08387590199708939,
          0.08395678550004959,
          0.02776442840695381,
          -0.08880887180566788,
          0.0,
          0.0
        ],
        [
          -0.11705010384321213,
          0.11215193569660187,
          0.11581797152757645,
          0.16232876479625702,
          0.10219067335128784,
          0.09213089197874069,
          0.005243292544037104,
          0.04286106675863266,
          0.09993194788694382,
          0.11378202587366104,
          0.10274447500705719,
          -0.1477392464876175,
          0.05855408310890198,
          0.10033153742551804,
          0.0,
          0.0,
          -0.08011595904827118,
          0.031070811673998833,
          0.0686427503824234,
          -0.012945897877216339,
          -0.035555947571992874,
          -0.10281787812709808,
          0.12182193994522095,
          -0.05518650636076927,
          0.0724349096417427,
          -0.07669561356306076,
          0.012588288635015488,
          0.09962958842515945,
          -0.05659922584891319,
          0.026904860511422157,
          0.0,
          0.0,
          0.024651972576975822,
          0.13278749585151672,
          -0.03289637342095375,
          -0.06505352258682251,
          0.16110222041606903,
          0.13598236441612244,
          0.005132173653692007,
          -0.03369202837347984,
          -0.08017200231552124,
          -0.011554303579032421,
          -0.15155546367168427,
          0.055297624319791794,
          0.017943911254405975,
          0.00951232947409153,
          0.0,
          0.0,
          -0.0761420875787735,
          0.056203629821538925,
          -0.009286439046263695,
          -0.0463360995054245,
          -0.14024634659290314,
          0.036784686148166656,
          0.12394090741872787,
          0.09125453978776932,
          -0.02512262761592865,
          -0.11012717336416245,
          -0.13777579367160797,
          -0.045296307653188705,
          -0.032205112278461456,
          -0.0009770796168595552,
          0.0,
          0.0
        ],
        [
          -0.08984196931123734,
          0.02009487710893154,
          0.1717231273651123,
          0.06679518520832062,
          -0.10887345671653748,
          -0.08047425001859665,
          -0.0059206523001194,
          0.0066721802577376366,
          0.09439878165721893,
          -0.030775483697652817,
          0.08899536728858948,
          -0.07217978686094284,
          0.05107966810464859,
          -0.1341610699892044,
          0.0,
          0.0,
          -0.011535823345184326,
          0.08936884254217148,
          -0.012965614907443523,
          0.058844007551670074,
          0.12518902122974396,
          -0.027350332587957382,
          -0.09444630146026611,
          0.10194899141788483,
          -0.007945009507238865,
          -0.0740034282207489,
          0.04117659851908684,
          0.08292457461357117,
          -0.047258153557777405,
          0.07025501877069473,
          0.0,
          0.0,
          -0.04222327843308449,
          0.11591237038373947,
          0.05828861519694328,
          -0.021181471645832062,
          0.015899498015642166,
          0.038845740258693695,
          0.04604683816432953,
          -0.03162844479084015,
          0.03982026129961014,
          -0.14424559473991394,
          0.008705670945346355,
          -0.031108751893043518,
          0.08955410867929459,
          0.03231923654675484,
          0.0,
          0.0,
          -0.08726583421230316,
          0.05940805748105049,
          -0.11890899389982224,
          -0.00724089564755559,
          0.128526508808136,
          -0.05193604901432991,
          -0.09535904973745346,
          0.16504988074302673,
          0.07637547701597214,
          0.08125051110982895,
          -0.02668774500489235,
          0.06711985915899277,
          0.03815443813800812,
          -0.034703221172094345,
          0.0,
          0.0
        ],
        [
          0.11197736114263535,
          0.11856637895107269,
          0.13665460050106049,
          -0.18766219913959503,
          -0.014553231187164783,
          0.1346789300441742,
          0.10152830183506012,
          -0.020713429898023605,
          0.0911281481385231,
          0.030291831120848656,
          -0.04116957262158394,
          -0.028534462675452232,
          0.13656264543533325,
          -0.04609817638993263,
          0.0,
          0.0,
          0.14590610563755035,
          0.03259668126702309,
          0.11421652883291245,
          0.11172979325056076,
          -0.13886778056621552,
          -0.10447601228952408,
          0.05394931882619858,
          0.10101599246263504,
          -0.026534872129559517,
          0.046336207538843155,
          0.17458423972129822,
          -0.08600073307752609,
          -0.11135927587747574,
          -0.00690805446356535,
          0.0,
          0.0,
          0.008398404344916344,
          -0.11836809664964676,
          0.07472259551286697,
          0.26117223501205444,
          -0.21065057814121246,
          -0.06706053018569946,
          0.08352144062519073,
          -0.04017343744635582,
          -0.008339310064911842,
          -0.05474986881017685,
          -0.07760604470968246,
          -0.05855473130941391,
          0.057165227830410004,
          -0.1163415014743805,
          0.0,
          0.0,
          0.01817910186946392,
          0.09165499359369278,
          -0.08893262594938278,
          -0.014339806511998177,
          0.10572470724582672,
          0.043640900403261185,
          0.017007214948534966,
          -0.042917944490909576,
          -0.1365770399570465,
          -0.0773223340511322,
          0.06475964933633804,
          0.0789678618311882,
          0.011290289461612701,
          0.09873753041028976,
          0.0,
          0.0
        ],
        [
          0.07959532737731934,
          -0.15637598931789398,
          -0.09856527298688889,
          0.035105038434267044,
          -0.0787711888551712,
          -0.05084007605910301,
          0.0008043053676374257,
          -0.023899182677268982,
          0.010547411628067493,
          0.03669344261288643,
          0.06387624144554138,
          -0.15151503682136536,
          0.159071147441864,
          0.0835820659995079,
          0.0,
          0.0,
          -0.07353304326534271,
          0.05962349846959114,
          0.08634502440690994,
          0.21660543978214264,
          -0.20013289153575897,
          -0.09821313619613647,
          -0.07400525361299515,
          -0.00018007725884672254,
          0.02808063104748726,
          -0.10505980998277664,
          -0.03956172242760658,
          -0.04426862299442291,
          0.021316397935152054,
          0.07838478684425354,
          0.0,
          0.0,
          -0.03570384159684181,
          0.023330040276050568,
          0.02990664727985859,
          0.19948036968708038,
          -0.18941046297550201,
          -0.0452658012509346,
          -0.0764184445142746,
          0.028771579265594482,
          0.14924229681491852,
          -0.06769882142543793,
          -0.2189771980047226,
          -0.1185501217842102,
          0.08075059950351715,
          -0.1562414914369583,
          0.0,
          0.0,
          0.057809099555015564,
          0.023058677092194557,
          0.0009234104072675109,
          -0.0027730760630220175,
          0.23846472799777985,
          0.10058142989873886,
          -0.09283466637134552,
          -0.09346655011177063,
          0.030113277956843376,
          -0.057189103215932846,
          -0.11949656903743744,
          -0.06782454997301102,
          0.07177740335464478,
          -0.031252361834049225,
          0.0,
          0.0
        ],
        [
          -0.13827280700206757,
          0.21316008269786835,
          -0.1286374032497406,
          -0.014921976253390312,
          0.0523931086063385,
          0.07058273255825043,
          -0.002634118776768446,
          -0.05211231857538223,
          0.015678320080041885,
          0.07120631635189056,
          0.025860507041215897,
          0.07805484533309937,
          0.07300323247909546,
          0.06405086815357208,
          0.0,
          0.0,
          0.0274021215736866,
          -0.0698334202170372,
          -0.08138031512498856,
          -0.037689145654439926,
          -0.02713768184185028,
          -0.09417887777090073,
          -0.06806514412164688,
          -0.11580856144428253,
          0.03308026120066643,
          0.031994566321372986,
          -0.06413010507822037,
          0.026913845911622047,
          0.025328105315566063,
          0.026369284838438034,
          0.0,
          0.0,
          0.014322883449494839,
          -0.1350860744714737,
          -0.021096915006637573,
          0.08187815546989441,
          -0.1158832311630249,
          0.06237068399786949,
          -0.00034253165358677506,
          -0.07713882625102997,
          -0.09437666833400726,
          -0.08457940071821213,
          0.014533567242324352,
          0.13132062554359436,
          0.14072667062282562,
          0.04601053148508072,
          0.0,
          0.0,
          -0.023032410070300102,
          -0.07794391363859177,
          0.12699122726917267,
          0.09260566532611847,
          -0.010881787165999413,
          0.08628328144550323,
          0.0947224497795105,
          -0.08929572999477386,
          0.007264084182679653,
          -0.02064015530049801,
          -0.008163214661180973,
          -0.04806888848543167,
          -0.06401161849498749,
          0.107213594019413,
          0.0,
          0.0
        ],
        [
          -0.32070276141166687,
          0.1484074592590332,
          -0.2523479163646698,
          -0.01565796136856079,
          -0.080552838742733,
          0.014840013347566128,
          -0.047491129487752914,
          0.0778450220823288,
          -0.060233984142541885,
          -0.09556940943002701,
          0.0025708021130412817,
          -0.016790343448519707,
          -0.0515214279294014,
          -0.13938437402248383,
          0.0,
          0.0,
          0.07160920649766922,
          -0.1472313553094864,
          0.09198182076215744,
          0.006270193960517645,
          -0.06133342906832695,
          0.04928906261920929,
          0.05204937234520912,
          -0.013134876266121864,
          -0.05672233924269676,
          -0.07725782692432404,
          -0.09505202621221542,
          0.01633249782025814,
          0.07479552179574966,
          -0.018218208104372025,
          0.0,
          0.0,
          -0.08112630248069763,
          0.0637093186378479,
          0.011084777303040028,
          0.05366873741149902,
          -0.06467828899621964,
          0.05770083889365196,
          0.00964430719614029,
          0.10453791916370392,
          -0.05586674064397812,
          0.004107724875211716,
          -0.04987949877977371,
          -0.1437283605337143,
          -0.10626417398452759,
          0.04931025207042694,
          0.0,
          0.0,
          0.05356331169605255,
          -0.05303004011511803,
          -0.07439373433589935,
          -0.09961513429880142,
          0.029152220115065575,
          0.024087408557534218,
          0.18275611102581024,
          0.17314870655536652,
          -0.016442501917481422,
          0.12868377566337585,
          -0.03938906267285347,
          0.014972406439483166,
          -0.058234475553035736,
          0.13310743868350983,
          0.0,
          0.0
        ],
        [
          -0.06394129991531372,
          -0.040403101593256,
          0.18981416523456573,
          -0.09232568740844727,
          -0.07750138640403748,
          -0.07487241178750992,
          0.05465376377105713,
          0.05468960478901863,
          -0.011808762326836586,
          -0.04444238916039467,
          -0.12617473304271698,
          0.015485954470932484,
          -0.059795212000608444,
          0.05838117375969887,
          0.0,
          0.0,
          -0.08548295497894287,
          0.07635990530252457,
          -0.05785380303859711,
          0.059153296053409576,
          -0.17834553122520447,
          -0.09381379187107086,
          0.030244475230574608,
          -0.043403107672929764,
          0.03317531198263168,
          0.18364429473876953,
          -0.10329191386699677,
          0.08659003674983978,
          -0.06627631932497025,
          -0.050033267587423325,
          0.0,
          0.0,
          -0.018466422334313393,
          0.02664656937122345,
          0.032075461000204086,
          -0.04353158921003342,
          -0.001329055055975914,
          0.1737128645181656,
          -0.06216264143586159,
          -0.13213157653808594,
          -0.026490796357393265,
          -0.030276235193014145,
          0.015263371169567108,
          0.014538479037582874,
          0.055476780980825424,
          -0.008811812847852707,
          0.0,
          0.0,
          0.03597921505570412,
          -0.015722353011369705,
          -0.08242258429527283,
          0.06796633452177048,
          0.0664660632610321,
          0.0035421994980424643,
          -0.07950982451438904,
          -0.07520566135644913,
          0.03280807286500931,
          0.050910353660583496,
          -0.0421280711889267,
          0.02557889185845852,
          -0.13767923414707184,
          -0.06189795956015587,
          0.0,
          0.0
        ],
        [
          -0.12032944709062576,
          -0.04007889702916145,
          -0.013934732414782047,
          0.0316871739923954,
          0.026510747149586678,
          -0.2217911034822464,
          0.09619716554880142,
          -0.16591280698776245,
          0.0956038236618042,
          0.1620008498430252,
          -0.08344766497612,
          0.09169860184192657,
          0.179472416639328,
          0.14860403537750244,
          0.0,
          0.0,
          -0.13038493692874908,
          0.10608768463134766,
          -0.11951535195112228,
          0.03672211989760399,
          -0.02388915792107582,
          0.019986912608146667,
          0.10602403432130814,
          -0.0024618683382868767,
          0.09766862541437149,
          0.11263949424028397,
          -0.08172617107629776,
          0.03040667623281479,
          -0.019359128549695015,
          0.06930280476808548,
          0.0,
          0.0,
          -0.21360349655151367,
          0.06195053085684776,
          0.05563405528664589,
          -0.06508861482143402,
          -0.07505947351455688,
          0.056609537452459335,
          0.01218259334564209,
          -0.09572458267211914,
          0.0387277714908123,
          0.08480779826641083,
          0.004899287596344948,
          0.017556704580783844,
          0.16759368777275085,
          -0.1921558678150177,
          0.0,
          0.0,
          0.035674285143613815,
          -0.04093398153781891,
          -0.10001034289598465,
          -0.07397576421499252,
          -0.05062193050980568,
          -0.026066916063427925,
          0.05101277679204941,
          -0.05266791954636574,
          -0.09404006600379944,
          -0.011879853904247284,
          0.07091977447271347,
          -0.049311019480228424,
          -0.0982026532292366,
          0.07434623688459396,
          0.0,
          0.0
        ],
        [
          0.05276835709810257,
          0.1051815077662468,
          0.006676527205854654,
          -0.13130557537078857,
          0.030495915561914444,
          0.09212716668844223,
          -0.022650429978966713,
          -0.07895295321941376,
          0.08651038259267807,
          0.0540667288005352,
          0.12744538486003876,
          -0.09649769216775894,
          0.01400772389024496,
          -0.004452744964510202,
          0.0,
          0.0,
          0.01453272346407175,
          -0.0996331050992012,
          0.007151999045163393,
          -0.04749767854809761,
          0.06845593452453613,
          0.12136341631412506,
          0.10123950242996216,
          0.03675186634063721,
          -0.05776842311024666,
          0.06209113448858261,
          -0.0606660358607769,
          -0.06115078181028366,
          0.04913243651390076,
          0.07553156465291977,
          0.0,
          0.0,
          0.05451727285981178,
          -0.03830067813396454,
          -0.137926384806633,
          -0.05594612658023834,
          0.11088547110557556,
          0.10093481838703156,
          0.07720160484313965,
          -0.04727575555443764,
          0.04060221090912819,
          -0.001256539486348629,
          -0.11255781352519989,
          -0.13449950516223907,
          0.1703425794839859,
          -0.2296726405620575,
          0.0,
          0.0,
          0.015691610053181648,
          0.07057998329401016,
          -0.04110662266612053,
          0.027279604226350784,
          -0.0008516148081980646,
          -0.10149528831243515,
          0.15812472999095917,
          -0.08573242276906967,
          -0.08642200380563736,
          0.08556722104549408,
          0.010907950811088085,
          -0.03162001073360443,
          0.03959067538380623,
          0.04582377150654793,
          0.0,
          0.0
        ],
        [
          0.18333381414413452,
          0.03264417126774788,
          0.09651538729667664,
          -0.0809575766324997,
          0.10755229741334915,
          -0.0853157788515091,
          -0.07738400995731354,
          -0.0619223527610302,
          -0.06567982584238052,
          -0.010501932352781296,
          -0.06404628604650497,
          -0.05366263538599014,
          0.062219977378845215,
          0.12299343943595886,
          0.0,
          0.0,
          -0.0535125657916069,
          0.08536086976528168,
          0.06441549956798553,
          0.03249560296535492,
          -0.10378236323595047,
          -0.03867552801966667,
          -0.0407373383641243,
          -0.10163090378046036,
          -0.02670503780245781,
          0.14832070469856262,
          0.053315598517656326,
          0.09982391446828842,
          0.02707410417497158,
          -0.009305823594331741,
          0.0,
          0.0,
          -0.03150182589888573,
          -0.12193487584590912,
          -0.09189537167549133,
          -0.18304601311683655,
          -0.01613246090710163,
          -0.09458349645137787,
          0.04390827566385269,
          -0.09273632615804672,
          -0.005981483031064272,
          -0.15961146354675293,
          -0.11445166915655136,
          -0.1607251763343811,
          0.1169319748878479,
          -0.05458679050207138,
          0.0,
          0.0,
          -0.0865057185292244,
          0.006584843620657921,
          0.07315447926521301,
          0.07840330898761749,
          0.06599217653274536,
          -0.07908090204000473,
          -0.00951786246150732,
          -0.13282431662082672,
          -0.010814525187015533,
          -0.06362853944301605,
          0.05112912878394127,
          0.14134909212589264,
          -0.1274309605360031,
          -0.03573393076658249,
          0.0,
          0.0
        ],
        [
          0.13618895411491394,
          -0.05272531136870384,
          -0.0994778499007225,
          0.06470444798469543,
          0.0342867448925972,
          0.0632091611623764,
          0.08497154712677002,
          0.04860719293355942,
          0.04352853074669838,
          -0.006475689820945263,
          -0.17235229909420013,
          0.10024182498455048,
          -0.07341200858354568,
          0.11496702581644058,
          0.0,
          0.0,
          -0.03588311746716499,
          -0.055095624178647995,
          -0.0790521427989006,
          -0.04494012892246246,
          -0.03923655301332474,
          -0.10274017602205276,
          0.11946532875299454,
          -0.13277578353881836,
          0.05322703719139099,
          -0.03441670909523964,
          0.0015905066393315792,
          -0.04437662288546562,
          0.06245815381407738,
          -0.05554448813199997,
          0.0,
          0.0,
          -0.08622489869594574,
          0.13603831827640533,
          0.014910150319337845,
          0.06607980281114578,
          0.02618199586868286,
          0.09290684014558792,
          0.08612077683210373,
          -0.054845958948135376,
          0.07102824002504349,
          0.0853683352470398,
          0.07586728781461716,
          0.08920268714427948,
          -0.01121203787624836,
          -0.1340722143650055,
          0.0,
          0.0,
          -0.03396173566579819,
          0.010971703566610813,
          0.08612769097089767,
          -0.11947717517614365,
          -0.10411568731069565,
          0.0830691009759903,
          0.021183529868721962,
          -0.03504950553178787,
          -0.05230928212404251,
          -0.0017726859077811241,
          0.0949704647064209,
          -0.015796350315213203,
          0.11055559664964676,
          -0.15065234899520874,
          0.0,
          0.0
        ],
        [
          0.08118055015802383,
          -0.28032246232032776,
          -0.0032356211449950933,
          -0.19273771345615387,
          -0.0916745588183403,
          -0.0990515872836113,
          -0.11493396759033203,
          -0.0006346982554532588,
          0.0651341900229454,
          0.013601331040263176,
          -0.11773701012134552,
          0.01151959877461195,
          -0.1323365420103073,
          -0.05367375910282135,
          0.0,
          0.0,
          -0.04045892506837845,
          0.012585485354065895,
          0.024956513196229935,
          -0.04494434595108032,
          -0.00012131231051171198,
          0.09676627069711685,
          -0.05373523756861687,
          -0.1439506709575653,
          -0.11365891993045807,
          0.09801019728183746,
          -0.05696641281247139,
          0.06294751912355423,
          -0.010545311495661736,
          0.153600811958313,
          0.0,
          0.0,
          0.006395934149622917,
          0.024157362058758736,
          0.06204550713300705,
          0.040492840111255646,
          -0.006816421169787645,
          0.01544950995594263,
          0.030675776302814484,
          -0.05674530938267708,
          -0.038168273866176605,
          -0.1260211318731308,
          0.020819639787077904,
          0.10041075944900513,
          0.11871650069952011,
          -0.10835704207420349,
          0.0,
          0.0,
          -0.05638551339507103,
          0.04629012569785118,
          0.0015563199995085597,
          -0.023877616971731186,
          0.11958363652229309,
          -0.06596300005912781,
          0.06591164320707321,
          0.0748627781867981,
          0.0022135477047413588,
          0.08483956754207611,
          -0.11235342174768448,
          -0.053406573832035065,
          0.0706867054104805,
          -0.045164141803979874,
          0.0,
          0.0
        ],
        [
          -0.0025329189375042915,
          0.12586258351802826,
          -0.06328161805868149,
          0.0659385398030281,
          -0.028254816308617592,
          0.00023683435574639589,
          0.11504717171192169,
          -0.06446606665849686,
          -0.005359296221286058,
          -0.06261748820543289,
          -0.10773853957653046,
          -0.11358492821455002,
          0.02076667919754982,
          -0.06450273096561432,
          0.0,
          0.0,
          -0.06756050139665604,
          0.007716076914221048,
          0.004338622558861971,
          -0.029155682772397995,
          -0.13094700872898102,
          0.020519685000181198,
          0.0745869129896164,
          -0.06820204854011536,
          0.07829741388559341,
          -0.05979027599096298,
          -0.011473329737782478,
          -0.024472389370203018,
          0.02642330713570118,
          0.046862732619047165,
          0.0,
          0.0,
          0.00998952891677618,
          0.11006135493516922,
          -0.031460002064704895,
          -0.1343853920698166,
          0.033847108483314514,
          0.050236739218235016,
          0.051053356379270554,
          -0.2206486463546753,
          0.10213214159011841,
          0.0051269568502902985,
          -0.06013689190149307,
          -0.07067029923200607,
          0.13805916905403137,
          -0.04314187914133072,
          0.0,
          0.0,
          -0.053881317377090454,
          0.0014387849951162934,
          0.0025048917159438133,
          -0.056595414876937866,
          -0.06973554193973541,
          0.08106326311826706,
          -0.08825134485960007,
          -0.0012100341264158487,
          0.08036496490240097,
          -0.12249457836151123,
          -0.15766122937202454,
          0.12414517998695374,
          0.07674647867679596,
          0.12543985247612,
          0.0,
          0.0
        ],
        [
          -0.057407982647418976,
          0.07670783251523972,
          -0.06584257632493973,
          0.050551313906908035,
          0.0040725646540522575,
          -0.002597492653876543,
          0.06892530620098114,
          0.044233664870262146,
          0.13182587921619415,
          0.08765294402837753,
          0.010120037943124771,
          0.04632744938135147,
          0.026840250939130783,
          -0.1231050044298172,
          0.0,
          0.0,
          -0.057442281395196915,
          0.0928996130824089,
          -0.015362960286438465,
          -0.09329156577587128,
          0.013891705311834812,
          0.06668583303689957,
          -0.17837409675121307,
          0.14547695219516754,
          0.009821295738220215,
          0.037892505526542664,
          0.060244858264923096,
          -0.09557929635047913,
          0.04283783957362175,
          -0.07343713194131851,
          0.0,
          0.0,
          0.06147532910108566,
          0.0432305745780468,
          0.07482072710990906,
          0.023531949147582054,
          -0.12794236838817596,
          0.07032425701618195,
          -0.03604507073760033,
          -0.045381978154182434,
          0.08013222366571426,
          -0.08458685129880905,
          -0.028396548703312874,
          -0.11739946156740189,
          -0.06161632761359215,
          0.07891783863306046,
          0.0,
          0.0,
          0.06999532133340836,
          0.02402641624212265,
          -0.10102661699056625,
          -0.035559289157390594,
          -0.022274577990174294,
          0.026060454547405243,
          -0.04136430099606514,
          0.07513648271560669,
          -0.042579472064971924,
          -0.028800824657082558,
          -0.004078440368175507,
          -0.033553946763277054,
          0.014686987735331059,
          -0.10680405795574188,
          0.0,
          0.0
        ],
        [
          -0.02845584787428379,
          -0.12112773954868317,
          -0.1823628842830658,
