{
  "name": "Large2GenomePEfficientTraining 10000",
  "state_channels": 14,
  "genome_channels": 2,
  "hidden_channels": 9,
  "state_quantization_scale": 4.0,
  "hidden_quantization_scale": 8.0,
  "perception_quantization_scale": 12.0,
  "update_probability": 0.5,
  "layers": [
    {
      "name": "conv1",
      "in_channels": 64,
      "out_channels": 128,
      "activation": "relu",
      "weights": [
        [
          0.09803929179906845,
          -0.11973946541547775,
          -0.1989196389913559,
          -0.16428343951702118,
          -0.1406387835741043,
          -0.04044194892048836,
          0.1405741274356842,
          -0.12774862349033356,
          0.021280063316226006,
          -0.0363304428756237,
          -0.044219568371772766,
          -0.012900137342512608,
          0.046357277780771255,
          -0.022767456248402596,
          0.0,
          0.0,
          -0.08687511831521988,
          0.0648493841290474,
          -0.005784273613244295,
          -0.05321294814348221,
          0.0864250436425209,
          -0.03558313846588135,
          -0.14107097685337067,
          0.06637027114629745,
          0.048596564680337906,
          -0.009750660508871078,
          -0.06158951669931412,
          -0.06170407682657242,
          0.14535799622535706,
          -0.017551884055137634,
          0.0,
          0.0,
          0.0015793198253959417,
          -0.0240631103515625,
          -0.052574027329683304,
          -0.06615811586380005,
          0.06395299732685089,
          -0.14212502539157867,
          -0.028653590008616447,
          -0.087347112596035,
          0.055753085762262344,
          -0.0884859561920166,
          -0.06717320531606674,
          0.05175241455435753,
          0.0027102327439934015,
          0.04303045570850372,
          0.0,
          0.0,
          -0.06913067400455475,
          0.07776455581188202,
          -0.010766019113361835,
          -0.03736870735883713,
          0.15911033749580383,
          -0.04119762033224106,
          -0.10797912627458572,
          0.028750097379088402,
          0.03308410942554474,
          0.13249336183071136,
          0.050073277205228806,
          -0.0370589941740036,
          -0.07083149254322052,
          -0.10247845202684402,
          0.0,
          0.0
        ],
        [
          -0.01566890999674797,
          -0.171228289604187,
          0.07047151029109955,
          0.15296600759029388,
          0.10206726938486099,
          -0.0449347198009491,
          -0.00781153654679656,
          -0.046642012894153595,
          0.06571687757968903,
          0.08870895206928253,
          0.12587174773216248,
          -0.16550679504871368,
          -0.01034583430737257,
          -0.023872429504990578,
          0.0,
          0.0,
          0.04701176658272743,
          -0.07557085901498795,
          0.08462595194578171,
          0.010789991356432438,
          0.031207596883177757,
          -0.007518942002207041,
          -0.04701310396194458,
          0.10953591018915176,
          0.06621044129133224,
          0.13255959749221802,
          0.0028949957340955734,
          0.11656946688890457,
          0.07913734018802643,
          0.004656848032027483,
          0.0,
          0.0,
          -0.1028638631105423,
          0.13812941312789917,
          -0.07530345022678375,
          -0.11964072287082672,
          0.01984107866883278,
          -0.06071694195270538,
          -0.013959445059299469,
          -0.065347820520401,
          -0.03850104287266731,
          -0.039946407079696655,
          -0.012191899120807648,
          0.05830603092908859,
          0.04018521308898926,
          0.009529146365821362,
          0.0,
          0.0,
          -0.005061531439423561,
          0.11839965730905533,
          -0.08636068552732468,
          -0.024284275248646736,
          -0.06134053319692612,
          0.0877876877784729,
          -0.012207509018480778,
          0.004084181971848011,
          0.033493176102638245,
          -0.037340197712183,
          -0.11023963242769241,
          0.14025436341762543,
          -0.043514836579561234,
          -0.053750671446323395,
          0.0,
          0.0
        ],
        [
          0.18043875694274902,
          -0.09050100296735764,
          0.11172538995742798,
          -0.07049224525690079,
          0.032084010541439056,
          -0.07342758774757385,
          0.06373020261526108,
          -0.0868944451212883,
          -0.04483060538768768,
          0.03805806487798691,
          0.07769136130809784,
          0.17975109815597534,
          -0.030070845037698746,
          -0.08436697721481323,
          0.0,
          0.0,
          -0.05051187425851822,
          0.0006320849061012268,
          0.08224259316921234,
          0.027247194200754166,
          0.014141174964606762,
          -0.08159347623586655,
          0.05608300864696503,
          -0.023170137777924538,
          0.007395461667329073,
          0.05340159311890602,
          -0.01586429588496685,
          -0.019504178315401077,
          -0.03842472657561302,
          0.005072382278740406,
          0.0,
          0.0,
          -0.17936544120311737,
          0.04095587506890297,
          -0.07119927555322647,
          -0.050993338227272034,
          0.019572705030441284,
          0.05287689343094826,
          -0.1773308515548706,
          -0.05624518543481827,
          -0.10673918575048447,
          0.006429492961615324,
          -0.0333421565592289,
          -0.11652056872844696,
          -0.020531661808490753,
          -0.08347579091787338,
          0.0,
          0.0,
          -0.05013779550790787,
          0.0826985165476799,
          -0.048577070236206055,
          0.1111004650592804,
          -0.0754961147904396,
          -0.00961148738861084,
          -0.06735629588365555,
          0.04528984799981117,
          -0.05864709988236427,
          -0.07035613805055618,
          0.09685250371694565,
          -0.022980445995926857,
          -0.054288893938064575,
          -0.10699982941150665,
          0.0,
          0.0
        ],
        [
          -0.12325120717287064,
          0.08598901331424713,
          0.11395583301782608,
          0.12011926621198654,
          0.1040404736995697,
          -0.12841810286045074,
          -0.107179656624794,
          0.018546314910054207,
          -0.09066808223724365,
          0.0629698857665062,
          -0.03550880774855614,
          0.054622832685709,
          0.11730576306581497,
          -0.19782854616641998,
          0.0,
          0.0,
          -0.018519336357712746,
          -0.11681552231311798,
          0.024937251582741737,
          -0.045312657952308655,
          -0.0789664015173912,
          -0.12434303760528564,
          -0.11859430372714996,
          0.03194337710738182,
          -0.03062937781214714,
          -0.0030114399269223213,
          0.06814341247081757,
          -0.1342373937368393,
          -0.053830306977033615,
          -0.03743549808859825,
          0.0,
          0.0,
          -0.11675900965929031,
          -0.10061152279376984,
          0.06521433591842651,
          -0.06612534821033478,
          -0.013515571132302284,
          -0.11313199251890182,
          -0.027717625722289085,
          -0.061493564397096634,
          -0.02199254184961319,
          0.029826316982507706,
          0.0029583852738142014,
          0.05531397461891174,
          0.03993269428610802,
          -0.07293258607387543,
          0.0,
          0.0,
          0.06982692331075668,
          0.009093341417610645,
          -0.06440385431051254,
          0.04427926987409592,
          -0.0206297617405653,
          -0.0798778161406517,
          0.03204071894288063,
          -0.04148338735103607,
          -0.016990089789032936,
          0.111330546438694,
          -0.1678137481212616,
          -0.10414551943540573,
          0.06257044523954391,
          0.040868159383535385,
          0.0,
          0.0
        ],
        [
          0.07014019042253494,
          0.17097662389278412,
          -0.21593016386032104,
          0.10252940654754639,
          -0.048540759831666946,
          -0.09176720678806305,
          -0.07676311582326889,
          0.08659858256578445,
          0.06806506216526031,
          0.08897729218006134,
          0.01907847449183464,
          0.014706955291330814,
          -0.034842416644096375,
          0.006854570470750332,
          0.0,
          0.0,
          0.07239130139350891,
          0.09811975806951523,
          -0.029855238273739815,
          0.07220680266618729,
          -0.001445850939489901,
          0.06998452544212341,
          0.013302570208907127,
          -0.009761150926351547,
          -0.03872242197394371,
          0.07619298994541168,
          0.05722936615347862,
          0.053833797574043274,
          -0.05252615362405777,
          0.01693732850253582,
          0.0,
          0.0,
          0.08308672904968262,
          -0.07496906071901321,
          -0.01372829731553793,
          0.09478151053190231,
          -0.01603761315345764,
          0.030708549544215202,
          0.11611121892929077,
          -0.0807173103094101,
          -0.04242773354053497,
          0.0033354044426232576,
          -0.07818370312452316,
          0.02466564252972603,
          -0.04235566779971123,
          0.09742540121078491,
          0.0,
          0.0,
          -0.08426018804311752,
          -0.0834236890077591,
          0.1377539485692978,
          -0.11035707592964172,
          0.025502091273665428,
          -0.015153749845921993,
          -0.005234878975898027,
          -0.06698750704526901,
          -0.13621075451374054,
          -0.08734732121229172,
          0.07549990713596344,
          -0.1383284032344818,
          -0.12755122780799866,
          -0.12886792421340942,
          0.0,
          0.0
        ],
        [
          0.13075017929077148,
          0.1562255471944809,
          0.013195431791245937,
          -0.03688562288880348,
          0.008021147921681404,
          -0.09918282926082611,
          0.018969882279634476,
          -0.01896536722779274,
          -0.1525130569934845,
          0.08219418674707413,
          -0.08682041615247726,
          0.022903399541974068,
          0.008063110522925854,
          0.06414101272821426,
          0.0,
          0.0,
          0.08505112677812576,
          -0.07160791009664536,
          -0.03049585595726967,
          -0.11460722982883453,
          0.05195188894867897,
          -0.05418546125292778,
          0.06859709322452545,
          0.17746877670288086,
          0.12704530358314514,
          0.09863393008708954,
          -0.04051346704363823,
          0.00974475871771574,
          0.07642039656639099,
          -0.038046762347221375,
          0.0,
          0.0,
          -0.10361289232969284,
          -0.14208832383155823,
          -0.10079272836446762,
          0.0014296711888164282,
          -0.0135410837829113,
          0.03339231014251709,
          -0.0476100780069828,
          -0.10092692822217941,
          -0.13587899506092072,
          0.1352083534002304,
          0.09303393214941025,
          -0.07976272702217102,
          0.07085089385509491,
          0.04216824099421501,
          0.0,
          0.0,
          -0.00882989913225174,
          -0.027902336791157722,
          0.09085559844970703,
          0.059329576790332794,
          -0.059944767504930496,
          -0.10679062455892563,
          0.07705273479223251,
          0.06400816142559052,
          0.06891986727714539,
          -0.06698154658079147,
          -0.11129262298345566,
          0.07117721438407898,
          -0.02370346151292324,
          0.11911673098802567,
          0.0,
          0.0
        ],
        [
          0.15096569061279297,
          -0.09206416457891464,
          -0.07449786365032196,
          -0.15311165153980255,
          -0.09250272810459137,
          -0.03947875648736954,
          0.014767899177968502,
          0.034680772572755814,
          -0.04314527288079262,
          0.02506418339908123,
          0.09733817726373672,
          0.024059811607003212,
          -0.0049333730712533,
          0.10560523718595505,
          0.0,
          0.0,
          -0.027257375419139862,
          0.010309690609574318,
          0.19147604703903198,
          -0.05434770509600639,
          -0.08381123095750809,
          0.02923675999045372,
          0.039524178951978683,
          0.0024700844660401344,
          0.13167989253997803,
          -0.06493718177080154,
          -0.06909695267677307,
          0.08421348035335541,
          0.1393594741821289,
          0.09098688513040543,
          0.0,
          0.0,
          0.0037116440944373608,
          -0.08463483303785324,
          0.06457574665546417,
          0.0549180693924427,
          0.014664549380540848,
          -0.09520231932401657,
          -0.023693649098277092,
          0.03400187939405441,
          0.0024688763078302145,
          0.09335241466760635,
          0.03147179260849953,
          -0.18572558462619781,
          0.015090951696038246,
          0.03853185474872589,
          0.0,
          0.0,
          -0.06813698261976242,
          0.003042447380721569,
          0.07447946071624756,
          0.0837431401014328,
          0.009411890059709549,
          -0.05475785210728645,
          0.14123766124248505,
          0.08639796078205109,
          -0.0701451301574707,
          0.1174597293138504,
          -0.022605955600738525,
          0.11407918483018875,
          -0.08322177082300186,
          -0.11166071891784668,
          0.0,
          0.0
        ],
        [
          -0.241615891456604,
          -0.20579484105110168,
          -0.08505946397781372,
          0.1407753825187683,
          0.17493587732315063,
          0.07496127486228943,
          -0.0929052010178566,
          -0.02271360158920288,
          0.06630026549100876,
          -0.05182633176445961,
          -0.15242160856723785,
          -0.006876640021800995,
          0.10785100609064102,
          -0.14420358836650848,
          0.0,
          0.0,
          0.03079664334654808,
          0.07544133812189102,
          -0.18132124841213226,
          0.0654638335108757,
          -0.14916561543941498,
          0.04401940479874611,
          0.16085661947727203,
          0.020052464678883553,
          -0.05106385797262192,
          0.0066990419290959835,
          -0.05072838440537453,
          -0.007923220284283161,
          -0.055394139140844345,
          0.1508529782295227,
          0.0,
          0.0,
          -0.03780628740787506,
          0.1120036169886589,
          0.06217525899410248,
          -0.1803942620754242,
          0.028662914410233498,
          0.0650162622332573,
          0.05884646996855736,
          0.02288752980530262,
          -0.04713521525263786,
          0.1328101009130478,
          0.031946513801813126,
          -0.09102240204811096,
          -0.08455344289541245,
          0.03561685234308243,
          0.0,
          0.0,
          0.002112599788233638,
          0.08777645230293274,
          0.02400842122733593,
          -0.08264163136482239,
          0.0625331774353981,
          0.10500611364841461,
          -0.016303088515996933,
          -0.09237297624349594,
          0.06345377117395401,
          -0.047076549381017685,
          -0.037295930087566376,
          -0.037999872118234634,
          -0.08150384575128555,
          -0.04597218707203865,
          0.0,
          0.0
        ],
        [
          0.0531616173684597,
          0.10054126381874084,
          -0.08223532140254974,
          0.08146829158067703,
          -0.03352072089910507,
          -0.0026236132252961397,
          -0.06605236232280731,
          0.026877770200371742,
          0.08554322272539139,
          -0.07496660947799683,
          0.0675121396780014,
          -0.09224208444356918,
          -0.042059559375047684,
          -0.12417140603065491,
          0.0,
          0.0,
          0.08797398209571838,
          0.12852080166339874,
          -0.04978460818529129,
          0.06898985803127289,
          0.049164801836013794,
          -0.08110001683235168,
          -0.02629179321229458,
          -0.011034585535526276,
          0.1379145085811615,
          0.0066372244618833065,
          0.13421568274497986,
          0.012212637811899185,
          0.05813726410269737,
          -0.10973678529262543,
          0.0,
          0.0,
          0.10058282315731049,
          0.030218590050935745,
          0.037689462304115295,
          -0.002038133330643177,
          -0.017879651859402657,
          0.07141221314668655,
          0.13620246946811676,
          0.15372900664806366,
          0.1048060953617096,
          -0.06880947202444077,
          0.043329037725925446,
          0.0027196279261261225,
          0.0949324294924736,
          0.09683596342802048,
          0.0,
          0.0,
          0.10733085125684738,
          -0.12003341317176819,
          0.08615376800298691,
          0.04692378640174866,
          -0.026051567867398262,
          0.09418394416570663,
          -0.0235512126237154,
          -0.11283779889345169,
          0.01415912713855505,
          0.06743185222148895,
          0.09340178966522217,
          -0.014485616236925125,
          -0.031690534204244614,
          -0.05416075512766838,
          0.0,
          0.0
        ],
        [
          -0.08842266350984573,
          0.07134813070297241,
          -0.10135910660028458,
          -0.027191493660211563,
          -0.07620719075202942,
          0.0802488848567009,
          0.10128707438707352,
          -0.11931933462619781,
          0.10509297251701355,
          0.03912034258246422,
          -0.015105010010302067,
          -0.08548475056886673,
          0.05408849939703941,
          0.10111185908317566,
          0.0,
          0.0,
          -0.07315833121538162,
          0.10568296164274216,
          0.1752094179391861,
          0.2071220576763153,
          -0.1585582196712494,
          -0.006005340255796909,
          0.024120131507515907,
          0.12353460490703583,
          0.06695672124624252,
          0.14994975924491882,
          -0.22100602090358734,
          -0.0712694600224495,
          0.06260073930025101,
          -0.1520310491323471,
          0.0,
          0.0,
          -0.02690885402262211,
          0.09314777702093124,
          0.13488849997520447,
          0.07334019243717194,
          -0.1272554099559784,
          -0.18441349267959595,
          0.08168099820613861,
          0.0322113111615181,
          -0.10440095514059067,
          0.0020867118146270514,
          -0.013125940226018429,
          -0.03823217377066612,
          0.005479941610246897,
          -0.10319115221500397,
          0.0,
          0.0,
          -0.0033014402724802494,
          -0.08103885501623154,
          0.054614242166280746,
          -0.10919356346130371,
          -0.01822124421596527,
          0.07398570328950882,
          -0.009563992731273174,
          0.21869447827339172,
          0.03422754257917404,
          0.07979510724544525,
          0.07264592498540878,
          0.08417663723230362,
          -0.026962559670209885,
          0.025203397497534752,
          0.0,
          0.0
        ],
        [
          -0.14660264551639557,
          0.0031801119912415743,
          -0.18497401475906372,
          0.054608218371868134,
          0.08256996423006058,
          0.1369544267654419,
          -0.11016859859228134,
          -0.04262582212686539,
          0.016615061089396477,
          0.04167072847485542,
          -0.11858351528644562,
          -0.0481366291642189,
          -0.0720825120806694,
          0.01612733118236065,
          0.0,
          0.0,
          0.026548655703663826,
          0.07954106479883194,
          -0.09762146323919296,
          -0.03532169386744499,
          0.11645465344190598,
          -0.030022908002138138,
          -0.01997601054608822,
          -0.12343166768550873,
          0.09484266489744186,
          0.08795025199651718,
          -0.004308289382606745,
          -0.05270899832248688,
          0.10062665492296219,
          -0.07873179018497467,
          0.0,
          0.0,
          0.059439849108457565,
          0.060285534709692,
          0.08671706169843674,
          0.0837550088763237,
          0.019009968265891075,
          0.10659470409154892,
          0.13049159944057465,
          0.1176619604229927,
          0.002707607578486204,
          0.21281464397907257,
          0.04804171621799469,
          -0.05262210592627525,
          -0.1681339293718338,
          0.08791878819465637,
          0.0,
          0.0,
          -0.1018243134021759,
          0.05823463946580887,
          -0.06346943974494934,
          -0.047724440693855286,
          0.03936568647623062,
          -0.07617609947919846,
          0.015978800132870674,
          -0.044820934534072876,
          -0.13393715023994446,
          0.007900398224592209,
          0.07088413834571838,
          -0.009012422524392605,
          -0.15050730109214783,
          0.05977853015065193,
          0.0,
          0.0
        ],
        [
          -0.09318157285451889,
          0.13343238830566406,
          -0.11696293950080872,
          -0.1402955949306488,
          0.07863911986351013,
          0.08421936631202698,
          0.022628063336014748,
          -0.07045025378465652,
          0.105777308344841,
          0.08466053009033203,
          -0.028087252750992775,
          -0.11700519174337387,
          -0.1101132482290268,
          0.042714543640613556,
          0.0,
          0.0,
          -0.0934346541762352,
          0.1277850717306137,
          0.08671726286411285,
          -0.019746530801057816,
          0.053441572934389114,
          -0.08973891288042068,
          -0.015933314338326454,
          -0.018180547282099724,
          0.0446968600153923,
          0.1005881205201149,
          -0.06324683129787445,
          -0.08428455144166946,
          0.11383791267871857,
          -0.229009211063385,
          0.0,
          0.0,
          -0.015741152688860893,
          0.0064754970371723175,
          0.0770767331123352,
          -0.009985420852899551,
          -0.027831442654132843,
          0.039619330316782,
          -0.036821648478507996,
          0.043367672711610794,
          0.06801404803991318,
          0.04633227735757828,
          -0.0831536054611206,
          -0.12177746742963791,
          -0.00040281435940414667,
          0.03387860581278801,
          0.0,
          0.0,
          0.028182731941342354,
          -0.10661745071411133,
          -0.09534980356693268,
          -0.1219836100935936,
          -0.12476169317960739,
          -0.020323237404227257,
          0.009245615452528,
          -0.10288626700639725,
          -0.10387567430734634,
          0.116782046854496,
          0.03751258924603462,
          0.03220239281654358,
          0.027111873030662537,
          -0.1172349750995636,
          0.0,
          0.0
        ],
        [
          -0.08979441225528717,
          -0.07826343923807144,
          0.0015706857666373253,
          0.08302299678325653,
          0.229148730635643,
          -0.1477920264005661,
          -0.12622687220573425,
          -0.17960485816001892,
          -0.0685819610953331,
          -0.1393352895975113,
          0.05118833854794502,
          -0.03670807182788849,
          0.14172686636447906,
          0.059022948145866394,
          0.0,
          0.0,
          0.029410962015390396,
          -0.04931827262043953,
          -0.05239349603652954,
          0.06768263876438141,
          -0.13783155381679535,
          -0.1529116928577423,
          -0.0022708349861204624,
          0.10733523219823837,
          -0.1289045214653015,
          -0.07993320375680923,
          -0.033890627324581146,
          0.04535951837897301,
          -0.16944603621959686,
          -0.049514543265104294,
          0.0,
          0.0,
          0.05386154726147652,
          0.20544616878032684,
          -0.08954571932554245,
          0.15847936272621155,
          -0.1192319467663765,
          -0.08754250407218933,
          0.05152319371700287,
          0.03095107711851597,
          -0.03786700218915939,
          -0.011846579611301422,
          0.000585565809160471,
          -0.0995650514960289,
          0.036014869809150696,
          -0.13755811750888824,
          0.0,
          0.0,
          -0.012781146913766861,
          0.0331277959048748,
          -0.04758631810545921,
          -0.04973993077874184,
          0.05971148982644081,
          0.05991269648075104,
          0.07186057418584824,
          0.10098282247781754,
          -0.057355936616659164,
          0.04106352478265762,
          -0.008953005075454712,
          -0.03930956497788429,
          0.08459073305130005,
          0.07035057246685028,
          0.0,
          0.0
        ],
        [
          -0.24913866817951202,
          0.07895111292600632,
          0.14405207335948944,
          -0.10925977677106857,
          0.06948450952768326,
          0.034522607922554016,
          0.06270460784435272,
          -0.04697044938802719,
          -0.13221654295921326,
          0.10330954194068909,
          0.06987420469522476,
          0.08265156298875809,
          -0.019190650433301926,
          0.14321409165859222,
          0.0,
          0.0,
          0.007315248250961304,
          -0.06748268008232117,
          0.04817104712128639,
          -0.02124592289328575,
          -0.044949982315301895,
          -0.07046006619930267,
          0.056418903172016144,
          0.05686569958925247,
          -0.05650034174323082,
          0.11723882704973221,
          -0.030174557119607925,
          -0.008427691645920277,
          -0.02978418581187725,
          -0.04374151676893234,
          0.0,
          0.0,
          0.012088676914572716,
          0.06101203337311745,
          -0.12934769690036774,
          -0.06511881947517395,
          0.018317939713597298,
          -0.009907693602144718,
          -0.13408096134662628,
          0.04491686448454857,
          0.08073677867650986,
          -0.0007431429694406688,
          -0.07178448885679245,
          0.13396121561527252,
          0.03909827023744583,
          -0.014436199329793453,
          0.0,
          0.0,
          0.1571948081254959,
          -0.09444428235292435,
          -0.05366818606853485,
          -0.07186450064182281,
          -0.05707380920648575,
          -0.07216592878103256,
          -0.05053860694169998,
          0.020848846063017845,
          -0.02983492985367775,
          -0.007985261268913746,
          -0.10373610258102417,
          -0.0315735787153244,
          -0.02043255791068077,
          -0.06855412572622299,
          0.0,
          0.0
        ],
        [
          0.08019992709159851,
          -0.29201221466064453,
          0.18901295959949493,
          0.02514778822660446,
          -0.09421157836914062,
          0.08313854038715363,
          -0.12078007310628891,
          0.08545433729887009,
          -0.018521089106798172,
          -0.054978128522634506,
          0.022276483476161957,
          -0.029473645612597466,
          0.04544602707028389,
          0.06702417135238647,
          0.0,
          0.0,
          0.05356646701693535,
          0.00946121383458376,
          -0.005109146703034639,
          0.07696393132209778,
          0.05697169899940491,
          -0.005500245373696089,
          -0.06592647731304169,
          -0.019096774980425835,
          0.04889395087957382,
          -0.01348492968827486,
          0.00489148311316967,
          -0.008961166255176067,
          -0.012518681585788727,
          -0.0677516907453537,
          0.0,
          0.0,
          -0.048161257058382034,
          0.08680163323879242,
          -0.0981709286570549,
          0.025870179757475853,
          0.1556835174560547,
          0.03707537800073624,
          -0.15387387573719025,
          0.014259092509746552,
          0.051766764372587204,
          -0.04642060399055481,
          -0.03566046431660652,
          -0.039279285818338394,
          0.10011851787567139,
          -0.02804333157837391,
          0.0,
          0.0,
          -0.09385759383440018,
          -0.039740439504384995,
          0.10865533351898193,
          -0.16102738678455353,
          0.002923020627349615,
          0.06860767304897308,
          0.06075413525104523,
          0.06819039583206177,
          0.13383491337299347,
          0.12846128642559052,
          -0.06816594302654266,
          -0.05437193810939789,
          0.11722048372030258,
          -0.02619026228785515,
          0.0,
          0.0
        ],
        [
          0.3045724332332611,
          -0.07912158966064453,
          -0.11125574260950089,
          0.07865834981203079,
          0.04639882594347,
          -0.05570536479353905,
          -0.0801703929901123,
          -0.041586533188819885,
          -0.07224410027265549,
          0.041503459215164185,
          0.05993646755814552,
          0.0372324213385582,
          -0.009331165812909603,
          0.0569426529109478,
          0.0,
          0.0,
          0.021548166871070862,
          -0.016492541879415512,
          0.030813023447990417,
          -0.040818776935338974,
          0.022380342707037926,
          -0.005519598722457886,
          -0.07963260263204575,
          -0.03286850452423096,
          0.06070365384221077,
          0.011093026027083397,
          0.002490880200639367,
          0.047535836696624756,
          0.07110552489757538,
          -0.05732053518295288,
          0.0,
          0.0,
          -0.00613559503108263,
          -0.08041130006313324,
          0.016019342467188835,
          -0.055779680609703064,
          0.02286383882164955,
          -0.0038695160765200853,
          0.021624844521284103,
          -0.06478012353181839,
          -0.008203094825148582,
          -0.043603699654340744,
          -0.0211236160248518,
          -0.018119264394044876,
          0.03421644866466522,
          0.022479256615042686,
          0.0,
          0.0,
          -0.15114741027355194,
          0.09340844303369522,
          0.01245914213359356,
          -0.10328535735607147,
          -0.10888291150331497,
          0.13532127439975739,
          -0.14640526473522186,
          -0.043609391897916794,
          0.08049637824296951,
          -0.05666366219520569,
          -0.07808229327201843,
          -0.06780244410037994,
          0.10788629204034805,
          -0.0370393805205822,
          0.0,
          0.0
        ],
        [
          -0.007336531300097704,
          0.1504644900560379,
          -0.11316125094890594,
          -0.196633443236351,
          -0.060328979045152664,
          0.10912788659334183,
          -0.01727437973022461,
          -0.0849798321723938,
          -0.06826426088809967,
          0.09708912670612335,
          -0.04355368763208389,
          -0.12571848928928375,
          0.028196055442094803,
          -0.12418356537818909,
          0.0,
          0.0,
          0.009584702551364899,
          -0.06909730285406113,
          0.010154654271900654,
          -0.06077786907553673,
          0.12043381482362747,
          -0.012272126972675323,
          -0.14374397695064545,
          -0.0026507792063057423,
          0.03465241193771362,
          0.09152248501777649,
          0.022182727232575417,
          0.04459491744637489,
          0.1404941827058792,
          -0.011008363217115402,
          0.0,
          0.0,
          0.07266214489936829,
          0.10443202406167984,
          -0.09230666607618332,
          -0.007249577436596155,
          -0.05477948486804962,
          -0.02762901410460472,
          0.06664054840803146,
          -0.1367238610982895,
          -0.028893742710351944,
          -0.04302526265382767,
          -0.0837298333644867,
          -0.04321477562189102,
          -0.05744011327624321,
          -0.09236161410808563,
          0.0,
          0.0,
          0.05194740742444992,
          -0.11866951733827591,
          0.056172363460063934,
          0.13259202241897583,
          0.05673512443900108,
          -0.010304509662091732,
          0.12049161642789841,
          -0.011066827923059464,
          -0.08528091013431549,
          -0.025089338421821594,
          -0.08683789521455765,
          0.03969345614314079,
          -0.036537978798151016,
          0.058293651789426804,
          0.0,
          0.0
        ],
        [
          0.08969979733228683,
          -0.20100347697734833,
          -0.06917811185121536,
          -0.08518566936254501,
          -0.13174498081207275,
          -0.03624584898352623,
          0.15106581151485443,
          0.018495485186576843,
          0.0068862177431583405,
          0.06670558452606201,
          0.1323932558298111,
          -0.018232468515634537,
          -0.0052937958389520645,
          -0.04181201010942459,
          0.0,
          0.0,
          -0.09497589617967606,
          0.07215842604637146,
          0.01732654683291912,
          -0.009783915244042873,
          0.07072336971759796,
          -0.01333677303045988,
          0.00749478442594409,
          0.03809782862663269,
          -0.08550841361284256,
          0.1270248293876648,
          -0.062480803579092026,
          -0.0325419157743454,
          0.007420456502586603,
          -0.04913733899593353,
          0.0,
          0.0,
          -0.007837009616196156,
          -0.03186540678143501,
          -0.003485634922981262,
          0.06343232095241547,
          0.03804298862814903,
          -0.08974216878414154,
          -0.00981166586279869,
          0.12870578467845917,
          0.11078120768070221,
          -0.06678099930286407,
          -0.04828260466456413,
          0.011297954246401787,
          -0.002497653942555189,
          0.03147202730178833,
          0.0,
          0.0,
          -0.0016838153824210167,
          0.08591055870056152,
          -0.07776392251253128,
          -0.05354895815253258,
          0.01624482311308384,
          -0.0009715236956253648,
          -0.01375626865774393,
          -0.09028535336256027,
          0.0956888198852539,
          -0.05904055014252663,
          -0.03744397312402725,
          0.028789309784770012,
          -0.011732188984751701,
          0.036032143980264664,
          0.0,
          0.0
        ],
        [
          0.13896630704402924,
          -0.24378041923046112,
          0.17497305572032928,
          0.0983024314045906,
          -0.03303493186831474,
          -0.10502892732620239,
          -0.02517818473279476,
          0.022944768890738487,
          0.08840376883745193,
          0.054110169410705566,
          0.02624114230275154,
          0.10291392356157303,
          -0.051901981234550476,
          -0.0665350928902626,
          0.0,
          0.0,
          -0.020645564422011375,
          -0.06092779338359833,
          0.1629045605659485,
          0.018416382372379303,
          -0.031217074021697044,
          -0.02554466761648655,
          -0.017193768173456192,
          -0.016108376905322075,
          0.06020548194646835,
          0.008304428309202194,
          0.028150811791419983,
          0.07655014842748642,
          -0.029560277238488197,
          -0.007381883915513754,
          0.0,
          0.0,
          0.015689607709646225,
          -0.0025929887779057026,
          0.10185346752405167,
          0.05109712481498718,
          -0.02355032227933407,
          -0.041864991188049316,
          0.0016135637415573,
          -0.016039961948990822,
          -0.02598073147237301,
          0.024646803736686707,
          -0.02114958129823208,
          -0.008714339695870876,
          -0.01563255302608013,
          0.007289811968803406,
          0.0,
          0.0,
          -0.011787946335971355,
          0.06636377424001694,
          -0.1496044099330902,
          -0.037779465317726135,
          0.08283401280641556,
          0.011452880688011646,
          -0.03961888700723648,
          -0.05011577159166336,
          -0.024501696228981018,
          -0.08410576730966568,
          0.04127529263496399,
          -0.14076833426952362,
          -0.03333325684070587,
          -0.058863915503025055,
          0.0,
          0.0
        ],
        [
          0.06755177676677704,
          -0.20454144477844238,
          0.11060332506895065,
          0.08276299387216568,
          0.178113654255867,
          0.0985293909907341,
          -0.01848270185291767,
          0.07126475870609283,
          -0.029607096686959267,
          0.08402161300182343,
          0.14489217102527618,
          -0.09634827822446823,
          0.009648628532886505,
          -0.1738942414522171,
          0.0,
          0.0,
          0.00659586675465107,
          -0.06436667591333389,
          0.05905943363904953,
          0.001435206620953977,
          -0.10052579641342163,
          -0.12811897695064545,
          0.07033960521221161,
          0.037341561168432236,
          -0.04774891957640648,
          0.14450739324092865,
          0.011784073896706104,
          -0.04217972978949547,
          -0.005855210591107607,
          0.026692813262343407,
          0.0,
          0.0,
          0.04171237722039223,
          -0.10062136501073837,
          0.07146843522787094,
          -0.012695534154772758,
          0.032045137137174606,
          -0.06413541734218597,
          -0.1141526997089386,
          -0.028967775404453278,
          -0.005637467373162508,
          -0.08177132904529572,
          -0.05270909518003464,
          -0.07149064540863037,
          -0.036380499601364136,
          -0.01962987147271633,
          0.0,
          0.0,
          -0.07792501896619797,
          -0.08501734584569931,
          0.10766731947660446,
          -0.00408834358677268,
          -0.11048715561628342,
          -0.06601498275995255,
          -0.03647065907716751,
          0.005206996574997902,
          0.029734766110777855,
          -0.1029951199889183,
          -0.07623133808374405,
          -0.0409831702709198,
          -0.12953540682792664,
          0.10808756947517395,
          0.0,
          0.0
        ],
        [
          -0.031683191657066345,
          -0.030761871486902237,
          -0.03284573554992676,
          0.22037285566329956,
          0.08575037866830826,
          -0.09328408539295197,
          -0.014527220278978348,
          -0.06272546201944351,
          0.12369854003190994,
          -0.047654107213020325,
          0.08106942474842072,
          0.02197781205177307,
          -0.14201126992702484,
          0.047277990728616714,
          0.0,
          0.0,
          -0.010664238594472408,
          0.04370428994297981,
          -0.07948330044746399,
          -0.05294128134846687,
          0.052200399339199066,
          0.029490668326616287,
          0.11737503856420517,
          -0.0272702444344759,
          -0.05588942766189575,
          -0.012012888677418232,
          -0.14161069691181183,
          -0.10783815383911133,
          0.00459839915856719,
          0.016062559559941292,
          0.0,
          0.0,
          -0.042703986167907715,
          0.020306462422013283,
          -0.05500834062695503,
          0.008818267844617367,
          0.052305590361356735,
          -0.08132914453744888,
          -0.13124093413352966,
          0.07978519797325134,
          -0.008266694843769073,
          -0.09453338384628296,
          0.0864715650677681,
          0.11499689519405365,
          0.12016358971595764,
          0.019677354022860527,
          0.0,
          0.0,
          0.05306469276547432,
          -0.03725971281528473,
          -0.05462632328271866,
          -0.06197812035679817,
          -0.11389284580945969,
          0.04579060524702072,
          0.07922924309968948,
          -0.07808153331279755,
          0.05047499015927315,
          -0.10160301625728607,
          -0.12381969392299652,
          0.10740812122821808,
          0.011511524207890034,
          0.01677914708852768,
          0.0,
          0.0
        ],
        [
          -0.12262149155139923,
          0.10490670055150986,
          -0.09848219901323318,
          -0.01787623204290867,
          -0.09317680448293686,
          -0.07135608792304993,
          -0.1388034224510193,
          0.01892777718603611,
          0.15942318737506866,
          0.026872307062149048,
          -0.1522587090730667,
          -0.09511507302522659,
          0.14174912869930267,
          -0.029488377273082733,
          0.0,
          0.0,
          -0.10370474308729172,
          0.047953683882951736,
          0.13090242445468903,
          -0.06245836243033409,
          -0.11612341552972794,
          0.03225269541144371,
          -0.03927253931760788,
          -0.1123017892241478,
          0.12475084513425827,
          0.1010984256863594,
          -0.08272886276245117,
          -0.032358650118112564,
          -0.07332753390073776,
          -0.009414329193532467,
          0.0,
          0.0,
          -0.07671131938695908,
          0.07914512604475021,
          -0.10957489162683487,
          0.14207519590854645,
          0.043268393725156784,
          -0.12277433276176453,
          0.015265030786395073,
          -0.029848536476492882,
          -0.01181179191917181,
          0.06235248222947121,
          0.01700345054268837,
          0.01647981069982052,
          -0.006030004005879164,
          -0.09004230797290802,
          0.0,
          0.0,
          0.13832581043243408,
          0.02319720759987831,
          0.009477236308157444,
          -0.023751866072416306,
          0.05299932882189751,
          -0.009883053600788116,
          -0.12863865494728088,
          0.04924142360687256,
          0.010567915625870228,
          0.08577731996774673,
          0.08382631838321686,
          0.0413871593773365,
          0.03798462823033333,
          -0.08177608996629715,
          0.0,
          0.0
        ],
        [
          0.17927737534046173,
          -0.1349920779466629,
          0.15404649078845978,
          -0.075411856174469,
          -0.008940021507441998,
          -0.017929682508111,
          0.0883893221616745,
          0.08402223885059357,
          -0.03936797007918358,
          -0.14549745619297028,
          0.029207196086645126,
          0.13506656885147095,
          0.0725046843290329,
          -0.15374064445495605,
          0.0,
          0.0,
          0.08896671235561371,
          -0.1327577382326126,
          -0.06666901707649231,
          -0.028245974332094193,
          -0.06276876479387283,
          0.026889489963650703,
          0.03200995922088623,
          0.0848388671875,
          0.17042040824890137,
          0.0689978078007698,
          0.07562537491321564,
          -0.05050695315003395,
          0.00928950309753418,
          -0.0034866435453295708,
          0.0,
          0.0,
          -0.0015174043364822865,
          0.09178785979747772,
          -0.06379806250333786,
          0.05381311848759651,
          -0.04571674019098282,
          0.19785535335540771,
          0.05170586332678795,
          -0.0591341070830822,
          -0.10431880503892899,
          0.06270068883895874,
          0.0653725415468216,
          -0.1210305243730545,
          -0.0011323548387736082,
          0.0027136944700032473,
          0.0,
          0.0,
          -0.02241918444633484,
          0.04759850725531578,
          -0.011497617699205875,
          -0.13813516497612,
          0.034828249365091324,
          0.04438319429755211,
          0.050328031182289124,
          0.024863846600055695,
          0.058419328182935715,
          0.010361126624047756,
          0.04318341240286827,
          0.001424782327376306,
          -0.09699305146932602,
          0.006229270249605179,
          0.0,
          0.0
        ],
        [
          0.01045152172446251,
          -0.07627052813768387,
          0.17268706858158112,
          -0.08260573446750641,
          0.04981261491775513,
          -0.09819421917200089,
          0.05054960027337074,
          0.05020741745829582,
          0.03377407044172287,
          -0.0049727787263691425,
          -0.01023964025080204,
          -0.01929476112127304,
          0.06942284107208252,
          0.08278781175613403,
          0.0,
          0.0,
          -0.03004201501607895,
          -0.10179778933525085,
          -0.11622457951307297,
          0.07607550173997879,
          0.009267959743738174,
          0.013171308673918247,
          -0.1625097692012787,
          -0.12093433737754822,
          0.06534263491630554,
          -0.016983630135655403,
          -0.03168758749961853,
          0.005703262984752655,
          0.01233446504920721,
          -0.07052813470363617,
          0.0,
          0.0,
          -0.13346369564533234,
          -0.10811198502779007,
          0.11660949140787125,
          -0.027970589697360992,
          0.03026941977441311,
          -0.012414093129336834,
          0.051737166941165924,
          -0.040010590106248856,
          0.02534058690071106,
          -0.020583318546414375,
          -0.045705802738666534,
          0.02279050089418888,
          0.05866347253322601,
          0.016893526539206505,
          0.0,
          0.0,
          0.007086576893925667,
          -0.014772020280361176,
          -0.12485862523317337,
          0.09149284660816193,
          0.006307211704552174,
          -0.015678010880947113,
          -0.036390677094459534,
          -0.1196485385298729,
          0.07314327359199524,
          0.09411683678627014,
          0.03497045487165451,
          -0.0002665320935193449,
          -0.07170635461807251,
          -0.19815216958522797,
          0.0,
          0.0
        ],
        [
          -0.049071140587329865,
          0.013184317387640476,
          0.03435065597295761,
          0.009139541536569595,
          0.13210488855838776,
          -0.07931703329086304,
          -0.1265576332807541,
          0.03329326957464218,
          0.04503146559000015,
          -0.19295023381710052,
          0.038578420877456665,
          0.14737071096897125,
          0.07804738730192184,
          0.053149979561567307,
          0.0,
          0.0,
          -0.1466396301984787,
          -0.11052905768156052,
          -0.06870880722999573,
          0.07168202102184296,
          0.07746734470129013,
          0.02493433654308319,
          -0.0905865728855133,
          0.0478816032409668,
          -0.009456563740968704,
          0.0591716505587101,
          -0.010066310875117779,
          -0.10220270603895187,
          -0.09581390023231506,
          0.03705943003296852,
          0.0,
          0.0,
          0.12623164057731628,
          0.13620299100875854,
          0.07429833710193634,
          -0.13054399192333221,
          0.051905348896980286,
          -0.1058000847697258,
          -0.007652002852410078,
          -0.017263878136873245,
          0.12341408431529999,
          -0.05950535088777542,
          0.09425357729196548,
          -0.08139816671609879,
          0.12028906494379044,
          -0.03665134683251381,
          0.0,
          0.0,
          -0.07353103160858154,
          0.08510791510343552,
          -0.03019283153116703,
          0.006578146480023861,
          0.10564630478620529,
          -0.002530390862375498,
          0.0636182576417923,
          0.06475209444761276,
          0.020565712824463844,
          0.05104547739028931,
          -0.040562499314546585,
          0.0030654489528387785,
          -0.016314983367919922,
          0.06412186473608017,
          0.0,
          0.0
        ],
        [
          0.12743771076202393,
          0.0813714936375618,
          -0.10850325971841812,
          -0.007441935129463673,
          -0.10648342221975327,
          0.03182481229305267,
          -0.04216887429356575,
          0.07364021241664886,
          0.056664589792490005,
          -0.06563178449869156,
          0.10667677968740463,
          -0.012492405250668526,
          -0.03398953005671501,
          0.03263290971517563,
          0.0,
          0.0,
          0.04953492060303688,
          -0.036005984991788864,
          0.0735737532377243,
          -0.05929219350218773,
          0.016176607459783554,
          0.12326203286647797,
          0.061075907200574875,
          0.03481326624751091,
          0.04413905367255211,
          0.012027720920741558,
          -0.09746787697076797,
          0.04372785985469818,
          0.05198614299297333,
          -0.11879236996173859,
          0.0,
          0.0,
          -0.005264634266495705,
          0.04635343328118324,
          -0.10858182609081268,
          0.13866278529167175,
          0.04722645506262779,
          -0.13949361443519592,
          0.0386965349316597,
          0.016357887536287308,
          -0.060491111129522324,
          -0.0433402843773365,
          0.0862274020910263,
          0.056622911244630814,
          0.05174541100859642,
          -0.11971867829561234,
          0.0,
          0.0,
          0.015425411984324455,
          -0.059828732162714005,
          0.16456696391105652,
          0.16116032004356384,
          -0.07439643144607544,
          0.12973597645759583,
          0.16469454765319824,
          -0.0025537170004099607,
          -0.09134680032730103,
          0.04645905643701553,
          -0.13505837321281433,
          -0.07393603771924973,
          0.026057448238134384,
          0.05501082167029381,
          0.0,
          0.0
        ],
        [
          0.06774833798408508,
          -0.06324759870767593,
          -0.18900224566459656,
          -0.019293444231152534,
          -0.057961367070674896,
          -0.10866817831993103,
          -0.05404878780245781,
          -0.07231591641902924,
          -0.046511344611644745,
          -0.07902797311544418,
          0.19346056878566742,
          0.18176183104515076,
          0.1266121119260788,
          -0.15074951946735382,
          0.0,
          0.0,
          -0.10962088406085968,
          0.12784969806671143,
          0.025000881403684616,
          0.0018324624979868531,
          0.16318349540233612,
          0.00861018430441618,
          -0.06843525171279907,
          -0.04586060717701912,
          0.11632268130779266,
          -0.06529618054628372,
          -0.017477912828326225,
          -0.05829288065433502,
          0.10349421948194504,
          0.06993594020605087,
          0.0,
          0.0,
          0.0447998009622097,
          0.07521367073059082,
          0.06063014641404152,
          -0.05560524761676788,
          0.06056402623653412,
          -0.05182502791285515,
          -0.014013606123626232,
          -0.04559271037578583,
          -0.02089952677488327,
          0.049615275114774704,
          -0.048900213092565536,
          -0.07176569104194641,
          0.029029278084635735,
          -0.07607319951057434,
          0.0,
          0.0,
          -0.07389853149652481,
          -0.03254975378513336,
          0.17302030324935913,
          -0.07806113362312317,
          -0.08921510726213455,
          -0.005651251412928104,
          -0.07598746567964554,
          0.02943643368780613,
          -0.088726706802845,
          0.0599510483443737,
          0.10606326162815094,
          0.0380396731197834,
          -0.01806110516190529,
          0.020991038531064987,
          0.0,
          0.0
        ],
        [
          -0.13736607134342194,
          -0.1814616173505783,
          -0.030527200549840927,
          -0.05562438815832138,
          -0.020960984751582146,
          -0.12369180470705032,
          0.0317089669406414,
          -0.04493028670549393,
          -0.07300356030464172,
          -0.15058328211307526,
          -0.012389800511300564,
          0.15920071303844452,
          0.12900786101818085,
          0.05627783015370369,
          0.0,
          0.0,
          0.010826210491359234,
          0.03746900334954262,
          0.05265120789408684,
          -0.08064766973257065,
          -0.10833585262298584,
          0.08160247653722763,
          0.053830601274967194,
          -0.0451371856033802,
          -0.13291259109973907,
          0.048695504665374756,
          0.12738507986068726,
          -0.076535664498806,
          -0.05720506235957146,
          0.02591743879020214,
          0.0,
          0.0,
          0.12203754484653473,
          -0.043079275637865067,
          0.09936739504337311,
          -0.057200219482183456,
          0.091475710272789,
          -0.001470527146011591,
          0.0642843097448349,
          -0.024495478719472885,
          -0.01367999892681837,
          0.026863764971494675,
          -0.00753521453589201,
          0.022562190890312195,
          0.0791112557053566,
          0.1075686663389206,
          0.0,
          0.0,
          0.06756063550710678,
          0.005392049439251423,
          -0.037883270531892776,
          0.10252593457698822,
          0.0723724216222763,
          -0.020134951919317245,
          0.08954352885484695,
          -0.08866722136735916,
          -0.11263557523488998,
          -0.0742180347442627,
          -0.06382553279399872,
          -0.048587724566459656,
          -0.04555804654955864,
          -0.060013458132743835,
          0.0,
          0.0
        ],
        [
          -0.1851712167263031,
          0.0695672482252121,
          0.07628804445266724,
          0.1151336133480072,
          -0.10381302237510681,
          -0.04980367049574852,
          -0.09582140296697617,
          0.057775113731622696,
          0.054115090519189835,
          -0.012788327410817146,
          -0.0614769347012043,
          -0.031248589977622032,
          -0.009727624244987965,
          -0.016168732196092606,
          0.0,
          0.0,
          0.007152026519179344,
          -0.05732208490371704,
          -0.09807922691106796,
          -0.18036551773548126,
          -0.07864721119403839,
          -0.02971399389207363,
          -0.04656457528471947,
          -0.094026118516922,
          -0.1286892592906952,
          -0.053523048758506775,
          0.054906945675611496,
          -0.04225345328450203,
          -0.14039398729801178,
          0.014259002171456814,
          0.0,
          0.0,
          0.09241589158773422,
          0.021221602335572243,
          -0.11768584698438644,
          0.04604034125804901,
          -0.07444685697555542,
          0.11981066316366196,
          0.007027652580291033,
          -0.15555711090564728,
          0.015275822952389717,
          -0.013831257820129395,
          0.039028365164995193,
          0.05552200973033905,
          -0.07740136235952377,
          0.07106202840805054,
          0.0,
          0.0,
          0.13143879175186157,
          0.06719795614480972,
          -0.07056031376123428,
          0.049903180450201035,
          -0.11401790380477905,
          -0.07571177184581757,
          -0.09484546631574631,
          -0.020864607766270638,
          -0.08876684308052063,
          -0.010402148589491844,
          0.0148030836135149,
          0.10469341278076172,
          -0.09051989018917084,
          0.052832990884780884,
          0.0,
          0.0
        ],
        [
          -0.2152467966079712,
          0.11726155877113342,
          0.09436260163784027,
          0.16598881781101227,
          -0.10597588121891022,
          0.12609197199344635,
          -0.10659697651863098,
          -0.11329974234104156,
          -0.0700886994600296,
          -0.15386612713336945,
          -0.030741676688194275,
          0.0707852840423584,
          0.04188065230846405,
          -0.08076270669698715,
          0.0,
          0.0,
          -0.07341551780700684,
          -0.04635445773601532,
          -0.011501789093017578,
          -0.07853060215711594,
          -0.07363651692867279,
          -0.012108386494219303,
          -0.13955983519554138,
          0.03056877851486206,
          -0.00037327269092202187,
          -0.01663251966238022,
          -0.05254712700843811,
          -0.10090722143650055,
          0.047216884791851044,
          -0.07383882999420166,
          0.0,
          0.0,
          -0.13267944753170013,
          0.09305580705404282,
          -0.026204107329249382,
          -0.01932610012590885,
          -0.02600107155740261,
          0.12456735968589783,
          0.09901925176382065,
          -0.024221355095505714,
          -0.009768258780241013,
          0.1475098729133606,
          -0.06059747934341431,
          -0.02404799498617649,
          0.0012463609455153346,
          0.0047374810092151165,
          0.0,
          0.0,
          -0.07583218067884445,
          -0.07541689276695251,
          0.09370239824056625,
          0.06645195186138153,
          0.06843411177396774,
          -0.07062646001577377,
          0.07653576880693436,
          -0.08919628709554672,
          -0.05035492032766342,
          0.016173552721738815,
          0.005420524161309004,
          -0.10645414888858795,
          -0.13501735031604767,
          0.0227523110806942,
          0.0,
          0.0
        ],
        [
          -0.07512755692005157,
          0.11298970133066177,
          -0.1566419154405594,
          0.07219245284795761,
          0.08452034741640091,
          -0.058238886296749115,
          -0.015871882438659668,
          -0.06643896549940109,
          0.07134497165679932,
          0.03551642596721649,
          -0.018217580392956734,
          -0.05370251089334488,
          0.08207172155380249,
          -0.016808513551950455,
          0.0,
          0.0,
          0.11006437987089157,
          0.014559541828930378,
          0.04793168604373932,
          -0.060132481157779694,
          -0.18505559861660004,
          0.06654321402311325,
          0.1513167768716812,
          -0.05217358469963074,
          0.08743458986282349,
          0.04625691846013069,
          -0.1794152855873108,
          -0.07005934417247772,
          0.115752212703228,
          -0.04931863397359848,
          0.0,
          0.0,
          0.016124302521348,
          -0.12924259901046753,
          0.034115005284547806,
          -0.04308860003948212,
          0.038128286600112915,
          -0.16463790833950043,
          -0.1199764609336853,
          -0.013704994693398476,
          -0.10041993856430054,
          0.02948736399412155,
          -0.02691405825316906,
          0.0780147910118103,
          0.11205604672431946,
          -0.11087734997272491,
          0.0,
          0.0,
          0.1278890073299408,
          0.09908229857683182,
          0.06014467403292656,
          -0.08198021352291107,
          -0.00634957617148757,
          -0.0650557428598404,
          0.09757158160209656,
          -0.002701670629903674,
          0.0860668420791626,
          -0.0824674442410469,
          -0.10979359596967697,
          0.1621403843164444,
          -0.142658993601799,
          -0.16567885875701904,
          0.0,
          0.0
        ],
        [
          -0.17273975908756256,
          -0.02664295956492424,
          -0.23408815264701843,
          0.08660730719566345,
          0.07944983243942261,
          -0.02904295176267624,
          -0.016087928786873817,
          -0.1332717090845108,
          -0.15994767844676971,
          0.016225149855017662,
          0.05257786810398102,
          0.05548439547419548,
          0.13340185582637787,
          -0.01976301334798336,
          0.0,
          0.0,
          -0.05348702520132065,
          0.11832135170698166,
          0.0092691071331501,
          0.0876777395606041,
          0.03095553070306778,
          -0.0011663328623399138,
          0.04494741931557655,
          0.09980014711618423,
          -0.10667590796947479,
          0.023406025022268295,
          -0.023447997868061066,
          -0.030899157747626305,
          -0.008939565159380436,
          -0.02001257799565792,
          0.0,
          0.0,
          -0.03437463566660881,
          0.059884265065193176,
          -0.08371534198522568,
          -0.06116999685764313,
          -0.016485879197716713,
          0.08168705552816391,
          0.04872846603393555,
          0.06025242432951927,
          -0.016278542578220367,
          0.06411711871623993,
          0.12333286553621292,
          0.056503117084503174,
          -0.07573466747999191,
          0.06222908943891525,
          0.0,
          0.0,
          -0.014632416889071465,
          0.06308920681476593,
          -0.03551425412297249,
          0.045672014355659485,
          0.03104265406727791,
          -0.07040596753358841,
          -0.06689269840717316,
          -0.11713999509811401,
          -0.0004848888493143022,
          0.06596322357654572,
          -0.05991872400045395,
          0.08016631007194519,
          -0.005098876543343067,
          0.03529217466711998,
          0.0,
          0.0
        ],
        [
          0.10248619318008423,
          0.18189121782779694,
          -0.14535294473171234,
          0.09832514822483063,
          -0.0014892154140397906,
          -0.06679248809814453,
          -0.0990079790353775,
          -0.13143883645534515,
          -0.11510132998228073,
          -0.003243153216317296,
          -0.04882900416851044,
          0.05580887198448181,
          -0.06740657240152359,
          0.06610187888145447,
          0.0,
          0.0,
          0.09159673750400543,
          0.19404034316539764,
          -0.13211162388324738,
          0.018046297132968903,
          0.06721789389848709,
          0.08869488537311554,
          0.16732023656368256,
          -0.037762466818094254,
          -0.06102631986141205,
          -0.06766651570796967,
          -0.002151954686269164,
          -0.016208482906222343,
          -0.09018806368112564,
          -0.07667103409767151,
          0.0,
          0.0,
          -0.049559336155653,
          0.10661234706640244,
          -0.09517484158277512,
          0.039576880633831024,
          0.037922728806734085,
          0.07816990464925766,
          -0.08078296482563019,
          -0.04177393391728401,
          0.03835311159491539,
          0.03594386950135231,
          0.003231088863685727,
          -0.13665583729743958,
          -0.006577957887202501,
          0.09964237362146378,
          0.0,
          0.0,
          0.036725327372550964,
          -0.06856968253850937,
          -0.08831002563238144,
          -0.1216464638710022,
          0.005953619256615639,
          0.07766562700271606,
          0.007383446209132671,
          0.05707734450697899,
          0.0999101921916008,
          0.07564043253660202,
          0.09896661341190338,
          -0.11508079618215561,
          0.04859805107116699,
          0.07676555961370468,
          0.0,
          0.0
        ],
        [
          0.13738244771957397,
          -0.17184725403785706,
          0.09907711297273636,
          -0.17077921330928802,
          -0.044361334294080734,
          0.07988867908716202,
          -0.032156482338905334,
          -0.09592419117689133,
          -0.06217489764094353,
          0.08430938422679901,
          -0.030380548909306526,
          -0.049429815262556076,
          0.09796611964702606,
          -0.0715293139219284,
          0.0,
          0.0,
          0.07966000586748123,
          0.060223523527383804,
          -0.1512647569179535,
          -0.04491404443979263,
          -0.1273338496685028,
          0.06201823800802231,
          0.012138561345636845,
          -0.07707085460424423,
          0.17022591829299927,
          0.01702268049120903,
          0.014045155607163906,
          -0.009361956268548965,
          0.14299289882183075,
          -0.13532410562038422,
          0.0,
          0.0,
          -0.07862675935029984,
          -0.06394548714160919,
          0.006619854364544153,
          0.151724711060524,
          0.019204337149858475,
          -0.03411155939102173,
          0.13485603034496307,
          -0.0729999989271164,
          -0.10988515615463257,
          0.21320882439613342,
          0.0799160823225975,
          -0.18283018469810486,
          -0.14259521663188934,
          -0.0269413273781538,
          0.0,
          0.0,
          0.07849609851837158,
          -0.00342612829990685,
          0.010087589733302593,
          0.024651192128658295,
          -0.05648993328213692,
          0.10078563541173935,
          0.07530634105205536,
          0.04678947106003761,
          -0.02045006863772869,
          -0.012193821370601654,
          0.031020479276776314,
          0.06943054497241974,
          0.08718662708997726,
          0.02519000694155693,
          0.0,
          0.0
        ],
        [
          -0.04647529497742653,
          -0.32052749395370483,
          0.22888340055942535,
          0.18261224031448364,
          0.10673795640468597,
          -0.046846963465213776,
          -0.14877232909202576,
          -0.04051796719431877,
          -0.02578222192823887,
          -0.036375947296619415,
          -0.16004346311092377,
          0.010715771466493607,
          -0.11953119933605194,
          0.009795112535357475,
          0.0,
          0.0,
          0.04049454629421234,
          -0.005164785776287317,
          -0.06746764481067657,
          -0.04160426929593086,
          0.014485735446214676,
          -0.09613610059022903,
          0.15084634721279144,
          -0.05711556226015091,
          0.13355214893817902,
          -0.05048001557588577,
          -0.05359877273440361,
          0.039639197289943695,
          0.06817342340946198,
          -0.01902603916823864,
          0.0,
          0.0,
          0.11244617402553558,
          -0.05200112983584404,
          0.053671520203351974,
          0.08336877077817917,
          0.07958532124757767,
          -0.01059543527662754,
          -0.20820052921772003,
          -0.06567639857530594,
          -0.08665454387664795,
          0.08166468888521194,
          0.11126340180635452,
          -0.0007845637737773359,
          0.004320261999964714,
          0.031945064663887024,
          0.0,
          0.0,
          -0.021862147375941277,
          -0.023474227637052536,
          -0.06542146950960159,
          -0.029023658484220505,
          -0.09992004930973053,
          0.06754256784915924,
          0.003321298398077488,
          0.03861592337489128,
          0.02028721198439598,
          -0.055226583033800125,
          -0.06657202541828156,
          0.0776137262582779,
          0.10655824840068817,
          0.01991640031337738,
          0.0,
          0.0
        ],
        [
          -0.14748701453208923,
          0.07277237623929977,
          -0.07626482099294662,
          0.013245071284472942,
          0.14103488624095917,
          0.06458817422389984,
          -0.0505218505859375,
          -0.09472568333148956,
          -0.0614938884973526,
          -0.036016009747982025,
          0.11776351183652878,
          0.021251315250992775,
          0.17504256963729858,
          -0.1098790168762207,
          0.0,
          0.0,
          0.07661320269107819,
          0.04190446436405182,
          0.07488985359668732,
          -0.010152710601687431,
          -0.13318057358264923,
          0.1208687275648117,
          0.009249737486243248,
          -0.1342557966709137,
          -0.04405971243977547,
          0.05954713374376297,
          -0.12641750276088715,
          0.011730538681149483,
          -0.010630767792463303,
          -0.10256561636924744,
          0.0,
          0.0,
          -0.04636622592806816,
          -0.12335104495286942,
          -0.03784909471869469,
          0.0231936052441597,
          0.13787291944026947,
          0.09468089044094086,
          -0.1433056890964508,
          0.022150160744786263,
          0.01276290975511074,
          0.008084295317530632,
          0.08623817563056946,
          0.019332177937030792,
          0.02514670416712761,
          -0.0744757130742073,
          0.0,
          0.0,
          0.08468993008136749,
          0.042243167757987976,
          0.12047523260116577,
          0.14003150165081024,
          -0.16671451926231384,
          -0.04496282711625099,
          -0.006450825370848179,
          0.027775077149271965,
          0.12203578650951385,
          0.050849154591560364,
          -0.08517223596572876,
          0.008472703397274017,
          -0.07531613856554031,
          0.03973422572016716,
          0.0,
          0.0
        ],
        [
          -0.1463833600282669,
          0.1718502938747406,
          0.022443488240242004,
          -0.04642338678240776,
          0.019197721034288406,
          -0.18806695938110352,
          -0.05499843508005142,
          0.10958244651556015,
          0.15908879041671753,
          0.09347942471504211,
          -0.033596452325582504,
          -0.06556577235460281,
          -0.11590340733528137,
          -0.14860980212688446,
          0.0,
          0.0,
          0.016023462638258934,
          0.0634155124425888,
          -0.032224319875240326,
          -0.015762124210596085,
          0.020709186792373657,
          -0.05983004719018936,
          0.046156883239746094,
          0.06966422498226166,
          0.04505639523267746,
          0.10786758363246918,
          0.027920154854655266,
          0.07156112045049667,
          0.08191455155611038,
          0.019514037296175957,
          0.0,
          0.0,
          0.03291125223040581,
          -0.010697424411773682,
          0.1281431019306183,
          -0.039619144052267075,
          -0.033449672162532806,
          0.019433263689279556,
          -0.012574732303619385,
          0.04080454260110855,
          -0.03420744463801384,
          0.02536080591380596,
          -0.009824647568166256,
          -0.0438092015683651,
          -0.07110612094402313,
          -0.08577578514814377,
          0.0,
          0.0,
          0.021089794114232063,
          -0.1584051102399826,
          -0.006977234501391649,
          0.12626004219055176,
          0.15051010251045227,
          0.07748562097549438,
          -0.04790717363357544,
          0.005316511262208223,
          0.13042955100536346,
          -0.1543753743171692,
          0.021905746310949326,
          -0.04473874717950821,
          0.09770093858242035,
          0.02297709695994854,
          0.0,
          0.0
        ],
        [
          0.021122584119439125,
          -0.103456050157547,
          -0.09264066070318222,
          -0.15637139976024628,
          0.014915268868207932,
          0.03882569447159767,
          -0.003897267859429121,
          -0.09381032735109329,
          -0.11452531069517136,
          -0.09156094491481781,
          -0.024019386619329453,
          0.06355775892734528,
          -0.12215574830770493,
          0.02004203014075756,
          0.0,
          0.0,
          -0.14955240488052368,
          0.12494880706071854,
          0.07436259835958481,
          0.053246159106492996,
          -0.004319670610129833,
          -0.03843056410551071,
          -0.038970429450273514,
          0.13140390813350677,
          0.1234595775604248,
          0.03281397745013237,
          -0.07155129313468933,
          0.11016368865966797,
          -0.043280746787786484,
          -0.11630874872207642,
          0.0,
          0.0,
          -0.08129993826150894,
          -0.062066931277513504,
          0.07903312146663666,
          0.03610643371939659,
          0.030623408034443855,
          0.021926898509263992,
          0.17777250707149506,
          0.15901120007038116,
          0.07833181321620941,
          0.12887080013751984,
          -0.10815171152353287,
          -0.09103768318891525,
          -0.005479039624333382,
          -0.0994730293750763,
          0.0,
          0.0,
          -0.08535078167915344,
          -0.07633806020021439,
          0.08592934906482697,
          0.03228626772761345,
          0.059620507061481476,
          0.11132417619228363,
          0.015753421932458878,
          0.05362676829099655,
          -0.0797785222530365,
          -0.010451403446495533,
          -0.02062102220952511,
          0.0522235631942749,
          -0.05547152832150459,
          0.039266541600227356,
          0.0,
          0.0
        ],
        [
          0.034479472786188126,
          -0.09648042917251587,
          -0.008327407762408257,
          -0.06311357766389847,
          0.12323348969221115,
          0.09841831028461456,
          0.015368272550404072,
          -0.06187315285205841,
          0.15353748202323914,
          0.011848106980323792,
          -0.17998257279396057,
          -0.02669420838356018,
          0.08620607107877731,
          -0.0658891573548317,
          0.0,
          0.0,
          -0.07585558295249939,
          -0.02055327594280243,
          -0.0079068373888731,
          -0.03061094507575035,
          0.15127232670783997,
          0.106990747153759,
          0.1055331900715828,
          -0.012377016246318817,
          0.10924196988344193,
          0.02626221440732479,
          0.03978509455919266,
          -0.01712731644511223,
          0.1541314274072647,
          -0.12559223175048828,
          0.0,
          0.0,
          -0.03276100754737854,
          0.045841868966817856,
          -0.1055326759815216,
          -0.03909731283783913,
          -0.1065017431974411,
          0.1359565258026123,
          -0.05301274359226227,
          0.04879337549209595,
          -0.015920015051960945,
          -0.0141660887748003,
          0.017531435936689377,
          -0.20192237198352814,
          -0.15241539478302002,
          -0.03183375298976898,
          0.0,
          0.0,
          -0.030743012204766273,
          0.0737379938364029,
          0.031046023592352867,
          0.014617097564041615,
          0.017982469871640205,
          -0.0568719282746315,
          -0.049499206244945526,
          0.05735650658607483,
          0.029703890904784203,
          0.0630415827035904,
          0.10474412143230438,
          -0.041527457535266876,
          -0.12290697544813156,
          -0.1091165766119957,
          0.0,
          0.0
        ],
        [
          -0.047655317932367325,
          -0.02070612460374832,
          0.1642545908689499,
          0.17362810671329498,
          0.14813461899757385,
          -0.11862528324127197,
          -0.11281388998031616,
          0.029078124091029167,
          0.02615000680088997,
          -0.06063343212008476,
          -0.0611737035214901,
          -0.02070555090904236,
          -0.04032091051340103,
          -0.13292136788368225,
          0.0,
          0.0,
          -0.08933983743190765,
          0.03794437274336815,
          0.08505139499902725,
          -0.11594242602586746,
          0.20346279442310333,
          -0.037639547139406204,
          -0.01640981435775757,
          0.04012400284409523,
          0.03465598076581955,
          0.17479513585567474,
          0.06712581217288971,
          0.11902295053005219,
          -0.008492179214954376,
          0.07517143338918686,
          0.0,
          0.0,
          -0.04443858191370964,
          -0.1478658765554428,
          0.03634132444858551,
          -0.012045512907207012,
          0.0780014917254448,
          -0.06855563074350357,
          -0.15411826968193054,
          0.1506447046995163,
          0.08870372921228409,
          -0.0491175577044487,
          -0.04405499994754791,
          0.09612707048654556,
          -0.002889955649152398,
          -0.07556208968162537,
          0.0,
          0.0,
          -0.09774132817983627,
          0.13131771981716156,
          0.058636054396629333,
          -0.0005472978227771819,
          -0.07106368988752365,
          0.055428002029657364,
          -0.07838048785924911,
          0.02810465171933174,
          -0.039414796978235245,
          0.05426456034183502,
          0.11933621764183044,
          0.11228795349597931,
          -0.1291208267211914,
          0.022690346464514732,
          0.0,
          0.0
        ],
        [
          0.023269759491086006,
          0.18082311749458313,
          -0.052380356937646866,
          -0.056347768753767014,
          -0.037253737449645996,
          -0.07069691270589828,
          -0.015830378979444504,
          -0.059838760644197464,
          -0.13222695887088776,
          0.11722821742296219,
          0.02878797985613346,
          -0.04372497648000717,
          0.006331020966172218,
          -0.032314691692590714,
          0.0,
          0.0,
          -0.09146583080291748,
          -0.08451642096042633,
          0.015696799382567406,
          -0.03786187991499901,
          -0.14007173478603363,
          -0.04186219722032547,
          -0.06522763520479202,
          -0.10953601449728012,
          -0.06739012151956558,
          0.15639819204807281,
          -0.13844355940818787,
          -0.026674507185816765,
          0.03260735422372818,
          -0.04199311137199402,
          0.0,
          0.0,
          -0.06470409780740738,
          0.1863493174314499,
          0.06052997335791588,
          0.06908653676509857,
          -0.054213058203458786,
          -0.05904461443424225,
          0.13301602005958557,
          0.14008785784244537,
          -0.01697711832821369,
          -0.01750042848289013,
          -0.03669779375195503,
          -0.13329532742500305,
          -0.03563042730093002,
          -0.20148536562919617,
          0.0,
          0.0,
          -0.06748838722705841,
          0.015709390863776207,
          -0.0045399777591228485,
          0.002332888776436448,
          0.0928184762597084,
          0.08669882267713547,
          0.09880118072032928,
          -0.029445093125104904,
          -0.013443199917674065,
          0.028039690107107162,
          -0.07732915133237839,
          0.09365189075469971,
          0.03103339485824108,
          0.01836673729121685,
          0.0,
          0.0
        ],
        [
          -0.2022227942943573,
          0.06431837379932404,
          0.10746902972459793,
          0.004220862872898579,
          0.1376412957906723,
          -0.13614597916603088,
          0.02080613747239113,
          -0.11605536192655563,
          0.006906614173203707,
          0.08737746626138687,
          -0.010428188368678093,
          0.0001669866032898426,
          -0.02665400132536888,
          -0.027544958516955376,
          0.0,
          0.0,
          -0.049861133098602295,
          0.12422001361846924,
          0.0788087397813797,
          -0.044512759894132614,
          -0.09376011788845062,
          -0.05344496667385101,
          0.06734514236450195,
          -0.05076482146978378,
          0.02514590136706829,
          0.02072220668196678,
          -0.0314968004822731,
          -0.03984824940562248,
          -0.16458667814731598,
          -0.0385410338640213,
          0.0,
          0.0,
          0.12969103455543518,
          0.07203387469053268,
          0.05490805208683014,
          -0.06057499349117279,
          -0.08592008799314499,
          -0.004136424511671066,
          0.13413800299167633,
          -0.1148262470960617,
          -0.12935690581798553,
          0.04669477790594101,
          -0.09778055548667908,
          -0.0870661586523056,
          -0.18407295644283295,
          0.09690971672534943,
          0.0,
          0.0,
          0.04851347208023071,
          -0.03271017223596573,
          -0.1307370364665985,
          0.0720062106847763,
          -0.03626632317900658,
          0.12379425764083862,
          -0.0266003105789423,
          -0.005457908380776644,
          -0.1457306146621704,
          -0.05249479040503502,
          0.10287385433912277,
          0.12038546800613403,
          -0.06476157158613205,
          0.07605535537004471,
          0.0,
          0.0
        ],
        [
          -0.042621150612831116,
          0.057903729379177094,
          0.126591295003891,
          0.11102331429719925,
          0.12473880499601364,
          0.03343057632446289,
          0.0683802142739296,
          -0.12254443019628525,
          -0.11441360414028168,
          0.038981277495622635,
          0.09097389131784439,
          0.11361774802207947,
          -0.004015995189547539,
          -0.11074645072221756,
          0.0,
          0.0,
          0.10625603795051575,
          0.020604226738214493,
          0.10102174431085587,
          -0.05777769163250923,
          0.048803381621837616,
          0.06771346181631088,
          0.021981945261359215,
          0.14393825829029083,
          0.11226165294647217,
          0.07164529711008072,
          -0.14211511611938477,
          0.04106748104095459,
          0.0033553275279700756,
          -0.07242176681756973,
          0.0,
          0.0,
          -0.08862023055553436,
          0.10411467403173447,
          -0.00416976073756814,
          -0.0977410301566124,
          -0.16780439019203186,
          -0.08946123719215393,
          -0.05476861819624901,
          -0.09641937911510468,
          0.05599953979253769,
          0.0036132370587438345,
          -0.05572238191962242,
          -0.0890527293086052,
          -0.01894492655992508,
          -0.09217508137226105,
          0.0,
          0.0,
          0.04283531755208969,
          0.014377407729625702,
          -0.09370144456624985,
          0.017732251435518265,
          -0.11706016957759857,
          0.018223097547888756,
          -0.059307120740413666,
          -0.08288952708244324,
          0.061321962624788284,
          -0.007215293124318123,
          0.08683177828788757,
          0.05371639505028725,
          0.05326595529913902,
          -0.07328864187002182,
          0.0,
          0.0
        ],
        [
          0.08940834552049637,
          0.2441435009241104,
          0.0004534891922958195,
          0.14052286744117737,
          -0.06207188218832016,
          0.04859912768006325,
          0.13163630664348602,
          -0.07674021273851395,
          0.08235782384872437,
          -0.14714975655078888,
          -0.10492905974388123,
          0.09252956509590149,
          0.12461772561073303,
          0.012429882772266865,
          0.0,
          0.0,
          -0.10429482907056808,
          0.03949085250496864,
          0.09374035149812698,
          -0.02915770187973976,
          -0.11758879572153091,
          0.003242598148062825,
          -0.05562055855989456,
          -0.027122007682919502,
          0.017277665436267853,
          0.08451518416404724,
          -0.11911121755838394,
          -0.10845346748828888,
          0.003909625578671694,
          -0.03086773306131363,
          0.0,
          0.0,
          -0.07762214541435242,
          -0.06879949569702148,
          0.09828338772058487,
          -0.003373816842213273,
          0.1307298243045807,
          -0.056493669748306274,
          0.07348363101482391,
          0.07198245823383331,
          0.09314411133527756,
          -0.044091444462537766,
          0.08040439337491989,
          0.056019365787506104,
          0.10871992260217667,
          -0.05429358035326004,
          0.0,
          0.0,
          0.015539221465587616,
          0.024674732238054276,
          0.04760029911994934,
          0.022814370691776276,
          -0.04094840958714485,
          -0.0657503604888916,
          0.06197875365614891,
          -0.001668961369432509,
          -0.03138750419020653,
          -0.06848957389593124,
          0.046691570430994034,
          -0.10434665530920029,
          -0.03741970285773277,
          -0.07257221639156342,
          0.0,
          0.0
        ],
        [
          -0.0749974474310875,
          0.15716710686683655,
          0.13193060457706451,
          -0.02926304191350937,
          -0.10397099703550339,
          -0.07841940224170685,
          -0.02949502132833004,
          -0.09541158378124237,
          -0.008853266946971416,
          -0.10856807231903076,
          0.0511748380959034,
          -0.020883195102214813,
          0.047915469855070114,
          -0.10795365273952484,
          0.0,
          0.0,
          -0.10711294412612915,
          -0.01241324469447136,
          0.046255119144916534,
          -0.029941555112600327,
          -0.04954632744193077,
          0.08810367435216904,
          -0.0441858172416687,
          0.04681801050901413,
          0.07868732511997223,
          0.2248251587152481,
          -0.13230884075164795,
          0.049624476581811905,
          0.06664188951253891,
          -0.03316306322813034,
          0.0,
          0.0,
          -0.02420486882328987,
          -0.08120538294315338,
          0.10786013305187225,
          -0.09506037086248398,
          -0.02041054517030716,
          -0.07347490638494492,
          -0.13068406283855438,
          -0.03806404024362564,
          0.022521238774061203,
          0.035261981189250946,
          -0.21224257349967957,
          -0.09783381968736649,
          -0.16028353571891785,
          -0.03671524301171303,
          0.0,
          0.0,
          0.16998694837093353,
          0.03961041197180748,
          -0.07723066210746765,
          0.050431955605745316,
          -0.07114004343748093,
          -0.05675350874662399,
          -0.0036253395956009626,
          -0.06774266809225082,
          -0.07494818419218063,
          -0.07632530480623245,
          0.08792780339717865,
          -0.012531465850770473,
          -0.13953636586666107,
          -0.02423536218702793,
          0.0,
          0.0
        ],
        [
          -0.1509823352098465,
          -0.24084143340587616,
          -0.25435832142829895,
          0.04419758543372154,
          0.1589040905237198,
          -0.056093282997608185,
          -0.056188806891441345,
          0.0870300903916359,
          0.09366529434919357,
          -0.09528903663158417,
          -0.006273715291172266,
          0.09712332487106323,
          -0.09623356908559799,
          0.05543423816561699,
          0.0,
          0.0,
          0.13584882020950317,
          0.06583297252655029,
          -0.017291083931922913,
          0.0032474156469106674,
          -0.08960264921188354,
          0.11248768866062164,
          -0.020131899043917656,
          -0.14416572451591492,
          0.06440350413322449,
          -0.027935348451137543,
          0.11649152636528015,
          0.057068679481744766,
          -0.024568520486354828,
          0.016464591026306152,
          0.0,
          0.0,
          0.0438392236828804,
          -0.14471116662025452,
          -0.0035257923882454634,
          0.09986922144889832,
          0.09315229207277298,
          -0.09073234349489212,
          0.06565849483013153,
          -0.10267765820026398,
          -0.17775259912014008,
          -0.05917246267199516,
          0.08666675537824631,
          -0.13070717453956604,
          0.013634760864078999,
          0.003771663410589099,
          0.0,
          0.0,
          0.03315239027142525,
          -0.0999358668923378,
          0.00331728789024055,
          0.06197922304272652,
          -0.021598121151328087,
          0.12570922076702118,
          -0.0344792902469635,
          0.061651479452848434,
          0.08823756873607635,
          -0.03552783280611038,
          0.005617836490273476,
          0.07064340263605118,
          -0.09425818920135498,
          0.03473282605409622,
          0.0,
          0.0
        ],
        [
          -0.08269329369068146,
          -0.07952897250652313,
          -0.04370105639100075,
          -0.09264422208070755,
          0.039755068719387054,
          0.14305849373340607,
          -0.06597345322370529,
          -0.018776342272758484,
          0.06425648927688599,
          0.10152298957109451,
          0.08108430355787277,
          0.07077188789844513,
          0.0248431209474802,
          -0.11128071695566177,
          0.0,
          0.0,
          0.027138419449329376,
          -0.07553160190582275,
          0.08473717421293259,
          0.04932164400815964,
          -0.03624085336923599,
          0.0026337974704802036,
          -0.03130532056093216,
          0.12040968239307404,
          -0.14098362624645233,
          0.017227940261363983,
          -0.07240649312734604,
          0.04612502455711365,
          -0.08766847848892212,
          -0.07713714987039566,
          0.0,
          0.0,
          -0.14716430008411407,
          -0.012235420756042004,
          -0.014397731050848961,
          -0.08700532466173172,
          -0.019120654091238976,
          -0.12353338301181793,
          0.07929787784814835,
          -0.0018790637841448188,
          0.1652218997478485,
          0.000511560938321054,
          -0.024411601945757866,
          -0.0577714703977108,
          0.07149837166070938,
          -0.1522579789161682,
          0.0,
          0.0,
          0.1628464162349701,
          0.0380101352930069,
          -0.039414048194885254,
          0.161036878824234,
          0.07758001983165741,
          -0.12159977108240128,
          -0.07855834066867828,
          0.09556587040424347,
          0.09112043678760529,
          0.07129430025815964,
          0.03366725519299507,
          0.06479466706514359,
          -0.02686145342886448,
          0.07378073781728745,
          0.0,
          0.0
        ],
        [
          -0.15225158631801605,
          0.06806839257478714,
          -0.04210337996482849,
          -0.024683739989995956,
          0.04126548022031784,
          0.07902003079652786,
          -0.1578953117132187,
          -0.14965246617794037,
          -0.12011795490980148,
          -0.1478053480386734,
          -0.07851195335388184,
          0.1443227380514145,
          -0.1531977504491806,
          0.09953963756561279,
          0.0,
          0.0,
          0.07282932102680206,
          -0.0992874950170517,
          -0.0557522289454937,
          -0.1461409330368042,
          0.004642050713300705,
          0.008508165366947651,
          -0.14881278574466705,
          -0.09649018943309784,
          -0.07918795943260193,
          0.08861851692199707,
          -0.14406313002109528,
          -0.06447093933820724,
          0.04317978397011757,
          -0.023041093721985817,
          0.0,
          0.0,
          -0.08651585131883621,
          -0.09743557125329971,
          -0.029512764886021614,
          0.011493852362036705,
          -0.05999355763196945,
          -0.05374434217810631,
          0.11191534250974655,
          0.014984063804149628,
          -0.0021588706877082586,
          0.14338484406471252,
          -0.15449267625808716,
          -0.03507375717163086,
          -0.08982810378074646,
          0.019483862444758415,
          0.0,
          0.0,
          -0.008325348608195782,
          0.06381900608539581,
          -0.10885908454656601,
          0.06915754079818726,
          0.09480937570333481,
          0.0572366788983345,
          0.0921720340847969,
          0.055569227784872055,
          -0.054083939641714096,
          -0.06742341071367264,
          -0.028123069554567337,
          0.02170497551560402,
          0.048808563500642776,
          -0.0778096467256546,
          0.0,
          0.0
        ],
        [
          -0.03834091126918793,
          -0.21912850439548492,
          -0.18915659189224243,
          -0.022480914369225502,
          -0.09097185730934143,
          -0.12406308203935623,
          -0.07745900750160217,
          -0.013317727483808994,
          0.04215530678629875,
          -0.07913852483034134,
          -0.20236077904701233,
          -0.04600542038679123,
          -0.17426303029060364,
          -0.07580985873937607,
          0.0,
          0.0,
          0.012121276929974556,
          -0.20135678350925446,
          0.034108903259038925,
          -0.02681146003305912,
          0.022622741758823395,
          -0.042746927589178085,
          0.03747173771262169,
          0.04539303109049797,
          -0.037827782332897186,
          0.048484839498996735,
          0.04279746860265732,
          0.052886877208948135,
          0.07556899636983871,
          -0.0323914997279644,
          0.0,
          0.0,
          -0.025944363325834274,
          0.18136581778526306,
          -0.048294149339199066,
          -0.04364385828375816,
          -0.06883914768695831,
          0.04623516649007797,
          0.039808765053749084,
          -0.025707900524139404,
          0.017294466495513916,
          -0.022822484374046326,
          -0.025683153420686722,
          -0.016069844365119934,
          0.0787290558218956,
          0.03878423571586609,
          0.0,
          0.0,
          -0.012876921333372593,
          0.06867422163486481,
          -0.12206389755010605,
          -0.02365262061357498,
          0.046549294143915176,
          -0.012077316641807556,
          0.011726245284080505,
          0.02662797085940838,
          -0.06806474179029465,
          -0.06296323239803314,
          -0.06973177194595337,
          0.018057119101285934,
          0.04639863595366478,
          -0.13482815027236938,
          0.0,
          0.0
        ],
        [
          -0.1280939280986786,
          0.07962784916162491,
          0.01381373219192028,
          0.14721958339214325,
          0.0029902758542448282,
          0.045565005391836166,
          -0.10361052304506302,
          -0.04870549216866493,
          -0.1396024525165558,
          -0.12185768783092499,
          -0.0667082890868187,
          0.1069871038198471,
          0.059227049350738525,
          -0.005824989173561335,
          0.0,
          0.0,
          -0.11261910945177078,
          -0.08166811615228653,
          0.1576303392648697,
          0.014010424725711346,
          0.08458440005779266,
          0.014912321232259274,
          0.04074244946241379,
          -0.09565562009811401,
          -0.12469790130853653,
          0.09475239366292953,
          -0.01080065593123436,
          -0.1620551347732544,
          -0.05130353942513466,
          -0.08065172284841537,
          0.0,
          0.0,
          0.0410618782043457,
          0.012857137247920036,
          -0.10272898524999619,
          -0.04731527715921402,
          -0.03394101560115814,
          -0.04586254432797432,
          0.0723705142736435,
          0.14239409565925598,
          0.06245950236916542,
          -0.07332047075033188,
          -0.04187662526965141,
          -0.026249580085277557,
          -0.002149373758584261,
          -0.1622370481491089,
          0.0,
          0.0,
          -0.09433155506849289,
          0.12608778476715088,
          -0.042280953377485275,
          0.06745391339063644,
          -0.06233097240328789,
          0.13907235860824585,
          -0.008166946470737457,
          -0.12128220498561859,
          0.02588541805744171,
          0.10024038702249527,
          0.02666487544775009,
          -0.0518447570502758,
          -0.00207958510145545,
          0.013766594231128693,
          0.0,
          0.0
        ],
        [
          -0.1892547756433487,
          -0.04369991272687912,
          0.0752393826842308,
          0.04205554723739624,
          -0.08098464459180832,
          -0.04164619743824005,
          0.07222144305706024,
          0.05669423192739487,
          0.04116304963827133,
          0.043750111013650894,
          0.09920082986354828,
          0.1105237528681755,
          0.1323651373386383,
          -0.05013507977128029,
          0.0,
          0.0,
          -0.030703339725732803,
          0.023061716929078102,
          -0.04076790064573288,
          -0.03931888937950134,
          0.08997993171215057,
          -0.004863745532929897,
          -0.10771816223859787,
          0.03131067752838135,
          0.08885227143764496,
          0.05701278895139694,
          -0.05351865664124489,
          -0.116009421646595,
          -0.02596374787390232,
          -0.0009563955827616155,
          0.0,
          0.0,
          0.05786937475204468,
          -0.07304926961660385,
          0.0722997635602951,
          0.0041407993994653225,
          0.05984806269407272,
          -0.05928882211446762,
          0.0008987179608084261,
          -0.0288247037678957,
          0.013711820356547832,
          0.014226372353732586,
          0.05271104350686073,
          -0.037753187119960785,
          0.05015285313129425,
          -0.05231695622205734,
          0.0,
          0.0,
          0.04046551510691643,
          -0.12587076425552368,
          0.05257317051291466,
          0.0985829085111618,
          -0.07478543370962143,
          -0.049756258726119995,
          -0.03706124797463417,
          -0.026964589953422546,
          0.14094609022140503,
          0.010882222093641758,
          -0.00521222734823823,
          0.037084974348545074,
          -0.13477778434753418,
          -0.16678102314472198,
          0.0,
          0.0
        ],
        [
          -0.07479725778102875,
          0.05061623454093933,
          0.020664624869823456,
          0.13374975323677063,
          -0.05185180902481079,
          0.0007138371001929045,
          -0.08883210271596909,
          -0.009019770659506321,
          -0.025241130962967873,
          0.06858687102794647,
          0.22446592152118683,
          0.08032289147377014,
          0.12298551201820374,
          -0.050591155886650085,
          0.0,
          0.0,
          -0.06368972361087799,
          -0.0024476940743625164,
          -0.04226141422986984,
          0.08577118068933487,
          0.09151630848646164,
          -0.07082723081111908,
          0.0023742597550153732,
          0.04112934321165085,
          0.09596174210309982,
          0.06824764609336853,
          0.06622844934463501,
          0.10639484971761703,
          -0.031032461673021317,
          -0.11719967424869537,
          0.0,
          0.0,
          0.02087324671447277,
          -0.07799188792705536,
          0.07356752455234528,
          0.003570327302441001,
          0.04528908431529999,
          -0.007793895900249481,
          -0.08960816264152527,
          -0.015253339894115925,
          -0.005917493719607592,
          0.046859774738550186,
          -0.04455799609422684,
          -0.14889070391654968,
          0.020057059824466705,
          0.05608442425727844,
          0.0,
          0.0,
          0.11600493639707565,
          0.03453974425792694,
          0.022962816059589386,
          -0.05594634264707565,
          -0.1054832711815834,
          0.08954602479934692,
          0.023402217775583267,
          -0.006664944812655449,
          -0.09724553674459457,
          -0.10045076161623001,
          -0.07772942632436752,
          -0.055623821914196014,
          0.09420831501483917,
          -0.04523720219731331,
          0.0,
          0.0
        ],
        [
          0.015259383246302605,
