{
  "name": "8 genome with regeneration",
  "state_channels": 15,
  "genome_channels": 3,
  "hidden_channels": 9,
  "state_quantization_scale": 4.0,
  "hidden_quantization_scale": 8.0,
  "perception_quantization_scale": 12.0,
  "update_probability": 0.5,
  "layers": [
    {
      "name": "conv1",
      "in_channels": 64,
      "out_channels": 128,
      "activation": "relu",
      "weights": [
        [
          -0.26466479897499084,
          0.01328336726874113,
          -0.13963435590267181,
          0.0049251532182097435,
          0.004701695404946804,
          0.05728358030319214,
          -0.07781089097261429,
          0.029909595847129822,
          -0.01492189709097147,
          0.10869735479354858,
          -0.12815183401107788,
          0.134909987449646,
          -0.16467608511447906,
          0.11538485437631607,
          0.1387305110692978,
          0.0,
          0.07036752998828888,
          -0.0833674743771553,
          -0.11543121933937073,
          0.04383129999041557,
          -0.059139326214790344,
          0.04664842411875725,
          0.09069700539112091,
          -0.14446985721588135,
          -0.017927050590515137,
          -0.010553648695349693,
          -0.11193452030420303,
          0.10555609315633774,
          0.04881080985069275,
          -0.022354641929268837,
          0.025987189263105392,
          0.0,
          0.0965433195233345,
          -0.14233683049678802,
          0.08798542618751526,
          -0.030043069273233414,
          -0.004037159029394388,
          -0.04109102860093117,
          -0.03021921031177044,
          -0.034940965473651886,
          -0.09462844580411911,
          0.07036662846803665,
          0.09030251950025558,
          -0.03147497773170471,
          -0.003944320138543844,
          -0.08611346781253815,
          0.028921620920300484,
          0.0,
          0.07522013038396835,
          -0.11385726928710938,
          0.07571781426668167,
          -0.04750889167189598,
          -0.0414511039853096,
          -0.04483494162559509,
          0.0572480671107769,
          0.03966410085558891,
          -0.052954841405153275,
          -0.0488068126142025,
          0.01681111566722393,
          0.08997774124145508,
          -0.06831087172031403,
          0.05478416755795479,
          -0.042404655367136,
          0.0
        ],
        [
          0.2432919591665268,
          -0.02721506729722023,
          -0.061816517263650894,
          0.03784186393022537,
          -0.10736406594514847,
          0.022213835269212723,
          -0.11707762628793716,
          -0.043493714183568954,
          0.05893746390938759,
          0.10413242131471634,
          0.04931468889117241,
          -0.040135856717824936,
          0.04128263145685196,
          0.11323408782482147,
          0.07392294704914093,
          0.0,
          -0.09019298851490021,
          0.1022898331284523,
          -0.10536470264196396,
          -0.034111469984054565,
          -0.11883712559938431,
          0.11552588641643524,
          0.06067346781492233,
          0.14221101999282837,
          -0.07435651868581772,
          -0.10441964119672775,
          0.11604990065097809,
          -0.1160191223025322,
          -0.07824203372001648,
          0.08818362653255463,
          -0.10127480328083038,
          0.0,
          -0.11987381428480148,
          -0.02486284263432026,
          0.03570907935500145,
          0.05507073923945427,
          -0.039916232228279114,
          -0.05339738726615906,
          0.021258048713207245,
          -0.005753647070378065,
          -0.013366197235882282,
          -0.10092678666114807,
          -0.13544562458992004,
          0.1923072636127472,
          -0.1129923164844513,
          -0.0522998571395874,
          0.0655004158616066,
          0.0,
          0.06257566064596176,
          0.054945044219493866,
          -0.01158546656370163,
          -0.040190648287534714,
          -0.0040669809095561504,
          0.01895792782306671,
          -0.09584775567054749,
          -0.16074730455875397,
          -0.03417457267642021,
          0.0984780490398407,
          0.09840407967567444,
          -0.025427665561437607,
          0.05280066654086113,
          -0.1628853678703308,
          0.0364963598549366,
          0.0
        ],
        [
          -0.049618445336818695,
          0.10340727120637894,
          -0.02955944463610649,
          0.05197758600115776,
          0.03809557110071182,
          -0.04013236612081528,
          -0.17405849695205688,
          0.19327294826507568,
          -0.0277072936296463,
          -0.06148579716682434,
          -0.04207517206668854,
          -0.027726417407393456,
          -0.06398596614599228,
          0.06311851739883423,
          -0.12113316357135773,
          0.0,
          0.07941462099552155,
          -0.07022102922201157,
          -0.08391012996435165,
          -0.042169682681560516,
          -0.02516268752515316,
          0.007083218079060316,
          -0.04410843178629875,
          -0.08639457076787949,
          0.002142993500456214,
          -0.0006339698447845876,
          0.05079793557524681,
          0.02965405210852623,
          -0.012659670785069466,
          -0.09158606082201004,
          0.03255298733711243,
          0.0,
          -0.0005110385245643556,
          -0.0510437898337841,
          0.0740162655711174,
          -0.009224056266248226,
          -0.08112280815839767,
          -0.01942754164338112,
          -0.03050343692302704,
          -0.06356362253427505,
          -0.0021407250314950943,
          0.051962126046419144,
          -0.0940234586596489,
          -0.05862945318222046,
          -0.13089266419410706,
          0.0004387689696159214,
          -0.021675050258636475,
          0.0,
          -0.11169937998056412,
          0.06932449340820312,
          0.04035239666700363,
          -0.039738088846206665,
          0.03954193368554115,
          -0.0027563502080738544,
          0.040236037224531174,
          -0.13551422953605652,
          0.10161004215478897,
          0.06959088146686554,
          -0.021003255620598793,
          0.08267724514007568,
          0.08269934356212616,
          0.05302370339632034,
          0.027288589626550674,
          0.0
        ],
        [
          -0.15095902979373932,
          0.0517311729490757,
          -0.11707797646522522,
          0.10005610436201096,
          -0.05691246688365936,
          -0.07343725860118866,
          -0.10406594723463058,
          0.029403449967503548,
          0.10325072705745697,
          -0.017183182761073112,
          0.06388738751411438,
          0.01239994540810585,
          -0.17773789167404175,
          0.10713276267051697,
          -0.07663031667470932,
          0.0,
          -0.05834230035543442,
          -0.11421991139650345,
          0.11521759629249573,
          -0.06507675349712372,
          0.11570736765861511,
          0.04290779307484627,
          -0.04088350385427475,
          0.07619811594486237,
          0.059011060744524,
          0.08226818591356277,
          -0.0357792042195797,
          0.12210548669099808,
          -0.07715234905481339,
          0.13603878021240234,
          -0.08272335678339005,
          0.0,
          0.13007695972919464,
          0.0547402948141098,
          -0.14994946122169495,
          -0.020978279411792755,
          0.010392270050942898,
          0.06347399204969406,
          0.03193845599889755,
          0.16604776680469513,
          0.10488694161176682,
          -0.10257849842309952,
          -0.07942639291286469,
          0.11148330569267273,
          -0.013172532431781292,
          0.09479120373725891,
          -0.04571995511651039,
          0.0,
          0.08185702562332153,
          -0.04068860411643982,
          -0.04741320386528969,
          -0.03179676830768585,
          -0.08190930634737015,
          0.09632609039545059,
          0.08405760675668716,
          0.015690332278609276,
          -0.04760317876935005,
          0.0707845613360405,
          -0.04752582684159279,
          -0.03711637482047081,
          0.0611751526594162,
          0.09469863027334213,
          -0.038511473685503006,
          0.0
        ],
        [
          -0.06426312774419785,
          0.12400351464748383,
          0.037718914449214935,
          -0.021121196448802948,
          0.0017556622624397278,
          -0.07716142386198044,
          -0.10637502372264862,
          -0.1082826480269432,
          0.010595287196338177,
          0.07739512622356415,
          -0.11881739646196365,
          -0.031111592426896095,
          -0.11430303752422333,
          0.023059261962771416,
          -0.06592569500207901,
          0.0,
          -0.07736220210790634,
          -0.03558478131890297,
          0.05737225338816643,
          -0.12524358928203583,
          0.002166502410545945,
          0.02740452252328396,
          -0.03704920783638954,
          0.08744243532419205,
          -0.1684001088142395,
          0.06284373998641968,
          -0.10622764378786087,
          0.06060563027858734,
          -0.059014733880758286,
          0.079767145216465,
          -0.020133651793003082,
          0.0,
          0.02293991670012474,
          -0.07954767346382141,
          0.009659036062657833,
          -0.05319462716579437,
          -0.07032284885644913,
          0.021380959078669548,
          -0.016247713938355446,
          -0.07971278578042984,
          0.09888951480388641,
          0.07778599113225937,
          0.026300277560949326,
          -0.09539292007684708,
          -0.04596266895532608,
          -0.01314095500856638,
          0.13537369668483734,
          0.0,
          0.09392455965280533,
          -0.15175418555736542,
          0.022784441709518433,
          -0.09294214099645615,
          0.038737956434488297,
          1.0833285159606021e-05,
          0.0775439441204071,
          0.1558854579925537,
          -0.02837110124528408,
          -0.08848647773265839,
          0.10836319625377655,
          -0.0937843844294548,
          -0.024255508556962013,
          0.12203746289014816,
          -0.04749928042292595,
          0.0
        ],
        [
          0.1762498915195465,
          0.04895591735839844,
          -0.12068472057580948,
          0.11562894284725189,
          -0.13505320250988007,
          -0.07680880278348923,
          0.04870966076850891,
          -0.11420820653438568,
          0.10662428289651871,
          -0.030357496812939644,
          0.0701121985912323,
          0.052303384989500046,
          0.06805869191884995,
          -0.07613485306501389,
          -0.05153929069638252,
          0.0,
          -0.033832281827926636,
          -0.05755212530493736,
          0.09286970645189285,
          0.03400900959968567,
          -0.0399593859910965,
          0.08008948713541031,
          -0.03783861920237541,
          0.036504000425338745,
          -0.05581536889076233,
          -0.05615583807229996,
          0.10185647010803223,
          -0.0602138377726078,
          -0.008247497491538525,
          -0.12199317663908005,
          0.10574033111333847,
          0.0,
          -0.05191792920231819,
          -0.04718785360455513,
          -0.05127249285578728,
          0.024209966883063316,
          -0.10295933485031128,
          -0.024677477777004242,
          0.0970822274684906,
          0.0514272041618824,
          0.056287843734025955,
          0.11624816805124283,
          0.03155068680644035,
          0.14697980880737305,
          -0.0949411615729332,
          0.14861765503883362,
          -0.11496783047914505,
          0.0,
          0.00455884262919426,
          0.03618647903203964,
          -0.07493319362401962,
          0.050375837832689285,
          0.06304717063903809,
          0.01669418439269066,
          -0.08584624528884888,
          0.08120805025100708,
          -0.0671735629439354,
          0.09340448677539825,
          -0.013390460051596165,
          0.028846904635429382,
          -0.09640562534332275,
          0.006884830538183451,
          -0.03828107938170433,
          0.0
        ],
        [
          -0.11158353835344315,
          0.25634199380874634,
          0.06255872547626495,
          0.04210163652896881,
          -0.16068477928638458,
          -0.02597659081220627,
          0.03805510327219963,
          -0.005697665736079216,
          -0.08381623774766922,
          -0.140251025557518,
          0.1289825141429901,
          -0.17554934322834015,
          -0.08714774996042252,
          0.10643922537565231,
          -0.16118523478507996,
          0.0,
          -0.10231173038482666,
          0.08078068494796753,
          0.03709077462553978,
          -0.027141915634274483,
          -0.05316929891705513,
          -0.13296598196029663,
          -0.010632256977260113,
          -0.007546858862042427,
          -0.19089826941490173,
          -0.10288692265748978,
          -0.047497641295194626,
          -0.06729486584663391,
          0.00586539413779974,
          -0.14139942824840546,
          0.03182293474674225,
          0.0,
          -0.005253101233392954,
          -0.010443955659866333,
          0.04032459482550621,
          0.012803632766008377,
          -0.09393310546875,
          -0.06949693709611893,
          0.032490912824869156,
          0.06644780933856964,
          -0.061691734939813614,
          -0.1220376193523407,
          0.05838143453001976,
          0.007438763044774532,
          0.13753655552864075,
          0.003803408471867442,
          0.0415869876742363,
          0.0,
          0.1188107430934906,
          -0.11671777069568634,
          0.005766745191067457,
          -0.00021740565716754645,
          -0.025887981057167053,
          -0.03668259084224701,
          -0.016932155936956406,
          0.0065419478341937065,
          0.03827056661248207,
          -0.062062282115221024,
          -0.06694695353507996,
          -0.06594119220972061,
          0.04600973427295685,
          0.026525376364588737,
          0.01684178039431572,
          0.0
        ],
        [
          -0.11503557860851288,
          0.21743428707122803,
          0.34711894392967224,
          0.06275492161512375,
          -0.18010644614696503,
          0.039729777723550797,
          0.02450537495315075,
          0.04308149591088295,
          -0.10446275025606155,
          -0.040424346923828125,
          0.09364520013332367,
          -0.05559699609875679,
          0.047433461993932724,
          -0.016634205356240273,
          -0.22811399400234222,
          0.0,
          -0.03342150151729584,
          -0.030109301209449768,
          0.07552438974380493,
          0.010766486637294292,
          -0.009738254360854626,
          0.07386131584644318,
          -0.020542707294225693,
          0.021246377378702164,
          -0.03847362473607063,
          -0.024374447762966156,
          0.06072188541293144,
          0.04334007948637009,
          -0.13522331416606903,
          0.10789553076028824,
          0.004368795081973076,
          0.0,
          0.03580865636467934,
          -0.1376640498638153,
          0.00724682305008173,
          -0.08926226943731308,
          0.032011400908231735,
          -0.0034788502380251884,
          0.006333106197416782,
          0.01650138571858406,
          0.05267632380127907,
          -0.028144633397459984,
          0.11519496887922287,
          -0.045557621866464615,
          0.07545096427202225,
          -0.007701432332396507,
          0.020662851631641388,
          0.0,
          0.06881935894489288,
          -0.0576062873005867,
          -0.03497447818517685,
          -0.03135652467608452,
          0.01519920863211155,
          -0.03199445828795433,
          0.020161738619208336,
          -0.04228135943412781,
          0.021503955125808716,
          0.021595334634184837,
          -0.021818792447447777,
          -0.03217943757772446,
          0.024524303153157234,
          0.016211995854973793,
          0.019404731690883636,
          0.0
        ],
        [
          0.07262580096721649,
          0.08499675989151001,
          0.0889236256480217,
          -0.07004260271787643,
          0.018489209935069084,
          -0.051037225872278214,
          -0.09847205877304077,
          -0.10488931834697723,
          -0.04408024996519089,
          0.0938229039311409,
          0.05054815858602524,
          -0.016913369297981262,
          0.03516628220677376,
          0.10687895864248276,
          0.15398290753364563,
          0.0,
          0.08798188716173172,
          -0.07957591116428375,
          -0.011589295230805874,
          0.027206385508179665,
          -0.13094668090343475,
          -0.06327469646930695,
          0.0036765988916158676,
          -0.130684494972229,
          -0.11053362488746643,
          0.02477915771305561,
          -0.01592843234539032,
          -0.04842854291200638,
          -0.010431486181914806,
          -0.00888985674828291,
          -0.07896427065134048,
          0.0,
          0.13222652673721313,
          -0.07422598451375961,
          0.069347083568573,
          0.14152443408966064,
          -0.09453660994768143,
          -0.09341675043106079,
          0.003622253891080618,
          -0.023591110482811928,
          -0.12873287498950958,
          0.11695123463869095,
          0.09410155564546585,
          -0.0168630201369524,
          0.013907368294894695,
          -0.0786380022764206,
          0.01173849031329155,
          0.0,
          -0.03358791023492813,
          0.01328975148499012,
          -0.015732575207948685,
          0.02004878968000412,
          -0.11405099183320999,
          -0.0010685455054044724,
          0.0385596863925457,
          0.11284863203763962,
          0.09626288712024689,
          -0.0677279382944107,
          -0.11701500415802002,
          0.06683336198329926,
          -0.03482746332883835,
          0.0032233726233243942,
          -0.08997061848640442,
          0.0
        ],
        [
          0.14327725768089294,
          -0.042154986411333084,
          -0.07119538635015488,
          -0.08152953535318375,
          0.04388996213674545,
          -0.13276931643486023,
          -0.13947683572769165,
          0.035069260746240616,
          0.05410875007510185,
          -0.08149585872888565,
          0.1143915131688118,
          -0.030237801373004913,
          0.0035825546365231276,
          -0.012530758045613766,
          0.05498098209500313,
          0.0,
          -0.022660983726382256,
          0.08566194772720337,
          -0.002274526050314307,
          0.045627281069755554,
          0.05786073952913284,
          0.013256589882075787,
          -0.08267669379711151,
          -0.019010046496987343,
          -0.15562742948532104,
          -0.10601071268320084,
          -0.11707150936126709,
          0.15139895677566528,
          0.10166569799184799,
          -0.05365065485239029,
          0.06494739651679993,
          0.0,
          -0.1813250333070755,
          0.1266799420118332,
          0.05930798500776291,
          0.06344686448574066,
          -0.013207072392106056,
          -0.0011661177268251777,
          -0.015018216334283352,
          0.04105876013636589,
          -0.042216647416353226,
          -0.043032292276620865,
          -0.09453748166561127,
          0.07567931711673737,
          0.0754152238368988,
          0.02424643561244011,
          0.05724864825606346,
          0.0,
          -0.09000131487846375,
          0.08458215743303299,
          0.015910465270280838,
          0.11597975343465805,
          0.14558112621307373,
          -0.08573063462972641,
          -0.019573736935853958,
          -0.16037146747112274,
          0.014049666002392769,
          0.04119780287146568,
          0.0702204704284668,
          -0.04446252062916756,
          0.021314680576324463,
          -0.083311527967453,
          -0.00581714091822505,
          0.0
        ],
        [
          0.1042666956782341,
          0.08858620375394821,
          0.33057355880737305,
          0.11176179349422455,
          -0.10048453509807587,
          -0.04998530447483063,
          0.022021690383553505,
          0.07204334437847137,
          0.048440758138895035,
          -0.07635705918073654,
          -0.08620694279670715,
          -0.11964235454797745,
          0.15460994839668274,
          0.09636557102203369,
          0.056298885494470596,
          0.0,
          0.09259942173957825,
          -0.0047297351993620396,
          -0.04660364240407944,
          -0.05680962651968002,
          -0.04966914281249046,
          -0.005142242182046175,
          0.0053329262882471085,
          0.038538608700037,
          -0.1045544445514679,
          -0.0513034351170063,
          0.05950642749667168,
          -0.05439574271440506,
          -0.10576090216636658,
          0.02102389931678772,
          0.0712081789970398,
          0.0,
          -0.11834438890218735,
          0.09289968758821487,
          -0.0661798045039177,
          -0.06849637627601624,
          -0.1209786906838417,
          -0.09025736898183823,
          -0.04073593392968178,
          -0.1490945965051651,
          0.03882425278425217,
          -0.13351084291934967,
          0.040993791073560715,
          -0.025540689006447792,
          0.04271829128265381,
          -0.05072666332125664,
          0.053355418145656586,
          0.0,
          0.042639393359422684,
          0.08751567453145981,
          -0.05948366969823837,
          0.06272197514772415,
          -0.039508819580078125,
          0.08162475377321243,
          0.018001748248934746,
          -0.04333433136343956,
          -0.08696462959051132,
          -0.057470012456178665,
          0.009961245581507683,
          0.0589459203183651,
          0.06493384391069412,
          -0.0059411958791315556,
          -0.003757680067792535,
          0.0
        ],
        [
          0.08267120271921158,
          -0.141662135720253,
          -0.01994919218122959,
          0.04764186963438988,
          -0.12653441727161407,
          0.04585111886262894,
          -0.0878368467092514,
          -0.06440079212188721,
          -0.05108071491122246,
          -0.06707699596881866,
          0.0337861068546772,
          0.024655962362885475,
          -0.03564063832163811,
          -0.17828616499900818,
          -0.027029559016227722,
          0.0,
          0.0958201140165329,
          -0.048762254416942596,
          0.06499630957841873,
          0.027435816824436188,
          -0.19738848507404327,
          -0.040678977966308594,
          -0.03544608876109123,
          0.10740914195775986,
          -0.11841737478971481,
          0.01935637556016445,
          -0.08919168263673782,
          -0.08064940571784973,
          0.0290879737585783,
          0.05448967590928078,
          -0.04305044934153557,
          0.0,
          -0.0013264555018395185,
          0.03309394046664238,
          -0.02910790778696537,
          0.060246970504522324,
          -0.05258319899439812,
          0.05132077634334564,
          0.08512894064188004,
          -0.04072727635502815,
          -0.08515702188014984,
          -0.100457563996315,
          0.1442781239748001,
          -0.07457607239484787,
          0.13242916762828827,
          -0.010995297692716122,
          0.15316040813922882,
          0.0,
          -0.07529499381780624,
          -0.019827285781502724,
          0.08537179231643677,
          0.025033464655280113,
          0.030341945588588715,
          0.005347754806280136,
          -0.04158622771501541,
          0.0018199353944510221,
          0.05790169909596443,
          0.013232382945716381,
          -0.05332242697477341,
          0.08508558571338654,
          0.003738802159205079,
          -0.054120298475027084,
          -0.09207697957754135,
          0.0
        ],
        [
          -0.012089073657989502,
          -0.136089026927948,
          0.11545885354280472,
          -0.03376040607690811,
          -0.12123757600784302,
          -0.0929565504193306,
          -0.14055347442626953,
          0.06030849739909172,
          -0.07034433633089066,
          0.06705954670906067,
          0.05396876111626625,
          -0.14026208221912384,
          0.16343313455581665,
          0.017993751913309097,
          -0.11202726513147354,
          0.0,
          0.007685708813369274,
          -0.00412993086501956,
          -0.05602854862809181,
          0.016903387382626534,
          0.04772929102182388,
          0.04135044664144516,
          0.0067679788917303085,
          -0.05720524862408638,
          0.10438738763332367,
          -0.11381437629461288,
          0.02281593345105648,
          0.10099057108163834,
          -0.13754121959209442,
          -0.013087177649140358,
          -0.004664013162255287,
          0.0,
          -0.12200770527124405,
          0.0391412079334259,
          -0.030933182686567307,
          0.030392808839678764,
          0.08653993159532547,
          0.11075831949710846,
          -0.014881650917232037,
          -0.026723138988018036,
          0.012252859771251678,
          -0.018815401941537857,
          0.05047774314880371,
          -0.03756226599216461,
          -0.007478406187146902,
          0.12446918338537216,
          0.09276896715164185,
          0.0,
          0.00020641623996198177,
          0.080985888838768,
          -0.016040239483118057,
          0.0021345908753573895,
          -0.033685218542814255,
          0.11010650545358658,
          -0.055743634700775146,
          0.13748157024383545,
          0.0014722330961376429,
          -0.07741955667734146,
          0.11264245957136154,
          -0.12228650599718094,
          -0.020188583061099052,
          -0.03229837864637375,
          -0.11094813048839569,
          0.0
        ],
        [
          -0.22472338378429413,
          0.295829713344574,
          -0.11744282394647598,
          -0.07553327083587646,
          -0.11143230646848679,
          -0.019519278779625893,
          0.14311911165714264,
          0.09838419407606125,
          0.026586171239614487,
          0.00036408589221537113,
          0.010165312327444553,
          0.1067405492067337,
          0.06587342917919159,
          -0.08093477785587311,
          0.05489880219101906,
          0.0,
          0.12148919701576233,
          -0.0006713879411108792,
          -0.10548829287290573,
          -0.06505441665649414,
          0.004379026126116514,
          0.09610619395971298,
          0.0424843356013298,
          -0.01103120855987072,
          0.06375782191753387,
          -0.012053019367158413,
          -0.024928877130150795,
          0.12679065763950348,
          0.06713826209306717,
          -0.01867537945508957,
          0.02020099014043808,
          0.0,
          -0.06389448791742325,
          0.09949274361133575,
          -0.03121756948530674,
          0.002954279538244009,
          -0.0038882035296410322,
          0.08645335584878922,
          0.030852599069476128,
          0.014491520822048187,
          0.012589503079652786,
          0.015965105965733528,
          -0.059633802622556686,
          0.059622589498758316,
          -0.010521283373236656,
          0.027094807475805283,
          -0.07473809272050858,
          0.0,
          0.05537674203515053,
          -0.10675331205129623,
          0.00025626851129345596,
          0.010168488137423992,
          0.03962474688887596,
          -0.10009410232305527,
          -0.09242229163646698,
          0.047900862991809845,
          -0.0013705770252272487,
          -0.05580839514732361,
          -0.09587860852479935,
          -0.03694617375731468,
          0.002695685951039195,
          -0.011009648442268372,
          -0.07333055138587952,
          0.0
        ],
        [
          -0.006591875106096268,
          0.06703145802021027,
          -0.068610779941082,
          0.010614834725856781,
          -0.12326701730489731,
          0.03599929437041283,
          -0.22493138909339905,
          -0.043494999408721924,
          -0.12281335145235062,
          0.005184920039027929,
          -0.04486456885933876,
          0.02422098070383072,
          -0.028289590030908585,
          -0.04916120693087578,
          -0.16352809965610504,
          0.0,
          0.04779108986258507,
          0.08621472865343094,
          -0.1232302337884903,
          -0.003331349231302738,
          0.10441894829273224,
          -0.0030584335327148438,
          -0.10825160890817642,
          -0.11847852170467377,
          -0.006197963375598192,
          0.016324156895279884,
          0.03742184862494469,
          -0.010104583576321602,
          0.05531218647956848,
          -0.10249149054288864,
          -0.1361342966556549,
          0.0,
          0.025178901851177216,
          0.038210999220609665,
          -0.060368508100509644,
          -0.04371346905827522,
          0.09451024979352951,
          -0.024062464013695717,
          0.008942500688135624,
          -0.14231878519058228,
          0.019660964608192444,
          0.03146383911371231,
          -0.026278076693415642,
          -0.0005961204878985882,
          0.07879413664340973,
          -0.14167967438697815,
          -0.13797292113304138,
          0.0,
          0.034727852791547775,
          0.0395965538918972,
          -0.04076841473579407,
          0.006415585987269878,
          0.07336873561143875,
          0.061672452837228775,
          -0.08606915920972824,
          -0.027316035702824593,
          -0.10697636008262634,
          -0.09415373206138611,
          0.06147094815969467,
          -0.012412866577506065,
          0.07265238463878632,
          -0.04047202318906784,
          -0.14765502512454987,
          0.0
        ],
        [
          0.17543961107730865,
          -0.002757707843557,
          -0.08222252875566483,
          0.1602206528186798,
          0.035166505724191666,
          -0.10281290858983994,
          -0.012937217950820923,
          -0.162446990609169,
          0.04013172537088394,
          -0.06614672392606735,
          -0.03318409621715546,
          -0.03451335057616234,
          -0.05525130406022072,
          0.12591184675693512,
          -0.01700690947473049,
          0.0,
          -0.0197594054043293,
          0.03655776008963585,
          0.04338870197534561,
          -0.14294400811195374,
          0.053544335067272186,
          0.16374726593494415,
          0.005485687404870987,
          -0.1281101405620575,
          -0.0003033243992831558,
          -0.03228466585278511,
          0.1581665575504303,
          0.04051411896944046,
          -0.027645859867334366,
          0.06487221270799637,
          0.08359482139348984,
          0.0,
          -0.12069806456565857,
          0.0860510841012001,
          -0.010053406469523907,
          0.1754915565252304,
          0.007561730686575174,
          0.05048616975545883,
          -0.01683095470070839,
          0.0341702438890934,
          -0.06582389771938324,
          -0.07006429880857468,
          -0.061336711049079895,
          -0.04279191792011261,
          -0.08132938295602798,
          -0.023982137441635132,
          -0.11976049095392227,
          0.0,
          0.03368918225169182,
          -0.12801745533943176,
          0.12459065765142441,
          -0.08122364431619644,
          0.05659779906272888,
          -0.1539779007434845,
          -0.036047425121068954,
          0.08150418102741241,
          0.08690802752971649,
          0.05040529742836952,
          -0.02313261665403843,
          0.02101198025047779,
          -0.04942518100142479,
          0.06809139996767044,
          -0.08009622991085052,
          0.0
        ],
        [
          0.007603044621646404,
          -0.06269996613264084,
          -0.11611311882734299,
          -0.06111115589737892,
          0.022383125498890877,
          0.01685398444533348,
          -0.15601196885108948,
          0.05846439674496651,
          -0.11001113802194595,
          0.14664962887763977,
          0.05042257159948349,
          -0.004984152503311634,
          -0.08104372024536133,
          0.05094711109995842,
          -0.09516560286283493,
          0.0,
          -0.012450953014194965,
          0.033431701362133026,
          -0.046440113335847855,
          -0.048853255808353424,
          0.027266137301921844,
          0.00010556243796600029,
          0.0006486093625426292,
          0.03831598907709122,
          0.10501816868782043,
          -0.03167078644037247,
          -0.0941099300980568,
          -0.0396471731364727,
          -0.044820211827754974,
          -0.04799026995897293,
          0.07172024250030518,
          0.0,
          0.09338593482971191,
          0.007471661549061537,
          -0.026708222925662994,
          -0.015305171720683575,
          -0.016333263367414474,
          0.1106630191206932,
          0.009152961894869804,
          -0.03677230700850487,
          0.12777377665042877,
          0.04589807614684105,
          -0.048891764134168625,
          0.06498557329177856,
          0.06720629334449768,
          -0.02233915776014328,
          -0.08142489939928055,
          0.0,
          -0.0027284056413918734,
          0.05302142724394798,
          -0.012749748304486275,
          -0.13136695325374603,
          -0.09914957731962204,
          -0.09384183585643768,
          0.08258786797523499,
          0.08356370776891708,
          0.2180410772562027,
          -0.03981080278754234,
          0.04772109165787697,
          0.04694586992263794,
          -0.1134263277053833,
          -0.05148904025554657,
          0.02592792920768261,
          0.0
        ],
        [
          -0.010102425701916218,
          0.24691039323806763,
          0.12325629591941833,
          -0.008614596910774708,
          0.1305115520954132,
          0.029076404869556427,
          0.054231539368629456,
          -0.005773898679763079,
          0.12335970252752304,
          0.05717862769961357,
          -0.060280025005340576,
          0.05122828111052513,
          -0.07660634815692902,
          0.09612961858510971,
          -0.15598881244659424,
          0.0,
          -0.04186238721013069,
          -0.010746636427938938,
          -0.000508327386341989,
          0.12970170378684998,
          -0.11091843992471695,
          0.012231877073645592,
          0.010619718581438065,
          -0.1264522522687912,
          -0.174343541264534,
          0.013287534937262535,
          -0.0443015992641449,
          0.00211867387406528,
          -0.029253169894218445,
          -0.09456789493560791,
          0.08476631343364716,
          0.0,
          0.06337949633598328,
          -0.09136233478784561,
          -0.07164619117975235,
          0.08426623046398163,
          -0.12186925113201141,
          0.08156546950340271,
          0.10551269352436066,
          -0.011905919760465622,
          -0.061199285089969635,
          0.044288910925388336,
          0.05459941551089287,
          0.13695941865444183,
          -0.08227284997701645,
          -0.12702874839305878,
          0.12414869666099548,
          0.0,
          0.0563029982149601,
          -0.06554413586854935,
          0.03087471053004265,
          0.025495370849967003,
          -0.055136315524578094,
          -0.1571429818868637,
          -0.06704822182655334,
          0.0003590125706978142,
          0.060167618095874786,
          0.09461437165737152,
          0.10440972447395325,
          0.019678030163049698,
          -0.053821224719285965,
          -0.01534590870141983,
          0.13539265096187592,
          0.0
        ],
        [
          0.0935610979795456,
          0.18832682073116302,
          0.09735998511314392,
          -0.025582071393728256,
          0.0493171252310276,
          -0.0003376821696292609,
          -0.15413875877857208,
          -0.014475399628281593,
          -0.06188838183879852,
          0.032644689083099365,
          0.11007235944271088,
          -0.06448773294687271,
          0.11483033746480942,
          0.03897536173462868,
          0.05954357981681824,
          0.0,
          -0.029216894879937172,
          0.0627654418349266,
          0.03319830074906349,
          0.09013723582029343,
          0.11168854683637619,
          -0.09541451185941696,
          0.08323703706264496,
          -0.0186818428337574,
          0.01849300041794777,
          -0.17871838808059692,
          -0.1944534331560135,
          0.038537245243787766,
          0.029636768624186516,
          0.013388893567025661,
          0.10240533202886581,
          0.0,
          0.07278129458427429,
          0.0435694195330143,
          -0.0187354888767004,
          -0.07858522236347198,
          0.08673445135354996,
          -0.07328902184963226,
          -0.0258775781840086,
          0.09144339710474014,
          0.11391257494688034,
          -0.08652975410223007,
          -0.07571140676736832,
          -0.13826709985733032,
          -0.05521415174007416,
          -0.04430059716105461,
          0.07331977784633636,
          0.0,
          0.025540634989738464,
          0.03839335963129997,
          0.06927528977394104,
          0.05642802268266678,
          0.11546218395233154,
          -0.0571080707013607,
          0.08362723141908646,
          0.09263871610164642,
          -0.10125777870416641,
          -0.002111622365191579,
          -0.12163124978542328,
          -0.031069442629814148,
          0.022014569491147995,
          -0.13439404964447021,
          0.05495790019631386,
          0.0
        ],
        [
          -0.2076975256204605,
          -0.09818420559167862,
          0.2203318029642105,
          0.09995781630277634,
          -0.04848018288612366,
          -0.1063227728009224,
          0.05017625167965889,
          -0.09826700389385223,
          -0.06933292746543884,
          0.046112675219774246,
          0.05050915852189064,
          0.028621209785342216,
          0.0985322892665863,
          0.08663906157016754,
          0.0462358333170414,
          0.0,
          0.0061392029747366905,
          -0.035539936274290085,
          0.07476897537708282,
          0.04298366606235504,
          0.08016391098499298,
          -0.08352654427289963,
          0.033853016793727875,
          -0.025934666395187378,
          -0.11839558929204941,
          -0.19476553797721863,
          -0.0387311652302742,
          -0.0603618323802948,
          -0.043392956256866455,
          0.040236786007881165,
          -0.03310171887278557,
          0.0,
          0.056005388498306274,
          0.02885797806084156,
          -0.10661821067333221,
          -0.025392986834049225,
          -0.09186830371618271,
          -0.06292880326509476,
          0.07565029710531235,
          0.06935495138168335,
          -0.09081586450338364,
          -0.025998728349804878,
          -0.013112002052366734,
          -0.17748484015464783,
          0.04930829629302025,
          0.029329264536499977,
          0.13125866651535034,
          0.0,
          -0.006495709531009197,
          0.03299246355891228,
          0.009977077133953571,
          0.04649217054247856,
          -0.1059722900390625,
          0.05655675381422043,
          0.09820232540369034,
          0.054288193583488464,
          0.0011850338196381927,
          0.03709455579519272,
          -0.04041239991784096,
          -0.055887818336486816,
          0.0706796646118164,
          -0.035588882863521576,
          0.08384201675653458,
          0.0
        ],
        [
          -0.03943450748920441,
          0.12964120507240295,
          -0.0026542332489043474,
          -0.025045176967978477,
          0.05972377583384514,
          0.08542165160179138,
          0.0627083033323288,
          0.05206235498189926,
          0.08237502723932266,
          0.07559217512607574,
          0.03575269505381584,
          -0.07222636044025421,
          -0.015351363457739353,
          -0.07467033714056015,
          0.018452009186148643,
          0.0,
          -0.09610810875892639,
          0.15840379893779755,
          -0.05906381458044052,
          -0.07318053394556046,
          0.024357061833143234,
          0.11090594530105591,
          -0.0016077266773208976,
          -0.0787128284573555,
          0.11645770817995071,
          -0.04233218729496002,
          -0.010935700498521328,
          0.14324110746383667,
          -0.0290891844779253,
          0.1178712546825409,
          -0.018257291987538338,
          0.0,
          -0.030194083228707314,
          0.025702476501464844,
          -0.06059073284268379,
          0.065386563539505,
          -0.1325305551290512,
          -0.07805658876895905,
          0.11944983899593353,
          -0.01994408294558525,
          -0.005024435929954052,
          0.07054336369037628,
          0.14583830535411835,
          0.08156058937311172,
          0.0904259979724884,
          0.0011881603859364986,
          -0.022264014929533005,
          0.0,
          -0.08008018136024475,
          -0.09046701341867447,
          0.19425980746746063,
          0.06906456500291824,
          0.1114940494298935,
          -0.15887780487537384,
          0.043967220932245255,
          -0.0004066284163855016,
          0.042004525661468506,
          -0.028080077841877937,
          -0.008068321272730827,
          -0.03415268287062645,
          -0.06787536293268204,
          0.16935425996780396,
          -0.03865775093436241,
          0.0
        ],
        [
          0.07595952600240707,
          0.10404626280069351,
          0.05482074245810509,
          0.030004534870386124,
          -0.11366412043571472,
          -0.14078648388385773,
          0.05484409257769585,
          0.12421336770057678,
          -0.04682217538356781,
          0.15298636257648468,
          -0.011871818453073502,
          -0.08112231642007828,
          -0.013911101035773754,
          -0.027323102578520775,
          0.11686117202043533,
          0.0,
          0.014046164229512215,
          0.09990891069173813,
          -0.07403430342674255,
          -0.04423268511891365,
          -0.08272823691368103,
          -0.004200082737952471,
          0.07486290484666824,
          -0.008809426799416542,
          0.13015639781951904,
          0.01267110276967287,
          0.020529836416244507,
          0.009670734405517578,
          -0.05746487155556679,
          -0.022035706788301468,
          -0.0957532674074173,
          0.0,
          0.09286300837993622,
          -0.09589643776416779,
          -0.04916200786828995,
          0.07956042885780334,
          -0.0033978100400418043,
          0.009987590834498405,
          -0.07172863185405731,
          0.010510277934372425,
          -0.27474117279052734,
          -0.02274441532790661,
          0.04492347687482834,
          -0.13896365463733673,
          -0.21525795757770538,
          0.0827152207493782,
          0.09994278103113174,
          0.0,
          0.11733388900756836,
          -0.04641971364617348,
          -0.06912580132484436,
          -0.0031344883609563112,
          -0.13179273903369904,
          0.1290747970342636,
          -0.08203408867120743,
          -0.00544253783300519,
          0.014250222593545914,
          0.03169865161180496,
          0.12534649670124054,
          0.04125375300645828,
          -0.00330925895832479,
          -0.061219871044158936,
          0.0757189393043518,
          0.0
        ],
        [
          -0.08586949855089188,
          0.12423823773860931,
          0.10848910361528397,
          0.1067863181233406,
          -0.09816747158765793,
          -0.18191039562225342,
          0.007635751273483038,
          -0.21101900935173035,
          -0.15308068692684174,
          -0.023715496063232422,
          -0.12740230560302734,
          -0.07930801808834076,
          -0.02648065984249115,
          -0.11983054131269455,
          -0.035181522369384766,
          0.0,
          0.05945863574743271,
          0.03739602118730545,
          0.09839711338281631,
          0.03155132010579109,
          -0.12224769592285156,
          -0.13797485828399658,
          -0.01480561401695013,
          0.026525700464844704,
          -0.1603684425354004,
          -0.13063634932041168,
          -0.02853136509656906,
          -0.10216789692640305,
          0.04512222483754158,
          -0.1566431075334549,
          -0.10939855873584747,
          0.0,
          0.031888384371995926,
          -0.043491631746292114,
          -0.03441455960273743,
          -0.034307289868593216,
          0.018806034699082375,
          0.09251385182142258,
          0.028234539553523064,
          -0.00596420094370842,
          -0.06394607573747635,
          -0.03320089355111122,
          0.020178789272904396,
          -0.10320986807346344,
          -0.057973358780145645,
          -0.0932377278804779,
          0.030401460826396942,
          0.0,
          0.02930551767349243,
          -0.00964311882853508,
          -0.04315495863556862,
          -0.0908767431974411,
          -0.049391575157642365,
          -0.034040819853544235,
          0.013487066142261028,
          -0.010003121569752693,
          0.07463294267654419,
          0.046559836715459824,
          -0.01670515537261963,
          -0.09472273290157318,
          -0.02169572003185749,
          -0.06003551557660103,
          0.10023820400238037,
          0.0
        ],
        [
          -0.012271147221326828,
          0.22940178215503693,
          0.09193829447031021,
          -0.05680261552333832,
          -0.09436687082052231,
          -0.007465329486876726,
          0.008889314718544483,
          -0.07577266544103622,
          -0.08543853461742401,
          -0.00757572939619422,
          -0.0044998666271567345,
          -0.07291421294212341,
          -0.08146831393241882,
          0.09198921918869019,
          0.008166824467480183,
          0.0,
          -0.11001206934452057,
          0.12181445211172104,
          -0.010139376856386662,
          -0.01126945298165083,
          -0.0640847310423851,
          -0.04624829441308975,
          0.08753699064254761,
          0.02091495506465435,
          0.07317981868982315,
          0.036911893635988235,
          -0.08323679864406586,
          -0.05469302833080292,
          0.04772627726197243,
          0.06371753662824631,
          0.05814199522137642,
          0.0,
          0.004802779294550419,
          -0.14830322563648224,
          0.012681849300861359,
          -0.1528877466917038,
          -0.06410656124353409,
          0.05030380189418793,
          0.07540635764598846,
          0.042646706104278564,
          0.010079164057970047,
          -0.003837261814624071,
          0.05938953533768654,
          0.018537204712629318,
          -0.0869217962026596,
          -0.07877976447343826,
          -0.02478157728910446,
          0.0,
          0.09904248267412186,
          -0.03586088493466377,
          -0.09161011874675751,
          0.07358105480670929,
          -0.062357474118471146,
          -0.037965528666973114,
          -0.008656342513859272,
          0.016436366364359856,
          0.04249892011284828,
          0.15144945681095123,
          -0.108995720744133,
          -0.08033064752817154,
          0.04443688690662384,
          0.12988142669200897,
          0.018351830542087555,
          0.0
        ],
        [
          -0.09680241346359253,
          0.2839403748512268,
          -0.26020967960357666,
          0.001986496150493622,
          -0.026782561093568802,
          -0.05276458337903023,
          0.06500478088855743,
          0.042113810777664185,
          -0.05345083028078079,
          0.05371373891830444,
          0.029966579750180244,
          -0.030300714075565338,
          0.0072557744570076466,
          0.09011121094226837,
          -0.08783961087465286,
          0.0,
          0.07807689160108566,
          0.04555583372712135,
          -0.04591961205005646,
          0.039987120777368546,
          -0.02855289913713932,
          0.015167372301220894,
          -0.06502582877874374,
          0.027285350486636162,
          -0.09000670909881592,
          -0.163432314991951,
          0.0484929159283638,
          -0.06055803969502449,
          -0.025232870131731033,
          -0.008203021250665188,
          0.01939401589334011,
          0.0,
          -0.02610091120004654,
          -0.09275379031896591,
          0.097133107483387,
          -0.21026399731636047,
          0.1350003033876419,
          -0.00584098557010293,
          0.03191475570201874,
          -0.04437325522303581,
          0.10650362074375153,
          -0.012587596662342548,
          -0.05884147807955742,
          -0.031807370483875275,
          0.01636231131851673,
          -0.06540897488594055,
          0.10994578897953033,
          0.0,
          -0.019276414066553116,
          -0.03217083588242531,
          0.03431554511189461,
          0.017688840627670288,
          -0.022847281768918037,
          0.033946387469768524,
          -0.08401905000209808,
          0.06097855791449547,
          -0.022660499438643456,
          0.041198328137397766,
          -0.01479246560484171,
          -0.013781175948679447,
          -0.054993126541376114,
          -0.11364403367042542,
          0.05170353502035141,
          0.0
        ],
        [
          0.11285465210676193,
          0.0904267206788063,
          0.09609631448984146,
          0.033302851021289825,
          -0.10748215019702911,
          0.0064710513688623905,
          0.038843512535095215,
          -0.02790791355073452,
          0.11518212407827377,
          0.06145407631993294,
          -0.02935376577079296,
          -0.07518291473388672,
          0.16659580171108246,
          -0.1890638768672943,
          -0.19222213327884674,
          0.0,
          -0.00610316451638937,
          -0.013049663975834846,
          0.02706838585436344,
          0.08084781467914581,
          0.11195417493581772,
          0.02860441245138645,
          0.016697710379958153,
          -0.14968085289001465,
          -0.012172121554613113,
          -0.06956017017364502,
          0.0398484468460083,
          0.17277029156684875,
          -0.000599439546931535,
          -0.05088968947529793,
          0.05819448083639145,
          0.0,
          -0.14756576716899872,
          0.07605070620775223,
          0.024356020614504814,
          -0.025666749104857445,
          -0.0509893000125885,
          -0.11295241862535477,
          0.17409132421016693,
          -0.05059110373258591,
          0.1306144893169403,
          0.05312485247850418,
          0.03138052672147751,
          0.036724887788295746,
          0.11758047342300415,
          -0.05619185045361519,
          -0.0752730593085289,
          0.0,
          -0.06310585886240005,
          0.062417417764663696,
          0.016454052180051804,
          0.05552187189459801,
          -0.055010292679071426,
          0.09528547525405884,
          0.09643974155187607,
          0.0138790812343359,
          -0.03586485981941223,
          0.03481282666325569,
          -0.06596618890762329,
          -0.09244300425052643,
          -0.07497625052928925,
          0.025989769026637077,
          -0.08772875368595123,
          0.0
        ],
        [
          -0.17598150670528412,
          -0.13860662281513214,
          0.19084800779819489,
          -0.05148542299866676,
          -0.04306071251630783,
          0.06413228809833527,
          0.07600907981395721,
          -0.0011588274501264095,
          -0.11641470342874527,
          0.12469174712896347,
          -0.06494714319705963,
          -0.1263488531112671,
          -0.010936444625258446,
          0.05312009155750275,
          0.10716502368450165,
          0.0,
          0.15126347541809082,
          -0.04262300953269005,
          -0.11549089103937149,
          -0.07526366412639618,
          0.00851510465145111,
          -0.05967753008008003,
          -0.05835583060979843,
          -0.08013167977333069,
          0.1131817027926445,
          0.05082143470644951,
          -0.012996884994208813,
          -0.0802626758813858,
          0.012734622694551945,
          -0.03526165708899498,
          -0.08938287943601608,
          0.0,
          0.08385221660137177,
          -0.05060413479804993,
          0.016984140500426292,
          -0.041227806359529495,
          -0.042147763073444366,
          0.06990352272987366,
          -0.010832004249095917,
          -0.06890302896499634,
          -0.053715892136096954,
          -0.05741561949253082,
          0.097408227622509,
          0.011812797747552395,
          -0.0887410119175911,
          -0.0023351835552603006,
          0.06084201857447624,
          0.0,
          0.04060882702469826,
          -0.032617852091789246,
          -0.00034725264413282275,
          -0.017180418595671654,
          0.04022331163287163,
          -0.08970409631729126,
          0.06971990317106247,
          -0.09113633632659912,
          -0.004338479600846767,
          -0.11860297620296478,
          -0.030571261420845985,
          0.12097665667533875,
          -0.06414907425642014,
          -0.005287265405058861,
          -0.005926759913563728,
          0.0
        ],
        [
          0.03430125489830971,
          -0.1674165427684784,
          0.2209327071905136,
          0.03177144378423691,
          -0.07951734960079193,
          -0.03840360417962074,
          0.07563159614801407,
          0.07046353071928024,
          0.0645739734172821,
          0.07393426448106766,
          0.07337012141942978,
          -0.055592525750398636,
          -0.07732623815536499,
          -0.05029281601309776,
          0.09768836945295334,
          0.0,
          0.050052542239427567,
          0.07722773402929306,
          -0.06731584668159485,
          -0.10623549669981003,
          0.10275066643953323,
          0.08731117844581604,
          0.0563993975520134,
          -0.06736481189727783,
          -0.08646437525749207,
          0.004425954073667526,
          -0.03068072535097599,
          -0.04795518517494202,
          0.10867095738649368,
          0.004357493948191404,
          0.05206628516316414,
          0.0,
          0.13273485004901886,
          -0.17635668814182281,
          -0.025271106511354446,
          0.009325508028268814,
          0.05403795838356018,
          0.06347977370023727,
          0.0755729079246521,
          -0.031158439815044403,
          0.06419739127159119,
          0.05170663818717003,
          -0.08618610352277756,
          -0.009148046374320984,
          0.06670297682285309,
          -0.15762431919574738,
          -0.10581276565790176,
          0.0,
          -0.049274690449237823,
          0.11422815918922424,
          -0.1005040854215622,
          -0.08107631653547287,
          0.02602866105735302,
          -0.02331765927374363,
          0.02233521081507206,
          -0.008253575302660465,
          0.023022308945655823,
          -0.13666872680187225,
          0.012909382581710815,
          0.022502504289150238,
          0.08473178744316101,
          0.013901812955737114,
          -0.03887329623103142,
          0.0
        ],
        [
          -0.22970208525657654,
          0.11854319274425507,
          0.09076045453548431,
          -0.07720258831977844,
          -0.05151527002453804,
          -0.054697442799806595,
          -0.20507407188415527,
          -0.06704545766115189,
          -0.10154731571674347,
          0.07440513372421265,
          -0.11612509191036224,
          -0.15657858550548553,
          -0.15550847351551056,
          0.17551636695861816,
          -0.07445976138114929,
          0.0,
          -0.08667051792144775,
          0.13366316258907318,
          -0.020014282315969467,
          -0.05834726616740227,
          0.07984444499015808,
          -0.03231154382228851,
          -0.04513678327202797,
          -0.038891762495040894,
          -0.009502626955509186,
          0.06533974409103394,
          0.06512902677059174,
          -0.04002555087208748,
          0.0099592674523592,
          -0.009940936230123043,
          0.045935798436403275,
          0.0,
          0.04528523609042168,
          -0.015588798560202122,
          0.10074113309383392,
          -0.07517407834529877,
          0.005092269740998745,
          0.011892063543200493,
          -0.012116340920329094,
          -0.008231800980865955,
          0.02232784777879715,
          0.12327621132135391,
          -0.04786967113614082,
          0.020709486678242683,
          0.016469191759824753,
          -0.08280805498361588,
          -0.10162363946437836,
          0.0,
          0.06495676189661026,
          -0.08454426378011703,
          0.07743372023105621,
          -0.07627688348293304,
          0.060180749744176865,
          0.013992113061249256,
          -0.09119265526533127,
          0.056843169033527374,
          -0.03955065831542015,
          -0.011524304747581482,
          0.06052839010953903,
          -0.09845948219299316,
          -0.042270440608263016,
          -0.1422256976366043,
          0.013611557893455029,
          0.0
        ],
        [
          0.0738571509718895,
          0.15152575075626373,
          -0.042074594646692276,
          0.02923247218132019,
          -0.07335679233074188,
          0.07515282183885574,
          -0.003446650691330433,
          -0.12211009860038757,
          -0.11052025854587555,
          0.0674128606915474,
          0.09232540428638458,
          -0.01050751656293869,
          0.1981642246246338,
          -0.0879800096154213,
          -0.12718728184700012,
          0.0,
          0.08699318021535873,
          -0.06973552703857422,
          -0.05122597515583038,
          -0.10842467099428177,
          -0.08804569393396378,
          0.13643236458301544,
          -0.02334435284137726,
          0.050075896084308624,
          0.043814778327941895,
          0.024525901302695274,
          0.11294560879468918,
          0.044590454548597336,
          -0.09038428217172623,
          -0.08616629242897034,
          -0.01816731132566929,
          0.0,
          0.030294431373476982,
          0.028777847066521645,
          -0.11663012206554413,
          0.04627411440014839,
          -0.019443830475211143,
          0.031932901591062546,
          0.1300743669271469,
          -0.007594279944896698,
          -0.11505868285894394,
          -0.0350821353495121,
          -0.1578756719827652,
          0.0033816159702837467,
          0.019991174340248108,
          -0.02226286381483078,
          0.1675359457731247,
          0.0,
          0.05683531612157822,
          0.03800303116440773,
          0.06078990921378136,
          0.0044723814353346825,
          -0.01707625575363636,
          0.10782481729984283,
          0.11739768832921982,
          0.05843791365623474,
          0.1416812241077423,
          0.036665014922618866,
          0.16559866070747375,
          0.08217249065637589,
          0.1039738655090332,
          -0.06750690191984177,
          0.06671552360057831,
          0.0
        ],
        [
          -0.1711292713880539,
          0.22228631377220154,
          0.15036985278129578,
          -0.10510328412055969,
          -0.023200824856758118,
          -0.0054211993701756,
          -0.05175021290779114,
          -0.0587405301630497,
          0.05026688426733017,
          0.08487419039011002,
          -0.052671167999506,
          -0.11058730632066727,
          -0.11912113428115845,
          -0.09331992268562317,
          0.07776414602994919,
          0.0,
          0.10149835050106049,
          -0.0160545464605093,
          -0.09680193662643433,
          0.037506844848394394,
          -0.002256580628454685,
          0.0414629764854908,
          0.0862158015370369,
          -0.1166580468416214,
          0.012247735634446144,
          -0.01101148221641779,
          -0.014854625798761845,
          0.10412146896123886,
          0.09879495203495026,
          -0.05537157133221626,
          0.04779823124408722,
          0.0,
          0.1167553961277008,
          0.07543721050024033,
          0.06135522574186325,
          0.032650336623191833,
          0.05729527771472931,
          -0.1490296870470047,
          -0.13786201179027557,
          0.03906123340129852,
          -0.01571633853018284,
          -0.04708225652575493,
          0.03005620650947094,
          0.021458832547068596,
          0.008894002996385098,
          0.07923857122659683,
          0.07627164572477341,
          0.0,
          0.07054560631513596,
          0.024437490850687027,
          -0.06011729687452316,
          0.0553581528365612,
          -0.04808659851551056,
          -0.01766281947493553,
          0.08351204544305801,
          0.09426898509263992,
          -0.007673140149563551,
          -0.11139412224292755,
          -0.02842077799141407,
          0.10335320979356766,
          0.041180409491062164,
          0.12511292099952698,
          0.05498475953936577,
          0.0
        ],
        [
          -0.07886291295289993,
          0.1775636523962021,
          0.024209048599004745,
          0.10686559230089188,
          -0.11495813727378845,
          -0.05403285473585129,
          0.024813823401927948,
          -0.0031821595039218664,
          0.03932662680745125,
          -0.06490672379732132,
          -0.1505134552717209,
          0.0583927184343338,
          0.015521750785410404,
          -0.0440591424703598,
          0.07550353556871414,
          0.0,
          0.05220745876431465,
          -0.08390229195356369,
          0.01785215362906456,
          -0.03611915558576584,
          0.13301178812980652,
          0.06973535567522049,
          -0.016903642565011978,
          0.05081398785114288,
          0.0076698181219398975,
          0.08972861617803574,
          0.000486972916405648,
          0.10492940247058868,
          0.016910960897803307,
          0.10213795304298401,
          0.041367821395397186,
          0.0,
          -0.05464664101600647,
          -0.03201904892921448,
          -0.08582833409309387,
          -0.05094526708126068,
          0.0983593761920929,
          0.1135924831032753,
          -0.08847026526927948,
          -0.0857839584350586,
          -0.14185145497322083,
          0.08758513629436493,
          -0.17773999273777008,
          0.17324689030647278,
          -0.06923068314790726,
          0.14104558527469635,
          0.10745559632778168,
          0.0,
          -0.04690966755151749,
          -0.060387905687093735,
          0.12970182299613953,
          -0.129166379570961,
          -0.05594135448336601,
          -0.09651941061019897,
          0.08900889754295349,
          -0.02444937266409397,
          -0.007689405232667923,
          -0.11405875533819199,
          0.06238137185573578,
          -0.04980216175317764,
          -0.02519366890192032,
          0.022468168288469315,
          0.06587370485067368,
          0.0
        ],
        [
          0.16576407849788666,
          -0.14042969048023224,
          -0.034341905266046524,
          0.21416650712490082,
          0.04152489826083183,
          -0.07339373975992203,
          -0.18025480210781097,
          -0.1161847859621048,
          0.08114098012447357,
          -0.019892819225788116,
          -0.09589509665966034,
          0.10983724147081375,
          0.06620360165834427,
          0.12696342170238495,
          -0.11922203749418259,
          0.0,
          0.05237898603081703,
          -0.009447804652154446,
          -0.08059781044721603,
          -0.038111187517642975,
          0.11067605763673782,
          0.20267035067081451,
          -0.09432343393564224,
          0.03906334564089775,
          0.1707882434129715,
          -0.04205123707652092,
          0.031171459704637527,
          0.02530232071876526,
          -0.12953561544418335,
          -0.037043292075395584,
          0.07414548844099045,
          0.0,
          -0.02953488379716873,
          -0.009909053333103657,
          0.0034783384762704372,
          -0.01880953088402748,
          0.07110404223203659,
          0.18235041201114655,
          -0.018903203308582306,
          0.00814478937536478,
          -0.023816214874386787,
          0.024556579068303108,
          -0.0709773451089859,
          -0.02583199180662632,
          0.0016102170338854194,
          0.014404743909835815,
          -0.012296050786972046,
          0.0,
          0.025389447808265686,
          -0.009110553190112114,
          0.07804439216852188,
          -0.019478166475892067,
          -0.03270887956023216,
          -0.009685778059065342,
          0.025193149223923683,
          0.060522593557834625,
          0.11815068870782852,
          -0.06612451374530792,
          0.023870043456554413,
          0.010288954712450504,
          -0.09023349732160568,
          -0.07968538254499435,
          -0.06161779165267944,
          0.0
        ],
        [
          0.09756381809711456,
          -0.2157553732395172,
          0.21993106603622437,
          0.06013314798474312,
          0.026476791128516197,
          -0.12245318293571472,
          -0.022983364760875702,
          0.08606985211372375,
          -0.022793229669332504,
          -0.19698269665241241,
          0.01506989635527134,
          0.08988898247480392,
          -0.025077182799577713,
          -0.09326447546482086,
          0.016572462394833565,
          0.0,
          0.04437793046236038,
          -0.06032653525471687,
          0.014884710311889648,
          0.039158012717962265,
          -0.05093712359666824,
          -0.15840208530426025,
          0.03766179084777832,
          0.07544098794460297,
          -0.08399374783039093,
          -0.09577305614948273,
          -0.03676329925656319,
          0.04471319168806076,
          -0.006114957854151726,
          0.055590469390153885,
          -0.06985858082771301,
          0.0,
          -0.13152004778385162,
          0.08430759608745575,
          0.09322381019592285,
          -0.025986235588788986,
          -0.045466773211956024,
          -0.06472119688987732,
          -0.0495784766972065,
          0.029452184215188026,
          0.009492885321378708,
          0.06534305214881897,
          -0.016929032281041145,
          -0.020500021055340767,
          0.00044111342867836356,
          0.008867748081684113,
          0.04998216778039932,
          0.0,
          -0.08401666581630707,
          0.03915637731552124,
          0.002124086720868945,
          0.011774745769798756,
          -0.04673279449343681,
          0.1569884866476059,
          -0.036989275366067886,
          0.08692110329866409,
          0.06035057455301285,
          0.06882995367050171,
          -0.06374380737543106,
          -0.15172900259494781,
          -0.08134197443723679,
          0.0031240354292094707,
          0.12896576523780823,
          0.0
        ],
        [
          -0.2037377804517746,
          0.19876576960086823,
          -0.027780985459685326,
          0.05940937250852585,
          -0.08157876878976822,
          -0.019936420023441315,
          0.07900664210319519,
          -0.09085191041231155,
          0.10249978303909302,
          -0.005227458663284779,
          -0.12766504287719727,
          -0.005164607893675566,
          -0.022989701479673386,
          -0.058944813907146454,
          0.04241333156824112,
          0.0,
          0.059344351291656494,
          -0.008661625906825066,
          0.031158069148659706,
          0.06483496725559235,
          0.09129214286804199,
          -0.1413664072751999,
          0.08025564253330231,
          -0.08946719020605087,
          0.018508421257138252,
          -0.023785647004842758,
          -0.035135701298713684,
          -0.142828568816185,
          -0.008579505607485771,
          0.04254421219229698,
          -0.09425196051597595,
          0.0,
          0.013086135499179363,
          -0.17493411898612976,
          0.022872518748044968,
          -0.07022207975387573,
          -0.0384238101541996,
          -0.02982877381145954,
          0.10325942188501358,
          -0.02978125773370266,
          -0.08477745950222015,
          0.009079515933990479,
          0.06553835421800613,
          0.12975527346134186,
          -0.04891005530953407,
          0.046901240944862366,
          0.02403353527188301,
          0.0,
          0.0030835263896733522,
          -0.09079519659280777,
          0.025598512962460518,
          0.17845460772514343,
          0.07443366944789886,
          0.07540126889944077,
          0.01955370232462883,
          0.05376579612493515,
          -0.08580372482538223,
          0.033019717782735825,
          -0.03604581207036972,
          -0.029572943225502968,
          -0.03317437693476677,
          -0.07090044021606445,
          0.13229785859584808,
          0.0
        ],
        [
          -0.22659403085708618,
          -0.009158493019640446,
          -0.19674725830554962,
          -0.11065670847892761,
          -0.05613891780376434,
          0.07001589983701706,
          -0.29178160429000854,
          -0.14499957859516144,
          -0.05738360062241554,
          -0.060062337666749954,
          -0.12180418521165848,
          0.004576732404530048,
          0.10521440953016281,
          0.18498605489730835,
          -0.13187476992607117,
          0.0,
          -0.07391802966594696,
          0.07843045145273209,
          0.05630330741405487,
          0.10631711781024933,
          -0.10422788560390472,
          -0.020396443083882332,
          -0.012220604345202446,
          0.025195134803652763,
          -0.006755816284567118,
          0.011729939840734005,
          0.04046189412474632,
          -0.04285687208175659,
          -0.042348653078079224,
          -0.18992912769317627,
          0.09147253632545471,
          0.0,
          -0.003468525828793645,
          0.00032581196865066886,
          -0.09855134040117264,
          0.07444123178720474,
          -0.01774764247238636,
          0.10871236026287079,
          -0.03832016512751579,
          0.07093457132577896,
          -0.016078874468803406,
          0.01848207600414753,
          0.057646892964839935,
          0.10514047741889954,
          0.09352204203605652,
          -0.08305720239877701,
          -0.1179717481136322,
          0.0,
          -0.016254423186182976,
          0.05600614845752716,
          -0.050934407860040665,
          0.023932162672281265,
          0.1047663763165474,
          -0.023730484768748283,
          0.03799336776137352,
          -0.07210751622915268,
          -0.049847837537527084,
          -0.09078060835599899,
          -0.08018019795417786,
          0.02255396358668804,
          -0.00279304850846529,
          0.01938542351126671,
          -0.007174871861934662,
          0.0
        ],
        [
          0.06998363882303238,
          -0.0740162655711174,
          -0.04814538359642029,
          0.14737026393413544,
          -0.07815958559513092,
          0.0585193932056427,
          -0.004124296363443136,
          -0.012782366946339607,
          -0.00934580247849226,
          -0.132388174533844,
          0.11243270337581635,
          -0.03799794614315033,
          -0.08313941210508347,
          -0.027145329862833023,
          -0.07877112925052643,
          0.0,
          -0.04171869158744812,
          0.03944326564669609,
          0.0297614224255085,
          0.018206480890512466,
          -0.05793461576104164,
          -0.11423094570636749,
          0.028040872886776924,
          -0.08975856751203537,
          -0.01130921021103859,
          0.06702670454978943,
          -0.091519296169281,
          -0.11825858801603317,
          -0.02905668504536152,
          -0.05823319032788277,
          0.018629949539899826,
          0.0,
          0.030688513070344925,
          0.10567652434110641,
          0.04327815771102905,
          0.03499148041009903,
          -0.08797808736562729,
          0.027636896818876266,
          -0.08854547142982483,
          0.0740761011838913,
          -0.05818016454577446,
          0.01657094620168209,
          -0.03145884349942207,
          -0.03902050107717514,
          -0.08839957416057587,
          -0.025566786527633667,
          0.05792684108018875,
          0.0,
          -0.12343546003103256,
          0.03638830780982971,
          0.02849450707435608,
          -0.1429339051246643,
          0.05171392858028412,
          -0.08150957524776459,
          0.04422376677393913,
          -0.11748050898313522,
          -0.08946473896503448,
          0.20728297531604767,
          0.09807901829481125,
          -0.12559138238430023,
          0.10639680176973343,
          0.06526127457618713,
          0.029722655192017555,
          0.0
        ],
        [
          -0.029726149514317513,
          0.033766791224479675,
          0.20909473299980164,
          -0.04012162983417511,
          -0.09021109342575073,
          -0.11654021590948105,
          0.06623063236474991,
          -0.05430305004119873,
          0.09217938035726547,
          -0.12190673500299454,
          0.07589928060770035,
          -0.23414155840873718,
          0.04840438812971115,
          0.05655033513903618,
          -0.1651555895805359,
          0.0,
          -0.030279498547315598,
          0.06208018586039543,
          -0.07788308709859848,
          -0.09900477528572083,
          0.03029165416955948,
          -0.030424095690250397,
          -0.04125860705971718,
          0.09889841824769974,
          -0.06010514870285988,
          0.08539017289876938,
          0.014248842373490334,
          0.05818713456392288,
          0.05400249734520912,
          0.08445148915052414,
          -0.07384534925222397,
          0.0,
          -0.025453604757785797,
          -0.030455417931079865,
          -0.01678444631397724,
          0.03665532171726227,
          -0.007853876799345016,
          -0.049773577600717545,
          -0.022325530648231506,
          -0.055353544652462006,
          0.0448366217315197,
          0.07159766554832458,
          -0.016362372785806656,
          -0.04348549246788025,
          0.0133356973528862,
          0.1440228819847107,
          0.1493360996246338,
          0.0,
          0.057547006756067276,
          0.13665828108787537,
          -0.0890999436378479,
          -0.1105639711022377,
          -0.06862358003854752,
          0.04765932634472847,
          -0.010817690752446651,
          -0.10458113253116608,
          -0.05468238145112991,
          -0.05522804707288742,
          0.04333691671490669,
          -0.1114584282040596,
          0.032644983381032944,
          0.06345945596694946,
          -0.036767978221178055,
          0.0
        ],
        [
          -0.17457477748394012,
          0.08226359635591507,
          -0.14906547963619232,
          0.0668923556804657,
          -0.025728575885295868,
          -0.11810225993394852,
          0.023341892287135124,
          0.03228122740983963,
          0.046093348413705826,
          -0.030927473679184914,
          0.09849666804075241,
          -0.08745025843381882,
          0.10064946115016937,
          -0.10128682106733322,
          0.10253357142210007,
          0.0,
          -0.05276307463645935,
          -0.11773130297660828,
          0.1113104447722435,
          0.07919949293136597,
          -0.047339338809251785,
          -0.040660496801137924,
          0.10634315758943558,
          0.007096841465681791,
          0.043652087450027466,
          0.009862995706498623,
          -0.06333774328231812,
          -0.05628253147006035,
          -0.10043996572494507,
          0.13148723542690277,
          0.07101700454950333,
          0.0,
          0.07148214429616928,
          -0.10028965771198273,
          0.10250864177942276,
          0.0712994858622551,
          0.06116146966814995,
          0.016390714794397354,
          0.008407816290855408,
          0.06054747477173805,
          0.10283470898866653,
          -0.043848417699337006,
          0.08651476353406906,
          -0.016994336619973183,
          0.05595006048679352,
          -0.026681486517190933,
          -0.12605002522468567,
          0.0,
          -0.021200338378548622,
          -0.016222523525357246,
          -0.020630700513720512,
          0.013351494446396828,
          0.0005605578189715743,
          -0.04729284718632698,
          -0.13529644906520844,
          -0.15973326563835144,
          0.09336204826831818,
          -0.007564167957752943,
          -0.025230485945940018,
          0.11034633964300156,
          -0.0671212300658226,
          -0.043749336153268814,
          0.03216998279094696,
          0.0
        ],
        [
          -0.055065982043743134,
          -0.07006419450044632,
          -0.09614768624305725,
          -0.01203387975692749,
          -0.05252595245838165,
          0.01333628036081791,
          0.022144068032503128,
          -0.16386130452156067,
          -0.03807220607995987,
          0.0584605373442173,
          -0.024714693427085876,
          -0.05124625563621521,
          -0.08270958811044693,
          -0.0691913366317749,
          0.04797157272696495,
          0.0,
          0.07455175369977951,
          -0.08243323117494583,
          -0.0414281040430069,
          -0.0100407674908638,
          -0.0008283024071715772,
          0.046416785567998886,
          0.10900388658046722,
          -0.07777378708124161,
          -0.020759282633662224,
          -0.09508984535932541,
          0.05029129981994629,
          -0.050965726375579834,
          0.02210540883243084,
          0.07505987584590912,
          0.06508135795593262,
          0.0,
          -0.10770779103040695,
          0.016093499958515167,
          -0.10545753687620163,
          0.0678238719701767,
          0.012745551764965057,
          -0.1122819185256958,
          0.08135226368904114,
          -0.16261066496372223,
          0.11617451906204224,
          0.11609026789665222,
          0.06972919404506683,
          0.15348424017429352,
          -0.025236867368221283,
          -0.005172655452042818,
          -0.08306419104337692,
          0.0,
          -0.027686771005392075,
          -0.009099924936890602,
          -0.00022998517670203,
          0.07929748296737671,
          0.04186666011810303,
          0.013785537332296371,
          -0.006726460997015238,
          0.053643327206373215,
          -0.03249035030603409,
          0.022869965061545372,
          -0.02242087386548519,
          0.08659768849611282,
          0.010666796937584877,
          -0.027475787326693535,
          -0.07586990296840668,
          0.0
        ],
        [
          -0.1816440373659134,
          -0.038841817528009415,
          0.12961098551750183,
          0.05979977175593376,
          -0.157119482755661,
          0.02749565802514553,
          -0.10275430977344513,
          -0.1772214025259018,
          0.06386905908584595,
          -0.0120546268299222,
          0.02732374332845211,
          -0.012427182868123055,
          0.09210433065891266,
          0.03641282021999359,
          -0.015872590243816376,
          0.0,
          0.007574702613055706,
          -0.046394407749176025,
          0.04300267994403839,
          0.016102753579616547,
          -0.08525726944208145,
          -0.08839081972837448,
          0.03184826672077179,
          -0.15524455904960632,
          -0.09253381937742233,
          -0.14335550367832184,
          -0.04146021232008934,
          -0.07456642389297485,
          -0.009929734282195568,
          -0.11507396399974823,
          0.08595851808786392,
          0.0,
          0.04759623482823372,
          -0.117584727704525,
          0.04537392407655716,
          0.1558942049741745,
          -0.04293986037373543,
          -0.03255268558859825,
          0.09075044095516205,
          -0.028096675872802734,
          0.14290964603424072,
          -0.1470458209514618,
          0.10339441895484924,
          -0.04064018279314041,
          0.14371857047080994,
          -0.10974788665771484,
          -0.05299697443842888,
          0.0,
          -0.05259687453508377,
          0.03817738965153694,
          -0.06251352280378342,
          0.022319968789815903,
          0.1538791060447693,
          -0.04197463020682335,
          -0.0705755427479744,
          -0.10543990135192871,
          0.04725654423236847,
          0.03123626299202442,
          -0.10086331516504288,
          -0.0708480179309845,
          0.03540322184562683,
          0.06510081887245178,
          0.06937231868505478,
          0.0
        ],
        [
          -0.1610376536846161,
          0.044413015246391296,
          0.10288708657026291,
          -0.06475074589252472,
          0.010353051126003265,
          -0.07938986271619797,
          -0.07484787702560425,
          0.04164331033825874,
          -0.07254211604595184,
          -0.20341505110263824,
          -0.05295570567250252,
          -0.21466472744941711,
          -0.07152093946933746,
          0.05802697688341141,
          0.07453349232673645,
          0.0,
          0.07006100565195084,
          -0.11262667179107666,
          -0.024102523922920227,
          0.0602148100733757,
          0.1032622903585434,
          -0.02682173252105713,
          0.003931175451725721,
          0.10246022045612335,
          -0.10021036118268967,
          -0.059383705258369446,
          -0.015722844749689102,
          -0.03716209903359413,
          -0.05221244692802429,
          0.043713442981243134,
          -0.08105876296758652,
          0.0,
          -0.01979384757578373,
          -0.048950374126434326,
          -0.02539556473493576,
          -0.11641328036785126,
          0.0376225970685482,
          -0.06592932343482971,
          0.0328122116625309,
          0.02480294555425644,
          -0.013620599173009396,
          -0.09142055362462997,
          0.09221822023391724,
          -0.0002572460216470063,
          -0.057179708033800125,
          0.07419215887784958,
          -0.008831475861370564,
          0.0,
          0.07086990028619766,
          -0.09097723662853241,
          0.1145070493221283,
          0.0740073025226593,
          0.03473769128322601,
          0.12780380249023438,
          0.03426296263933182,
          -0.03371328487992287,
          0.05207738280296326,
          -0.0286395326256752,
          0.0804409384727478,
          -0.04771807789802551,
          0.00787161011248827,
          0.02209223248064518,
          0.04332171380519867,
          0.0
        ],
        [
          0.17417101562023163,
          -0.00910282600671053,
          -0.030526848509907722,
          0.08420182019472122,
          -0.183334082365036,
          -0.06822515279054642,
          0.0744037851691246,
          0.09110163897275925,
          -0.10425850749015808,
          -0.10002844035625458,
          0.09973359853029251,
          0.019947879016399384,
          0.011634348891675472,
          0.04464073106646538,
          -0.16543079912662506,
          0.0,
          -0.05847252532839775,
          0.0014772489666938782,
          0.09201160818338394,
          -0.041262153536081314,
          0.040396492928266525,
          -0.0429086834192276,
          -0.019988631829619408,
          0.01728813908994198,
          0.08707868307828903,
          -0.06957230716943741,
          -0.023007171228528023,
          0.010260527953505516,
          -0.05395163968205452,
          -0.07153023779392242,
          0.03790667653083801,
          0.0,
          -0.14357417821884155,
          0.07647986710071564,
          0.1704430878162384,
          -0.021201116964221,
          -0.004010884556919336,
          -0.02207789570093155,
          -0.07177333533763885,
          -0.11217381805181503,
          0.1408170759677887,
          -0.0196162648499012,
          0.06468699872493744,
          -0.07433125376701355,
          -0.07661275565624237,
          0.09386616200208664,
          -0.031358666718006134,
          0.0,
          -0.08189760893583298,
          0.03651589900255203,
          0.044411979615688324,
          -0.00896843895316124,
          -0.04553563520312309,
          -0.004105468280613422,
          -0.017239270731806755,
          -0.004617686383426189,
          0.09044420719146729,
          -0.0016660012770444155,
          -0.077103391289711,
          0.06374320387840271,
          -0.0616278238594532,
          -0.12627509236335754,
          0.11021066457033157,
          0.0
        ],
        [
          0.0055129192769527435,
          -0.017074961215257645,
          -0.15774212777614594,
          0.07192037999629974,
          0.019610365852713585,
          0.09680160880088806,
          0.09481627494096756,
          -0.0010796585120260715,
          -0.2055949717760086,
          -0.006337577011436224,
          -0.1345982849597931,
          -0.09883313626050949,
          0.028743300586938858,
          0.057290442287921906,
          0.003225151915103197,
          0.0,
          -0.05613572150468826,
          0.047437939792871475,
          -0.06322061270475388,
          -0.11856498569250107,
          0.12751920521259308,
          0.08141985535621643,
          -0.04682338982820511,
          0.06302934885025024,
          -0.11732327938079834,
          0.03657672926783562,
          -0.01788334548473358,
          0.10196806490421295,
          0.01425086334347725,
          0.09331263601779938,
          -0.08605533093214035,
          0.0,
          -0.028286628425121307,
          0.118136927485466,
          0.05917695537209511,
          0.06528060138225555,
          0.10766676813364029,
          -0.015653813257813454,
          -0.012506106868386269,
          -0.019779296591877937,
          0.017960773780941963,
          0.05216604471206665,
          -0.07709013670682907,
          -0.09821892529726028,
          0.03909580782055855,
          -0.05463981255888939,
          0.0923345685005188,
          0.0,
          0.009374258108437061,
          0.05026125907897949,
          0.05440730229020119,
          -0.17613601684570312,
          0.00916943047195673,
          -0.03298706188797951,
          -0.03301657363772392,
          0.026876619085669518,
          0.10420475900173187,
          0.10335498303174973,
          0.12282077968120575,
          -0.06098264455795288,
          0.140562042593956,
          -0.06627310812473297,
          -0.01712961494922638,
          0.0
        ],
        [
          -0.1417461335659027,
          -0.2262612283229828,
          -0.22010189294815063,
          0.007572586182504892,
          -0.10088572651147842,
          -0.13084852695465088,
          -0.05608336627483368,
          -0.0613710917532444,
          -0.03820591792464256,
          -0.034695643931627274,
          0.1368250548839569,
          -0.0363655649125576,
          0.12749139964580536,
          0.03776346519589424,
          -0.08936862647533417,
          0.0,
          -0.03445618599653244,
          -0.054796405136585236,
          0.08800195157527924,
          -0.06546944379806519,
          0.0023603893350809813,
          -0.144232377409935,
          -0.02752392366528511,
          0.07621623575687408,
          0.011957365088164806,
          0.01850053109228611,
          -0.02526760846376419,
          0.031725358217954636,
          -0.03550398722290993,
          0.08167780935764313,
          -0.016187001019716263,
          0.0,
          0.07002101093530655,
          -0.06265921145677567,
          0.12329557538032532,
          -0.055582936853170395,
          -0.08702016621828079,
          -0.07226153463125229,
          0.08978962898254395,
          -0.061833519488573074,
          -0.018284380435943604,
          -0.013127484358847141,
          0.037045687437057495,
          -0.04708171635866165,
          -0.016879938542842865,
          0.02805849350988865,
          -0.0006137493182905018,
          0.0,
          -0.05211222916841507,
          0.10407409816980362,
          0.05937936529517174,
          0.09522119909524918,
          0.05393600836396217,
          -0.04744640737771988,
          0.13977478444576263,
          0.0676175206899643,
          0.006959478836506605,
          0.03465393930673599,
          0.05182522535324097,
          -0.04834280535578728,
          0.10067629814147949,
          0.02163214236497879,
          -0.00557323545217514,
          0.0
        ],
        [
          0.11737370491027832,
          0.24390855431556702,
          0.07880329340696335,
          0.07201817631721497,
          -0.04847787320613861,
          -0.10440070927143097,
          -0.11174535006284714,
          -0.1941409409046173,
          0.04657375067472458,
          0.0954744964838028,
          -0.04423858970403671,
          -0.1413397192955017,
          -0.006552867125719786,
          0.11428982019424438,
          -0.10360345244407654,
          0.0,
          -0.06491827219724655,
          0.01991739496588707,
          0.03163543716073036,
          0.07977937906980515,
          -0.16777066886425018,
          0.11475900560617447,
          -0.16714076697826385,
          0.13206073641777039,
          0.11541742831468582,
          0.20248423516750336,
          0.09168209880590439,
          -0.05394965782761574,
          0.010677850805222988,
          -0.04568314179778099,
          -0.2071080356836319,
          0.0,
          -0.01491710264235735,
          -0.06697992980480194,
          0.12539947032928467,
          0.12079785019159317,
          -0.17641186714172363,
          -0.028321851044893265,
          0.08115844428539276,
          0.1582416296005249,
          -0.05415154993534088,
          -0.11368881911039352,
          0.07282818108797073,
          -0.03211907669901848,
          -0.08011069148778915,
          0.028448380529880524,
          -0.05646437406539917,
          0.0,
          0.04748058319091797,
          0.09630688279867172,
          -0.08150193095207214,
          -0.005283806938678026,
          -0.006930917035788298,
          0.04622018709778786,
          -0.013787664473056793,
          0.007913978770375252,
          -0.07626195251941681,
          -0.054853979498147964,
          0.01292739249765873,
          -0.04678115248680115,
          0.030547846108675003,
          -0.054585158824920654,
          -0.01856209523975849,
          0.0
        ],
        [
          0.21641705930233002,
          -0.12642121315002441,
          -0.035725321620702744,
          -0.06610018759965897,
          -0.00012081124441465363,
          0.03874572739005089,
          0.04508642107248306,
          0.05908435955643654,
          -0.012028935365378857,
          -0.06415427476167679,
          -0.11695542186498642,
          -0.15536314249038696,
          0.043883103877305984,
          0.07681842148303986,
          0.017835937440395355,
          0.0,
          0.08513139188289642,
          0.03859689086675644,
          -0.1132824495434761,
          -0.034982286393642426,
          0.05743878707289696,
          -0.05777692049741745,
          -0.017279403284192085,
          -0.0770581066608429,
          -0.0012858775444328785,
          0.005635770503431559,
          -0.03769007697701454,
          0.06443991512060165,
          0.024921957403421402,
          -0.05757403001189232,
          0.06333941966295242,
          0.0,
          -0.0694911777973175,
          0.1208919957280159,
          0.007809461560100317,
          0.006932341028004885,
          -0.006852359976619482,
          -0.12825646996498108,
          -0.10348724573850632,
          0.043411388993263245,
          -0.11836794763803482,
          0.10481693595647812,
          0.07077572494745255,
          0.037732552736997604,
          -0.1446746289730072,
          0.05399870127439499,
          0.06467696279287338,
          0.0,
          -0.08190792053937912,
          0.10625603795051575,
          -0.01722472347319126,
          0.07670975476503372,
          -0.12084243446588516,
          0.014830876141786575,
          0.024459412321448326,
          0.08771966397762299,
          -0.11119865626096725,
          -0.05774826183915138,
          0.07054926455020905,
          -0.06283838301897049,
          -0.12057869881391525,
          -0.07315986603498459,
          -0.13492466509342194,
          0.0
        ],
        [
          -0.06115265563130379,
          0.10118429362773895,
          0.007825319655239582,
          0.10319595783948898,
          -0.11728179454803467,
          0.09494193643331528,
          -0.06271211057901382,
          -0.04266104847192764,
          0.08281955868005753,
          0.12159886211156845,
          -0.0111748231574893,
          -0.08360011875629425,
          0.20465071499347687,
          0.011090856045484543,
          0.1256290078163147,
          0.0,
          0.014421910978853703,
          -0.019551018252968788,
          0.11302762478590012,
          0.04259774088859558,
          -0.08082811534404755,
          0.15324655175209045,
          -0.01062836218625307,
          -0.14347346127033234,
          0.01219626422971487,
          -0.08845505863428116,
          0.036435458809137344,
          0.11741083860397339,
          -0.04053778201341629,
          -0.10443049669265747,
          -0.013799038715660572,
          0.0,
          -0.06870651990175247,
          0.043412525206804276,
          -0.005492661148309708,
          0.005975489970296621,
          0.03709965944290161,
          0.04233504831790924,
          0.012410781346261501,
          -0.03821831941604614,
          -0.057043932378292084,
          0.07485305517911911,
          -0.006578861735761166,
          -0.07010160386562347,
          0.009050101973116398,
          0.11443192511796951,
          0.0660395547747612,
          0.0,
          0.11817126721143723,
          0.015853766351938248,
          -0.10304295271635056,
          0.1428605020046234,
          0.11778514832258224,
          0.15158729255199432,
          0.03942418470978737,
          0.012238478288054466,
          0.022359749302268028,
          0.07811684906482697,
          0.09093588590621948,
          -0.06698755919933319,
          0.04019627720117569,
          -0.026680098846554756,
          -0.07846340537071228,
          0.0
        ],
        [
          -0.13754601776599884,
          -0.15013641119003296,
          -0.11681248247623444,
          -0.03991587832570076,
          -0.014408200979232788,
          0.0015129696112126112,
          0.046865854412317276,
          0.12375990301370621,
          0.09150592982769012,
          0.027234584093093872,
          -0.18161095678806305,
          -0.011120280250906944,
          0.0912032276391983,
          -0.02131803147494793,
          0.07222261279821396,
          0.0,
          0.015590936876833439,
          -0.044171784073114395,
          -0.04241172969341278,
          0.08304329961538315,
          -0.018651368096470833,
          -0.013402119278907776,
          0.038570042699575424,
          -0.11967738717794418,
          0.172707200050354,
          0.08635036647319794,
          -0.04081282392144203,
          0.014257867820560932,
          -0.14334797859191895,
          0.03231769800186157,
          0.045499347150325775,
          0.0,
          -0.01447295118123293,
          0.10384343564510345,
          -0.15994200110435486,
          0.06447374820709229,
          0.028959903866052628,
          -0.06833957135677338,
          0.07114963233470917,
          -0.02760366164147854,
          -0.06650440394878387,
          0.023006517440080643,
          -0.0076660290360450745,
          -0.06479810178279877,
          -0.061223722994327545,
          0.10028067976236343,
          -0.022131284698843956,
          0.0,
          -0.009707851335406303,
          0.03428436070680618,
          -0.019615082070231438,
          0.10721401870250702,
          0.01806773990392685,
          0.02589147351682186,
          0.040331773459911346,
          -0.1738501489162445,
          0.11820191144943237,
          0.11639593541622162,
          0.06860730051994324,
          0.0016074986197054386,
          0.028478965163230896,
          -0.015579801984131336,
          -0.14572496712207794,
          0.0
        ],
        [
          -0.2269279807806015,
          0.040717434138059616,
          -0.042727064341306686,
          -0.03950167074799538,
          -0.07961967587471008,
          0.010736060328781605,
          0.035593390464782715,
          -0.1832028329372406,
          0.0420379675924778,
          -0.027332063764333725,
          -0.1341381072998047,
          0.08037891983985901,
          -0.0058443425223231316,
          -0.03728984668850899,
          0.05560221150517464,
          0.0,
          0.10924696922302246,
          0.03780106455087662,
          -0.09220284968614578,
          -0.12852323055267334,
          0.0018079273868352175,
          0.050247859209775925,
          -0.049007903784513474,
          -0.028887426480650902,
          -0.12642157077789307,
          -0.019293414428830147,
          -0.08848804235458374,
          -0.032128021121025085,
          0.10244583338499069,
          -0.09460283815860748,
          0.03535161539912224,
          0.0,
          -0.03709227964282036,
          -0.0778166875243187,
          0.09471625834703445,
          -0.08656352758407593,
          -0.06076926365494728,
          -0.029606575146317482,
          -0.06407156586647034,
          -0.06912919133901596,
          0.09036243706941605,
          0.08769112080335617,
          0.02958070859313011,
          0.04801290109753609,
          0.012643815949559212,
          -0.07410794496536255,
          0.07033844292163849,
          0.0,
          0.05423310026526451,
          0.0017799015622586012,
          0.08207650482654572,
          0.07686461508274078,
          0.08429592102766037,
          0.01634012721478939,
          -0.0329420231282711,
          0.14452895522117615,
          0.09212272614240646,
          0.013273149728775024,
          -0.017148125916719437,
          -0.07517243921756744,
          -0.07097836583852768,
          -0.09972075372934341,
          -0.13546723127365112,
          0.0
        ],
        [
          -0.07847711443901062,
          -0.15589167177677155,
          0.03743590787053108,
          0.1344212293624878,
          -0.0004041854990646243,
          -0.1485556960105896,
          0.025390857830643654,
          -0.12466668337583542,
          -0.07736154645681381,
          -0.006317379884421825,
          0.12254500389099121,
          -0.04189704731106758,
          0.13692358136177063,
          -0.025507517158985138,
