{
  "name": "DT3GenomeXSArchi 10000",
  "state_channels": 11,
  "genome_channels": 3,
  "hidden_channels": 5,
  "state_quantization_scale": 4.0,
  "hidden_quantization_scale": 8.0,
  "perception_quantization_scale": 12.0,
  "update_probability": 0.5,
  "layers": [
    {
      "name": "conv1",
      "in_channels": 48,
      "out_channels": 60,
      "activation": "relu",
      "weights": [
        [
          -0.15085560083389282,
          0.1500188410282135,
          0.0409330390393734,
          -0.16035005450248718,
          0.1546904295682907,
          0.06086132675409317,
          -0.1201310083270073,
          -0.009446031413972378,
          0.062163788825273514,
          -0.01799161545932293,
          -0.10079681128263474,
          0.0,
          0.07460989058017731,
          -0.08131009340286255,
          0.12258624285459518,
          -0.08231040835380554,
          0.029096875339746475,
          -0.09140913188457489,
          0.05984467640519142,
          -0.003958994522690773,
          -0.037475354969501495,
          -0.01985713094472885,
          0.038168732076883316,
          0.0,
          0.061839573085308075,
          -0.03075702302157879,
          -0.05354570224881172,
          -0.029087617993354797,
          0.01481518242508173,
          0.14015795290470123,
          0.07184858620166779,
          0.02603168599307537,
          0.020271560177206993,
          0.14120683073997498,
          0.00017635741096455604,
          0.0,
          -0.12251518666744232,
          0.1490643471479416,
          0.14082235097885132,
          0.05884648114442825,
          0.08518107980489731,
          -0.06339146941900253,
          -0.08999618887901306,
          0.0785955861210823,
          0.026915697380900383,
          0.06834086775779724,
          -0.1502688080072403,
          0.0
        ],
        [
          -0.05999354273080826,
          0.16084904968738556,
          0.11134783178567886,
          -0.04363998770713806,
          -0.15684306621551514,
          0.09490971267223358,
          0.011318863369524479,
          -0.022185521200299263,
          -0.054151665419340134,
          0.03262396529316902,
          0.029616909101605415,
          0.0,
          -0.009975133463740349,
          -0.02375892922282219,
          0.06359215825796127,
          0.01940574310719967,
          -0.046887390315532684,
          -0.052494242787361145,
          0.034022215753793716,
          -0.0771530494093895,
          -0.02690066769719124,
          -0.006090512033551931,
          -0.05973698943853378,
          0.0,
          -0.18961352109909058,
          -0.1684427708387375,
          -0.0035205758176743984,
          0.12012229859828949,
          -0.27908679842948914,
          0.02016812190413475,
          0.016913527622818947,
          0.016128720715641975,
          -0.21639539301395416,
          -0.032072070986032486,
          -0.06940600275993347,
          0.0,
          0.04905978590250015,
          -0.06624450534582138,
          0.014845432713627815,
          -0.19598940014839172,
          0.0443594790995121,
          0.1044951006770134,
          -0.013935276307165623,
          -0.14960266649723053,
          0.13918615877628326,
          0.10605908185243607,
          -0.06121867522597313,
          0.0
        ],
        [
          -0.11705157160758972,
          0.03202790021896362,
          -0.012097560800611973,
          -0.2505481243133545,
          0.20009224116802216,
          0.18547414243221283,
          0.31268221139907837,
          0.26260247826576233,
          0.02811659500002861,
          -0.056878238916397095,
          0.13201788067817688,
          0.0,
          0.03155465051531792,
          -0.10252370685338974,
          4.347012873040512e-05,
          0.057793594896793365,
          -0.01046675257384777,
          -0.12758463621139526,
          0.22220179438591003,
          0.1773167997598648,
          -0.04500247910618782,
          -0.14413928985595703,
          0.2321964055299759,
          0.0,
          -0.15651755034923553,
          0.07897667586803436,
          0.014242693781852722,
          -0.14253360033035278,
          0.1700541377067566,
          -0.03229080140590668,
          -0.1627286821603775,
          -0.03890424594283104,
          -0.022066324949264526,
          0.11108275502920151,
          0.176786869764328,
          0.0,
          -0.08540455996990204,
          0.0590987391769886,
          -0.03006831929087639,
          -0.22147922217845917,
          -0.08203040808439255,
          -0.025670697912573814,
          -0.10556933283805847,
          0.050471048802137375,
          -0.005185057409107685,
          0.03899863734841347,
          0.01645130291581154,
          0.0
        ],
        [
          -0.1835111528635025,
          -0.20345064997673035,
          -0.10197564959526062,
          0.050985824316740036,
          0.12116894870996475,
          0.13984665274620056,
          -0.01985926181077957,
          -0.06951329857110977,
          -0.1502523571252823,
          -0.08871690928936005,
          -0.02905619889497757,
          0.0,
          0.026544852182269096,
          -0.059595704078674316,
          0.10977822542190552,
          -0.06530553847551346,
          0.11526481062173843,
          -0.12631511688232422,
          0.2099558711051941,
          -0.05451201647520065,
          -0.044077903032302856,
          0.061255600303411484,
          0.026802800595760345,
          0.0,
          -0.1345609426498413,
          0.08916129171848297,
          0.06883274018764496,
          0.1348334103822708,
          -0.1356114149093628,
          -0.1632232367992401,
          0.07803691178560257,
          -0.008724459446966648,
          -0.09315982460975647,
          -0.06259354948997498,
          -0.0935332328081131,
          0.0,
          0.04099883884191513,
          0.11430288851261139,
          -0.09621985256671906,
          -0.11476099491119385,
          0.02820049785077572,
          -0.08056692034006119,
          0.06230628490447998,
          0.0008324796217493713,
          0.1431812196969986,
          0.13706183433532715,
          -0.08832894265651703,
          0.0
        ],
        [
          0.16182269155979156,
          -0.03192828968167305,
          -0.1904502809047699,
          0.11008220911026001,
          -0.10849086940288544,
          0.10076896846294403,
          0.15350553393363953,
          -0.07096266746520996,
          0.06619448959827423,
          0.1126810759305954,
          -0.009136217646300793,
          0.0,
          -0.07888060063123703,
          -0.036591462790966034,
          0.0591043159365654,
          0.13126841187477112,
          0.012595420703291893,
          0.018332071602344513,
          0.07331150025129318,
          0.09422682970762253,
          -0.05695650726556778,
          0.07784578949213028,
          0.20276187360286713,
          0.0,
          -0.05913785472512245,
          0.07117827981710434,
          0.13521137833595276,
          -0.17210377752780914,
          0.09947670251131058,
          -0.012941353023052216,
          -0.03435182198882103,
          0.04597144201397896,
          0.04000655189156532,
          -0.05012434720993042,
          0.019738314673304558,
          0.0,
          -0.14079001545906067,
          0.09208566695451736,
          0.0011049367021769285,
          -0.01790762133896351,
          0.06517843902111053,
          0.036966126412153244,
          -0.0657484158873558,
          -0.0016118207713589072,
          0.03345782309770584,
          -0.13615119457244873,
          -0.057865217328071594,
          0.0
        ],
        [
          0.2434721440076828,
          -0.19591768085956573,
          0.08364377170801163,
          -0.07701681554317474,
          -0.003761017695069313,
          0.1249532625079155,
          0.053673990070819855,
          -0.043056149035692215,
          -0.013093540444970131,
          0.04781428724527359,
          0.07615887373685837,
          0.0,
          -0.08663109689950943,
          0.11698662489652634,
          -0.08557790517807007,
          -0.0011857151985168457,
          -0.007780733983963728,
          -0.017770783975720406,
          -0.011521889828145504,
          0.11131880432367325,
          -0.016384240239858627,
          0.064554363489151,
          0.03366292268037796,
          0.0,
          -0.007085124030709267,
          -0.08691041171550751,
          -0.0024343826808035374,
          0.15756717324256897,
          -0.030557801946997643,
          -0.10218541324138641,
          -0.12795713543891907,
          0.01747826114296913,
          -0.006566386204212904,
          0.02582814171910286,
          -0.018295712769031525,
          0.0,
          0.06543547660112381,
          0.12594260275363922,
          -0.15765973925590515,
          0.06372501701116562,
          -0.13210447132587433,
          0.15833202004432678,
          0.1084146723151207,
          0.12259774655103683,
          -0.06794435530900955,
          0.11759567260742188,
          -0.10277831554412842,
          0.0
        ],
        [
          -0.23837026953697205,
          -0.06936560571193695,
          -0.08505433052778244,
          -0.1623355597257614,
          -0.027842512354254723,
          0.10066701471805573,
          0.22989726066589355,
          -0.15469655394554138,
          -0.13295431435108185,
          0.14446158707141876,
          0.10446826368570328,
          0.0,
          0.13205647468566895,
          -0.019121482968330383,
          -0.14352306723594666,
          -0.015246273949742317,
          0.028951827436685562,
          0.0178340133279562,
          0.05057847499847412,
          0.1318749338388443,
          -0.05397418141365051,
          -0.08843424171209335,
          -0.04211584851145744,
          0.0,
          -0.09409736096858978,
          0.09079841524362564,
          0.020183032378554344,
          -0.0895664244890213,
          0.0481545552611351,
          0.05045754089951515,
          0.1094454675912857,
          -0.0750146210193634,
          -0.08209353685379028,
          0.12371718138456345,
          0.07261352241039276,
          0.0,
          0.08223798871040344,
          -0.0007221903069876134,
          -0.02369420975446701,
          0.024601636454463005,
          -0.19336631894111633,
          0.040708042681217194,
          -0.13101135194301605,
          0.13768431544303894,
          0.023033717647194862,
          0.08354047685861588,
          0.05100899934768677,
          0.0
        ],
        [
          -0.045558441430330276,
          0.055019162595272064,
          -0.21696747839450836,
          -0.075493723154068,
          0.07691413164138794,
          0.06264371424913406,
          0.13165463507175446,
          -0.03900459408760071,
          -0.09994367510080338,
          0.05948317050933838,
          0.06281867623329163,
          0.0,
          0.10619118064641953,
          0.02740267850458622,
          0.08606342226266861,
          0.0035298296716064215,
          -0.05861402675509453,
          0.01925094798207283,
          -0.09157643467187881,
          -0.0929032489657402,
          -0.018716325983405113,
          -0.029269229620695114,
          -0.14579364657402039,
          0.0,
          0.12450699508190155,
          0.0020453338511288166,
          0.003318049246445298,
          -0.05181875452399254,
          0.040963735431432724,
          0.044050779193639755,
          -0.05606977269053459,
          0.030261022970080376,
          0.10812870413064957,
          -0.09948346763849258,
          -0.13515184819698334,
          0.0,
          0.10291435569524765,
          -0.02452668361365795,
          0.12378162145614624,
          0.09205837547779083,
          0.04968855902552605,
          -0.12825758755207062,
          0.03209444135427475,
          0.0638541579246521,
          -0.16169843077659607,
          0.21088670194149017,
          -0.12033764272928238,
          0.0
        ],
        [
          0.13701000809669495,
          -0.07858210057020187,
          0.026691647246479988,
          -0.22862665355205536,
          0.05574527755379677,
          0.11196011304855347,
          0.16905346512794495,
          -0.14438052475452423,
          0.11878547072410583,
          -0.13300324976444244,
          -0.07616457343101501,
          0.0,
          -0.0783197432756424,
          -0.02234942838549614,
          0.09715001285076141,
          -0.008314134553074837,
          -0.17566995322704315,
          0.002898706356063485,
          0.032882481813430786,
          -0.03288944810628891,
          0.07973718643188477,
          0.044585488736629486,
          -0.01995602436363697,
          0.0,
          0.03969348594546318,
          -0.07198482006788254,
          0.00037251488538458943,
          -0.054323144257068634,
          -0.13157324492931366,
          0.052793361246585846,
          -0.0020157701801508665,
          0.19451363384723663,
          -0.03593795746564865,
          0.03409859538078308,
          0.06329626590013504,
          0.0,
          0.10995441675186157,
          0.05244140326976776,
          0.025100363418459892,
          0.005141285713762045,
          0.07228395342826843,
          0.10769638419151306,
          -0.08129019290208817,
          0.047805316746234894,
          0.10265691578388214,
          -0.11860723048448563,
          0.05906561389565468,
          0.0
        ],
        [
          -0.07683269679546356,
          0.03166130185127258,
          0.05883293226361275,
          -0.004306301940232515,
          0.2314346581697464,
          0.1725403070449829,
          0.26565611362457275,
          -0.028290119022130966,
          -0.011013270355761051,
          -0.14450183510780334,
          -0.10042601078748703,
          0.0,
          -0.08832423388957977,
          -0.06104452162981033,
          0.03781147301197052,
          0.14907662570476532,
          -0.041242096573114395,
          -0.1141204908490181,
          0.04606284201145172,
          0.04545993357896805,
          -0.07469813525676727,
          0.036133117973804474,
          0.12820746004581451,
          0.0,
          -0.10499869287014008,
          0.03128892555832863,
          -0.03211710602045059,
          0.17362049221992493,
          -0.10005185753107071,
          -0.08657609671354294,
          0.07825832068920135,
          0.16126734018325806,
          -0.14220406115055084,
          0.06398304551839828,
          0.0051683709025382996,
          0.0,
          -0.0750112533569336,
          -0.09198148548603058,
          0.1560545712709427,
          0.007347684353590012,
          -0.04073578119277954,
          0.034529902040958405,
          0.08965548127889633,
          -0.12457079440355301,
          0.06510235369205475,
          -0.17414508759975433,
          0.027707628905773163,
          0.0
        ],
        [
          -0.32011115550994873,
          0.38027963042259216,
          0.027895819395780563,
          0.09622665494680405,
          -0.17582657933235168,
          -0.0023886600974947214,
          0.10162368416786194,
          0.11174223572015762,
          -0.047808095812797546,
          -0.05261363461613655,
          0.0761728510260582,
          0.0,
          -0.15136924386024475,
          0.18133454024791718,
          0.020651986822485924,
          -0.007926984690129757,
          0.04530273750424385,
          -0.04372274503111839,
          0.0020948536694049835,
          0.11367953568696976,
          0.05228791385889053,
          0.044202204793691635,
          -0.05844152346253395,
          0.0,
          -0.1622995287179947,
          0.19509543478488922,
          -0.05158533528447151,
          0.08246539533138275,
          -0.003139134729281068,
          -0.0804058238863945,
          0.026561344042420387,
          -0.05869381129741669,
          -0.028638949617743492,
          0.040872082114219666,
          -0.057917170226573944,
          0.0,
          0.12591291964054108,
          -0.13963265717029572,
          -0.10010898113250732,
          -0.020579874515533447,
          0.027818238362669945,
          -0.12966866791248322,
          -0.037723734974861145,
          -0.05806524306535721,
          -0.04651325196027756,
          -0.09438735991716385,
          0.15297190845012665,
          0.0
        ],
        [
          0.11114190518856049,
          -0.4077824652194977,
          0.4026769697666168,
          0.12000074982643127,
          -0.009519556537270546,
          -0.07236764580011368,
          0.02203734964132309,
          0.013193028047680855,
          -0.012424957938492298,
          0.02861768566071987,
          -0.05500340461730957,
          0.0,
          -0.09961313009262085,
          0.1595216691493988,
          -0.045438703149557114,
          -0.0215240977704525,
          -0.050033800303936005,
          -0.050216350704431534,
          0.06960371136665344,
          0.013907039538025856,
          -0.03189590200781822,
          -0.028798196464776993,
          0.1069270670413971,
          0.0,
          -0.11313318461179733,
          -0.04515129700303078,
          0.08397351950407028,
          0.012308400124311447,
          -0.012564213946461678,
          0.10681774467229843,
          -0.1082814633846283,
          0.06694859266281128,
          -0.03685414046049118,
          0.03752191364765167,
          0.01843959651887417,
          0.0,
          -0.0942753255367279,
          0.12205181270837784,
          -0.07307135313749313,
          -0.04216022789478302,
          0.10155221819877625,
          -0.07614054530858994,
          -0.050337303429841995,
          0.05916687101125717,
          0.02131408452987671,
          -0.0038135338108986616,
          0.13895347714424133,
          0.0
        ],
        [
          -0.09983234852552414,
          0.020961739122867584,
          -0.24163523316383362,
          0.07108788192272186,
          -0.09987081587314606,
          -0.04313773289322853,
          0.09158298373222351,
          0.09950202703475952,
          0.0493803508579731,
          0.11772602796554565,
          -0.005895409267395735,
          0.0,
          0.0385015644133091,
          0.04552159830927849,
          0.07321557402610779,
          0.00915292277932167,
          -0.0021733827888965607,
          0.07047833502292633,
          0.06572619080543518,
          0.06741750240325928,
          0.015325810760259628,
          0.052239131182432175,
          -0.07243477553129196,
          0.0,
          0.010238942690193653,
          -0.16806745529174805,
          -0.022752225399017334,
          -0.06748204678297043,
          -0.05671121925115585,
          -0.2387663871049881,
          -0.030545778572559357,
          -0.006417613476514816,
          -0.029993196949362755,
          -0.03928075730800629,
          0.16716817021369934,
          0.0,
          -0.047801923006772995,
          0.1324789822101593,
          0.0790104940533638,
          0.1312056928873062,
          0.0975838154554367,
          0.10632582753896713,
          -0.057627759873867035,
          0.06732778251171112,
          -0.02750840038061142,
          0.08101789653301239,
          -0.11414985358715057,
          0.0
        ],
        [
          -0.14400222897529602,
          -0.20254948735237122,
          -0.258909672498703,
          -0.1406134068965912,
          -0.020172003656625748,
          -0.0030028054025024176,
          0.0038839757908135653,
          0.10199631005525589,
          -0.0038345823995769024,
          0.06807424873113632,
          -0.18180041015148163,
          0.0,
          -0.060091082006692886,
          -0.048588160425424576,
          0.022205017507076263,
          -0.004439088515937328,
          -0.1525965929031372,
          -0.13934937119483948,
          0.0888737291097641,
          0.10423123091459274,
          -0.028686504811048508,
          -0.1250462681055069,
          0.21219368278980255,
          0.0,
          -0.07155995815992355,
          0.04171140864491463,
          -0.042478494346141815,
          0.01727587729692459,
          -0.026086151599884033,
          0.019802365452051163,
          -0.08909200876951218,
          0.059014055877923965,
          -0.05212203413248062,
          0.05714359134435654,
          0.14828522503376007,
          0.0,
          -0.09140277653932571,
          0.06683242321014404,
          0.042697012424468994,
          0.03307690471410751,
          -0.0009726873831823468,
          0.042267896234989166,
          -0.08880440890789032,
          0.027677487581968307,
          0.01883063092827797,
          -0.11098920553922653,
          0.10956992954015732,
          0.0
        ],
        [
          0.06360583007335663,
          0.06051407754421234,
          0.11273720115423203,
          -0.1784411519765854,
          0.099345363676548,
          0.04107718914747238,
          0.0748247280716896,
          -0.09423287957906723,
          0.1319350302219391,
          -0.0680188313126564,
          -0.053911395370960236,
          0.0,
          0.12991710007190704,
          -0.0026797240134328604,
          -0.18023532629013062,
          -0.11999751627445221,
          -0.18244804441928864,
          0.16925916075706482,
          -0.08349861204624176,
          -0.12044475972652435,
          0.0612681619822979,
          -0.031907882541418076,
          -0.07974603772163391,
          0.0,
          0.048252616077661514,
          -0.03716811537742615,
          -0.038183070719242096,
          0.03202003613114357,
          0.04898274317383766,
          0.19917038083076477,
          -0.032264433801174164,
          -0.01490542571991682,
          -0.050893086940050125,
          -0.010988960973918438,
          -0.008529813028872013,
          0.0,
          0.0813583955168724,
          -0.06466750800609589,
          -0.09088239818811417,
          0.16884572803974152,
          0.1399925947189331,
          -0.179290771484375,
          -0.10782678425312042,
          0.06865459680557251,
          -0.06259001046419144,
          -0.047903046011924744,
          -0.009375307708978653,
          0.0
        ],
        [
          -0.04520433768630028,
          -0.3162378668785095,
          0.1504511684179306,
          0.04643622413277626,
          -0.04865223169326782,
          0.1422618180513382,
          -0.028416577726602554,
          0.11745598912239075,
          -0.028820933774113655,
          0.08222298324108124,
          0.021817291155457497,
          0.0,
          -0.06953547894954681,
          0.07893127202987671,
          -0.04968301206827164,
          -0.026269342750310898,
          -0.01553314458578825,
          0.0840226337313652,
          -0.15784543752670288,
          -0.06625403463840485,
          -0.005015212576836348,
          0.0067644570954144,
          -0.17251187562942505,
          0.0,
          0.09079334884881973,
          0.05038051679730415,
          -0.1510588377714157,
          -0.11036135256290436,
          0.002743602031841874,
          0.07191283255815506,
          0.05318501591682434,
          0.02945609763264656,
          0.06571649014949799,
          -0.1017046719789505,
          -0.049583014100790024,
          0.0,
          0.03234082832932472,
          0.10726213455200195,
          -0.16812293231487274,
          -0.10143811255693436,
          -0.0015433134976774454,
          -0.06088842824101448,
          -0.03436728194355965,
          -0.08455000072717667,
          -0.14054788649082184,
          0.10266510397195816,
          -0.06097356230020523,
          0.0
        ],
        [
          0.3193965554237366,
          0.4153077006340027,
          0.0023483738768845797,
          -0.0788363516330719,
          0.12395685166120529,
          -0.00958121009171009,
          0.02190983109176159,
          0.11423155665397644,
          -0.15670913457870483,
          -0.15328349173069,
          -0.07845519483089447,
          0.0,
          -0.0029150957707315683,
          -0.010751795023679733,
          -0.0988692045211792,
          0.06310102343559265,
          -0.04394018277525902,
          0.04630490392446518,
          -0.03195750713348389,
          -0.10182791203260422,
          0.0025827225763350725,
          -0.04920557141304016,
          -0.029097087681293488,
          0.0,
          -0.032412655651569366,
          -0.06394226104021072,
          0.1541457623243332,
          -0.1552010029554367,
          0.03907012566924095,
          -0.11206033825874329,
          -0.04236750304698944,
          0.1428857296705246,
          0.028052590787410736,
          -0.19654347002506256,
          -0.04839307814836502,
          0.0,
          -0.02745637111365795,
          0.08103661984205246,
          -0.09364596009254456,
          0.06504575908184052,
          0.0012514101108536124,
          0.08621874451637268,
          -0.06661023199558258,
          0.020213503390550613,
          -0.117738738656044,
          0.0695025622844696,
          -0.036491625010967255,
          0.0
        ],
        [
          -0.45268872380256653,
          -0.15393520891666412,
          -0.10963097959756851,
          -0.06232983618974686,
          -0.06394121795892715,
          0.058867670595645905,
          -0.11907660961151123,
          -0.032062314450740814,
          -0.18012256920337677,
          0.14459213614463806,
          -0.16364532709121704,
          0.0,
          -0.00640132324770093,
          -0.055536724627017975,
          0.049841202795505524,
          0.06996840983629227,
          -0.06179409101605415,
          -0.026364486664533615,
          0.1069120541214943,
          0.04807751998305321,
          -0.02515891008079052,
          0.05534439906477928,
          0.11260227113962173,
          0.0,
          0.10512004792690277,
          0.0028408225625753403,
          0.029303913936018944,
          0.06096364185214043,
          -0.03438373655080795,
          -0.011324726976454258,
          -0.04473350942134857,
          0.005163532681763172,
          0.09000182151794434,
          0.06515175849199295,
          -0.04023376479744911,
          0.0,
          0.10238644480705261,
          0.022137079387903214,
          -0.06316110491752625,
          0.09819822758436203,
          -0.08258287608623505,
          -0.20176514983177185,
          -0.052696362137794495,
          0.06973733752965927,
          0.04575946554541588,
          -0.04047420620918274,
          -0.11711766570806503,
          0.0
        ],
        [
          0.2778051793575287,
          -0.08305361866950989,
          0.22418835759162903,
          -0.022377032786607742,
          -0.189920112490654,
          -0.10070207715034485,
          -0.0039059999398887157,
          -0.02985181100666523,
          -0.04278586804866791,
          0.07504525780677795,
          -0.034870695322752,
          0.0,
          0.08158211410045624,
          -0.02088494785130024,
          0.024698220193386078,
          -0.0075410171411931515,
          0.1325114220380783,
          -0.11086361855268478,
          0.11487748473882675,
          0.0037623632233589888,
          -0.04285108670592308,
          0.10800843685865402,
          0.10365799814462662,
          0.0,
          0.0283651240170002,
          0.08894360065460205,
          -0.05122800171375275,
          -0.0029282569885253906,
          -0.1063089519739151,
          -0.17091037333011627,
          -0.06111982464790344,
          -0.04042297974228859,
          -0.10408355295658112,
          -0.06621894240379333,
          0.06725618243217468,
          0.0,
          -0.051260802894830704,
          0.11903253197669983,
          -0.03865776211023331,
          0.03577670454978943,
          -0.04400118440389633,
          0.041593287140131,
          -0.11049852520227432,
          0.020435521379113197,
          0.1368846297264099,
          0.10170704126358032,
          0.01856588013470173,
          0.0
        ],
        [
          -0.029329335317015648,
          0.2641691267490387,
          0.18997059762477875,
          0.03455965593457222,
          0.16220690310001373,
          -0.08960593491792679,
          0.041199956089258194,
          0.13171696662902832,
          0.03514138236641884,
          -0.02398229017853737,
          -0.007609290070831776,
          0.0,
          0.053439583629369736,
          0.022386236116290092,
          -0.06339938938617706,
          0.07970741391181946,
          0.026008469983935356,
          0.0011324647348374128,
          -0.12708686292171478,
          -0.03277955949306488,
          -0.037988826632499695,
          -0.03287390246987343,
          0.05368247628211975,
          0.0,
          0.07772351801395416,
          0.014268003404140472,
          -0.09803930670022964,
          -0.1233058050274849,
          0.10220686346292496,
          0.05236126109957695,
          -0.21533097326755524,
          0.040173932909965515,
          0.01698964275419712,
          -0.03810952603816986,
          -0.14323051273822784,
          0.0,
          -0.09282241761684418,
          0.12854847311973572,
          0.05507349595427513,
          -0.21558550000190735,
          -0.1284041851758957,
          0.05341301113367081,
          0.06165874004364014,
          0.16955532133579254,
          0.13419361412525177,
          0.13317981362342834,
          -0.0912984311580658,
          0.0
        ],
        [
          0.05710707977414131,
          -0.04428395256400108,
          -0.14825598895549774,
          -0.00019654609786812216,
          0.07841143012046814,
          0.02484765276312828,
          -0.12114349007606506,
          -0.08124736696481705,
          0.0594853051006794,
          -0.17633292078971863,
          -0.1274322122335434,
          0.0,
          0.004028210882097483,
          -0.08122198283672333,
          0.1011047512292862,
          0.039190955460071564,
          0.11474835872650146,
          0.04588247463107109,
          -0.06571488082408905,
          -0.04072396084666252,
          -0.0729207694530487,
          0.027782011777162552,
          0.036931660026311874,
          0.0,
          0.00033157700090669096,
          0.11158731579780579,
          -0.06147729977965355,
          -0.10121352225542068,
          0.06314533948898315,
          0.1498716026544571,
          0.054194603115320206,
          0.0880410373210907,
          0.032071780413389206,
          -0.1669985055923462,
          -0.025909673422574997,
          0.0,
          -0.014608291909098625,
          0.07493459433317184,
          -0.10286211967468262,
          -0.07698499411344528,
          -0.09605807811021805,
          0.06869122385978699,
          -0.06107434257864952,
          0.004908165894448757,
          -0.02713671699166298,
          0.1714898943901062,
          0.043249938637018204,
          0.0
        ],
        [
          -0.1622135192155838,
          0.11085809767246246,
          -0.03591950982809067,
          -0.1690451204776764,
          -0.021530605852603912,
          0.07218007743358612,
          0.08423176407814026,
          -0.08537563681602478,
          -0.14960308372974396,
          -0.021504348143935204,
          -0.1296636015176773,
          0.0,
          -0.04079513996839523,
          0.024601837620139122,
          -0.060449421405792236,
          0.000627213332336396,
          -0.11408833414316177,
          -0.08660413324832916,
          0.176877960562706,
          -0.018746718764305115,
          0.14558036625385284,
          -0.1065005362033844,
          0.13628330826759338,
          0.0,
          -0.07150352746248245,
          0.07064240425825119,
          0.04007931798696518,
          0.20026710629463196,
          -0.002366286236792803,
          0.026415368542075157,
          -0.0756985992193222,
          0.058291930705308914,
          -0.0020422362722456455,
          0.06985259801149368,
          0.06605753302574158,
          0.0,
          0.01536579616367817,
          -0.1076732873916626,
          0.11037606745958328,
          0.042371392250061035,
          0.17146925628185272,
          0.04148958623409271,
          -0.08239073306322098,
          -0.11644880473613739,
          -0.042717333883047104,
          0.1197475790977478,
          -0.08159725368022919,
          0.0
        ],
        [
          -0.09710440039634705,
          0.011439303867518902,
          0.018335608765482903,
          0.09746470302343369,
          -0.039098307490348816,
          0.14885342121124268,
          0.01833137683570385,
          0.004017558414489031,
          -0.07984699308872223,
          0.00813151616603136,
          -0.01059767697006464,
          0.0,
          0.006393837742507458,
          -0.09547547996044159,
          0.07225921750068665,
          0.07151996344327927,
          0.0892874225974083,
          -0.09620556980371475,
          0.16350337862968445,
          0.09361442178487778,
          -0.020507175475358963,
          -0.09907340258359909,
          0.09812595695257187,
          0.0,
          -0.028777629137039185,
          0.01131474319845438,
          -0.051445119082927704,
          -0.21518002450466156,
          0.004484621342271566,
          -0.1045934185385704,
          -0.16678914427757263,
          0.009965439327061176,
          -0.032843802124261856,
          -0.08625169843435287,
          -0.1261877566576004,
          0.0,
          0.02460680715739727,
          -0.041641175746917725,
          0.034255437552928925,
          -0.015516730025410652,
          -0.09398768842220306,
          0.015252943150699139,
          -0.10191787779331207,
          0.011765639297664165,
          0.17609348893165588,
          -0.12680020928382874,
          -0.17560650408267975,
          0.0
        ],
        [
          -0.28401634097099304,
          0.15422600507736206,
          0.03473982587456703,
          -0.11271540075540543,
          0.06502469629049301,
          0.1908576786518097,
          -0.007611365523189306,
          -0.05247050151228905,
          -0.05359450355172157,
          -0.056368350982666016,
          0.01665162667632103,
          0.0,
          0.0028609461151063442,
          -0.021212492138147354,
          -0.07288115471601486,
          -0.1297178417444229,
          0.1569901704788208,
          -0.05474608764052391,
          0.0819757878780365,
          0.14915497601032257,
          -0.0013982986565679312,
          0.0598292350769043,
          0.05864345654845238,
          0.0,
          -0.13085801899433136,
          0.10575460642576218,
          0.032655809074640274,
          -0.07193448394536972,
          0.22870154678821564,
          0.07132348418235779,
          -0.12852410972118378,
          0.10654313862323761,
          0.0727117732167244,
          0.1787932813167572,
          -0.06698933243751526,
          0.0,
          -0.05402268096804619,
          -0.03490802273154259,
          -0.00671182619407773,
          -0.16086445748806,
          0.05979127436876297,
          0.13398751616477966,
          -0.14094582200050354,
          -0.18722455203533173,
          -0.03902149945497513,
          0.06452737003564835,
          -0.04285517334938049,
          0.0
        ],
        [
          0.22848813235759735,
          -0.10595275461673737,
          -0.03457692265510559,
          0.10156746953725815,
          -0.07415857911109924,
          0.0575530081987381,
          0.16865593194961548,
          0.03710152581334114,
          -0.00498669408261776,
          0.10082732886075974,
          -0.16022297739982605,
          0.0,
          0.05386356636881828,
          0.0698515921831131,
          -0.052462387830019,
          -0.05205821245908737,
          -0.058271072804927826,
          0.03812289237976074,
          -0.19715604186058044,
          -0.1285247951745987,
          0.09712429344654083,
          -0.07026976346969604,
          -0.10468288511037827,
          0.0,
          0.06836789846420288,
          -0.10968825221061707,
          -0.11045894771814346,
          -0.016457950696349144,
          0.05317237228155136,
          0.014933074824512005,
          -0.04790987819433212,
          0.05085086449980736,
          -0.14745952188968658,
          -0.03129469230771065,
          -0.1834104210138321,
          0.0,
          -0.06507942825555801,
          0.13743427395820618,
          0.038372721523046494,
          0.12244889885187149,
          -0.033055562525987625,
          -0.15510739386081696,
          -0.040724921971559525,
          -0.16767749190330505,
          0.08480565994977951,
          0.009129286743700504,
          -0.0501452274620533,
          0.0
        ],
        [
          0.24626195430755615,
          0.0015517163556069136,
          0.10706724971532822,
          0.03092837706208229,
          -0.1040567010641098,
          0.07151980698108673,
          -0.061967723071575165,
          0.03961270675063133,
          0.0840490534901619,
          0.002547572599723935,
          0.06295701116323471,
          0.0,
          -0.09500981867313385,
          -0.07255962491035461,
          -0.017748666927218437,
          -0.09515455365180969,
          0.12628334760665894,
          0.06717333942651749,
          0.12312071025371552,
          0.0978488028049469,
          -0.09352169930934906,
          0.14001652598381042,
          0.049661505967378616,
          0.0,
          -0.013881741091609001,
          0.022045794874429703,
          0.1097785085439682,
          -0.05218290910124779,
          0.03318457677960396,
          -0.03173103183507919,
          -0.09693785011768341,
          -0.14861780405044556,
          -0.13779126107692719,
          0.06617327034473419,
          -0.012520183809101582,
          0.0,
          -0.05665946751832962,
          0.10503102093935013,
          -0.0773439034819603,
          0.009153597988188267,
          0.18952427804470062,
          0.00832157302647829,
          0.14425799250602722,
          -0.1117267832159996,
          -0.03406964987516403,
          0.05871277675032616,
          -0.011358669959008694,
          0.0
        ],
        [
          -0.351298987865448,
          0.11062519997358322,
          0.2387343794107437,
          -0.06147589161992073,
          0.020101774483919144,
          -0.013527567498385906,
          -0.0020352029241621494,
          -0.000937688339035958,
          0.054161835461854935,
          0.09801855683326721,
          0.01262296549975872,
          0.0,
          -0.09974777698516846,
          -0.08010837435722351,
          0.10323300957679749,
          0.02095513418316841,
          0.06153145805001259,
          -0.02992268092930317,
          -0.05291421338915825,
          0.029307154938578606,
          -0.06869731098413467,
          0.08946238458156586,
          0.04029228910803795,
          0.0,
          0.15696203708648682,
          -0.10441774129867554,
          0.011533200740814209,
          -0.08037729561328888,
          0.047360487282276154,
          -0.04022012650966644,
          0.0015602002386003733,
          -0.0485994927585125,
          -0.05648712068796158,
          -0.03809240460395813,
          -0.08015169948339462,
          0.0,
          0.07858552783727646,
          0.008953026495873928,
          -0.02995195984840393,
          -0.01048277411609888,
          -0.10966736823320389,
          0.08581329882144928,
          0.018712468445301056,
          -0.04497480019927025,
          0.11621080338954926,
          0.08427300304174423,
          -0.04405974596738815,
          0.0
        ],
        [
          0.04760362580418587,
          0.4611295461654663,
          -0.09451945126056671,
          -0.0067969816736876965,
          0.07230960577726364,
          0.0008232553955167532,
          0.01922142319381237,
          -0.14214731752872467,
          0.007807343266904354,
          0.005121153779327869,
          -0.1995406150817871,
          0.0,
          0.08755292743444443,
          0.13877789676189423,
          -0.10294697433710098,
          0.03173422813415527,
          -0.1370832920074463,
          0.1506953090429306,
          -0.18991394340991974,
          -0.03996134176850319,
          0.04014239460229874,
          -0.027506651356816292,
          -0.08573918789625168,
          0.0,
          0.025245508179068565,
          -0.047491829842329025,
          -0.044562291353940964,
          0.005888504441827536,
          -0.00784413143992424,
          0.0500628687441349,
          0.088817298412323,
          -0.03644634410738945,
          -0.11872662603855133,
          -0.050015803426504135,
          0.06691785156726837,
          0.0,
          0.006626848131418228,
          -0.09198077023029327,
          0.0037684948183596134,
          -0.043804142624139786,
          -0.03440055251121521,
          0.06509674340486526,
          -0.039236217737197876,
          -0.033444639295339584,
          0.05079461634159088,
          -0.08822890371084213,
          0.21004892885684967,
          0.0
        ],
        [
          0.03059394098818302,
          -0.21765980124473572,
          0.25900158286094666,
          -0.0958203598856926,
          0.1205921396613121,
          0.12420420348644257,
          0.1482667773962021,
          -0.19177256524562836,
          -0.04586566984653473,
          -0.03906147554516792,
          -0.06722107529640198,
          0.0,
          -0.061862219125032425,
          -0.019459204748272896,
          -0.05665920302271843,
          -0.10176274925470352,
          0.006297116167843342,
          -0.03472249209880829,
          -0.01646466739475727,
          -0.07729710638523102,
          0.011198930442333221,
          0.05479106679558754,
          0.17593708634376526,
          0.0,
          -0.06849928200244904,
          0.11643683910369873,
          -0.02408038079738617,
          0.10810916870832443,
          -0.0728849247097969,
          -0.0961335152387619,
          0.03844429925084114,
          0.03806546702980995,
          0.03784829378128052,
          -0.057940974831581116,
          -0.010753462091088295,
          0.0,
          -0.0010747623164206743,
          0.07655137777328491,
          0.012622232548892498,
          0.15603815019130707,
          0.0160975344479084,
          -0.09044891595840454,
          -0.07842324674129486,
          0.19686034321784973,
          0.017510496079921722,
          -0.15803907811641693,
          -0.055056970566511154,
          0.0
        ],
        [
          -0.02409941516816616,
          -0.17848391830921173,
          -0.19274219870567322,
          -0.1406152844429016,
          -0.030092960223555565,
          0.12383300065994263,
          -0.05493219196796417,
          0.0710025504231453,
          0.15403971076011658,
          0.012680907733738422,
          -0.10262063890695572,
          0.0,
          0.09293697774410248,
          0.025264689698815346,
          -0.07031834870576859,
          0.09281685203313828,
          -0.11806520819664001,
          0.09945479035377502,
          -0.04256647825241089,
          -0.11834496259689331,
          -0.06656616181135178,
          -0.06532084941864014,
          0.04018649086356163,
          0.0,
          0.028452547267079353,
          -0.060401201248168945,
          0.11079639196395874,
          0.12568075954914093,
          -0.03719599172472954,
          -0.010007425211369991,
          0.014342742040753365,
          -0.15610358119010925,
          -0.053999949246644974,
          0.039935823529958725,
          0.013751741498708725,
          0.0,
          -0.11134018748998642,
          0.08864551037549973,
          0.08309000730514526,
          0.1726871132850647,
          -0.015462041832506657,
          0.12881140410900116,
          0.06957990676164627,
          -0.09234684705734253,
          -0.15300923585891724,
          -0.26014596223831177,
          0.08419674634933472,
          0.0
        ],
        [
          -0.32537293434143066,
          0.13010483980178833,
          -0.16593322157859802,
          -0.029283052310347557,
          -0.029456844553351402,
          0.17104582488536835,
          0.019594993442296982,
          0.05204491317272186,
          0.09811282902956009,
          0.045010123401880264,
          -0.015505568124353886,
          0.0,
          -0.0032199914567172527,
          0.034551702439785004,
          0.06549109518527985,
          -0.16681475937366486,
          0.06730394065380096,
          0.18451142311096191,
          -0.11921466141939163,
          0.1482105553150177,
          0.029918396845459938,
          0.012129164300858974,
          -0.10557945817708969,
          0.0,
          -0.044220298528671265,
          0.13755063712596893,
          -0.08518829196691513,
          0.09574571251869202,
          -0.042711418122053146,
          0.13910414278507233,
          -0.0485864132642746,
          -0.03344551846385002,
          -0.06257817894220352,
          0.13485762476921082,
          -0.11196572333574295,
          0.0,
          0.06215444579720497,
          -0.07541720569133759,
          0.01640216074883938,
          0.0005890880711376667,
          -0.01385856606066227,
          -0.08906945586204529,
          -0.0008587887277826667,
          0.10067594796419144,
          -0.18264350295066833,
          0.06671330332756042,
          0.08313795179128647,
          0.0
        ],
        [
          -0.13964994251728058,
          0.2749979496002197,
          -0.006949611473828554,
          -0.23296935856342316,
          -0.041973140090703964,
          0.2054293155670166,
          -0.0520298145711422,
          0.008147512562572956,
          -0.0026541154365986586,
          0.06909012049436569,
          0.019888292998075485,
          0.0,
          0.014775543473660946,
          -0.0638393983244896,
          0.03415154293179512,
          -0.13071146607398987,
          0.11618544161319733,
          0.06953459978103638,
          -0.0331452339887619,
          0.0487770214676857,
          0.04590675234794617,
          0.09315650165081024,
          -0.00796099565923214,
          0.0,
          0.02644946798682213,
          0.02927231974899769,
          0.024873727932572365,
          0.1279991865158081,
          -0.08259901404380798,
          -0.021366676315665245,
          -0.03995494544506073,
          -0.05646106228232384,
          -0.002310857642441988,
          0.03352482616901398,
          -0.04082353413105011,
          0.0,
          0.14919477701187134,
          -0.09142991900444031,
          -0.018194900825619698,
          0.008063849061727524,
          -0.04181772843003273,
          -0.06277275830507278,
          0.08050202578306198,
          0.18007680773735046,
          0.07949277758598328,
          -0.06801766902208328,
          -0.09602729231119156,
          0.0
        ],
        [
          0.25450751185417175,
          -0.03330717980861664,
          0.21659821271896362,
          -0.14649856090545654,
          0.06160882115364075,
          0.12089279294013977,
          0.05427340790629387,
          0.05993911251425743,
          -0.12519191205501556,
          0.10095347464084625,
          0.11685656011104584,
          0.0,
          0.0060856700874865055,
          -0.0093059241771698,
          0.09112289547920227,
          -0.014474443159997463,
          -0.08687013387680054,
          0.11536362022161484,
          -0.16932372748851776,
          -0.14514414966106415,
          -0.010318173095583916,
          0.16490137577056885,
          -0.23452603816986084,
          0.0,
          0.02483043074607849,
          -0.09696575254201889,
          0.08546377718448639,
          -0.04810234159231186,
          0.009573997929692268,
          0.07138429582118988,
          0.03955484554171562,
          -0.002482204232364893,
          0.07710650563240051,
          -0.17283305525779724,
          -0.06681069731712341,
          0.0,
          0.06687736511230469,
          -0.027143219485878944,
          -0.015474271029233932,
          0.07136637717485428,
          0.077880859375,
          -0.0029127628076821566,
          0.029698720201849937,
          -0.05535511672496796,
          0.012170197442173958,
          -0.033380717039108276,
          0.09165351092815399,
          0.0
        ],
        [
          -0.29439598321914673,
          -0.051023975014686584,
          0.11709504574537277,
          0.1160329058766365,
          -0.017008820548653603,
          -0.04019121453166008,
          0.11819197982549667,
          0.024498485028743744,
          0.02778049185872078,
          0.013868547976016998,
          0.1303853690624237,
          0.0,
          -0.13941624760627747,
          0.08518259227275848,
          0.04588659852743149,
          0.05841514840722084,
          -0.0726296603679657,
          -0.09439212083816528,
          -0.04457990452647209,
          -0.1145438626408577,
          -0.10561748594045639,
          0.11105705052614212,
          -0.016583571210503578,
          0.0,
          0.09622479230165482,
          -0.02453639917075634,
          -0.11908423155546188,
          -0.027752753347158432,
          -0.14058738946914673,
          0.08052730560302734,
          0.023123137652873993,
          0.03226593881845474,
          0.11340105533599854,
          -0.016912836581468582,
          -0.07542730867862701,
          0.0,
          0.06793650984764099,
          0.08472505211830139,
          -0.1682187169790268,
          -0.1545855551958084,
          -0.03071494773030281,
          -0.08552134037017822,
          -0.17703483998775482,
          -0.07088559865951538,
          -0.06001003086566925,
          -0.16609624028205872,
          -0.19430340826511383,
          0.0
        ],
        [
          -0.20752891898155212,
          -0.02181924320757389,
          -0.061689384281635284,
          -0.08569774031639099,
          0.11297371983528137,
          -0.0943262130022049,
          -0.02509305067360401,
          0.10431509464979172,
          0.023560170084238052,
          -0.15653309226036072,
          -0.06797169148921967,
          0.0,
          -0.021825036033988,
          -0.07425505667924881,
          0.06009158864617348,
          -0.055804766714572906,
          0.18351328372955322,
          0.14173129200935364,
          -0.01385572087019682,
          -0.09885389357805252,
          -0.008960982784628868,
          -0.07820170372724533,
          -0.022260695695877075,
          0.0,
          0.007506470661610365,
          -0.04294828325510025,
          0.11830161511898041,
          0.03045424073934555,
          0.059678398072719574,
          0.1115742102265358,
          -0.06323116272687912,
          0.02552926540374756,
          0.11707495898008347,
          -0.016525330021977425,
          -0.07352491468191147,
          0.0,
          -0.007316661067306995,
          -0.032162945717573166,
          -0.05042672157287598,
          -0.06473739445209503,
          0.03609169274568558,
          -0.032836031168699265,
          0.0885331928730011,
          0.010542002506554127,
          -0.19037336111068726,
          -0.014336046762764454,
          0.0167467650026083,
          0.0
        ],
        [
          0.30222994089126587,
          -0.05232847481966019,
          -0.1134275570511818,
          0.1054350882768631,
          0.05646893009543419,
          0.17466069757938385,
          -0.030009707435965538,
          0.05493714660406113,
          0.028067633509635925,
          0.041135381907224655,
          0.1254938840866089,
          0.0,
          -0.044430457055568695,
          -0.012430607341229916,
          0.05233159288764,
          -0.06609420478343964,
          0.09332535415887833,
          0.0030718373600393534,
          0.02609317936003208,
          -0.03682004660367966,
          -0.09157109260559082,
          0.09490751475095749,
          0.10377476364374161,
          0.0,
          -0.016659894958138466,
          -0.013660099357366562,
          0.08347567915916443,
          0.010802773758769035,
          -0.11669709533452988,
          -0.026275943964719772,
          -0.01701413281261921,
          -0.07776607573032379,
          0.05727330967783928,
          -0.09690508246421814,
          -0.1500987708568573,
          0.0,
          -0.09947105497121811,
          -0.07895950973033905,
          0.06450717151165009,
          0.011011265218257904,
          0.176242858171463,
          -0.15374653041362762,
          0.21794183552265167,
          0.1382104754447937,
          -0.0369318462908268,
          0.0570564866065979,
          0.11788294464349747,
          0.0
        ],
        [
          -0.0208908561617136,
          0.22608546912670135,
          -0.18595626950263977,
          0.03457197546958923,
          -0.1462026983499527,
          -0.09260056167840958,
          0.019228413701057434,
          -0.1852216124534607,
          -0.10084646195173264,
          -0.0117653114721179,
          -0.03140672296285629,
          0.0,
          0.06833770871162415,
          -0.06799725443124771,
          0.02328820340335369,
          0.07579082995653152,
          -0.10438124090433121,
          0.0068654390051960945,
          0.021065833047032356,
          -0.04319384694099426,
          -0.04789290577173233,
          0.03648639842867851,
          0.03030530735850334,
          0.0,
          0.1648656576871872,
          -0.12431544065475464,
          -0.02641795203089714,
          0.03891315311193466,
          -0.06768682599067688,
          0.024626802653074265,
          -0.03947244957089424,
          -0.030343936756253242,
          -0.0015648521948605776,
          0.005802096799015999,
          0.00011336550232954323,
          0.0,
          0.10300302505493164,
          -0.1464168131351471,
          -0.018033580854535103,
          0.07130414992570877,
          0.06279882788658142,
          -0.04303155839443207,
          -0.08463039249181747,
          0.011675823479890823,
          -0.0373159795999527,
          0.019305264577269554,
          0.09326379746198654,
          0.0
        ],
        [
          0.02990715391933918,
          0.20997563004493713,
          -0.2584785223007202,
          0.15453092753887177,
          -0.004398338962346315,
          -0.07079388201236725,
          0.15350238978862762,
          -0.1618359088897705,
          0.08218515664339066,
          -0.0181166660040617,
          -0.10019956529140472,
          0.0,
          0.05488711595535278,
          -0.09013690799474716,
          -0.057332247495651245,
          -0.0727870911359787,
          0.0940283015370369,
          -0.13638277351856232,
          0.08719689399003983,
          0.20002974569797516,
          -0.0031434432603418827,
          -0.012854186818003654,
          0.10775566101074219,
          0.0,
          -0.18990261852741241,
          0.11601626127958298,
          -0.024127012118697166,
          0.007008881773799658,
          -0.07968049496412277,
          -0.07845736294984818,
          -0.08253911882638931,
          -0.020422272384166718,
          -0.18154267966747284,
          0.034349847584962845,
          0.13854055106639862,
          0.0,
          0.010627188719809055,
          -0.15166546404361725,
          0.12348727136850357,
          -0.067757248878479,
          0.050542715936899185,
          0.04576785862445831,
          0.01348074246197939,
          0.05823551490902901,
          -0.05499139055609703,
          0.05613186955451965,
          0.012506339699029922,
          0.0
        ],
        [
          0.03515251353383064,
          0.00042619043961167336,
          0.19270889461040497,
          -0.0007122505339793861,
          0.00994637981057167,
          0.1764349639415741,
          -0.017870916053652763,
          -0.00841476395726204,
          0.08088535070419312,
          0.23968513309955597,
          -0.08662734925746918,
          0.0,
          0.0035975403152406216,
          -0.04546975716948509,
          0.05417179688811302,
          0.12616576254367828,
          0.11091618984937668,
          -0.17765523493289948,
          0.11054804921150208,
          0.06873292475938797,
          -0.04057549685239792,
          0.02560078166425228,
          0.21514475345611572,
          0.0,
          -0.049777790904045105,
          -0.05465986207127571,
          0.029748955741524696,
          -0.15781691670417786,
          -0.165725439786911,
          0.11521656811237335,
          0.0883665457367897,
          -0.12098672986030579,
          -0.07924410700798035,
          0.019256243482232094,
          0.06243515759706497,
          0.0,
          -0.012914965860545635,
          -0.042416613548994064,
          -0.0007446373347193003,
          0.005712651181966066,
          -0.06973526626825333,
          -0.045849259942770004,
          0.012952221557497978,
          0.04522380232810974,
          -0.04223768040537834,
          -0.04526962339878082,
          -0.021367665380239487,
          0.0
        ],
        [
          0.2641827464103699,
          -0.2194601595401764,
          0.16622136533260345,
          -0.1873241662979126,
          0.005614202935248613,
          0.19124528765678406,
          0.15224415063858032,
          -0.008572591468691826,
          -0.026693999767303467,
          0.2202254831790924,
          -0.10227649658918381,
          0.0,
          -0.020179521292448044,
          0.07979273796081543,
          -0.011709083802998066,
          -0.13501648604869843,
          0.14061036705970764,
          0.11674539744853973,
          -0.06508535146713257,
          0.10703001171350479,
          0.18542033433914185,
          0.13095280528068542,
          -0.07548021525144577,
          0.0,
          -0.034909438341856,
          -0.046976082026958466,
          0.1073189452290535,
          -0.00461235037073493,
          0.050616029649972916,
          -0.008762350305914879,
          -0.0484643392264843,
          -0.03230878710746765,
          -0.026896357536315918,
          0.08214922994375229,
          -0.013828356750309467,
          0.0,
          -0.1393870860338211,
          0.18378959596157074,
          0.017379671335220337,
          0.013866742141544819,
          -0.034758031368255615,
          -0.037748031318187714,
          0.11218862235546112,
          0.02672555483877659,
          -0.04947749152779579,
          -0.1268121302127838,
          -0.033608242869377136,
          0.0
        ],
        [
          -0.06793247908353806,
          0.020363684743642807,
          0.2756193280220032,
          -0.16403229534626007,
          0.11857853829860687,
          -0.005421915557235479,
          -0.09429483860731125,
          0.005344274453818798,
          -0.047807857394218445,
          -0.10358601808547974,
          0.02627018839120865,
          0.0,
          0.05581396818161011,
          0.10350415855646133,
          0.10430125147104263,
          0.08992092311382294,
          -0.09692459553480148,
          0.057584576308727264,
          -0.0026369374245405197,
          0.17188096046447754,
          -0.03437158837914467,
          -0.031808171421289444,
          0.10451795160770416,
          0.0,
          -0.00825341697782278,
          0.02430451661348343,
          0.04793300852179527,
          -0.11833395808935165,
          0.05187706649303436,
          -0.0017913361079990864,
          -0.12658676505088806,
          -0.1437108814716339,
          -0.09972546249628067,
          -0.045252833515405655,
          -0.052318133413791656,
          0.0,
          0.04887818917632103,
          -0.018013199791312218,
          -0.08350833505392075,
          0.0876232460141182,
          0.0417603924870491,
          0.04417544975876808,
          0.06258505582809448,
          -0.021708527579903603,
          -0.04016926512122154,
          0.0039452980272471905,
          -0.10745353996753693,
          0.0
        ],
        [
          -0.288740873336792,
          -0.20088893175125122,
          0.3147149980068207,
          0.06545285135507584,
          0.12579646706581116,
          0.08962148427963257,
          -0.03440709039568901,
          -0.012614455074071884,
          0.040510185062885284,
          -0.04005415365099907,
          -0.10069956630468369,
          0.0,
          -0.02819417230784893,
          0.09888873249292374,
          -0.052238885313272476,
          -0.027409106492996216,
          0.004334557335823774,
          0.0930200144648552,
          -0.07582475990056992,
          0.06449183076620102,
          0.018652405589818954,
          -0.10545798391103745,
          -0.008595908991992474,
          0.0,
          -0.03931308537721634,
          -0.14308881759643555,
          0.16035671532154083,
          0.019325178116559982,
          -0.03728897497057915,
          -0.01522003673017025,
          0.0023406369145959616,
          0.009121286682784557,
          -0.0792989507317543,
          -0.024752860888838768,
          -0.061144061386585236,
          0.0,
          0.12212035059928894,
          0.11654438823461533,
          -0.2231559008359909,
          0.13997207581996918,
          -0.030259884893894196,
          -0.09763875603675842,
          0.13195611536502838,
          -0.02781255915760994,
          0.006577616557478905,
          0.052319083362817764,
          0.096236951649189,
          0.0
        ],
        [
          0.14278054237365723,
          -0.171408548951149,
          -0.08192481100559235,
          -0.1753915697336197,
          -0.04238404706120491,
          -0.1090455874800682,
          0.0040772152133286,
          -0.03948779031634331,
          0.1007002741098404,
          -0.0745091363787651,
          0.009130625054240227,
          0.0,
          -0.06066383421421051,
          0.1603918820619583,
          -0.15183261036872864,
          -0.029561350122094154,
          0.08597733825445175,
          -0.05953633040189743,
          -0.026517631486058235,
          0.11363983154296875,
          -0.002788955345749855,
          0.0437609888613224,
          0.1570231318473816,
          0.0,
          -0.08934623748064041,
          0.045887116342782974,
          0.0014229981461539865,
          -0.08094459027051926,
          0.10278869420289993,
          0.0007768878131173551,
          -0.03215957060456276,
          -0.13346894085407257,
          -0.017192542552947998,
          0.04161990433931351,
          -0.04915883019566536,
          0.0,
          -0.024426842108368874,
          0.10407616198062897,
          -0.110124371945858,
          -0.009431575424969196,
          0.07615264505147934,
          0.04781163111329079,
          0.09466543048620224,
          0.16932570934295654,
          0.08181040734052658,
          -0.17563356459140778,
          -0.13629946112632751,
          0.0
        ],
        [
          0.15838970243930817,
          0.050252266228199005,
          0.16717521846294403,
          0.08289241790771484,
          0.1257755160331726,
          0.13992705941200256,
          -0.041978731751441956,
          0.11241164803504944,
          0.172724649310112,
          0.08567090332508087,
          -0.18644462525844574,
          0.0,
          -0.10591088980436325,
          0.09518442302942276,
          0.07187817990779877,
          -0.13987770676612854,
          0.15467509627342224,
          0.1231701523065567,
          0.0168931744992733,
          0.06261640042066574,
          0.17777252197265625,
          0.060619574040174484,
          -0.14993411302566528,
          0.0,
          -0.061213165521621704,
          -0.049589674919843674,
          0.13715355098247528,
          -0.05598287656903267,
          -0.05659075081348419,
          -0.04288064315915108,
          0.015127572230994701,
          -0.08582824468612671,
          0.01360443513840437,
          -0.034077417105436325,
          -0.0005278844037093222,
          0.0,
          0.0349138043820858,
          -0.07128645479679108,
          0.014601768925786018,
          0.0913119688630104,
          0.05835031718015671,
          -0.10449711978435516,
          0.10866229981184006,
          -0.1271141916513443,
          -0.04585644602775574,
          -0.08896911144256592,
          -0.01690080389380455,
          0.0
        ],
        [
          -0.3019458055496216,
          -0.2916717529296875,
          -0.02253621257841587,
          0.033054154366254807,
          0.06740106642246246,
          0.043662797659635544,
          0.016521785408258438,
          0.05533196032047272,
          -0.20864470303058624,
          -0.1463203877210617,
          0.036308519542217255,
          0.0,
          0.06850101053714752,
          0.01717500202357769,
          -0.0208080243319273,
          -0.1467737853527069,
          0.128213569521904,
          -0.012861721217632294,
          0.05525154620409012,
          0.11184508353471756,
          0.004454068373888731,
          0.03363605961203575,
          -0.16601347923278809,
          0.0,
          0.10751058161258698,
          -0.025238044559955597,
          -0.053151920437812805,
          -0.089263416826725,
          -0.019018417224287987,
          -0.18894265592098236,
          -0.08457248657941818,
          -0.04790443554520607,
          -0.1529303640127182,
          0.013533389195799828,
          0.03385007753968239,
          0.0,
          -0.08623538166284561,
          0.10827086120843887,
          0.10950891673564911,
          0.07770152390003204,
          0.014280349016189575,
          0.07986593246459961,
          -0.12095552682876587,
          0.06597213447093964,
          -0.10004428774118423,
          0.03785901889204979,
          -0.034466978162527084,
          0.0
        ],
        [
          -0.17738881707191467,
          -0.0031596918124705553,
          0.041225749999284744,
          -0.10988861322402954,
          0.03200777992606163,
          0.2813631594181061,
          0.012581727467477322,
          0.02106587588787079,
          0.15947170555591583,
          0.13662263751029968,
          -0.17843756079673767,
          0.0,
          -0.024373451247811317,
          -0.054490070790052414,
          -0.03960954770445824,
          0.025251802057027817,
          -0.19119679927825928,
          -0.15428917109966278,
          0.06324402242898941,
          0.08642400801181793,
          -0.03892762213945389,
          -0.022391458973288536,
          0.0867607370018959,
          0.0,
          0.05347089469432831,
          -0.14323531091213226,
          -0.05626462772488594,
          -0.11174212396144867,
          -0.16620966792106628,
          0.05070601403713226,
          0.03742993250489235,
          0.01208353042602539,
          -0.054589178413152695,
          -0.11170551180839539,
          0.12269258499145508,
          0.0,
          -0.090410977602005,
          -0.10123170167207718,
          0.04887130856513977,
          0.16407008469104767,
          0.07209880650043488,
          0.05957131087779999,
          -0.024340834468603134,
          0.029579827561974525,
          -0.0370667427778244,
          -0.015563507564365864,
          -0.05675821751356125,
          0.0
        ],
        [
          -0.08875206857919693,
          -0.28501608967781067,
          -0.05883634090423584,
          -0.10886132717132568,
          0.0190604068338871,
          -0.010599160566926003,
          -0.07497252523899078,
          0.25927412509918213,
          -0.1359683871269226,
          -0.12633179128170013,
          -0.11714562028646469,
          0.0,
          -0.01789809577167034,
          0.00013095543545205146,
          0.06940214335918427,
          -0.07211077958345413,
          0.09463991224765778,
          0.008379660546779633,
          0.08692918717861176,
          -0.03107513301074505,
          -0.06933077424764633,
          0.09867129474878311,
          -0.04385305941104889,
          0.0,
          -0.12684953212738037,
          0.11583060771226883,
          0.059690218418836594,
          -0.04971642792224884,
          -0.10934647172689438,
          0.038877736777067184,
          -0.05128687992691994,
          -0.046820029616355896,
          0.10809384286403656,
          -0.025903234258294106,
          -0.056341223418712616,
          0.0,
          -0.0952749103307724,
          0.01935763470828533,
          0.04288878291845322,
          0.035233184695243835,
          0.0819300040602684,
          0.10848599672317505,
          -0.10360274463891983,
          0.009683717042207718,
          -0.061116501688957214,
          -0.02275119721889496,
          0.0715695172548294,
          0.0
        ],
        [
          -0.031929247081279755,
          0.023858176544308662,
          0.23732958734035492,
          -0.13501940667629242,
          0.10833510756492615,
          0.2009788453578949,
          0.09959449619054794,
          -0.13656440377235413,
          -0.001004801015369594,
          0.22903941571712494,
          0.035999417304992676,
          0.0,
          -0.023431900888681412,
          0.051104817539453506,
          -0.03893109783530235,
          0.09488234668970108,
          0.057248104363679886,
          -0.017889399081468582,
          -0.024452704936265945,
          -0.08687440305948257,
          -0.08013886213302612,
          -0.007658103480935097,
          0.1633218377828598,
          0.0,
          0.04185686632990837,
          0.013162489049136639,
          -0.0210481695830822,
          0.05016757920384407,
          -0.007205964997410774,
          0.0016741344006732106,
          0.0395333506166935,
          -0.017530245706439018,
          0.005772929638624191,
          -0.06454987823963165,
          -0.031724803149700165,
          0.0,
          -0.0995970070362091,
          0.12510013580322266,
          -0.031915631145238876,
          -0.030944518744945526,
          0.03536231070756912,
          0.03828207775950432,
          0.050370361655950546,
          -0.11699538677930832,
          0.008204190991818905,
          0.024421414360404015,
          -0.019251488149166107,
          0.0
        ],
        [
          -0.08337770402431488,
          0.0997200757265091,
          -0.007846741005778313,
          -0.12345295399427414,
          0.13409654796123505,
          0.02856738120317459,
          0.09272992610931396,
          0.08679520338773727,
          -0.20869001746177673,
          -0.12637431919574738,
          -0.16710767149925232,
          0.0,
          0.1447547823190689,
          -0.052954960614442825,
          -0.010656940750777721,
          -0.10158293694257736,
          -0.18711276352405548,
          0.13072001934051514,
          0.06293648481369019,
          -0.030518053099513054,
          0.022577326744794846,
          0.03520510718226433,
          0.05239216610789299,
          0.0,
          0.04722404107451439,
          -0.18841858208179474,
          0.07511087507009506,
          -0.037097569555044174,
          0.10580269992351532,
          -0.06085525453090668,
          0.09809564799070358,
          -0.127886101603508,
          -0.10333547741174698,
          0.09294047206640244,
          0.0943661481142044,
          0.0,
          0.025029383599758148,
          0.12180747091770172,
          -0.09974915534257889,
          -0.029016442596912384,
          0.04387125000357628,
          -0.1467442363500595,
          -0.07830864191055298,
          0.06458023935556412,
          -0.04520133510231972,
          0.010402216576039791,
          -0.09055883437395096,
          0.0
        ],
        [
          -0.06226877495646477,
          0.09360597282648087,
          0.07324516028165817,
          -0.06545350700616837,
          0.10065294802188873,
          0.06628493964672089,
          0.15333014726638794,
          -0.10748246312141418,
          0.146917462348938,
          -0.09575212746858597,
          -0.11143482476472855,
          0.0,
          0.05025390908122063,
          0.13086263835430145,
          -0.14373670518398285,
          -0.11072418093681335,
          -0.02553393319249153,
          -0.08249203860759735,
          -0.10711848735809326,
          0.1158607080578804,
          0.10380135476589203,
          0.06135981157422066,
          0.10555648803710938,
          0.0,
          -0.12098594754934311,
          0.11258161067962646,
          -0.11556882411241531,
          0.09692590683698654,
          -0.06109895929694176,
          -0.0225302092730999,
          0.10109107196331024,
          -0.009091769345104694,
          -0.019086729735136032,
          0.022624114528298378,
          0.012847532518208027,
          0.0,
          -0.03762364387512207,
          -0.08197060227394104,
          0.09236592054367065,
          0.17083527147769928,
          -0.11485185474157333,
          -0.08147905766963959,
          0.06427199393510818,
          -0.08935288339853287,
          -0.10131635516881943,
          -0.007336569018661976,
          0.20325730741024017,
          0.0
        ],
        [
          -0.03562900051474571,
          0.10040853172540665,
          0.14237871766090393,
          -0.23109884560108185,
          0.18940000236034393,
          0.03802575543522835,
          0.03816746547818184,
          0.20303596556186676,
          0.07678240537643433,
          -0.032732848078012466,
          0.0413777157664299,
          0.0,
          0.07825460284948349,
          0.031069518998265266,
          -0.13805539906024933,
          0.06129762902855873,
          -0.17668399214744568,
          0.008008693344891071,
          0.09820490330457687,
          -0.028115952387452126,
          -0.1527242362499237,
          0.05071282759308815,
          0.040225397795438766,
          0.0,
          0.03975055739283562,
          0.028571119531989098,
          0.09632512181997299,
          -0.10902612656354904,
          0.10114103555679321,
          0.014821370132267475,
          0.02451152540743351,
          -0.08228429406881332,
          0.00956579390913248,
          -0.014539974741637707,
          -0.1431611031293869,
          0.0,
          -0.042858440428972244,
          -0.10408855974674225,
          0.09573093056678772,
          -0.03812044486403465,
          0.13648231327533722,
          -0.007213169708848,
          0.1489134430885315,
          -0.04905826970934868,
          0.04641541838645935,
          0.1280224472284317,
          -0.08592648059129715,
          0.0
        ],
        [
          -0.15783560276031494,
          -0.14603203535079956,
          0.14824813604354858,
          0.00012142697960371152,
          -0.08562638610601425,
          0.08653488010168076,
          0.10866107046604156,
          0.10677547007799149,
          0.14272582530975342,
          -0.15001273155212402,
          0.04632071405649185,
          0.0,
          0.18332047760486603,
          -0.07674951106309891,
          -0.08873208612203598,
          0.1333286017179489,
          0.022972237318754196,
          -0.0031353540252894163,
          0.02597006969153881,
          0.14155861735343933,
          0.02452460676431656,
          0.16967973113059998,
          -0.05789746716618538,
          0.0,
          0.02578633651137352,
          -0.03886834532022476,
          0.11888030171394348,
          -0.1602587252855301,
          -0.018552543595433235,
          -0.023446358740329742,
          0.1522919088602066,
          0.06847386807203293,
          -0.09359171986579895,
          -0.09918787330389023,
          0.07240819185972214,
          0.0,
          -0.03754718229174614,
          0.05413204804062843,
          -0.06283880770206451,
          0.24192044138908386,
          0.017140017822384834,
          0.031168201938271523,
          -0.10048432648181915,
          0.08882960677146912,
          0.011324208229780197,
          0.009472626261413097,
          0.08154077082872391,
          0.0
        ],
        [
          0.07338081300258636,
          0.000935086514800787,
          -0.23021477460861206,
          0.06280166655778885,
          0.14122606813907623,
          -0.05595942214131355,
          -0.019289035350084305,
          -0.03732863441109657,
          -0.20374885201454163,
          0.08851221948862076,
          -0.015462431125342846,
          0.0,
          -0.08800934255123138,
          0.03787420690059662,
          -0.08762891590595245,
          -0.044159941375255585,
          0.148322194814682,
          -0.0515008307993412,
          0.05456205829977989,
          0.05947284400463104,
          -0.08565161377191544,
          0.10664256662130356,
          -0.051847632974386215,
          0.0,
          -0.12521366775035858,
          -0.050965070724487305,
          0.023488279432058334,
          -0.008884795010089874,
          -0.06081560254096985,
          0.06190552935004234,
          0.0556788332760334,
          -0.06728539615869522,
          -0.0746937021613121,
          0.08311296999454498,
          0.0540187694132328,
          0.0,
          -0.14564576745033264,
          0.023756030946969986,
          0.12447556853294373,
          -0.18110808730125427,
          -0.062016040086746216,
          -0.032555047422647476,
          0.028423182666301727,
          -0.15503637492656708,
          0.16051754355430603,
          0.03524620458483696,
          0.016428396105766296,
          0.0
        ],
        [
          -0.2724822461605072,
          -0.03079930506646633,
          -0.17925411462783813,
          -0.0988616794347763,
          0.16006404161453247,
          0.003344352822750807,
          0.1601681113243103,
          0.14189165830612183,
          0.023914305493235588,
          0.0685659646987915,
          0.04380124807357788,
          0.0,
          -0.1360957771539688,
          0.15050503611564636,
          -0.06492218375205994,
          -0.038856588304042816,
          0.017839854583144188,
          -0.07736784219741821,
          0.06299877911806107,
          0.14852891862392426,
          0.05809780955314636,
          0.01820790208876133,
          0.016803963109850883,
          0.0,
          0.1437862068414688,
          -0.18024328351020813,
          0.052666809409856796,
          -0.13870581984519958,
          -0.15356260538101196,
          0.18671193718910217,
          0.09019174426794052,
          0.09459075331687927,
          -0.09626328945159912,
          -0.04487413167953491,
          0.13474807143211365,
          0.0,
          -0.05404222756624222,
          -0.1079619973897934,
          0.06907062977552414,
          -0.04203962907195091,
          -0.05604356899857521,
          0.11473382264375687,
          0.11958586424589157,
          0.006583747919648886,
          -0.1839347630739212,
          0.01259722001850605,
          -0.04183119535446167,
          0.0
        ],
        [
          -0.15752416849136353,
          0.08905071765184402,
          0.3130611479282379,
          0.020082585513591766,
          0.09591477364301682,
          -0.01934763230383396,
          0.12764933705329895,
          0.10533806681632996,
          -0.018941517919301987,
          0.21992598474025726,
          -0.2464994341135025,
          0.0,
          0.013395857997238636,
          -0.013921299949288368,
          -0.009717180393636227,
          -0.10685621201992035,
          0.04770994558930397,
          0.1328825205564499,
          -0.12262456119060516,
          -0.15409137308597565,
          0.0485282763838768,
          0.02372664585709572,
          -0.059458423405885696,
          0.0,
          0.06383773684501648,
          0.0826302170753479,
          -0.14812608063220978,
          -0.07083788514137268,
          0.04972309246659279,
          0.07502982020378113,
          0.000739152601454407,
          -0.0042405580170452595,
          -0.012307427823543549,
          -0.0965319573879242,
          -0.04487958177924156,
          0.0,
          0.06101894751191139,
          -0.06913475692272186,
          0.09871853142976761,
          -0.04926873743534088,
          -0.03928188607096672,
          -0.05448891222476959,
          -0.053390711545944214,
          0.10336659103631973,
          -0.008028405718505383,
          0.029745401814579964,
          -0.005462018772959709,
          0.0
        ],
        [
          -0.0008714363211765885,
          0.2551328241825104,
          0.34738221764564514,
          0.0669974610209465,
          -0.07342647761106491,
          0.029461687430739403,
          -0.06954441964626312,
          0.011886399239301682,
          0.04693317785859108,
          0.11484848707914352,
          -0.13604970276355743,
          0.0,
          -0.005712639074772596,
          0.038488585501909256,
          -0.013424696400761604,
          0.027705710381269455,
          0.06390027701854706,
          -0.05675321817398071,
          0.1183944121003151,
          0.004821469075977802,
          -0.05732801929116249,
          0.06819338351488113,
          0.06561124324798584,
          0.0,
          -0.034042757004499435,
          0.00725899264216423,
          0.1290636509656906,
          -0.052073463797569275,
          0.1396660953760147,
          -0.017799710854887962,
          -0.1297440528869629,
          -0.029919175431132317,
          -0.047165647149086,
          0.0025321582797914743,
          -0.14038234949111938,
          0.0,
          0.04822578653693199,
          -0.011730652302503586,
          -0.08823799341917038,
          -0.046523213386535645,
          0.11812136322259903,
          -0.07231579720973969,
          -0.0690179243683815,
          0.19497238099575043,
          0.03861194849014282,
          -0.084998220205307,
          -0.1534399837255478,
          0.0
        ],
        [
          0.16796913743019104,
          0.1889909952878952,
          0.054123636335134506,
          0.07679280638694763,
          0.20766104757785797,
          -0.05909351631999016,
          -0.008336171507835388,
          0.035238541662693024,
          -0.0919904038310051,
          0.15289515256881714,
          -0.3102495074272156,
          0.0,
          -0.10139170289039612,
          0.004820182919502258,
          -0.029959948733448982,
          0.16224601864814758,
          0.11693795770406723,
          -0.04876277595758438,
          0.07173996418714523,
          0.09596944600343704,
          0.07323949784040451,
          0.05394272133708,
          0.12212608754634857,
          0.0,
          0.05419333279132843,
          -0.10883094370365143,
          0.07936181128025055,
          -0.17946484684944153,
          -0.030040767043828964,
          0.012683813460171223,
          0.01230214349925518,
          -0.011113370768725872,
          0.033651139587163925,
          -0.1295957863330841,
          0.05281708762049675,
          0.0,
          -0.1505662053823471,
          0.1486262083053589,
          0.07245603948831558,
          0.013174737803637981,
          -0.09721456468105316,
          0.04477827996015549,
          0.07354100048542023,
          0.1173223927617073,
          0.07238717377185822,
          -0.05567755922675133,
          -0.0741288959980011,
          0.0
        ],
        [
          -0.09258056432008743,
          0.06472094357013702,
          0.24613729119300842,
          -0.03625566512346268,
          -0.004393125884234905,
          -0.016335221007466316,
          0.01342051476240158,
          0.14050784707069397,
          0.03219911456108093,
          0.05571462959051132,
          0.05866141989827156,
          0.0,
          0.011030195280909538,
          -0.05719330534338951,
          -0.07477043569087982,
          0.003614596324041486,
          -0.010857634246349335,
          -0.09232252836227417,
          0.0479036346077919,
          0.010595213621854782,
          -0.07128895074129105,
          0.11330950260162354,
          0.06656168401241302,
          0.0,
          0.14673258364200592,
          -0.23843339085578918,
          -0.1399426907300949,
          0.03156585618853569,
          -0.19362056255340576,
          0.017567705363035202,
          -0.0895308256149292,
          -0.11515113711357117,
          -0.0484299436211586,
          -0.039941780269145966,
          0.08669430762529373,
          0.0,
          0.11380472034215927,
          0.007951165549457073,
          -0.13687539100646973,
          -0.09581898897886276,
          -0.05637624114751816,
          0.07134003192186356,
          -0.07965598255395889,
          -0.09003842622041702,
          -0.08130624890327454,
          -0.07933886349201202,
          -0.08593471348285675,
          0.0
        ],
        [
          -0.1358652561903,
          0.24226458370685577,
          0.23554065823554993,
          -0.014091204851865768,
          0.23661573231220245,
          0.0011237635044381022,
          0.08949990570545197,
          0.002561819041147828,
          -0.07366404682397842,
          0.02569621428847313,
          0.06742633879184723,
          0.0,
          0.005741479340940714,
          0.05493408814072609,
          0.07214480638504028,
          0.004018955398350954,
          -0.04845296964049339,
          0.1306990534067154,
          -0.01333031989634037,
          -0.050142236053943634,
          0.06918229907751083,
          0.05912470072507858,
          -0.1678580343723297,
          0.0,
          -0.05284583568572998,
          -0.01061558909714222,
          -0.037561945617198944,
          0.008914056234061718,
          -0.0101863918825984,
          -0.049265023320913315,
          -0.007287498563528061,
          0.058535944670438766,
          -0.04320933669805527,
          -0.007696814835071564,
          0.17541904747486115,
          0.0,
          -0.11397581547498703,
          0.12815994024276733,
          -0.07294050604104996,
          -0.1432143896818161,
          0.008075283840298653,
          -0.10929879546165466,
          -0.13751791417598724,
          -0.18113824725151062,
          -0.13271845877170563,
          0.11093257367610931,
          -0.14822004735469818,
          0.0
        ],
        [
          0.3842458426952362,
          0.20170503854751587,
          0.15780116617679596,
          -0.07874544709920883,
          0.08135886490345001,
          0.05917564779520035,
          0.09997806698083878,
          -0.0015337050426751375,
          -0.041747625917196274,
          -0.009201882407069206,
          -0.08269760757684708,
          0.0,
          -0.08037902414798737,
          0.025466859340667725,
          0.03756016120314598,
          -0.04115356132388115,
          -0.057629622519016266,
          -0.06945864111185074,
          0.03181926906108856,
          0.005485137924551964,
          -0.10134822130203247,
          0.04119099676609039,
          -0.008876136504113674,
          0.0,
          -0.10131815820932388,
          -0.0692623108625412,
          -0.10380126535892487,
          0.039791155606508255,
          -0.23666150867938995,
          0.09494168311357498,
          0.10435651242733002,
          -0.13761577010154724,
          -0.008423603139817715,
          0.02214793488383293,
          0.09176076948642731,
          0.0,
          -0.00895740557461977,
          -0.03686394914984703,
          0.04693843796849251,
          -0.15124450623989105,
          0.10409257560968399,
          -0.09191986918449402,
          -0.15467794239521027,
          0.1965106576681137,
          -0.12403099238872528,
          -0.04550381004810333,
          -0.1394084393978119,
          0.0
        ]
      ],
      "bias": [
        0.025723664090037346,
        -0.03334064409136772,
        -0.007928942330181599,
        -0.17866909503936768,
        -0.17888718843460083,
        0.04751129820942879,
        0.05507656931877136,
        0.00727307703346014,
        -0.07360615581274033,
        0.1427052766084671,
        -0.0265673641115427,
        0.020210115239024162,
        -0.14429187774658203,
        0.050700169056653976,
        -0.08688090741634369,
        0.0042541977018117905,
        -0.02272927574813366,
        -0.15978772938251495,
        -0.03817335516214371,
        -0.019614089280366898,
        -0.03337479755282402,
        0.12422706931829453,
        0.11555904895067215,
        0.10231006890535355,
        0.09460161626338959,
        -0.11904311925172806,
        -0.02797229401767254,
        -0.0277863759547472,
        0.09656776487827301,
        -0.03769078105688095,
        0.025536611676216125,
        0.1317138969898224,
        -0.18851426243782043,
        -0.03888079896569252,
        -0.033752989023923874,
        -0.09157063066959381,
        -0.05851028114557266,
        -0.1456144154071808,
        -0.16117528080940247,
        0.09229440987110138,
        -0.1268530637025833,
        0.11758337169885635,
        -0.10791466385126114,
        -0.09631337970495224,
        -0.11514757573604584,
        -0.1350170522928238,
        0.08637429028749466,
        -0.00314121600240469,
        0.18786272406578064,
        -0.06274120509624481,
        -0.08614498376846313,
        -0.14480040967464447,
        -0.03473905473947525,
        -0.0019622931722551584,
        0.03741220757365227,
        -0.1524699181318283,
        0.09897089004516602,
        0.033138472586870193,
        -0.1989591270685196,
        0.011424182914197445
      ]
    },
    {
      "name": "conv2",
      "in_channels": 60,
      "out_channels": 11,
      "weights": [
        [
          -0.031813573092222214,
          -0.008186777122318745,
          -0.10366285592317581,
          0.10338445752859116,
          -0.05184027552604675,
          -0.02765120007097721,
          -0.005086981225758791,
          0.06269973516464233,
          0.08662596344947815,
          0.056990865617990494,
          0.0164886936545372,
          -0.03257299214601517,
          0.02458846941590309,
          -0.050194308161735535,
          0.016798924654722214,
          0.04090440273284912,
          -0.07074250280857086,
          0.11365877091884613,
          -0.027411477640271187,
          -0.047204483300447464,
          -0.010897851549088955,
          -0.04858364164829254,
          -0.02694404311478138,
          -0.052843112498521805,
          0.013223331421613693,
          -0.039020128548145294,
          0.05575701966881752,
          0.011441608890891075,
          0.037335462868213654,
          0.03862963989377022,
          0.017761189490556717,
          0.025341687723994255,
          -0.016898969188332558,
          0.03931223228573799,
          0.023203974589705467,
          -0.02955559641122818,
          0.05839969962835312,
          -0.015062346123158932,
          -0.1024293377995491,
          0.006084206514060497,
          -8.935655387176666e-06,
          0.0766817107796669,
          -0.0119855348020792,
          0.010376285761594772,
          0.006086308509111404,
          -0.02676400914788246,
          -0.006009332370012999,
          0.022759191691875458,
          0.03406615927815437,
          0.04531160369515419,
          -0.016926467418670654,
          0.008283451199531555,
          -0.012832016684114933,
          0.053216200321912766,
          0.03715870529413223,
          0.0024143236223608255,
          -0.06534019112586975,
          0.023289578035473824,
          -0.0377829484641552,
          -0.12887042760849
        ],
        [
          -0.012054361402988434,
          -0.032922159880399704,
          -0.15772338211536407,
          0.07486835867166519,
          -0.005891048815101385,
          -0.0001242900762008503,
          -0.02674950659275055,
          0.044091157615184784,
          0.01891304738819599,
          0.01677071489393711,
          -0.078179731965065,
          0.047596901655197144,
          0.04277458414435387,
          -0.005461056716740131,
          0.054147038608789444,
          0.054442767053842545,
          -0.0267962533980608,
          0.07985492795705795,
          0.02905883826315403,
          -0.019513769075274467,
          -0.03744114562869072,
          -0.05684369057416916,
          -0.03918703645467758,
          -0.043396931141614914,
          0.0439470000565052,
          0.009512205608189106,
          -0.03261210769414902,
          -0.00931205041706562,
          0.055599164217710495,
          0.023447103798389435,
          -0.011329073458909988,
          -0.017670350149273872,
          -0.029289286583662033,
          0.007348343729972839,
          0.0229480043053627,
          -0.018324626609683037,
          -0.005685258656740189,
          -0.00016745459288358688,
          -0.06429557502269745,
          0.06769862025976181,
          0.005018678959459066,
          0.054788120090961456,
          0.03440049663186073,
          -0.04148794338107109,
          0.06522885710000992,
          -0.04642520844936371,
          0.04343544319272041,
          0.040272388607263565,
          0.06450086086988449,
          0.04258393123745918,
          -0.035516008734703064,
          -0.016575556248426437,
          0.03055926226079464,
          -0.028617683798074722,
          -0.0010998919606208801,
          -0.04584873095154762,
          -0.04598982259631157,
          -0.03399313613772392,
          -0.020065760239958763,
          -0.07347989082336426
        ],
        [
          0.010561077855527401,
          -0.002371755428612232,
          -0.13243767619132996,
          0.0722467452287674,
          -0.015556219965219498,
          -0.044047772884368896,
          -0.03568832948803902,
          0.06330731511116028,
          0.030612554401159286,
          0.05778045579791069,
          -0.01584937609732151,
          -0.06384731084108353,
          0.05398554354906082,
          0.017334265634417534,
          0.04543505609035492,
          0.031114306300878525,
          -0.04741974547505379,
          0.05045946687459946,
          -0.012126215733587742,
          -0.022481145337224007,
          0.0013684616424143314,
          -0.029531486332416534,
          0.0034283369313925505,
          -0.022900987416505814,
          0.02434728294610977,
          -0.010776516050100327,
          -0.01847233437001705,
          0.04755380377173424,
          0.005813233088701963,
          0.04514726996421814,
          0.015272791497409344,
          -0.005957267712801695,
          -0.07695034146308899,
          -0.017682963982224464,
          -0.03515405207872391,
          0.0021526096388697624,
          0.0005632717511616647,
          0.06788411736488342,
          -0.08314312994480133,
          0.015533850528299809,
          -0.00825866125524044,
          -0.02412549778819084,
          0.009107396006584167,
          -0.0019863140769302845,
          0.022989967837929726,
          -0.0480055995285511,
          0.039028000086545944,
          -0.0032604141160845757,
          -0.09693173319101334,
          0.053442731499671936,
          -0.00927977915853262,
          -0.019022531807422638,
          0.06897599995136261,
          -0.03183477744460106,
          0.09096847474575043,
          -0.05862011760473251,
          -0.0159087423235178,
          -0.042081739753484726,
          -0.012593746185302734,
          -0.05025755986571312
        ],
        [
          0.06921420991420746,
          -0.04355774074792862,
          0.009410357102751732,
          -0.09960886090993881,
          -0.024525674059987068,
          0.018663112074136734,
          0.09256766736507416,
          0.02988908253610134,
          0.039054736495018005,
          -0.048023901879787445,
          -0.042889535427093506,
          -0.13314780592918396,
          -0.015787741169333458,
          0.029581861570477486,
          0.07216149568557739,
          -0.06387446820735931,
          0.07624809443950653,
          0.009507822804152966,
          -0.016765091568231583,
          -0.03948904946446419,
          0.015581228770315647,
          0.050329145044088364,
          0.00513244466856122,
          0.012422117404639721,
          0.07358822971582413,
          -0.03551950678229332,
          -0.022083431482315063,
          -0.019406350329518318,
          -0.016484102234244347,
          0.052668821066617966,
          -0.003223271341994405,
          0.009961050003767014,
          0.1319965273141861,
          -0.062948077917099,
          0.0028326832689344883,
          -0.026653867214918137,
          0.05680254101753235,
          -0.0287090465426445,
          0.03362782672047615,
          0.017360173165798187,
          -0.0030574139673262835,
          -0.03686462342739105,
          -0.013686131685972214,
          0.022905467078089714,
          0.03738798946142197,
          0.15640521049499512,
          -0.00696058152243495,
          0.006773564498871565,
          0.03370121493935585,
          -0.024868523702025414,
          0.032703105360269547,
          0.09927159547805786,
          -0.06983768194913864,
          0.02184211276471615,
          -0.09103474020957947,
          -0.03166776895523071,
          -0.015662509948015213,
          0.021730130538344383,
          -0.03125985711812973,
          -0.00913932453840971
        ],
        [
          0.017301272600889206,
          0.08053845912218094,
          -0.11590737104415894,
          0.003913301974534988,
          0.04574333503842354,
          -0.05222482234239578,
          -0.09746130555868149,
          0.015557264909148216,
          0.07612113654613495,
          -0.04817993566393852,
          0.06623511761426926,
          0.04945363104343414,
          0.04337171092629433,
          -0.04840043932199478,
          -0.014284024946391582,
          0.06271764636039734,
          -0.061547569930553436,
          -0.0308853667229414,
          0.09601301699876785,
          -0.047991786152124405,
          -0.06497108936309814,
          -0.003643923904746771,
          0.009643817320466042,
          -0.03691747039556503,
          -0.047325294464826584,
          0.03809398040175438,
          -0.03360011428594589,
          -0.06789330393075943,
          0.051839474588632584,
          -0.05339862033724785,
          0.012965003028512001,
          0.06394921243190765,
          -0.12797531485557556,
          -0.0020841495133936405,
          0.048480648547410965,
          0.013508052565157413,
          0.046841226518154144,
          0.031162280589342117,
          -0.09695320576429367,
          0.07626130431890488,
          0.03899062052369118,
          0.016410669311881065,
          0.004321755841374397,
          -0.10499151051044464,
          -0.07724440097808838,
          -0.014585583470761776,
          0.011064388789236546,
          -0.09158734977245331,
          0.017390090972185135,
