{
  "name": "G4Multi 10000",
  "state_channels": 20,
  "genome_channels": 4,
  "hidden_channels": 13,
  "state_quantization_scale": 4.0,
  "hidden_quantization_scale": 8.0,
  "perception_quantization_scale": 12.0,
  "update_probability": 0.5,
  "layers": [
    {
      "name": "conv1",
      "in_channels": 80,
      "out_channels": 124,
      "activation": "relu",
      "weights": [
        [
          -0.006004560738801956,
          0.20162290334701538,
          -0.188912495970726,
          -0.12342441827058792,
          -0.046973735094070435,
          -0.00899841170758009,
          0.05688192695379257,
          -0.08041645586490631,
          -0.06787346303462982,
          -0.02605670690536499,
          0.07373209297657013,
          -0.11939642578363419,
          -0.15302684903144836,
          -0.04805164411664009,
          -0.051225192844867706,
          -0.1495763659477234,
          -0.09116525948047638,
          0.16411742568016052,
          0.08223225176334381,
          -0.03197329491376877,
          0.05322515591979027,
          0.052996207028627396,
          0.07509525865316391,
          -0.11058077216148376,
          -0.02896987460553646,
          -0.12119273841381073,
          -0.1060556024312973,
          0.09619836509227753,
          0.12898914515972137,
          -0.07311329990625381,
          0.022576387971639633,
          -0.04958039149641991,
          0.2234378606081009,
          -0.022943638265132904,
          0.033992309123277664,
          -0.055698417127132416,
          -0.02364690974354744,
          -0.12291639298200607,
          -0.10170342773199081,
          0.05354699492454529,
          0.05293304845690727,
          -0.07956212759017944,
          0.021820811554789543,
          -0.024427127093076706,
          -0.058958228677511215,
          0.03970766440033913,
          0.03838595002889633,
          -0.010709295980632305,
          -0.07771924138069153,
          -0.13923102617263794,
          -0.0940752774477005,
          0.0022202373947948217,
          0.04774903878569603,
          -0.05615793913602829,
          0.07219436019659042,
          0.12329737097024918,
          0.06527930498123169,
          0.03718966990709305,
          -0.09403040260076523,
          0.05968746542930603,
          -0.020494453608989716,
          0.0063627129420638084,
          0.029688512906432152,
          0.027429282665252686,
          -0.1227884590625763,
          0.03343816101551056,
          -0.01140314619988203,
          0.002275062957778573,
          -0.029480764642357826,
          -0.041395556181669235,
          0.04483167827129364,
          -0.015873102471232414,
          0.05294327810406685,
          0.048828817903995514,
          -0.09441114217042923,
          0.044350121170282364,
          0.012015506625175476,
          0.026677478104829788,
          0.05573283135890961,
          0.03663015738129616
        ],
        [
          0.15021105110645294,
          -0.015859689563512802,
          -0.14029285311698914,
          -0.02613961324095726,
          0.044976674020290375,
          0.22065335512161255,
          -0.06504081189632416,
          -0.037326350808143616,
          0.11136138439178467,
          -0.04138900339603424,
          0.04064339026808739,
          -0.12599793076515198,
          -0.041805367916822433,
          -0.12779363989830017,
          0.16718614101409912,
          -0.1062571331858635,
          0.09169641137123108,
          -0.04256090521812439,
          -0.12223152816295624,
          0.04834289848804474,
          0.02793789841234684,
          0.09859836846590042,
          -0.04627477005124092,
          -0.0851016566157341,
          0.028375528752803802,
          -0.08540000021457672,
          -0.09064392000436783,
          0.01430925726890564,
          0.030472896993160248,
          -0.0052041830494999886,
          0.02333686128258705,
          -0.0034019125159829855,
          0.03693109005689621,
          -0.01784176006913185,
          0.13310769200325012,
          -0.05246882885694504,
          -0.06355220079421997,
          -0.023294754326343536,
          -0.00381603860296309,
          -0.01711912453174591,
          -0.10925037413835526,
          0.01461105328053236,
          -0.01827179454267025,
          -0.054923586547374725,
          0.005595887079834938,
          0.013841312378644943,
          0.06349236518144608,
          -0.07219325006008148,
          0.070851631462574,
          -0.021825291216373444,
          -0.03306121006608009,
          -0.06797812879085541,
          -0.0791371762752533,
          -0.003210604190826416,
          -0.07912523299455643,
          -0.047886382788419724,
          0.003877660958096385,
          -0.06024681031703949,
          -0.025943996384739876,
          -0.03952494263648987,
          -0.051301464438438416,
          0.0463886633515358,
          0.00962170772254467,
          0.007154249120503664,
          0.05390950292348862,
          0.06662508845329285,
          -0.034958723932504654,
          0.05040774866938591,
          -0.1223323792219162,
          0.021645143628120422,
          0.05041421204805374,
          0.011949996463954449,
          -0.03385710343718529,
          0.01871301978826523,
          0.11353785544633865,
          0.007295392453670502,
          0.02530079521238804,
          -0.11362224072217941,
          -0.024594753980636597,
          -0.04469206929206848
        ],
        [
          0.15359172224998474,
          0.13805054128170013,
          0.03136179596185684,
          0.0987466424703598,
          -0.0939088985323906,
          0.00685504637658596,
          -0.22306832671165466,
          -0.036818891763687134,
          0.017411360517144203,
          0.08792828023433685,
          0.09591490030288696,
          0.031033970415592194,
          0.029113687574863434,
          -0.00045822846004739404,
          -0.02054966799914837,
          -0.11012330651283264,
          -0.08347341418266296,
          -0.018190789967775345,
          0.1159369945526123,
          -0.1408795416355133,
          -0.08294454962015152,
          0.06971517950296402,
          0.07672010362148285,
          -0.10642224550247192,
          0.0554606057703495,
          0.08880238980054855,
          0.01368003524839878,
          -0.0026473072357475758,
          -0.02254669740796089,
          0.015080136246979237,
          0.020390940830111504,
          -0.02752082794904709,
          0.03461809456348419,
          -0.0704592764377594,
          0.0018213302828371525,
          0.006019915919750929,
          0.026803448796272278,
          0.019302280619740486,
          -0.022483263164758682,
          0.03622220829129219,
          -0.07613591104745865,
          0.047679223120212555,
          -0.09150892496109009,
          -0.051274798810482025,
          -0.006393332965672016,
          0.02079450897872448,
          -0.11743944138288498,
          -0.051592666655778885,
          -0.03887045010924339,
          -0.02096416987478733,
          -0.06627270579338074,
          0.007083449047058821,
          0.008037060499191284,
          0.003209420247003436,
          -0.05297267436981201,
          0.005833459552377462,
          -0.10309407860040665,
          0.07339334487915039,
          -0.06877359002828598,
          0.09790051728487015,
          -0.03223298862576485,
          -0.06661554425954819,
          0.04629991203546524,
          0.006772257853299379,
          0.03300832211971283,
          0.014973844401538372,
          0.061714619398117065,
          -0.04593697190284729,
          0.017491526901721954,
          -0.037623122334480286,
          -0.0014630678342655301,
          -0.019910594448447227,
          0.01005955133587122,
          -0.08264302462339401,
          0.07091040909290314,
          -0.04511696472764015,
          0.05343298614025116,
          -0.06481648981571198,
          -0.03453787788748741,
          -0.016459640115499496
        ],
        [
          -0.010519982315599918,
          0.11578698456287384,
          0.047258924692869186,
          -0.13400211930274963,
          0.1793907880783081,
          0.0032724756747484207,
          0.0716027319431305,
          -0.10549762845039368,
          -0.09603217244148254,
          -0.18391835689544678,
          -0.014076326973736286,
          -0.09961085021495819,
          -0.06506466120481491,
          -0.07651135325431824,
          0.04833564534783363,
          -0.07488007098436356,
          0.005882842931896448,
          0.23101654648780823,
          0.04867897555232048,
          0.09412786364555359,
          -0.024599529802799225,
          -0.024266894906759262,
          -0.05231717228889465,
          -0.044306326657533646,
          0.06091223657131195,
          0.03671078383922577,
          0.004465957172214985,
          -0.03338167443871498,
          0.03456111624836922,
          0.014413849450647831,
          0.004780217539519072,
          0.09984251856803894,
          -0.09666401892900467,
          0.05665938928723335,
          -0.12610547244548798,
          0.05042511969804764,
          0.05777180194854736,
          0.023711176589131355,
          -0.022043507546186447,
          -0.046897683292627335,
          -0.01136399433016777,
          0.07294609397649765,
          -0.009679103270173073,
          -0.08249978721141815,
          -0.1107281818985939,
          -0.0379827655851841,
          0.08120827376842499,
          0.048602305352687836,
          -0.07310416549444199,
          -0.05966407433152199,
          0.04799707233905792,
          0.07811252772808075,
          0.023172549903392792,
          0.006355095189064741,
          0.03675457835197449,
          0.017448512837290764,
          -0.12017272412776947,
          -0.10238774865865707,
          -0.053457409143447876,
          0.0071641309186816216,
          0.018297990784049034,
          0.05394304171204567,
          -0.030933735892176628,
          0.009612425230443478,
          0.04256625473499298,
          -0.0019688305910676718,
          -0.046748656779527664,
          -0.029878180474042892,
          -0.021093949675559998,
          0.002904983004555106,
          -0.05308045446872711,
          -0.08436879515647888,
          0.05779524892568588,
          0.024038946256041527,
          -0.02554902993142605,
          -0.006662902422249317,
          -0.005664958152920008,
          0.032376568764448166,
          0.013065616600215435,
          -0.005084971897304058
        ],
        [
          0.1420457810163498,
          -0.0727979764342308,
          0.19449937343597412,
          -0.04359603673219681,
          -0.032970305532217026,
          -0.12288162857294083,
          0.018622059375047684,
          -0.05841011554002762,
          0.01366292592138052,
          -0.13313256204128265,
          0.12455835938453674,
          -0.15489095449447632,
          -0.1354503631591797,
          0.004840928129851818,
          -0.03758864104747772,
          -0.10230376571416855,
          0.03977802023291588,
          -0.09137815237045288,
          0.04165491461753845,
          -0.06784743815660477,
          -0.05198998749256134,
          -0.02638126164674759,
          0.006327946670353413,
          0.031777266412973404,
          0.03304597735404968,
          -0.05984627082943916,
          -0.038957223296165466,
          -0.03754328563809395,
          -0.0516529306769371,
          -0.06029220297932625,
          -0.011276482604444027,
          0.03632717207074165,
          -0.04078363999724388,
          0.14384397864341736,
          0.06367158889770508,
          0.05202401429414749,
          0.08968773484230042,
          0.026882164180278778,
          -0.03363243117928505,
          0.037072453647851944,
          -0.07304967939853668,
          -0.009497900493443012,
          0.04490158334374428,
          -0.0736541822552681,
          0.13934873044490814,
          0.045074351131916046,
          -0.020207557827234268,
          -0.02800004370510578,
          0.09666772186756134,
          -0.011127711273729801,
          0.029744980856776237,
          -0.0010240720584988594,
          -0.0988621711730957,
          0.011273996904492378,
          -0.0075943139381706715,
          -0.029956256970763206,
          0.0837186872959137,
          -0.0371830128133297,
          0.034017663449048996,
          -0.05054652318358421,
          0.0494532510638237,
          0.05791646987199783,
          0.08975721150636673,
          -0.005879332777112722,
          0.001548357424326241,
          0.020176555961370468,
          0.05586596205830574,
          -0.025553353130817413,
          0.030431389808654785,
          0.05969653278589249,
          0.04971301928162575,
          0.015240533277392387,
          0.03834089636802673,
          -0.11536364257335663,
          0.08147380501031876,
          0.06233739107847214,
          -0.04870084673166275,
          -0.03488994017243385,
          -0.005476428661495447,
          -0.03433290123939514
        ],
        [
          0.0366014800965786,
          -0.19879457354545593,
          0.05157919600605965,
          -0.03603508323431015,
          0.09784947335720062,
          -0.06325850635766983,
          0.039517953991889954,
          0.008323918096721172,
          0.023294873535633087,
          0.026022249832749367,
          -0.07228776067495346,
          -0.07633510231971741,
          0.13352051377296448,
          -0.056358493864536285,
          0.10801160335540771,
          0.09947911649942398,
          -0.02923930436372757,
          -0.0006543235504068434,
          -0.05832745507359505,
          -0.001165397115983069,
          -0.021719202399253845,
          0.14113253355026245,
          0.13996653258800507,
          -0.03700406476855278,
          0.05446649715304375,
          0.03802080824971199,
          0.04524221643805504,
          -0.014729970134794712,
          -0.04803165793418884,
          0.00889101903885603,
          -0.13442596793174744,
          0.008702919818460941,
          -0.03932998701930046,
          0.02379698120057583,
          -0.024363750591874123,
          -0.09240671992301941,
          0.014035249128937721,
          0.029278291389346123,
          0.02450156770646572,
          0.009189698845148087,
          -0.02038678713142872,
          -0.05735558643937111,
          0.10603246092796326,
          -0.19350449740886688,
          0.10959552228450775,
          0.09603014588356018,
          0.031205784529447556,
          -0.12139929831027985,
          -0.06596378982067108,
          0.04078064486384392,
          0.007669797632843256,
          0.024135615676641464,
          -0.09132639318704605,
          -0.09574231505393982,
          0.005384356714785099,
          -0.018748831003904343,
          0.020243730396032333,
          0.015440191142261028,
          -0.029713070020079613,
          -0.022282101213932037,
          -0.13510838150978088,
          0.07986193150281906,
          0.04498053342103958,
          0.044138986617326736,
          -0.03790445998311043,
          0.12830865383148193,
          -0.015317995101213455,
          0.03471725434064865,
          -0.06435513496398926,
          0.03853084519505501,
          0.05664585530757904,
          0.06378370523452759,
          -0.0840078592300415,
          0.07989289611577988,
          -0.0107355248183012,
          -0.0557527169585228,
          0.045464057475328445,
          -0.07799988240003586,
          0.09478259831666946,
          -0.016620073467493057
        ],
        [
          0.1097312793135643,
          0.15486536920070648,
          -0.01987585797905922,
          0.01807180792093277,
          0.055063605308532715,
          0.04084064066410065,
          -0.10033939778804779,
          -0.0718519389629364,
          -0.023172952234745026,
          -0.17945773899555206,
          0.08297248929738998,
          -0.06118931248784065,
          -0.07482326030731201,
          -0.004437537863850594,
          0.06199135631322861,
          -0.17081616818904877,
          -0.15102414786815643,
          0.2223212569952011,
          0.19994927942752838,
          -0.14918063580989838,
          -0.11355755478143692,
          0.015451401472091675,
          0.04293036833405495,
          -0.024911098182201385,
          0.020982442423701286,
          0.0007863743230700493,
          -0.06589365750551224,
          -0.029260054230690002,
          -0.1302684098482132,
          0.005740967113524675,
          -0.11581552773714066,
          0.08316778391599655,
          -0.07917772233486176,
          0.0008503496646881104,
          0.00661833630874753,
          -0.007922566495835781,
          -0.04937784746289253,
          0.0036990351509302855,
          -0.020932694897055626,
          0.03808238357305527,
          0.003794610733166337,
          -0.000477131106890738,
          0.07836712151765823,
          -0.11651221662759781,
          -0.05773988366127014,
          -0.06826513260602951,
          0.012518812902271748,
          -0.07326631247997284,
          0.13697925209999084,
          0.0668376162648201,
          -0.011044751852750778,
          -0.11655589193105698,
          0.08546829968690872,
          -0.06477217376232147,
          0.056746046990156174,
          -0.014878714457154274,
          -0.12254750728607178,
          0.03398361802101135,
          0.02232237160205841,
          -0.04979093745350838,
          0.006295650731772184,
          -0.0386212132871151,
          0.015246039256453514,
          -0.007412249222397804,
          0.001307917176745832,
          -0.035442207008600235,
          0.03195254132151604,
          -0.044563598930835724,
          0.0018878470873460174,
          -0.011366832070052624,
          0.033697374165058136,
          0.04066472128033638,
          0.027872206643223763,
          0.04382973164319992,
          0.053256358951330185,
          -0.037926025688648224,
          -0.04604647308588028,
          0.03782831132411957,
          0.0060502770356833935,
          -0.01918565109372139
        ],
        [
          0.038028422743082047,
          0.1812921166419983,
          0.22183693945407867,
          -0.05074847489595413,
          0.1586271971464157,
          -8.686861110618338e-05,
          -0.0033865971490740776,
          -0.08803972601890564,
          0.03168375417590141,
          -0.055461782962083817,
          0.13297955691814423,
          0.09541729092597961,
          -0.01630500517785549,
          -0.15532298386096954,
          0.042113617062568665,
          -0.049992162734270096,
          0.0718839019536972,
          -0.030284879729151726,
          0.033224109560251236,
          -0.09081275761127472,
          -0.02418597787618637,
          -0.023506464436650276,
          -0.01017147209495306,
          0.017771532759070396,
          0.048089344054460526,
          0.04407006874680519,
          0.008208956569433212,
          0.08657015115022659,
          0.013894881121814251,
          0.049675799906253815,
          -0.012260417453944683,
          -0.004580640234053135,
          -0.04539709910750389,
          -0.08474068343639374,
          -0.007377173285931349,
          -0.04571695625782013,
          0.08356250077486038,
          0.009728087112307549,
          0.018383147194981575,
          0.09487515687942505,
          0.09779765456914902,
          -0.010580589063465595,
          0.00520899286493659,
          -0.042423054575920105,
          0.04785117879509926,
          0.0046238056384027,
          0.09053066372871399,
          -0.058231960982084274,
          -0.09936093538999557,
          -0.029308509081602097,
          0.03728652745485306,
          0.05801088362932205,
          -0.007647479418665171,
          -0.03084520436823368,
          -0.020423149690032005,
          0.034010425209999084,
          -0.03605494648218155,
          -0.0033981355372816324,
          -0.0025171409361064434,
          -0.012857707217335701,
          -0.015257799997925758,
          -0.04088979959487915,
          0.04698305204510689,
          -0.046605393290519714,
          0.010346570983529091,
          -0.12442899495363235,
          0.013726006262004375,
          -0.010011705569922924,
          -0.05073351785540581,
          0.055741533637046814,
          -0.09116875380277634,
          -0.05239679664373398,
          0.12891645729541779,
          -0.05583341419696808,
          0.05093030631542206,
          0.049482446163892746,
          -0.05903896316885948,
          -0.013728044927120209,
          -0.02952452003955841,
          -0.061019230633974075
        ],
        [
          0.027016177773475647,
          0.07229611277580261,
          -0.09725895524024963,
          -0.03621068596839905,
          0.065968357026577,
          0.04148167371749878,
          -0.1299555003643036,
          0.003800133243203163,
          -0.03309701010584831,
          0.07576367259025574,
          0.023598216474056244,
          -0.13290001451969147,
          -0.03549563139677048,
          -0.07728004455566406,
          0.07109168916940689,
          -0.0587812215089798,
          0.014774719253182411,
          -0.060356080532073975,
          0.05800073966383934,
          -0.085380919277668,
          0.01869049109518528,
          -0.09327970445156097,
          -0.06075485795736313,
          0.08553271740674973,
          -0.1396404206752777,
          -0.08919800817966461,
          0.05426119640469551,
          0.09174485504627228,
          -0.019801907241344452,
          0.10558021813631058,
          0.0474536158144474,
          -0.03680599108338356,
          0.018510818481445312,
          0.09861262142658234,
          -0.12836572527885437,
          0.030910011380910873,
          -0.04232063516974449,
          0.0038124900311231613,
          -0.028310660272836685,
          -0.008237059228122234,
          0.07039930671453476,
          -0.06478025764226913,
          -0.0382419191300869,
          0.07392802834510803,
          -0.007280383259057999,
          -0.015728505328297615,
          0.08974476158618927,
          -0.016885770484805107,
          -0.021173644810914993,
          -0.04542785510420799,
          -0.033898718655109406,
          0.06715628504753113,
          0.003998944535851479,
          -0.01002549845725298,
          -0.05871519446372986,
          0.14498946070671082,
          -0.0503668375313282,
          0.12124932557344437,
          -0.024110523983836174,
          -0.06728269159793854,
          0.02582715079188347,
          0.02752077206969261,
          -0.0307592935860157,
          0.002121581230312586,
          -0.01719830557703972,
          0.01992766745388508,
          -0.03909416124224663,
          0.05858415737748146,
          0.04895263910293579,
          0.0744938924908638,
          0.024433087557554245,
          0.00016736971156205982,
          -0.058270882815122604,
          -0.013276869431138039,
          -0.07021290063858032,
          0.005094636231660843,
          0.014578883536159992,
          -0.0485348179936409,
          0.027340102940797806,
          0.008424251340329647
        ],
        [
          -0.13075143098831177,
          -0.14911389350891113,
          0.08496986329555511,
          -0.12356775999069214,
          0.11293407529592514,
          0.04126737639307976,
          -0.00980545487254858,
          -0.08436721563339233,
          0.10271056741476059,
          -0.04001417011022568,
          0.018145520240068436,
          -0.08377668261528015,
          0.016628457233309746,
          -0.050313543528318405,
          -0.08782921731472015,
          -0.06618615239858627,
          -0.14979051053524017,
          0.02867705561220646,
          0.13814117014408112,
          0.07832874357700348,
          -0.03659971058368683,
          -0.09167426079511642,
          -0.12427320331335068,
          0.0269439946860075,
          0.11316338926553726,
          -0.016145890578627586,
          -0.014487802051007748,
          -0.08189679682254791,
          -0.09461373835802078,
          0.036737874150276184,
          -0.1656968593597412,
          0.1782936304807663,
          -0.0952090248465538,
          0.06356193125247955,
          -0.06229476258158684,
          -0.07013757526874542,
          0.030521031469106674,
          0.05219527333974838,
          0.07595788687467575,
          -0.11036566644906998,
          -0.15865112841129303,
          -0.05008181184530258,
          0.07415242493152618,
          -0.05395550653338432,
          0.13086217641830444,
          0.06087576225399971,
          -0.04131274297833443,
          -0.05633134767413139,
          0.006949824281036854,
          0.09003478288650513,
          0.060588039457798004,
          0.11128969490528107,
          -0.006047289352864027,
          -0.08678112179040909,
          0.01830902509391308,
          -0.06446099281311035,
          0.07687988877296448,
          -0.05711397901177406,
          0.06417153775691986,
          -0.0004773835826199502,
          0.10833828151226044,
          0.07795239984989166,
          0.03692885860800743,
          0.10041911154985428,
          -0.08662855625152588,
          -0.018804484978318214,
          -0.013181711547076702,
          0.071108378469944,
          0.04001375660300255,
          -0.007268755231052637,
          0.044484611600637436,
          -0.016743632033467293,
          -0.04634418338537216,
          -0.053823184221982956,
          -0.0761595070362091,
          0.04312533140182495,
          0.07562942802906036,
          -0.08774661272764206,
          0.0010503673693165183,
          -0.0674460381269455
        ],
        [
          -0.044630054384469986,
          -0.15852497518062592,
          -0.10780952870845795,
          -0.02536008507013321,
          0.08399417996406555,
          0.049310293048620224,
          -0.17818181216716766,
          -0.07981757074594498,
          -0.04771671071648598,
          -0.08327829837799072,
          0.15267130732536316,
          -0.10155580192804337,
          -0.049415379762649536,
          0.04629433527588844,
          -0.002099976409226656,
          -0.022090129554271698,
          0.027939515188336372,
          0.08395504951477051,
          -0.05004465579986572,
          0.11679169535636902,
          -0.05793389678001404,
          -0.07675430178642273,
          0.01660780794918537,
          0.07630538195371628,
          -0.0648103803396225,
          -0.13367143273353577,
          0.05549853295087814,
          0.0016558737261220813,
          0.011923307552933693,
          0.003943717107176781,
          0.03591552749276161,
          -0.005733279511332512,
          0.02662595361471176,
          0.04094921052455902,
          -0.052246347069740295,
          0.07635501772165298,
          -0.048154640942811966,
          -0.004614761099219322,
          -0.06242780014872551,
          0.10395507514476776,
          -0.07089780271053314,
          -0.06836996227502823,
          -0.13633425533771515,
          -0.13938534259796143,
          0.011223528534173965,
          0.04906974360346794,
          0.034512754529714584,
          -0.09007787704467773,
          0.0342235267162323,
          -0.185289666056633,
          -0.15699167549610138,
          -0.002930699149146676,
          0.00880762841552496,
          -0.08967065811157227,
          0.007934452965855598,
          -0.05684074014425278,
          0.06497201323509216,
          0.051614612340927124,
          -0.06809203326702118,
          0.00911152083426714,
          -0.015315313823521137,
          0.03651394695043564,
          -0.09681162983179092,
          0.017531275749206543,
          0.09468774497509003,
          -0.052098896354436874,
          0.039328012615442276,
          0.10377173125743866,
          0.0735306665301323,
          -0.1192842647433281,
          -0.09094829857349396,
          0.02978331968188286,
          -0.07213353365659714,
          -0.05718715861439705,
          -0.04133599251508713,
          0.04823344573378563,
          -0.06623382866382599,
          0.054564084857702255,
          0.06641621142625809,
          -0.022136468440294266
        ],
        [
          -0.06262718886137009,
          -0.3046182692050934,
          -0.004422860220074654,
          0.028776220977306366,
          -0.10549008846282959,
          -0.07256805151700974,
          -0.06118938326835632,
          0.06176946312189102,
          0.02405628189444542,
          -0.02529362216591835,
          0.14687393605709076,
          -0.10783595591783524,
          -0.06954296678304672,
          0.014684918336570263,
          -0.0699225440621376,
          -0.07955305278301239,
          0.041685160249471664,
          -0.006522249896079302,
          0.0044760690070688725,
          -0.11720669269561768,
          0.03637035936117172,
          0.020770912989974022,
          0.005360350012779236,
          -0.09949050098657608,
          -0.010792497545480728,
          0.08528396487236023,
          0.12055789679288864,
          -0.050710346549749374,
          -0.030540063977241516,
          -0.052208252251148224,
          -0.06203645467758179,
          -0.08162276446819305,
          -0.048164308071136475,
          0.017161376774311066,
          0.015525144524872303,
          -0.04948274418711662,
          -0.024215031415224075,
          0.019198257476091385,
          0.012620819732546806,
          0.04696078225970268,
          -0.018098527565598488,
          -0.029605992138385773,
          0.008141035214066505,
          0.07870566844940186,
          0.0226151030510664,
          0.022023208439350128,
          -0.12886667251586914,
          -0.029684675857424736,
          0.02934269979596138,
          0.06316608935594559,
          -0.025845905765891075,
          0.0172527264803648,
          0.023466648533940315,
          0.07114077359437943,
          0.0420377179980278,
          -0.02913208305835724,
          0.03146137297153473,
          0.015011101961135864,
          0.007505657617002726,
          0.07180611044168472,
          0.048895008862018585,
          0.012296376749873161,
          -0.112075075507164,
          -0.01597663015127182,
          0.015879683196544647,
          0.0841202437877655,
          -0.09736593812704086,
          0.10172636061906815,
          0.00043241510866209865,
          0.001870055217295885,
          -0.08230740576982498,
          0.08721508830785751,
          -0.08903203159570694,
          -0.01775994710624218,
          -0.06558537483215332,
          -0.0861983373761177,
          -0.02518555521965027,
          0.00503372261300683,
          0.08516785502433777,
          0.06759900599718094
        ],
        [
          -0.0028922390192747116,
          -0.08339420706033707,
          -0.17822717130184174,
          -0.17824797332286835,
          0.08065348118543625,
          0.06089010089635849,
          -0.014009140431880951,
          0.032480739057064056,
          -0.08878443390130997,
          -0.022544844076037407,
          0.20376110076904297,
          -0.17326168715953827,
          -0.169615238904953,
          -0.07758192718029022,
          -0.06802348047494888,
          -0.1442893147468567,
          -0.06259892135858536,
          -0.01449850294739008,
          -0.17208880186080933,
          -0.13027016818523407,
          0.0760355219244957,
          -0.011656052432954311,
          -0.07129865139722824,
          -0.07180454581975937,
          0.06283526122570038,
          0.008935666643083096,
          0.07483138144016266,
          0.05549567937850952,
          -0.015411862172186375,
          -0.09512194246053696,
          -0.025854839012026787,
          -0.005216327961534262,
          0.03677874058485031,
          0.006292276084423065,
          0.08327597379684448,
          0.022566428408026695,
          0.025951692834496498,
          0.08206811547279358,
          -0.025593973696231842,
          0.043279439210891724,
          -0.00038170997868292034,
          0.09882766753435135,
          -0.059009674936532974,
          -0.06543701142072678,
          0.05660098046064377,
          0.07598958164453506,
          0.028421493247151375,
          -0.0680733174085617,
          0.046744104474782944,
          -0.009408317506313324,
          0.001672173966653645,
          0.01966446451842785,
          0.0012123933993279934,
          -0.05637019872665405,
          0.07040168344974518,
          -0.05970929563045502,
          0.08183863759040833,
          0.014045815914869308,
          -0.036747317761182785,
          -0.024393800646066666,
          -0.08431636542081833,
          0.06596889346837997,
          0.06372586637735367,
          -0.013248131610453129,
          0.03990840166807175,
          -0.005913957953453064,
          0.038348834961652756,
          -0.02301446534693241,
          0.003773972624912858,
          0.05573152378201485,
          0.041510384529829025,
          0.008104479871690273,
          -0.014944846741855145,
          -0.07202441245317459,
          -0.0030732620507478714,
          0.0372164361178875,
          -0.002012233715504408,
          -0.011904951184988022,
          0.006926831789314747,
          -0.03730223700404167
        ],
        [
          -0.2669755220413208,
          0.23033516108989716,
          0.06731932610273361,
          0.04554183408617973,
          -0.018430139869451523,
          0.03893375024199486,
          -0.06776611506938934,
          -0.09896697849035263,
          0.0027041712310165167,
          -0.04305358976125717,
          0.04076818749308586,
          0.030734753236174583,
          -0.03164521977305412,
          -0.06192682310938835,
          0.08366748690605164,
          -0.15484553575515747,
          0.13330774009227753,
          0.06296055018901825,
          -0.0044199153780937195,
          0.07094448059797287,
          0.03757600113749504,
          0.13700759410858154,
          -0.005969594698399305,
          0.01009475439786911,
          -0.017558006569743156,
          -0.038340721279382706,
          0.03928860276937485,
          -0.01876821368932724,
          0.047371942549943924,
          -0.004208765458315611,
          -0.013265936635434628,
          0.03605734556913376,
          0.0946725457906723,
          0.108771912753582,
          -0.008598259650170803,
          0.04596782103180885,
          -0.09758646041154861,
          -0.05737784504890442,
          0.02790260687470436,
          -0.035071961581707,
          0.035683754831552505,
          0.09283433854579926,
          -0.03714635595679283,
          0.010440296493470669,
          0.010044812224805355,
          -0.043990716338157654,
          0.08174760639667511,
          0.009912371635437012,
          0.09036487340927124,
          -0.01908201165497303,
          0.06591290980577469,
          0.02459998056292534,
          -0.012775098904967308,
          -0.03928222879767418,
          0.01815927028656006,
          -0.09808270633220673,
          0.031055647879838943,
          0.071949802339077,
          0.0643182322382927,
          -0.023385820910334587,
          -0.01503823883831501,
          -0.040854718536138535,
          -0.027119478210806847,
          -0.02915526181459427,
          0.07316489517688751,
          -0.06358052045106888,
          -0.05308052524924278,
          0.041365042328834534,
          -0.07019547373056412,
          0.036713674664497375,
          -0.07422424107789993,
          -0.013800754211843014,
          -0.0008936448721215129,
          -0.044306181371212006,
          0.11770623922348022,
          0.06126641854643822,
          0.01980152539908886,
          0.01681976206600666,
          0.0785575583577156,
          0.00043414990068413317
        ],
        [
          -0.24940180778503418,
          0.29405444860458374,
          0.22401802241802216,
          0.07630492001771927,
          0.06724540144205093,
          -0.0055097294971346855,
          -0.0197768472135067,
          -0.05405765399336815,
          0.03917747363448143,
          0.10635801404714584,
          0.04015106335282326,
          0.001562201650813222,
          -0.10447026789188385,
          -0.14886574447155,
          0.007244903594255447,
          0.02355794981122017,
          0.02124112844467163,
          -0.06155114248394966,
          -0.09021297097206116,
          0.025801295414566994,
          0.17496173083782196,
          -0.05361848324537277,
          -0.03778398409485817,
          0.01590133085846901,
          0.00010431394912302494,
          0.025609765201807022,
          0.02403290569782257,
          0.043985165655612946,
          -0.06820749491453171,
          0.005246371496468782,
          -0.0054578110575675964,
          0.023720785975456238,
          -0.007147748954594135,
          -0.015300454571843147,
          0.03183330222964287,
          0.015602337196469307,
          -0.00877426564693451,
          0.001365629956126213,
          0.0005450349417515099,
          -0.030299516394734383,
          0.08717460930347443,
          -0.022690115496516228,
          0.010857047513127327,
          -0.017054852098226547,
          0.04712611809372902,
          -0.021167289465665817,
          -0.021683301776647568,
          -0.053866785019636154,
          0.02717142552137375,
          0.022193847224116325,
          -0.007013221736997366,
          0.03217523917555809,
          0.0017293599667027593,
          -0.036355599761009216,
          0.014437488280236721,
          0.002049883594736457,
          0.006355720106512308,
          0.014869476668536663,
          -0.01627005822956562,
          -0.03052942268550396,
          -0.01016001682728529,
          -0.00454814312979579,
          -0.038180381059646606,
          -0.11539679020643234,
          -0.006970829796046019,
          0.02195645123720169,
          -0.08772655576467514,
          -0.075521320104599,
          0.026401078328490257,
          -0.06114385277032852,
          -0.05723190680146217,
          0.06815659999847412,
          0.057568199932575226,
          0.14119382202625275,
          0.10504650324583054,
          0.008604999631643295,
          0.0017255160491913557,
          -0.013524610549211502,
          0.08208625763654709,
          0.049305565655231476
        ],
        [
          -0.1263594627380371,
          0.14900889992713928,
          -0.18196675181388855,
          0.055852923542261124,
          -0.059806495904922485,
          -0.13936597108840942,
          -0.17373806238174438,
          -0.04782786965370178,
          0.06691113859415054,
          -0.09336656332015991,
          -0.0735127329826355,
          0.07542135566473007,
          -0.11214137822389603,
          -0.01271986123174429,
          -0.07380364835262299,
          0.058155786246061325,
          -0.03218194469809532,
          -0.060017406940460205,
          -0.006587965413928032,
          0.09144309908151627,
          -0.09038987755775452,
          0.030250489711761475,
          -0.006047806236892939,
          0.08237873762845993,
          -0.031121380627155304,
          -0.009219596162438393,
          0.008861182257533073,
          0.04289218410849571,
          -0.026598060503602028,
          -0.09494520723819733,
          0.015459033660590649,
          -0.05214494466781616,
          -0.08431769907474518,
          0.06389922648668289,
          0.01615026779472828,
          0.025380494073033333,
          0.018532710149884224,
          0.029480954632163048,
          -0.010486708953976631,
          0.008157862350344658,
          0.024214092642068863,
          -0.206448495388031,
          0.07884512096643448,
          0.031040340662002563,
          0.047717414796352386,
          0.012593415565788746,
          -0.040763117372989655,
          0.002240240341052413,
          0.012914473190903664,
          -0.014421477913856506,
          0.08115871995687485,
          0.00457996828481555,
          -0.04052264615893364,
          0.08408817648887634,
          0.03578518331050873,
          0.07716454565525055,
          -0.019372502341866493,
          -0.054868753999471664,
          -0.03947021812200546,
          -0.04394802823662758,
          -0.0376160629093647,
          -0.05015767365694046,
          0.04885876923799515,
          -0.012974265031516552,
          -0.017258889973163605,
          0.02182433009147644,
          0.13103771209716797,
          0.013297959230840206,
          0.05228312686085701,
          0.1234816163778305,
          -0.01726362481713295,
          -0.03939644992351532,
          0.11739819496870041,
          -0.02858126163482666,
          -0.06389398127794266,
          -0.08508704602718353,
          0.043301668018102646,
          0.0013342001475393772,
          0.023603281006217003,
          -0.11492522060871124
        ],
        [
          0.05589982122182846,
          0.05885687470436096,
          0.14674946665763855,
          0.014680948108434677,
          0.16811709105968475,
          0.30757299065589905,
          -0.06503376364707947,
          -0.1913955956697464,
          -0.047523535788059235,
          -0.1323668658733368,
          0.03361178934574127,
          0.0017064959974959493,
          -0.09855343401432037,
          -0.07816970348358154,
          0.09045068919658661,
          -0.07102741301059723,
          0.04353976622223854,
          0.14642435312271118,
          0.10085106641054153,
          -0.29686546325683594,
          0.042534444481134415,
          0.06110774725675583,
          0.06204276904463768,
          -0.050564806908369064,
          -0.10004457831382751,
          0.014877651818096638,
          0.11434756219387054,
          -0.021850693970918655,
          0.006817915476858616,
          0.1306382268667221,
          0.17664353549480438,
          0.04264155030250549,
          -0.08156522363424301,
          0.016002992168068886,
          0.023264756426215172,
          -0.10497293621301651,
          0.06659402698278427,
          0.004844510927796364,
          0.0059062703512609005,
          0.004019046667963266,
          -0.07581057399511337,
          -0.025319144129753113,
          0.008866656571626663,
          -0.0692380890250206,
          0.05929500237107277,
          0.05267005413770676,
          0.009814182296395302,
          -0.045254115015268326,
          0.02295834757387638,
          -0.02248089201748371,
          -0.05867145583033562,
          -0.07706707715988159,
          0.013029769994318485,
          -0.004531925078481436,
          0.014072787947952747,
          0.026374200358986855,
          0.06315291672945023,
          0.10520611703395844,
          -0.00144098699092865,
          -0.04684830456972122,
          0.01911044493317604,
          0.020944960415363312,
          0.045063480734825134,
          0.013792225159704685,
          0.04935687035322189,
          0.025737250223755836,
          -0.052831020206213,
          -0.03573516383767128,
          -0.009448538534343243,
          -0.0016686617163941264,
          0.05604022741317749,
          0.008441444486379623,
          -0.002036097925156355,
          -0.01611926034092903,
          -0.032645661383867264,
          0.057600170373916626,
          0.028963467106223106,
          -0.02611602656543255,
          -0.04572666063904762,
          -0.034258414059877396
        ],
        [
          0.23600852489471436,
          -0.1545308381319046,
          0.10075705498456955,
          -0.07158569246530533,
          0.037666212767362595,
          0.02804509364068508,
          0.07080505043268204,
          -0.13316361606121063,
          0.09032244235277176,
          -0.036896415054798126,
          -0.10248039662837982,
          -0.05632534250617027,
          0.04375358670949936,
          0.005109637510031462,
          0.004069264512509108,
          -0.041715435683727264,
          0.0487368181347847,
          0.02047649398446083,
          0.10805384814739227,
          -0.042884569615125656,
          -0.031053751707077026,
          0.11029217392206192,
          0.12248458713293076,
          -0.056135665625333786,
          0.018273696303367615,
          0.0200684554874897,
          0.1148124635219574,
          -0.012186919339001179,
          -0.11391684412956238,
          -0.07829324901103973,
          -0.006417902186512947,
          0.04882907494902611,
          -0.07840326428413391,
          0.015593720600008965,
          0.038922425359487534,
          0.0791742205619812,
          -0.03806181997060776,
          0.026943262666463852,
          0.003340100636705756,
          -0.01565874181687832,
          -0.029315132647752762,
          -0.019551321864128113,
          -0.04827366769313812,
          -0.16742265224456787,
          0.10082501918077469,
          0.0674293115735054,
          -0.014838362112641335,
          -0.062464676797389984,
          0.10698574781417847,
          0.02413232997059822,
          -0.001804089522920549,
          0.07798191905021667,
          -0.021650370210409164,
          0.0025839246809482574,
          0.12286949157714844,
          0.01986865885555744,
          -0.06245632469654083,
          -0.025777598842978477,
          -0.10168248414993286,
          0.007178709376603365,
          -0.06738532334566116,
          -0.03209059685468674,
          0.0024613849818706512,
          -0.051447998732328415,
          0.03403184935450554,
          -0.01353190653026104,
          -0.029167139902710915,
          0.07449571788311005,
          -0.0134776895865798,
          0.003099126275628805,
          0.032598964869976044,
          0.1158660352230072,
          0.08450137078762054,
          -0.0034121049102395773,
          0.06353651732206345,
          -0.09588723629713058,
          0.027347179129719734,
          0.03209748864173889,
          0.007482476066797972,
          -0.07010061293840408
        ],
        [
          0.13932551443576813,
          0.20798170566558838,
          -0.027115503326058388,
          -0.02348346635699272,
          0.12272543460130692,
          0.06909425556659698,
          -0.008187034167349339,
          -0.008387251757085323,
          -0.026241157203912735,
          -0.08255286514759064,
          0.007420155219733715,
          0.018341470509767532,
          -0.08951932191848755,
          -0.01690387912094593,
          0.06095534935593605,
          -0.0985889658331871,
          0.0786219909787178,
          0.08997683972120285,
          0.09044259041547775,
          0.0603334940969944,
          -0.012820504605770111,
          0.09808775782585144,
          0.031217806041240692,
          0.06865642219781876,
          0.02351880818605423,
          0.033613596111536026,
          0.13746944069862366,
          -0.05269109457731247,
          -0.014526468701660633,
          -0.06769068539142609,
          -0.0006795587250962853,
          0.03128940984606743,
          0.016842372715473175,
          0.062087949365377426,
          -0.014939836226403713,
          -0.018213583156466484,
          -0.014914973638951778,
          0.11702828854322433,
          -0.036540139466524124,
          0.04320423677563667,
          -0.06610118597745895,
          0.013064107857644558,
          -0.06272885948419571,
          -0.17571169137954712,
          0.043764401227235794,
          0.0481988899409771,
          0.048823628574609756,
          -0.13420172035694122,
          0.007453251630067825,
          -0.07974554598331451,
          -0.053675174713134766,
          0.09895659238100052,
          -0.032153643667697906,
          -0.10682449489831924,
          0.11439844965934753,
          0.048585083335638046,
          0.09144241362810135,
          0.036059144884347916,
          -0.028084255754947662,
          0.021725140511989594,
          -0.09467240422964096,
          -0.11336477100849152,
          0.0178450308740139,
          0.077381432056427,
          0.08000702410936356,
          0.08446693420410156,
          -0.08554300665855408,
          -0.0017530298791825771,
          -0.0017285599606111646,
          0.07487843930721283,
          -0.019983720034360886,
          0.0042910450138151646,
          0.06494586169719696,
          -0.061308521777391434,
          -0.036056943237781525,
          0.08956646919250488,
          0.034694526344537735,
          -0.05878198891878128,
          0.06391111016273499,
          -0.05175710469484329
        ],
        [
          0.09681018441915512,
          -0.0072415717877447605,
          -0.0760778933763504,
          -0.08501719683408737,
          0.16023780405521393,
          0.02623385190963745,
          -0.08576806634664536,
          -0.17039139568805695,
          -0.09456638991832733,
          -0.07995888590812683,
          0.08489193022251129,
          -0.07181021571159363,
          0.0002841747482307255,
          -0.03799647092819214,
          0.013511335477232933,
          0.09349266439676285,
          0.010778876021504402,
          0.013094336725771427,
          0.07917871326208115,
          -0.00819080788642168,
          0.11345592886209488,
          -0.03255906701087952,
          -0.03415517136454582,
          0.100446917116642,
          0.001078276545740664,
          -0.07747501879930496,
          0.049863431602716446,
          0.13791510462760925,
          0.004439141135662794,
          0.0661066472530365,
          0.05791286751627922,
          0.013551829382777214,
          0.006700364872813225,
          0.12730281054973602,
          -0.07312534749507904,
          0.0034640859812498093,
          -0.02582598850131035,
          -0.00242953491397202,
          -0.015367045067250729,
          -0.016067950055003166,
          0.028716005384922028,
          -0.010897436179220676,
          -0.004236133769154549,
          -0.05203051120042801,
          -0.0404951348900795,
          0.020437857136130333,
          0.03677459806203842,
          -0.006329192314296961,
          -0.027934521436691284,
          0.026530884206295013,
          -0.043815288692712784,
          0.10090887546539307,
          -0.05210869386792183,
          -0.07746092230081558,
          0.05647179111838341,
          -0.05675403028726578,
          0.07374033331871033,
          -0.05247313156723976,
          0.08977662771940231,
          -0.006745489314198494,
          -0.03232200816273689,
          -0.07187985628843307,
          0.007768344134092331,
          0.0976431667804718,
          -0.08495660871267319,
          -0.06382188200950623,
          0.029779747128486633,
          -0.0649564266204834,
          -0.01924833282828331,
          0.048846688121557236,
          -0.11274612694978714,
          -0.10994979739189148,
          0.05894782766699791,
          -0.02070920541882515,
          -0.032628197222948074,
          -0.035422276705503464,
          0.03494299203157425,
          0.12279725819826126,
          -0.07898660749197006,
          0.010624291375279427
        ],
        [
          -0.10752637684345245,
          0.052615415304899216,
          -0.12584805488586426,
          -0.03957429900765419,
          0.020325014367699623,
          0.023840345442295074,
          0.0012790909968316555,
          -0.11795614659786224,
          0.15627962350845337,
          -0.07674375176429749,
          -0.0698898509144783,
          0.06255383789539337,
          -0.13534364104270935,
          -0.08325957506895065,
          -0.018916888162493706,
          -0.09762144088745117,
          -0.16308265924453735,
          -0.11196471750736237,
          0.08015281707048416,
          0.04664900526404381,
          0.00036451933556236327,
          0.08955180644989014,
          -0.0720033347606659,
          -0.072701595723629,
          -0.008122490718960762,
          -0.006251602899283171,
          0.03334325924515724,
          -0.00024988260702230036,
          -0.03676664084196091,
          0.014297190122306347,
          -0.013122495263814926,
          0.00950560998171568,
          0.09148073196411133,
          -0.04422764852643013,
          0.03808237612247467,
          -0.012167831882834435,
          -0.08182165026664734,
          -0.010235949419438839,
          -0.035823363810777664,
          0.02291576936841011,
          0.003426868235692382,
          -0.01398602407425642,
          -0.05806734785437584,
          0.07165883481502533,
          -0.054392360150814056,
          0.002638614736497402,
          0.08533414453268051,
          0.024934040382504463,
          -0.054698601365089417,
          -0.02041008695960045,
          -0.019175050780177116,
          5.254261486697942e-05,
          0.05718335136771202,
          0.043992843478918076,
          -0.060533128678798676,
          0.10305821150541306,
          -0.05452752485871315,
          -0.005310661159455776,
          -0.01660597138106823,
          0.019368935376405716,
          0.023354295641183853,
          -0.16686251759529114,
          0.12592187523841858,
          0.06861438602209091,
          0.009509396739304066,
          -0.05000929534435272,
          -0.09393289685249329,
          0.09422329813241959,
          -0.022359175607562065,
          -0.04512499272823334,
          0.08160541951656342,
          -0.076935313642025,
          -0.0036066740285605192,
          -0.07991219311952591,
          0.1011938601732254,
          -0.0179629884660244,
          -0.02136664092540741,
          0.058425866067409515,
          -0.003566568484529853,
          -0.10489179193973541
        ],
        [
          0.01898762211203575,
          -0.052507951855659485,
          0.07560955733060837,
          -0.10769401490688324,
          0.12458774447441101,
          0.09895173460245132,
          -0.04682987928390503,
          0.04772564768791199,
          -0.09990808367729187,
          -0.061393190175294876,
          -0.011101128533482552,
          0.03799944743514061,
          0.02819826267659664,
          -0.08175711333751678,
          -0.053612884134054184,
          -0.027250204235315323,
          -0.12240279465913773,
          0.11841767281293869,
          -0.03407157585024834,
          -0.16817981004714966,
          0.1110110804438591,
          -0.10498745739459991,
          -0.03786211833357811,
          0.16064131259918213,
          -0.01589358225464821,
          -0.013860298320651054,
          -0.021160462871193886,
          -0.020487839356064796,
          0.1058143600821495,
          -0.07500153034925461,
          0.08945465832948685,
          -0.12102481722831726,
          -0.06277245283126831,
          0.0264524444937706,
          -0.04913307726383209,
          0.08175770193338394,
          0.07290837168693542,
          -0.06562700122594833,
          0.10871897637844086,
          0.05688632279634476,
          0.043584421277046204,
          -0.04991406574845314,
          -0.025606580078601837,
          -0.04362006112933159,
          0.004333471413701773,
          0.08666753768920898,
          -0.0227824654430151,
          -0.015657292678952217,
          0.08268240839242935,
          -0.16763128340244293,
          -0.005572991445660591,
          -0.03184661269187927,
          -0.0847570076584816,
          -0.07468108832836151,
          0.10726448893547058,
          -0.0886317640542984,
          0.035606224089860916,
          0.023961901664733887,
          -0.029424725100398064,
          -0.07070011645555496,
          -0.06109980121254921,
          0.1426713615655899,
          -0.049536895006895065,
          -0.0866679847240448,
          -0.0275860745459795,
          -0.04040608927607536,
          0.036972783505916595,
          -0.13931506872177124,
          -0.024741709232330322,
          0.018883930519223213,
          -0.035226330161094666,
          -0.050348781049251556,
          0.028566984459757805,
          -0.045234788209199905,
          -0.050674743950366974,
          0.017913557589054108,
          0.027399124577641487,
          -0.07064955681562424,
          -0.08446384966373444,
          -0.04078985005617142
        ],
        [
          -0.013443744741380215,
          -0.06339891999959946,
          0.11367817223072052,
          -0.14042693376541138,
          -0.021278254687786102,
          0.0784001350402832,
          0.027212653309106827,
          -0.050207968801259995,
          -0.14836326241493225,
          -0.18067941069602966,
          0.004545615985989571,
          -0.0875428318977356,
          0.05122395604848862,
          -0.00024707248667255044,
          -0.14540314674377441,
          -0.12031985819339752,
          -0.02925843372941017,
          0.038433510810136795,
          0.014801950193941593,
          -0.16427072882652283,
          0.06767898797988892,
          -0.004990308545529842,
          -0.028816556558012962,
          -0.08433497697114944,
          -0.029341556131839752,
          -0.09229127317667007,
          0.05339923873543739,
          0.0803479477763176,
          0.12020309269428253,
          0.1100035011768341,
          -0.014530654065310955,
          0.026298699900507927,
          0.15259137749671936,
          -0.05214935168623924,
          -0.03191114217042923,
          0.07471923530101776,
          0.053884029388427734,
          -0.06872065365314484,
          -0.05069175362586975,
          0.09106427431106567,
          0.05703707039356232,
          -0.010855089873075485,
          -0.05999748408794403,
          0.041455209255218506,
          -0.02282252535223961,
          0.006413744762539864,
          0.004417609889060259,
          0.06273743510246277,
          -0.08586610853672028,
          -0.07189633697271347,
          -0.02760906331241131,
          -0.06427109241485596,
          -0.0382387712597847,
          -0.013957475312054157,
          0.031173665076494217,
          0.07394499331712723,
          0.13823126256465912,
          0.047746673226356506,
          -0.035575803369283676,
          0.09332913160324097,
          0.031111566349864006,
          -0.06426640599966049,
          0.004981720820069313,
          0.02730889432132244,
          -0.06328697502613068,
          -0.027585463598370552,
          -0.0410628505051136,
          0.03092179447412491,
          -0.033417198807001114,
          -0.0033106764312833548,
          0.020309364423155785,
          0.020477134734392166,
          -0.013504604808986187,
          0.026665931567549706,
          0.060422006994485855,
          0.025085683912038803,
          0.0018051519291475415,
          -0.04608408361673355,
          -0.002213838044553995,
          0.09204372018575668
        ],
        [
          -0.0287034809589386,
          0.13914015889167786,
          -0.10617329180240631,
          0.004126559942960739,
          0.02613430842757225,
          -0.010840916074812412,
          -0.016482101753354073,
          -0.05266959220170975,
          0.12637807428836823,
          0.0300673209130764,
          0.10392341017723083,
          -0.028824662789702415,
          0.0016636655200272799,
          -0.05159790441393852,
          7.454186561517417e-05,
          -0.07270262390375137,
          0.003453916171565652,
          0.019837981089949608,
          -0.07351768016815186,
          -0.16492751240730286,
          0.04776421934366226,
          -0.013890761882066727,
          -0.007067881990224123,
          -0.12389132380485535,
          -0.0193015169352293,
          0.01734253205358982,
          -0.08150015026330948,
          0.05748116597533226,
          0.07253001630306244,
          0.08179037272930145,
          0.020006831735372543,
          -0.008287081494927406,
          0.0019539310596883297,
          -0.06922632455825806,
          0.02756369486451149,
          -0.14212584495544434,
          0.025951651856303215,
          0.037625495344400406,
          -0.07035065442323685,
          0.045586876571178436,
          0.09656190872192383,
          -0.07813755422830582,
          0.03703928366303444,
          -0.03876157104969025,
          -0.08846427500247955,
          -0.11003749072551727,
          0.0005950658232904971,
          0.050651665776968,
          0.019145507365465164,
          -0.05227550119161606,
          -0.021556727588176727,
          -0.0758979469537735,
          0.07758103311061859,
          -0.11472655087709427,
          0.08792222291231155,
          0.017398957163095474,
          0.037438951432704926,
          0.07921764254570007,
          -0.04866951331496239,
          0.039002664387226105,
          0.04195219650864601,
          -0.07069355994462967,
          0.05418359860777855,
          0.12870267033576965,
          -0.1503208577632904,
          0.056547198444604874,
          -0.025141416117548943,
          0.08582080155611038,
          0.005190092604607344,
          0.0029274923726916313,
          -0.05941764637827873,
          0.060635149478912354,
          -0.03197489678859711,
          -0.12095385789871216,
          -0.03792339563369751,
          -0.02556140348315239,
          0.05485273152589798,
          -0.03445668891072273,
          -0.03829535096883774,
          0.0010135943302884698
        ],
        [
          0.1656017154455185,
          0.15639962255954742,
          0.131240576505661,
          -0.19372406601905823,
          0.11700315773487091,
          0.1358124017715454,
          -0.013022595085203648,
          -0.10403604060411453,
          0.00308609614148736,
          0.07868528366088867,
          -0.08151233196258545,
          0.016556881368160248,
          -0.043678347021341324,
          -0.02969866804778576,
          -0.03852270543575287,
          0.05897338688373566,
          -0.08775140345096588,
          0.00923768337816,
          -0.001495109754614532,
          -0.08454222977161407,
          -0.0898362547159195,
          -0.03802713379263878,
          -0.0899675115942955,
          -0.001085041556507349,
          0.0112979207187891,
          0.10044137388467789,
          -0.020082376897335052,
          -0.15756471455097198,
          -0.06595459580421448,
          0.0784919261932373,
          -0.03230082243680954,
          -0.03689703345298767,
          -0.07217338681221008,
          -0.038326483219861984,
          -0.03655470162630081,
          0.004945891443639994,
          -0.03670206293463707,
          0.06221471726894379,
          -0.04640517383813858,
          0.05664071440696716,
          0.12134817987680435,
          0.08980054408311844,
          -0.05688405781984329,
          -0.07010433822870255,
          0.06835078448057175,
          0.060347139835357666,
          -0.008979582227766514,
          0.07219323515892029,
          0.10904663801193237,
          -0.04467501491308212,
          -0.005189117975533009,
          -0.003512500086799264,
          0.10595215857028961,
          -0.10874748975038528,
          0.1478697657585144,
          0.04688386246562004,
          0.1145574301481247,
          -0.029829654842615128,
          -0.0970204547047615,
          0.08585699647665024,
          -0.056022271513938904,
          -0.053271230310201645,
          0.0018809096654877067,
          -0.010706407949328423,
          0.05124913528561592,
          0.07149660587310791,
          -0.020895350724458694,
          0.09124913066625595,
          0.06361347436904907,
          -0.10213417559862137,
          -0.05887051299214363,
          0.024474892765283585,
          0.10232638567686081,
          0.07093583792448044,
          -0.05909315124154091,
          -0.06157800555229187,
          -0.05141961947083473,
          0.059124305844306946,
          -0.0029443232342600822,
          0.11618586629629135
        ],
        [
          0.2778201699256897,
          -0.16021756827831268,
          0.04766406491398811,
          0.11565447598695755,
          -0.0029774922877550125,
          0.08986576646566391,
          -0.058063898235559464,
          0.026711292564868927,
          0.04302297532558441,
          0.11757505685091019,
          -0.09543760120868683,
          0.024670537561178207,
          -0.031111227348446846,
          0.06641856580972672,
          -0.05688076093792915,
          -0.10136345028877258,
          -0.060293056070804596,
          -0.06161443144083023,
          -0.1515977531671524,
          -0.04829906299710274,
          -0.10292791575193405,
          0.05911339446902275,
          0.04029015824198723,
          -0.05059444531798363,
          0.05263618752360344,
          -0.014149514026939869,
          -0.026498563587665558,
          -0.04071038216352463,
          0.09640555083751678,
          -0.055061981081962585,
          -0.0554593987762928,
          0.07867707312107086,
          -0.032957807183265686,
          -0.044213272631168365,
          0.04414665326476097,
          -0.0819183960556984,
          0.03248751163482666,
          -0.005155111197382212,
          0.0015024575404822826,
          -0.05277992784976959,
          0.0021436703391373158,
          0.016188282519578934,
          -0.03104698471724987,
          -0.02844701148569584,
          0.0209913682192564,
          0.02566578984260559,
          -0.031201042234897614,
          -0.028192605823278427,
          0.027626661583781242,
          -0.04614889994263649,
          -0.025541534647345543,
          -0.08401745557785034,
          0.054048195481300354,
          0.012621158733963966,
          -0.0036141700111329556,
          0.0394410565495491,
          0.014947925694286823,
          -0.04012259095907211,
          -0.006718843709677458,
          -0.036057136952877045,
          -0.04400163143873215,
          0.06119965761899948,
          0.06402766704559326,
          0.02827158011496067,
          0.05667513981461525,
          0.07917243242263794,
          0.10550310462713242,
          -0.021488476544618607,
          -0.017615802586078644,
          0.009085961617529392,
          0.06825195997953415,
          0.10705013573169708,
          -0.08614353090524673,
          -0.03915846347808838,
          -0.037151794880628586,
          -0.05999622121453285,
          0.03277716785669327,
          0.019074441865086555,
          -0.007722772657871246,
          0.07171227037906647
        ],
        [
          -0.07123158872127533,
          0.09895872324705124,
          0.052853841334581375,
          -0.1308508813381195,
          0.042261864989995956,
          0.020598821341991425,
          -0.08207239210605621,
          -0.07865066826343536,
          -0.0563935786485672,
          -0.0723821297287941,
          -0.09041828662157059,
          0.0687994584441185,
          -0.16371135413646698,
          0.023811878636479378,
          -0.05474955216050148,
          -0.10920493304729462,
          -0.04214059188961983,
          0.08587848395109177,
          0.03122585266828537,
          -0.12941418588161469,
          -0.06402481347322464,
          0.10264811664819717,
          -0.052838437259197235,
          0.01767907105386257,
          0.007806974928826094,
          0.07747428864240646,
          -0.011714901775121689,
          -0.03682649880647659,
          -0.09090074151754379,
          0.08572930842638016,
          -0.1093645691871643,
          0.018864698708057404,
          -0.07122506946325302,
          0.0025847768411040306,
          -0.03158898651599884,
          -0.020413121208548546,
          -0.02515767142176628,
          0.0668521597981453,
          0.036885544657707214,
          -0.13463382422924042,
          -0.10634783655405045,
          0.05395260080695152,
          0.05854463204741478,
          -0.14074115455150604,
          0.02857239730656147,
          0.03834705799818039,
          -0.16558407247066498,
          -0.10546199232339859,
          0.1211424320936203,
          0.05227472260594368,
          -0.03920216113328934,
          0.049442682415246964,
          -0.0049455733969807625,
          0.016295023262500763,
          -0.015394494868814945,
          -0.12128611654043198,
          -0.0288305152207613,
          0.005758315324783325,
          -0.034058962017297745,
          0.057439569383859634,
          0.08261935412883759,
          0.0028048118110746145,
          -0.12118595093488693,
          -0.027880864217877388,
          0.010752546600997448,
          0.0699843093752861,
          -0.1055673137307167,
          0.08877861499786377,
          -0.006240414921194315,
          0.04106401279568672,
          -0.024912072345614433,
          0.04699058458209038,
          -0.003091757884249091,
          0.0277059655636549,
          -0.08432003110647202,
          -0.044806692749261856,
          -0.0013980333460494876,
          -0.0078063951805233955,
          0.014529513195157051,
          0.10239177197217941
        ],
        [
          0.003976869396865368,
          -0.10059355944395065,
          0.1444351226091385,
          0.04932093247771263,
          0.10580504685640335,
          0.04579518735408783,
          0.033263616263866425,
          0.034174609929323196,
          0.04544273763895035,
          -0.018317116424441338,
          -0.0019018627936020494,
          0.055649928748607635,
          -0.08154202997684479,
          -0.036161839962005615,
          -0.03356685861945152,
          -0.2066299468278885,
          -0.02994469180703163,
          0.07867864519357681,
          -0.05686182528734207,
          0.014321982860565186,
          0.0574764683842659,
          0.023608511313796043,
          0.10069134831428528,
          -0.1377616971731186,
          -0.0065556601621210575,
          -0.021814394742250443,
          0.027899382635951042,
          0.03249765560030937,
          0.01824890822172165,
          0.013061725534498692,
          0.03768257051706314,
          -0.07642484456300735,
          0.038740430027246475,
          -0.07667913287878036,
          0.08360736072063446,
          -0.15855225920677185,
          0.04293792322278023,
          0.031085830181837082,
          0.05814145877957344,
          -0.030963027849793434,
          -0.007186485454440117,
          -0.03930450975894928,
          -0.004062307067215443,
          0.019813107326626778,
          -0.03153238445520401,
          -0.02167116291821003,
          -0.026491379365324974,
          -0.001775795710273087,
          -0.09895264357328415,
          -0.04724360257387161,
          0.008504493162035942,
          0.049087896943092346,
          0.07420489192008972,
          0.029528899118304253,
          0.028652939945459366,
          0.0921376496553421,
          -0.03788295388221741,
          0.02587989531457424,
          -0.042674750089645386,
          0.06441845744848251,
          -0.08556058257818222,
          -0.016225973144173622,
          0.01734727807343006,
          0.130166694521904,
          -0.0016406163340434432,
          -0.02100580744445324,
          -0.021969858556985855,
          0.032979901880025864,
          0.040242500603199005,
          -0.038052577525377274,
          0.09538332372903824,
          0.10278142243623734,
          -0.01165157649666071,
          -0.02626226469874382,
          0.044297073036432266,
          0.0922527089715004,
          -0.015380660071969032,
          -0.06265516579151154,
          -0.07772069424390793,
          -0.10393603146076202
        ],
        [
          0.3769093155860901,
          0.3331755995750427,
          0.010099225677549839,
          -0.06934244930744171,
          -0.04299316927790642,
          0.1302766352891922,
          0.09044542908668518,
          0.11233986169099808,
          0.02757720835506916,
          0.00942799262702465,
          0.12149020284414291,
          -0.016298051923513412,
          0.04841982200741768,
          -0.10351061820983887,
          0.09017831087112427,
          -0.05526736006140709,
          0.051289379596710205,
          0.13032279908657074,
          -0.14579634368419647,
          0.04859599098563194,
          0.0313919372856617,
          0.019011331722140312,
          0.06305669248104095,
          0.002976088086143136,
          -0.020446602255105972,
          0.04840586706995964,
          0.009720711037516594,
          0.04622669517993927,
          -0.0509832426905632,
          0.0032885682303458452,
          -0.03187377005815506,
          -0.0221939105540514,
          -0.06513575464487076,
          -0.003472318407148123,
          -0.038669832050800323,
          -0.00506572937592864,
          -0.045164335519075394,
          -0.04461375251412392,
          0.03491323068737984,
          0.00033909923513419926,
          -0.06204129010438919,
          -0.03679465502500534,
          0.030871406197547913,
          -0.07470736652612686,
          0.05662224441766739,
          0.04323863238096237,
          0.02976703643798828,
          -0.05541243031620979,
          -0.0266941599547863,
          -0.034167565405368805,
          -0.01997429132461548,
          -0.06787798553705215,
          0.014920661225914955,
          0.017717430368065834,
          0.06416386365890503,
          -0.01704021356999874,
          0.025294262915849686,
          0.046665068715810776,
          -0.02262219786643982,
          0.028966568410396576,
          -0.07931222021579742,
          -0.03209264203906059,
          0.0757734552025795,
          0.02831709384918213,
          -0.008453999646008015,
          -0.01394082885235548,
          0.04625505954027176,
          0.035598572343587875,
          -0.032745908945798874,
          -0.03891550749540329,
          0.018919674679636955,
          0.02525579184293747,
          -0.03768539801239967,
          -0.005496297962963581,
          0.011372855864465237,
          0.03414352983236313,
          0.03152023255825043,
          -0.045842576771974564,
          0.050466179847717285,
          0.048858270049095154
        ],
        [
          -0.23832029104232788,
          0.25002017617225647,
          -0.12470810860395432,
          -0.06541468948125839,
          -0.0003845191968139261,
          0.03304953873157501,
          -0.035913340747356415,
          -0.03247486799955368,
          -0.019960111007094383,
          -0.11174650490283966,
          -0.018905606120824814,
          0.05355137959122658,
          -0.14733204245567322,
          0.10863490402698517,
          -0.08787213265895844,
          0.035932645201683044,
          -0.09578844904899597,
          0.09241753071546555,
          0.06046512350440025,
          -0.10089772939682007,
          -0.09184463322162628,
          0.08402827382087708,
          0.019820336252450943,
          -0.013803311623632908,
          0.05724114179611206,
          0.012152907438576221,
          -0.024904323741793633,
          -0.039567962288856506,
          -0.022458134219050407,
          0.0954245924949646,
          -0.10682762414216995,
          0.02043340727686882,
          0.0031088271643966436,
          -0.030155327171087265,
          -0.0022642819676548243,
          -0.0023670869413763285,
          -0.020041661337018013,
          0.00896937120705843,
          -0.04725497588515282,
          -0.011068206280469894,
          -0.03908923640847206,
          -0.11288315057754517,
          0.1311432272195816,
          -0.04533959552645683,
          -0.01045770850032568,
          0.012564346194267273,
          -0.01949332468211651,
          -0.023246649652719498,
          -0.026780331507325172,
          -0.022544143721461296,
          -0.006507357116788626,
          -0.04245542362332344,
          -0.019911669194698334,
          -0.034794848412275314,
          0.028459707275032997,
          -0.006313533987849951,
          0.021415624767541885,
          -0.006186016835272312,
          0.004325898364186287,
          -0.01603982411324978,
          0.12149950116872787,
          -0.12382767349481583,
          0.0028858280275017023,
          -0.07844379544258118,
          -0.014331559650599957,
          0.0017753569409251213,
          0.08222147822380066,
          0.051694367080926895,
          -0.10784070193767548,
          -0.16512151062488556,
          0.02815813571214676,
          0.08626189827919006,
          -0.025471728295087814,
          0.009210183285176754,
          -0.14391842484474182,
          -0.0471835695207119,
          0.031877823173999786,
          -0.0003047500504180789,
          -0.000434964633313939,
          0.12360589951276779
        ],
        [
          -0.07037293165922165,
          -0.07406746596097946,
          -0.15624940395355225,
          -0.15368740260601044,
          -0.040618930011987686,
          0.0010397202568128705,
          -0.054249297827482224,
          -0.06234978139400482,
          -0.0819881409406662,
          0.10568563640117645,
          0.07680264860391617,
          -0.049923866987228394,
          -0.0026773049030452967,
          -0.09434175491333008,
          -0.044298410415649414,
          -0.025189295411109924,
          -0.1639794111251831,
          0.05727113038301468,
          -0.19634270668029785,
          -0.026262512430548668,
          -0.14155910909175873,
          0.038440167903900146,
          0.04685881361365318,
          -0.059194497764110565,
          -0.013932566158473492,
          -0.13637779653072357,
          0.05478980392217636,
          0.012078734114766121,
          0.14698420464992523,
          -0.010541120544075966,
          0.053398627787828445,
          -0.10609709471464157,
          0.05542929098010063,
          -0.07433953881263733,
          0.06606607139110565,
          -0.05213005840778351,
          0.040686167776584625,
          0.03903674706816673,
          -0.030112076550722122,
          -0.01808476448059082,
          0.09765098989009857,
          -0.10916699469089508,
          0.06561461836099625,
          0.024748431518673897,
          -0.0009205183596350253,
          0.0481097549200058,
          -0.04710564762353897,
          0.03489777445793152,
          -0.10640785843133926,
          0.0440475158393383,
          0.04943872615695,
          0.031248092651367188,
          -0.037240076810121536,
          0.004257913213223219,
          0.023077093064785004,
          0.008762409910559654,
          -0.04137470945715904,
          -0.052492935210466385,
          0.066035196185112,
          0.05156983062624931,
          0.005260528530925512,
          0.0049791643396019936,
          -0.04995563626289368,
          -0.011388042941689491,
          0.10932612419128418,
          -0.04526103287935257,
          0.008885998278856277,
          0.0985003337264061,
          -0.0855386033654213,
          0.02676399052143097,
          0.06188306584954262,
          0.03533261641860008,
          0.014458926394581795,
          -0.012959151528775692,
          -0.0030475961975753307,
          0.011733423918485641,
          0.09772829711437225,
          -0.0690542533993721,
          -0.009555866941809654,
          0.08799426257610321
        ],
        [
          0.0804520696401596,
          0.11498396098613739,
          -0.153337761759758,
          -0.1096397340297699,
          0.09804574400186539,
          0.0015764442505314946,
          -0.011925349943339825,
          -0.0712880864739418,
          -0.014368614181876183,
          0.09109983593225479,
          0.0010178880766034126,
          -0.1759864240884781,
          -0.08389563858509064,
          -0.18186359107494354,
          -0.016801420599222183,
          -0.09928085654973984,
          -0.042189911007881165,
          0.06588289141654968,
          0.08809935301542282,
          -0.14086687564849854,
          0.021436981856822968,
          -0.10767821222543716,
          0.005958126857876778,
          -0.08372554183006287,
          -0.04016215726733208,
          0.017596742138266563,
          -0.03276361525058746,
          -0.13482291996479034,
          0.04116521030664444,
          -0.035646889358758926,
          0.0665053203701973,
          -0.0024616026785224676,
          -0.07597794383764267,
          -0.07981559634208679,
          -0.00321589270606637,
          0.020015908405184746,
          -0.040984295308589935,
          0.05765952169895172,
          0.006462167017161846,
          -0.12979841232299805,
          0.09125231206417084,
          0.06167824566364288,
          0.08656992018222809,
          0.14204809069633484,
          0.06111540272831917,
          -0.07894787192344666,
          -0.04211428016424179,
          0.033804576843976974,
          -0.06075994297862053,
          0.042064547538757324,
          -0.019515208899974823,
          -0.04440901800990105,
          -0.07141721248626709,
          0.0184126365929842,
          -0.015537155792117119,
          -0.010524431243538857,
          0.03105565905570984,
          -0.04821791872382164,
          0.028180725872516632,
          0.04913283511996269,
          0.01705869287252426,
          -0.0665392354130745,
          -0.040593475103378296,
          0.00839362945407629,
          -0.03906664252281189,
          -0.05136673524975777,
          -0.0356467105448246,
          -0.00643962761387229,
          0.03848115727305412,
          0.07234524190425873,
          -0.025032982230186462,
          0.01708870194852352,
          0.015478125773370266,
          0.06589844077825546,
          -0.028737563639879227,
          0.07465583086013794,
          0.0337352529168129,
          -0.017999935895204544,
          0.03470863774418831,
          0.012700431980192661
        ],
        [
          -0.020149510353803635,
          0.1082041785120964,
          0.2348465621471405,
          0.012294046580791473,
          0.0553271546959877,
          0.017024951055645943,
          -0.11558294296264648,
          0.05900712311267853,
          -0.09121747314929962,
          0.05955086648464203,
          0.11373002827167511,
          0.08984443545341492,
          -0.13977393507957458,
          -0.10823319107294083,
          0.1704518049955368,
          -0.18613550066947937,
          0.09358082711696625,
          0.04746641963720322,
          0.13074840605258942,
          -0.11999215185642242,
          0.034704938530921936,
          0.029077773913741112,
          -0.1118529811501503,
          0.05048852413892746,
          -0.0035319558810442686,
          -0.01120008621364832,
          0.15590359270572662,
          -0.011408562771975994,
          0.0029961366672068834,
          -0.088471420109272,
          0.05422544851899147,
          -0.036054447293281555,
          -0.04035544395446777,
          0.10895616561174393,
          0.03126092627644539,
          0.015158994123339653,
          -0.13981784880161285,
          0.011095252819359303,
          0.0458010770380497,
          -0.06552568078041077,
          0.10676407814025879,
          0.1252134144306183,
          -0.07114678621292114,
          0.04151429608464241,
          0.01630064658820629,
          -0.11480925977230072,
          0.023441212251782417,
          0.12598742544651031,
          0.10585347563028336,
          -0.13232748210430145,
          -0.03051072731614113,
          0.0844230204820633,
          0.03399442881345749,
          -0.11864152550697327,
          0.12292344868183136,
          -0.05859983712434769,
          -0.02391596883535385,
          -0.030913930386304855,
          -0.0010746137704700232,
          -0.06485245376825333,
          0.12684105336666107,
          0.025362921878695488,
          -0.08930174261331558,
          -0.038624655455350876,
          0.09005031734704971,
          0.007563041988760233,
          0.05429854989051819,
          0.016068680211901665,
          0.026073236018419266,
          0.013477163389325142,
          0.05162927880883217,
          -0.05129239335656166,
          -0.03696950152516365,
          0.03159583359956741,
          -0.04899662733078003,
          0.009367058984935284,
          0.009442935697734356,
          -0.0007617825758643448,
          -0.08494627475738525,
          -0.04013470932841301
        ],
        [
          -0.22631190717220306,
          0.01751117967069149,
          0.18394014239311218,
          0.02027542144060135,
          0.06958168745040894,
          0.0844472274184227,
          0.0010630515171214938,
          -0.05420694127678871,
          -0.021583061665296555,
          -0.07329995930194855,
          -0.026868754997849464,
          0.01780679263174534,
          0.030384790152311325,
          0.02961316891014576,
          0.24435067176818848,
          0.08718181401491165,
          -0.04413967579603195,
          -0.011265933513641357,
          -0.022439369931817055,
          -0.09371288120746613,
          -0.004854382481426001,
          -0.06683020293712616,
          0.019053136929869652,
          -0.05476788058876991,
          0.007376888766884804,
          0.01579836569726467,
          -0.053795259445905685,
          -0.02848334051668644,
          0.003333484288305044,
          -0.02850026823580265,
          -0.07026820629835129,
          -0.05856391787528992,
          -0.027025219053030014,
          -0.008932012133300304,
          -0.028207141906023026,
          -0.03366534039378166,
          0.04599960520863533,
          0.06042862311005592,
          -0.004546565935015678,
          0.004883261397480965,
          0.13802935183048248,
          -0.09136120975017548,
          -0.1110621765255928,
          -0.05604775249958038,
          -0.011846847832202911,
          0.02838223986327648,
          0.0067518288269639015,
          -0.03950626775622368,
          -0.09517940133810043,
          -0.028869938105344772,
          0.04275503754615784,
          -0.033337049186229706,
          -0.045362792909145355,
          -0.005182802211493254,
          0.022760603576898575,
          0.056609537452459335,
          -0.00123918941244483,
          0.037882424890995026,
          -0.04939065873622894,
          0.005433992017060518,
          0.13058148324489594,
          0.037357207387685776,
          -0.13127481937408447,
          -0.007190592121332884,
          0.01870817318558693,
          0.14267891645431519,
          -0.004142723511904478,
          -0.10379038751125336,
          0.01875542849302292,
          0.08203410357236862,
          -0.05377135053277016,
          -0.11202187091112137,
          -0.0018677643965929747,
          -0.07253555953502655,
          -0.07733006775379181,
          -0.03575056791305542,
          0.03546164929866791,
          0.03363791108131409,
          -0.01942477747797966,
          -0.03734632954001427
        ],
        [
          0.2402140498161316,
          0.15364308655261993,
          0.20134902000427246,
          -0.06541155278682709,
          0.04073081910610199,
          -0.09451082348823547,
          -0.04632311314344406,
          0.028180669993162155,
          -0.07572710514068604,
          -0.14144310355186462,
          0.0986030101776123,
          0.0064010960049927235,
          -0.04645700380206108,
          -0.00815852265805006,
          0.059892307966947556,
          -0.08761488646268845,
          -0.10433360189199448,
          0.06340721994638443,
          0.07111974060535431,
          -0.22236375510692596,
          -0.10135118663311005,
          0.04113093763589859,
          -0.06705644726753235,
          -0.034381572157144547,
          0.07074429839849472,
          0.015851005911827087,
          -0.02330339513719082,
          -0.0009364426950924098,
          0.032214220613241196,
          -0.04855796694755554,
          -0.017888741567730904,
          -0.02593541517853737,
          -0.03878294304013252,
          -0.03215755149722099,
          0.03395453095436096,
          -0.07004857808351517,
          0.042347706854343414,
          0.05069225654006004,
          -0.02875814586877823,
          0.029989663511514664,
          -0.050001777708530426,
          -0.0022909066174179316,
          -0.10651085525751114,
          -0.022123906761407852,
          0.03191479295492172,
          0.040781017392873764,
          0.023399414494633675,
          0.06281023472547531,
          -0.006698694080114365,
          -0.03534514829516411,
          0.012245535850524902,
          -0.012432512827217579,
          0.025129379704594612,
          -0.06005615368485451,
          0.01173328422009945,
          0.08421526104211807,
          -0.02339376136660576,
          -0.0004089728172402829,
          -0.07945775240659714,
          0.0025024290662258863,
          -0.005162321496754885,
          -0.054985541850328445,
          0.032086893916130066,
          0.03127431869506836,
          0.07032547891139984,
          -0.018263403326272964,
          -0.010116011835634708,
          -0.07860955595970154,
          -0.016578206792473793,
          -0.040469940751791,
          0.08004628121852875,
          0.02345992811024189,
          0.08947928249835968,
          -0.016700075939297676,
          0.027058526873588562,
          0.013689094223082066,
          0.02616114169359207,
          -0.03327719494700432,
          -0.0685037150979042,
          -0.0874285101890564
        ],
        [
          -0.25281813740730286,
          -0.23324251174926758,
          0.010914119891822338,
          -0.0652068629860878,
          0.09069011360406876,
          0.1002969741821289,
          -0.22625112533569336,
          -0.057456374168395996,
          0.15871167182922363,
          -0.06701349467039108,
          0.003542400198057294,
          -0.006601741537451744,
          -0.14296044409275055,
          0.004328773822635412,
          0.05777442455291748,
          -0.02952662855386734,
          0.007946665398776531,
          0.0017361865611746907,
          0.08812301605939865,
          -0.17961831390857697,
          -0.04823901131749153,
          0.026045221835374832,
          0.02893596887588501,
          0.03126855939626694,
          -0.00857692863792181,
          -0.08867684006690979,
          0.11541794240474701,
          0.06822777539491653,
          -0.04022108018398285,
          -0.029244350269436836,
          0.07330644875764847,
          0.03358429670333862,
          0.06587787717580795,
          0.05662262439727783,
          0.04775388911366463,
          0.10431164503097534,
          -0.0715496614575386,
          -0.023370549082756042,
          -0.049323711544275284,
          0.0038131887558847666,
          -0.05138687416911125,
          0.05850806087255478,
          -0.031057314947247505,
          -0.03431728854775429,
          0.1037713959813118,
          -0.027503861114382744,
          0.06998591870069504,
          0.042015690356492996,
          0.0775410458445549,
          -0.14177396893501282,
          -0.0492226704955101,
          0.02498973347246647,
          0.006014338694512844,
          -0.08672104775905609,
          0.017494935542345047,
          0.01983141526579857,
          0.010160193778574467,
          -0.09058511257171631,
          -0.07966776192188263,
          0.015495953150093555,
          0.01960589736700058,
          0.06013663113117218,
          -0.058094870299100876,
          0.041589222848415375,
          0.010099553503096104,
          -0.001524532213807106,
          0.02695886231958866,
          -0.05184076726436615,
          0.049899306148290634,
          0.0001764985208865255,
          0.0402371846139431,
          0.07400519400835037,
          -0.02643395960330963,
          -0.0012599654728546739,
          -0.005726266652345657,
          -0.08091117441654205,
          -0.07639429718255997,
          -0.0015945599880069494,
          -0.00984625332057476,
          0.05431906133890152
        ],
        [
          -0.10964397341012955,
          -0.2226327806711197,
          0.14541055262088776,
          0.05384502187371254,
          -0.015636973083019257,
          0.016589131206274033,
          0.09334749728441238,
          0.02360413409769535,
          0.12198823690414429,
          -0.04578434303402901,
          -0.05924871191382408,
          -0.020997943356633186,
          0.021154122427105904,
          0.006866839248687029,
          0.11803723871707916,
          -0.06225783750414848,
          -0.03141125291585922,
          -0.08941952139139175,
          0.01325249020010233,
          -0.011462157592177391,
          0.04171944409608841,
          -0.11891494691371918,
          0.01656380668282509,
          -0.05187937617301941,
          0.10521916300058365,
          0.126753568649292,
          0.0004669365589506924,
          -0.03717639297246933,
          -0.06950020045042038,
          -0.0021138815209269524,
          -0.09144763648509979,
          -0.034737858921289444,
          -0.025565557181835175,
          -0.026834769174456596,
          -0.017402805387973785,
          -0.042672231793403625,
          0.00825340487062931,
          0.006555606611073017,
          0.0054502408020198345,
          0.012661104090511799,
          0.07646531611680984,
          0.03948470577597618,
          -0.14147314429283142,
          -0.050819218158721924,
          0.026500234380364418,
          -0.03561839088797569,
          -0.008450938388705254,
          -0.02676808461546898,
          -0.03875721991062164,
          0.010878137312829494,
          0.009367110207676888,
          -0.026845166459679604,
          -0.006542215123772621,
          0.009900257922708988,
          -0.0015138066373765469,
          -0.04154694080352783,
          0.023340841755270958,
          0.0030073695816099644,
          -0.020101603120565414,
          0.010152284987270832,
          -0.06973292678594589,
          0.12691013514995575,
          -0.11297047138214111,
          0.05451788008213043,
          -0.039952605962753296,
          0.030316120013594627,
          -0.13980801403522491,
          -0.07612882554531097,
          -0.04310336709022522,
          -0.06306419521570206,
          -0.001997989369556308,
          0.037544623017311096,
          -0.10653779655694962,
          -0.0006156732561066747,
          -0.05693462863564491,
          0.047127678990364075,
          0.026282845064997673,
          -0.06571677327156067,
          -0.03398573026061058,
          0.0053871553391218185
        ],
        [
          0.10986755788326263,
          -0.04082368686795235,
          -0.022794712334871292,
          -0.09164130687713623,
          -0.04382399469614029,
          -0.02844623290002346,
          -0.0352003313601017,
          0.04805493727326393,
          0.02602378837764263,
          0.001226730877533555,
          0.1598949432373047,
          -0.05449559539556503,
          -0.03946557268500328,
          -0.01575486734509468,
          0.07848964631557465,
          -0.10666730999946594,
          -0.10952560603618622,
          0.08863629400730133,
          0.10348978638648987,
          -0.06659138947725296,
          0.008527882397174835,
          0.033772148191928864,
          -0.034155987203121185,
          -0.1037641167640686,
          -0.0665752962231636,
          -0.10685541480779648,
          -0.010520710609853268,
          -0.011659636162221432,
          -0.006703919731080532,
          0.15546676516532898,
          -0.03927379474043846,
          0.0457286611199379,
          -0.03779314458370209,
          0.050312772393226624,
          0.0022083385847508907,
          0.028339391574263573,
          0.023249514400959015,
          -0.0810215175151825,
          -0.03891029208898544,
          0.033462829887866974,
          0.024794677272439003,
          0.041865717619657516,
          0.09431079775094986,
          -0.05251605808734894,
          0.08117134124040604,
          -0.03173394501209259,
          -0.08850879222154617,
          0.010540680028498173,
          0.15928581357002258,
          -0.09646725654602051,
          0.03578084707260132,
          0.004504987969994545,
          -0.050126101821660995,
          -0.06994952261447906,
          0.11476650089025497,
          -0.03103284351527691,
          -0.005876608192920685,
          0.0017835822654888034,
          0.09330936521291733,
          -0.005907584447413683,
          -0.023752650246024132,
          0.05367271229624748,
          0.00020211769151501358,
          -0.006908233743160963,
          -0.06511180847883224,
          -0.014246157370507717,
          -0.12676286697387695,
          0.00974174402654171,
          0.0966569185256958,
          -0.02184869721531868,
          0.04611317440867424,
          0.07067547738552094,
          -0.06526105105876923,
          -0.002918749116361141,
          0.017062988132238388,
          0.008307261392474174,
          -0.02072489820420742,
          -0.05511351674795151,
          -0.03235192596912384,
          0.0024621945340186357
        ],
        [
          0.15130615234375,
          -0.10530831664800644,
          0.16595880687236786,
          0.011398379690945148,
          0.12665759027004242,
          -0.05000047758221626,
          0.007743494585156441,
          -0.03879918158054352,
          -0.039302702993154526,
          -0.005032421089708805,
          -0.03166671469807625,
          -0.06826869398355484,
          -0.06455160677433014,
          -0.031209049746394157,
          0.07502485811710358,
          0.01106282975524664,
          -0.042577534914016724,
          -0.02786543220281601,
          0.010118599981069565,
          0.03675568476319313,
          -0.032723333686590195,
          -0.07644743472337723,
          -0.014485826715826988,
          -0.1505189836025238,
          0.08215296268463135,
          0.07049474865198135,
          -0.11846402287483215,
          -0.07603266835212708,
          0.03707750886678696,
          -0.005284515209496021,
          -0.013583086431026459,
          -0.0654652863740921,
          -0.020455509424209595,
          -0.05041763186454773,
          0.038752250373363495,
          -0.07918918132781982,
          0.04761539772152901,
          0.012795340269804,
          -0.11860930919647217,
          0.007841325365006924,
          -0.1596117913722992,
          -0.07976466417312622,
          0.03725332394242287,
          -0.20934587717056274,
          0.021296676248311996,
          0.08187315613031387,
          0.011174931190907955,
          -0.08697786927223206,
          -0.06854324042797089,
          -0.006097743753343821,
          0.04309823736548424,
          -0.012297683395445347,
          -0.11052902787923813,
          -0.11115372180938721,
          0.024329466745257378,
          0.13075792789459229,
          -0.008263927884399891,
          0.020797302946448326,
          -0.1767405867576599,
          0.038371387869119644,
          -0.05797271803021431,
          -0.06259775906801224,
          0.06554851680994034,
          -0.03145092353224754,
