{
  "name": "8 genomes sobel small",
  "state_channels": 15,
  "genome_channels": 3,
  "hidden_channels": 9,
  "state_quantization_scale": 4.0,
  "hidden_quantization_scale": 8.0,
  "perception_quantization_scale": 12.0,
  "update_probability": 0.5,
  "layers": [
    {
      "name": "conv1",
      "in_channels": 64,
      "out_channels": 74,
      "activation": "relu",
      "weights": [
        [
          -0.1241258829832077,
          0.10961905121803284,
          -0.01692052185535431,
          -0.1169745922088623,
          -0.057107456028461456,
          0.007723798044025898,
          0.07161644846200943,
          0.008791244588792324,
          0.13270020484924316,
          0.2031867504119873,
          0.05391819775104523,
          0.06982018053531647,
          0.027895163744688034,
          0.10656702518463135,
          -0.02459765039384365,
          0.0,
          0.05630318820476532,
          0.08643969893455505,
          -0.1294877529144287,
          0.16945777833461761,
          0.08144570887088776,
          -0.0265661533921957,
          0.20634907484054565,
          0.06939758360385895,
          -0.1250825673341751,
          -0.13765883445739746,
          0.10143280029296875,
          0.004060328006744385,
          0.18471108376979828,
          0.060099415481090546,
          -0.1287107914686203,
          0.0,
          -0.08699271827936172,
          0.03405776247382164,
          0.11842355132102966,
          0.03584237024188042,
          0.09751158207654953,
          0.012978770770132542,
          0.11864370107650757,
          0.06374546885490417,
          0.014436508528888226,
          0.006328804884105921,
          0.14010554552078247,
          -0.020280661061406136,
          0.014152337796986103,
          0.0938740149140358,
          0.07527782768011093,
          0.0,
          0.07936111837625504,
          0.003794686635956168,
          -0.08101347088813782,
          0.08165609836578369,
          0.07141590118408203,
          0.13547447323799133,
          0.01596422679722309,
          -0.10711780190467834,
          -0.029145274311304092,
          -0.013304661028087139,
          0.030768539756536484,
          -0.06453889608383179,
          0.02303912676870823,
          0.056190866976976395,
          -0.0378560908138752,
          0.0
        ],
        [
          -0.08847573399543762,
          0.09435222297906876,
          -0.0998208075761795,
          -0.0015822293935343623,
          -0.09414234012365341,
          -0.004435705486685038,
          -0.09454009681940079,
          0.052422620356082916,
          0.09154064208269119,
          0.05025996267795563,
          0.10283727198839188,
          -0.14882107079029083,
          0.06621365994215012,
          0.031122472137212753,
          0.02599775791168213,
          0.0,
          0.02276638336479664,
          0.028592107817530632,
          -0.05886118859052658,
          0.05799444019794464,
          -0.11528243869543076,
          -0.07311158627271652,
          -0.039054542779922485,
          0.18641117215156555,
          0.048675537109375,
          0.08612820506095886,
          -0.03792252019047737,
          -0.110753133893013,
          0.03489620238542557,
          -0.10377953201532364,
          -0.18476402759552002,
          0.0,
          0.032609280198812485,
          0.07611849159002304,
          0.07188289612531662,
          0.07218337059020996,
          0.16568030416965485,
          -0.03350130096077919,
          0.01629587821662426,
          -0.031048811972141266,
          -0.05440333113074303,
          0.12871943414211273,
          -0.03392484039068222,
          0.05998082458972931,
          0.02389754354953766,
          0.020748795941472054,
          0.005737010855227709,
          0.0,
          0.05237272009253502,
          -0.05236958712339401,
          -0.027565281838178635,
          0.04967110604047775,
          0.05305013433098793,
          -0.10280411690473557,
          -0.023147597908973694,
          -0.09972307085990906,
          0.05040489509701729,
          -0.06878869235515594,
          0.09080728143453598,
          0.09416130185127258,
          -0.0008228495134972036,
          -0.11354371905326843,
          -0.08211556822061539,
          0.0
        ],
        [
          0.023854753002524376,
          -0.042483851313591,
          0.09070104360580444,
          -0.10265190154314041,
          -0.07402081787586212,
          -0.020896660163998604,
          0.16120803356170654,
          0.19668005406856537,
          0.13065101206302643,
          -0.08219952136278152,
          0.15242338180541992,
          -0.09977313131093979,
          -0.12405083328485489,
          -0.10857975482940674,
          -0.1345890313386917,
          0.0,
          -0.1008414700627327,
          0.07069536298513412,
          -0.001048615318723023,
          0.01729254424571991,
          -0.06130729988217354,
          0.18032875657081604,
          0.11075469106435776,
          -0.16234809160232544,
          -0.04284109175205231,
          -0.055433180183172226,
          -0.015084649436175823,
          0.09145984798669815,
          -0.04048856720328331,
          -0.06064622476696968,
          0.008973955176770687,
          0.0,
          0.05260710418224335,
          -0.08038485795259476,
          0.07885867357254028,
          0.11442932486534119,
          0.04727410525083542,
          -0.1364552527666092,
          0.023889971897006035,
          -0.12275948375463486,
          -0.040937893092632294,
          0.045558054000139236,
          0.10443637520074844,
          0.05344169959425926,
          0.10672461241483688,
          0.09691985696554184,
          -0.025053180754184723,
          0.0,
          -0.025747617706656456,
          0.06995882838964462,
          -0.05014264956116676,
          0.10765276849269867,
          -0.1016586571931839,
          0.020331699401140213,
          -0.06089019030332565,
          -0.0294073186814785,
          0.027494005858898163,
          0.029001431539654732,
          -0.014191312715411186,
          -0.0073425681330263615,
          0.006701082922518253,
          -0.03269757702946663,
          -0.012033451348543167,
          0.0
        ],
        [
          0.03521103039383888,
          0.1552727371454239,
          -0.10434170067310333,
          -0.030350899323821068,
          -0.058106061071157455,
          0.05962716415524483,
          -0.08906783908605576,
          -0.038485653698444366,
          -0.02742205746471882,
          0.024563660845160484,
          0.13437440991401672,
          0.018653305247426033,
          0.05733341723680496,
          -0.031186018139123917,
          -0.11779111623764038,
          0.0,
          0.05917353183031082,
          0.01800164021551609,
          -0.033296070992946625,
          -0.11093999445438385,
          -0.09808554500341415,
          -0.01566425897181034,
          -0.00789758749306202,
          0.21256758272647858,
          0.22215308248996735,
          0.173859640955925,
          0.08339381217956543,
          -0.08456181734800339,
          0.07788320630788803,
          -0.03369024395942688,
          -0.051371097564697266,
          0.0,
          -0.0011828071437776089,
          0.045764800161123276,
          0.09658534079790115,
          0.04205487295985222,
          -0.007176380138844252,
          -0.03695892170071602,
          0.041538387537002563,
          0.009687680751085281,
          -0.04153607785701752,
          -0.10139816254377365,
          0.13451731204986572,
          -0.13954252004623413,
          0.055417194962501526,
          -0.003852077992632985,
          -0.0743068978190422,
          0.0,
          -0.002538789063692093,
          -0.07329190522432327,
          0.11071839928627014,
          -0.08764678984880447,
          0.07830195128917694,
          0.03645126149058342,
          0.12125233560800552,
          -0.036004237830638885,
          0.06158125773072243,
          -0.046025458723306656,
          -0.03684023767709732,
          -0.0474361926317215,
          -0.11612037569284439,
          -0.15950188040733337,
          -0.08520624041557312,
          0.0
        ],
        [
          -0.05453508347272873,
          0.07942911237478256,
          -0.09483365714550018,
          0.01786951534450054,
          0.03823361545801163,
          -0.06842637807130814,
          0.0777168944478035,
          -0.03239375352859497,
          0.08946282416582108,
          0.0038300990127027035,
          -0.18218834698200226,
          -0.076804980635643,
          0.011783068999648094,
          0.12139210104942322,
          0.07411874830722809,
          0.0,
          0.0024136307183653116,
          -0.045125119388103485,
          -0.036851223558187485,
          -0.010652233846485615,
          -0.028610005974769592,
          0.19929556548595428,
          0.008716443553566933,
          -0.06297314167022705,
          0.04480129852890968,
          0.02901943400502205,
          -0.07764694094657898,
          -0.05333007872104645,
          -0.11467385292053223,
          0.043153394013643265,
          -0.09129713475704193,
          0.0,
          0.14197316765785217,
          0.11885898560285568,
          0.05242593586444855,
          0.17123308777809143,
          0.030274363234639168,
          -0.05818092077970505,
          0.1853826493024826,
          -0.1403028964996338,
          -0.07174783945083618,
          -0.04985881596803665,
          -0.05000573396682739,
          -0.06936121731996536,
          0.0908796414732933,
          0.10564178973436356,
          -0.03638232871890068,
          0.0,
          -0.12460426241159439,
          0.024761894717812538,
          0.04602935165166855,
          -0.08152464032173157,
          -0.014657632447779179,
          -0.03311607241630554,
          0.023084409534931183,
          -0.019123563542962074,
          -0.09788111597299576,
          0.043194983154535294,
          0.029114296659827232,
          -0.07927575707435608,
          -0.14454317092895508,
          0.07137403637170792,
          -0.07501192390918732,
          0.0
        ],
        [
          0.17839311063289642,
          -0.078236885368824,
          0.2590596079826355,
          -0.09937385469675064,
          -0.09257170557975769,
          -0.05953018739819527,
          0.003840208984911442,
          -0.03637703135609627,
          -0.00481732003390789,
          -0.0921631008386612,
          -0.07008170336484909,
          -0.048830002546310425,
          0.016612637788057327,
          0.11486802995204926,
          0.1608448475599289,
          0.0,
          -0.11667442321777344,
          0.05627678707242012,
          0.11873514205217361,
          0.05130736529827118,
          0.020162738859653473,
          -0.06709710508584976,
          0.0574471689760685,
          0.04890408366918564,
          0.09967511892318726,
          0.03931715339422226,
          -0.006286161951720715,
          0.0416841022670269,
          -0.10326709598302841,
          0.022806689143180847,
          0.037611596286296844,
          0.0,
          0.025901425629854202,
          0.04322167485952377,
          -0.11732546240091324,
          0.024695036932826042,
          0.03330158442258835,
          -0.10658756643533707,
          -0.0086986618116498,
          -0.032597191631793976,
          -0.022191816940903664,
          0.0389651358127594,
          0.062014754861593246,
          0.04839401692152023,
          -0.009538172744214535,
          0.015274375677108765,
          0.08479522913694382,
          0.0,
          -0.08392947912216187,
          0.1418030858039856,
          -0.09977193176746368,
          -0.02792634256184101,
          0.1309729367494583,
          -0.10259468108415604,
          0.017404500395059586,
          0.0955142229795456,
          -0.014602056704461575,
          0.077880859375,
          0.06240538880228996,
          -0.036497630178928375,
          -0.036437027156353,
          0.08620812743902206,
          0.01815432868897915,
          0.0
        ],
        [
          0.18200312554836273,
          0.031323108822107315,
          0.062004659324884415,
          -0.06656503677368164,
          -0.265646368265152,
          -0.1341310739517212,
          0.1277008056640625,
          0.1082160621881485,
          0.14757254719734192,
          0.017997268587350845,
          -0.007836430333554745,
          -0.08801449090242386,
          0.05678750202059746,
          -0.051843345165252686,
          -0.0899326354265213,
          0.0,
          -0.1597146987915039,
          0.09136724472045898,
          0.032532840967178345,
          -0.07031311094760895,
          0.026191625744104385,
          0.004669873975217342,
          -0.00865845661610365,
          -0.012651055119931698,
          -0.07348380237817764,
          0.03568527474999428,
          0.038694050163030624,
          0.02656288631260395,
          0.03903058171272278,
          -0.08888895064592361,
          0.0809498205780983,
          0.0,
          -0.10550059378147125,
          -0.042182743549346924,
          0.18704308569431305,
          0.03065793588757515,
          0.047190453857183456,
          0.1052369624376297,
          -0.009631938301026821,
          -0.002260679379105568,
          0.00015249541320372373,
          -0.048862650990486145,
          0.009204460307955742,
          -0.03418423607945442,
          -0.008469494059681892,
          -0.035045601427555084,
          -0.07344654947519302,
          0.0,
          0.001596110058017075,
          -0.043794628232717514,
          0.029870739206671715,
          0.061147138476371765,
          -0.10144386440515518,
          0.05391286686062813,
          0.019602444022893906,
          0.0838693156838417,
          0.0016293422086164355,
          -0.043458566069602966,
          0.0422416552901268,
          0.03179650753736496,
          0.016689172014594078,
          -0.06567110866308212,
          -0.10034790635108948,
          0.0
        ],
        [
          -0.1675199717283249,
          -0.1385534554719925,
          0.149342343211174,
          0.10277031362056732,
          -0.11220067739486694,
          0.03431140258908272,
          0.1550890952348709,
          0.1194392666220665,
          0.0410786047577858,
          0.11289980262517929,
          -0.05360964313149452,
          0.053359515964984894,
          -0.1250249296426773,
          0.02023489400744438,
          0.039216235280036926,
          0.0,
          -0.0001938967761816457,
          0.06478729844093323,
          -0.03587832674384117,
          0.04905034229159355,
          0.01159244030714035,
          0.03763336315751076,
          -0.1085037887096405,
          0.09978356212377548,
          -0.036686573177576065,
          0.12029101699590683,
          -0.028108492493629456,
          -0.11629905551671982,
          -0.01806090958416462,
          -0.1197575032711029,
          -0.011310312896966934,
          0.0,
          -0.11150473356246948,
          0.10657859593629837,
          0.12770996987819672,
          0.06723799556493759,
          -0.029983554035425186,
          0.02836371585726738,
          0.08640062808990479,
          0.024601202458143234,
          0.06168869137763977,
          0.14942485094070435,
          -0.09863203763961792,
          0.028522834181785583,
          -0.02106485702097416,
          -0.12898428738117218,
          -0.027269607409834862,
          0.0,
          -0.06577703356742859,
          -0.005052694585174322,
          0.10066024959087372,
          -0.1207471564412117,
          0.017719296738505363,
          -0.04215923696756363,
          -0.14011351764202118,
          -0.046610623598098755,
          0.031180279329419136,
          0.03570307418704033,
          0.12205131351947784,
          -0.09221798181533813,
          0.07203439623117447,
          -0.05035765469074249,
          -0.0715167373418808,
          0.0
        ],
        [
          0.15927952527999878,
          -0.3706873953342438,
          0.31302323937416077,
          -0.04592195525765419,
          0.048647649586200714,
          0.04710085690021515,
          -0.05887709558010101,
          -0.05742476508021355,
          -0.010206452570855618,
          0.030729642137885094,
          0.03163547441363335,
          0.08932893723249435,
          -0.015618360601365566,
          0.16192863881587982,
          0.04961053282022476,
          0.0,
          -0.14606203138828278,
          0.13695727288722992,
          0.010354802012443542,
          0.03618158772587776,
          0.016135040670633316,
          0.02464802749454975,
          0.05269276723265648,
          0.019634168595075607,
          0.036961544305086136,
          0.030767668038606644,
          -0.03060361184179783,
          0.021113403141498566,
          -0.021049264818429947,
          -0.022234253585338593,
          0.07571689039468765,
          0.0,
          -0.0022317010443657637,
          -0.03504713624715805,
          0.07057254016399384,
          0.04192009195685387,
          0.0017525367438793182,
          -0.058434661477804184,
          -0.021683184430003166,
          -0.046831026673316956,
          0.03536316007375717,
          0.03433512523770332,
          0.05291929468512535,
          0.019975723698735237,
          -0.02764296531677246,
          0.003555529983714223,
          -0.016377510502934456,
          0.0,
          0.054605476558208466,
          -0.08544294536113739,
          -0.0125263761729002,
          -0.08666155487298965,
          0.01764201745390892,
          -0.08312980830669403,
          0.034247443079948425,
          -0.08288280665874481,
          -0.08277633041143417,
          -0.04902071878314018,
          -0.12501852214336395,
          -0.07978066802024841,
          -0.010095637291669846,
          -0.0544331930577755,
          -0.018169909715652466,
          0.0
        ],
        [
          0.13953332602977753,
          0.14096978306770325,
          -0.1483965665102005,
          0.011424481868743896,
          -0.12076134234666824,
          -0.1125309020280838,
          -0.051278483122587204,
          -0.09951683133840561,
          -0.07366146892309189,
          0.08327575773000717,
          -0.01595279388129711,
          0.07174568623304367,
          -0.014970538206398487,
          0.04388963058590889,
          0.052271950989961624,
          0.0,
          0.08875642716884613,
          0.0686543807387352,
          -0.11317078769207001,
          -0.011430659331381321,
          0.0009186139213852584,
          0.19042937457561493,
          -0.07446548342704773,
          0.07027314603328705,
          0.009652119129896164,
          -0.04737979173660278,
          -0.044811829924583435,
          -0.02799510769546032,
          -0.03102467954158783,
          -0.04386984929442406,
          -0.03128759562969208,
          0.0,
          0.03940539434552193,
          -0.1081235334277153,
          -0.14807100594043732,
          -0.006933723576366901,
          -0.020740248262882233,
          0.09113206714391708,
          -0.05790836364030838,
          0.00874737836420536,
          0.10459993034601212,
          0.08458777517080307,
          0.16485901176929474,
          0.12802131474018097,
          0.09039650857448578,
          0.09577389061450958,
          0.0196324922144413,
          0.0,
          0.08819412440061569,
          -0.12021792680025101,
          -0.042807403951883316,
          0.03757040947675705,
          0.07595428079366684,
          -0.06802286207675934,
          -0.07801902294158936,
          -0.15180177986621857,
          -0.015894681215286255,
          -0.13302423059940338,
          -0.08635876327753067,
          0.11949233710765839,
          -0.16950471699237823,
          0.08508656173944473,
          0.10115101933479309,
          0.0
        ],
        [
          -0.10620561987161636,
          0.05546482279896736,
          -0.1783062070608139,
          -0.057764239609241486,
          0.05303676053881645,
          -0.07839991897344589,
          -0.02230173349380493,
          -0.04198760539293289,
          0.0286566149443388,
          0.08359711617231369,
          0.07203496247529984,
          -0.05815793573856354,
          0.19500204920768738,
          -0.10490010678768158,
          -0.0361253060400486,
          0.0,
          -0.10025119036436081,
          0.11196397989988327,
          -0.09993378818035126,
          -0.03326686471700668,
          -0.1223253682255745,
          -0.08994341641664505,
          -0.04999347776174545,
          0.09260420501232147,
          0.0117840226739645,
          -0.050528205931186676,
          0.10942277312278748,
          -0.11166614294052124,
          0.0032760528847575188,
          -0.09264301508665085,
          0.056490618735551834,
          0.0,
          -0.0630856603384018,
          0.03499658778309822,
          0.1296040266752243,
          0.0772489532828331,
          0.015742216259241104,
          0.05769543722271919,
          0.11535672098398209,
          -0.03382793441414833,
          -0.03960590809583664,
          0.09856626391410828,
          -0.060648612678050995,
          0.17502962052822113,
          0.15041206777095795,
          -0.12837307155132294,
          -0.1459989696741104,
          0.0,
          0.0396842323243618,
          -0.029565732926130295,
          0.03483949229121208,
          -0.028644835576415062,
          -0.050324611365795135,
          -0.03505462408065796,
          -0.08208592236042023,
          -0.06351833045482635,
          -0.07743865996599197,
          -0.02458975464105606,
          0.15906108915805817,
          0.10612931847572327,
          0.08851669728755951,
          -0.17011861503124237,
          0.17726455628871918,
          0.0
        ],
        [
          -0.043760210275650024,
          -0.198975071310997,
          -0.26298731565475464,
          0.013890172354876995,
          -0.13356807827949524,
          0.03421127423644066,
          0.12301944941282272,
          -0.05674663186073303,
          0.12582498788833618,
          -0.010533129796385765,
          0.09661956131458282,
          -0.05722803622484207,
          0.010171441361308098,
          0.01272325124591589,
          0.03406873345375061,
          0.0,
          -0.09922502189874649,
          0.08674513548612595,
          -0.1392236351966858,
          0.030001746490597725,
          0.07242133468389511,
          0.03285942226648331,
          -0.03348496928811073,
          -0.16417615115642548,
          -0.09636671841144562,
          -0.05445455014705658,
          -0.009997586719691753,
          -0.014031071215867996,
          0.0838073194026947,
          0.0016426973743364215,
          -0.05985216423869133,
          0.0,
          -0.08520475775003433,
          0.02201058901846409,
          0.0007082836818881333,
          -0.04185932129621506,
          0.0007665892480872571,
          -0.05913331359624863,
          0.010415333323180676,
          -0.009444833733141422,
          0.018197622150182724,
          0.02735309489071369,
          0.01713337004184723,
          0.03585808724164963,
          0.023121150210499763,
          0.10697348415851593,
          0.16114024817943573,
          0.0,
          -0.07848150283098221,
          0.05708398297429085,
          0.006835711654275656,
          0.12532024085521698,
          -0.07622937858104706,
          -0.13674376904964447,
          0.04528665542602539,
          0.16079804301261902,
          -0.05279426649212837,
          -0.06901668757200241,
          0.05204362794756889,
          -0.04444050043821335,
          -0.12731733918190002,
          -0.10583940148353577,
          -0.19762378931045532,
          0.0
        ],
        [
          0.017776664346456528,
          -0.05672326311469078,
          -0.3257409632205963,
          -0.02993294782936573,
          0.06831752508878708,
          0.19615624845027924,
          0.03724038228392601,
          -0.0033405330032110214,
          0.016875673085451126,
          -0.031237388029694557,
          0.005819123238325119,
          -0.12241451442241669,
          -0.15080659091472626,
          0.055171649903059006,
          0.04111491143703461,
          0.0,
          0.09109725803136826,
          -0.04073069989681244,
          -0.08077213913202286,
          -0.005391215905547142,
          -0.014675027690827847,
          0.021261028945446014,
          -0.011448481120169163,
          -0.06583261489868164,
          0.05743825063109398,
          0.046970829367637634,
          -0.02202402427792549,
          0.0795334205031395,
          -0.029567355290055275,
          0.020320281386375427,
          0.027654582634568214,
          0.0,
          -0.0467408113181591,
          -0.04572856426239014,
          0.055801939219236374,
          0.010868510231375694,
          -0.03263907507061958,
          0.07123439759016037,
          0.02398872561752796,
          -0.020298385992646217,
          0.023091087117791176,
          0.04923514276742935,
          -0.025802545249462128,
          -0.10785706341266632,
          -0.010278522036969662,
          -0.00844063051044941,
          -0.050888217985630035,
          0.0,
          -0.046123165637254715,
          0.06249234452843666,
          0.06293012946844101,
          -0.04846582189202309,
          0.06536005437374115,
          -0.06822125613689423,
          0.10373614728450775,
          0.03182253614068031,
          -0.0017365579260513186,
          -0.08547773212194443,
          0.05762656778097153,
          0.14032138884067535,
          0.02832523174583912,
          -0.06635311990976334,
          0.011089364998042583,
          0.0
        ],
        [
          0.04143880680203438,
          -0.08314738422632217,
          0.11759860813617706,
          0.013861487619578838,
          -0.09975995123386383,
          -0.12156566232442856,
          0.02973894588649273,
          0.043649569153785706,
          0.16551843285560608,
          0.11740034818649292,
          -0.02180233784019947,
          0.07485654205083847,
          0.13541831076145172,
          -0.016471760347485542,
          0.055190328508615494,
          0.0,
          -0.0264754481613636,
          -0.08321095257997513,
          0.004077145364135504,
          0.1112857460975647,
          0.016363753005862236,
          -0.019767524674534798,
          0.145925834774971,
          -0.132976233959198,
          -0.08513566851615906,
          -0.004966423846781254,
          0.0705750361084938,
          -0.005858145654201508,
          0.060743916779756546,
          0.10769323259592056,
          -0.06408083438873291,
          0.0,
          -0.08433673530817032,
          0.19154101610183716,
          0.004626601003110409,
          -0.022671110928058624,
          0.07755102962255478,
          -0.0074073695577681065,
          0.02464134246110916,
          -0.12506920099258423,
          -0.03386719897389412,
          0.05381296947598457,
          -0.06148059293627739,
          0.04249294474720955,
          -0.08315631747245789,
          0.08396975696086884,
          -0.06638406962156296,
          0.0,
          -0.035884130746126175,
          0.07882099598646164,
          -0.027743160724639893,
          0.04325120896100998,
          0.16039280593395233,
          -0.05045121908187866,
          0.08204642683267593,
          0.048096369951963425,
          -0.15204676985740662,
          0.10055585205554962,
          0.10044237971305847,
          -0.07957985252141953,
          0.05534563958644867,
          0.09056646376848221,
          -0.07115713506937027,
          0.0
        ],
        [
          0.19332309067249298,
          0.10643097758293152,
          0.059270840138196945,
          -0.07622938603162766,
          -0.06673438102006912,
          -0.060926634818315506,
          0.07119112461805344,
          0.02773023582994938,
          -0.04785903915762901,
          0.018693411722779274,
          -0.040031492710113525,
          -0.014471562579274178,
          0.03681609034538269,
          -0.15360556542873383,
          0.09241482615470886,
          0.0,
          -0.14249396324157715,
          0.014247586950659752,
          0.06255699694156647,
          -0.1952962428331375,
          -0.13195480406284332,
          0.16957896947860718,
          -0.1575150340795517,
          0.05397981032729149,
          0.11088190972805023,
          -0.013524907641112804,
          0.08446969091892242,
          -0.017519991844892502,
          0.06278625875711441,
          -0.09143266826868057,
          -0.03861256316304207,
          0.0,
          -0.06816518306732178,
          0.10700125992298126,
          0.016642499715089798,
          0.12573029100894928,
          0.08040018379688263,
          0.13074253499507904,
          0.06457769870758057,
          -0.0012714335462078452,
          0.04783491790294647,
          0.044699057936668396,
          -0.05353393778204918,
          -0.11534713208675385,
          -0.0018792140763252974,
          -0.20379537343978882,
          -0.12077775597572327,
          0.0,
          -0.0011106721358373761,
          0.07912661135196686,
          -0.1031293049454689,
          -0.08027572184801102,
          0.09806621074676514,
          0.07855172455310822,
          -0.024774422869086266,
          -0.07861877232789993,
          0.033767566084861755,
          0.041963424533605576,
          0.0696338415145874,
          0.029370881617069244,
          -0.0005012179026380181,
          -0.018415410071611404,
          0.03603510558605194,
          0.0
        ],
        [
          0.23596230149269104,
          -0.06466511636972427,
          -0.16590528190135956,
          -0.02030901238322258,
          0.003102181013673544,
          -0.033122770488262177,
          -0.05100523307919502,
          0.07881517708301544,
          0.09817624092102051,
          0.004838133696466684,
          -0.07842191308736801,
          -0.043128352612257004,
          -0.019441120326519012,
          -0.05996008962392807,
          -0.00624283030629158,
          0.0,
          -0.07589097321033478,
          0.10207940638065338,
          -0.014988992363214493,
          0.08717548847198486,
          0.08220845460891724,
          0.028635207563638687,
          0.13498933613300323,
          -0.17710714042186737,
          -0.1410648077726364,
          -0.12545174360275269,
          -0.1388121098279953,
          0.16104912757873535,
          -0.06384342163801193,
          -0.020833183079957962,
          0.15061724185943604,
          0.0,
          0.12240120023488998,
          0.01923053152859211,
          -0.058951929211616516,
          -0.06688451021909714,
          -0.07936988025903702,
          -0.155892476439476,
          -0.044504791498184204,
          -0.07233735173940659,
          -0.05376791954040527,
          -0.11174320429563522,
          0.17298005521297455,
          -0.0033820944372564554,
          -0.10562695562839508,
          -0.0417751781642437,
          -0.011073127388954163,
          0.0,
          0.017959769815206528,
          -0.09039922803640366,
          0.0016225908184424043,
          0.05878565087914467,
          -0.02685496211051941,
          -0.1567419022321701,
          0.08066027611494064,
          -0.010687894187867641,
          -0.19729465246200562,
          0.10117309540510178,
          0.025031832978129387,
          -0.08569776266813278,
          0.07299597561359406,
          0.03816785290837288,
          0.009326262399554253,
          0.0
        ],
        [
          -0.1446080058813095,
          -0.13437823951244354,
          -0.19807809591293335,
          -0.14162112772464752,
          -0.1060454249382019,
          -0.16425976157188416,
          -0.10565812885761261,
          0.015494069084525108,
          0.11654412746429443,
          0.03365490213036537,
          -0.05157849192619324,
          0.012637561187148094,
          0.043485503643751144,
          -0.08947101980447769,
          0.1455429196357727,
          0.0,
          -0.04749248921871185,
          0.08051863312721252,
          0.07996253669261932,
          0.006626303773373365,
          0.0693773552775383,
          -0.10733239352703094,
          0.07716753333806992,
          -0.06588847190141678,
          -0.029212642461061478,
          -0.06782961636781693,
          -0.11588749289512634,
          0.08541857451200485,
          0.10985345393419266,
          0.043388668447732925,
          0.01989423856139183,
          0.0,
          -0.041345223784446716,
          -0.14180214703083038,
          -0.06474482268095016,
          -0.1535780131816864,
          -0.1010814681649208,
          -0.11075721681118011,
          -0.1295078992843628,
          0.07184810936450958,
          0.04835379868745804,
          -0.051254820078611374,
          -0.046827759593725204,
          -0.10793165862560272,
          -3.903406468452886e-05,
          0.04238070547580719,
          0.045128073543310165,
          0.0,
          -0.03899363428354263,
          -0.10192663967609406,
          0.07643736898899078,
          0.018007585778832436,
          -0.030919836834073067,
          -0.07093203812837601,
          -0.0286515224725008,
          0.03739320859313011,
          -0.08185195922851562,
          0.03135324642062187,
          -0.1888365000486374,
          -0.09649325907230377,
          0.07083547115325928,
          -0.005977487191557884,
          0.04380243271589279,
          0.0
        ],
        [
          -0.374929279088974,
          0.02884320169687271,
          0.14491567015647888,
          0.022801237180829048,
          0.05462656170129776,
          -0.01339996512979269,
          -0.01403470616787672,
          0.025785934180021286,
          0.07743779569864273,
          -0.06814511865377426,
          -0.11034742742776871,
          -0.09995898604393005,
          -0.1299162209033966,
          -0.047864753752946854,
          0.056217994540929794,
          0.0,
          0.08457110822200775,
          -0.1756432205438614,
          0.18289189040660858,
          0.09838949143886566,
          0.09661107510328293,
          -0.0048783705569803715,
          -0.030604280531406403,
          -0.15513791143894196,
          -0.05803443863987923,
          -0.04274558648467064,
          -0.07408365607261658,
          0.06151047721505165,
          0.011692696250975132,
          0.030451320111751556,
          -0.06765606999397278,
          0.0,
          -0.060228753834962845,
          -0.011278307065367699,
          -0.07385988533496857,
          -0.0024774225894361734,
          -0.06221441924571991,
          -0.03448640927672386,
          0.04883899912238121,
          -0.034230612218379974,
          0.012569493614137173,
          -0.11351761221885681,
          0.07970907539129257,
          -0.12346862256526947,
          0.011511974036693573,
          -0.00784075167030096,
          0.04802245274186134,
          0.0,
          0.08770459145307541,
          0.03132819011807442,
          -0.1710551530122757,
          0.09619396924972534,
          0.06652867048978806,
          -0.0007681234856136143,
          -0.011804790236055851,
          0.10051997750997543,
          0.014716080389916897,
          0.10432891547679901,
          0.03135480359196663,
          0.05975019186735153,
          -0.0424300841987133,
          0.021249238401651382,
          -0.05430453270673752,
          0.0
        ],
        [
          -0.31623589992523193,
          -0.1727169156074524,
          -0.2718776762485504,
          -0.08681759983301163,
          -0.07308442890644073,
          0.09696582704782486,
          0.049695249646902084,
          0.05519755929708481,
          0.03107151947915554,
          0.059454817324876785,
          0.06888003647327423,
          0.01029808260500431,
          -0.11195994913578033,
          -0.13708733022212982,
          -0.11864448338747025,
          0.0,
          0.08459296822547913,
          -0.04909614101052284,
          -0.11856891959905624,
          0.034718867391347885,
          0.11907730251550674,
          0.10972169041633606,
          0.1111539676785469,
          -0.11073341965675354,
          -0.1857360154390335,
          -0.0040999217890203,
          -0.06640747934579849,
          0.06191165745258331,
          0.04399214684963226,
          0.054930053651332855,
          0.06399662792682648,
          0.0,
          -0.07389006018638611,
          -0.20509688556194305,
          0.10670587420463562,
          0.029501857236027718,
          -0.045944347977638245,
          -0.03021886944770813,
          0.06042017787694931,
          -0.08391153812408447,
          -0.0037462664768099785,
          -0.20225118100643158,
          0.08072512596845627,
          -0.04570184648036957,
          0.0029823814984411,
          -0.10589776188135147,
          -0.017045965418219566,
          0.0,
          0.019487619400024414,
          0.03507043048739433,
          -0.08386305719614029,
          0.1263941526412964,
          -0.058252327144145966,
          -0.003553245449438691,
          0.012811359949409962,
          0.057759467512369156,
          0.015672344714403152,
          0.031331807374954224,
          -0.12005585432052612,
          -0.03510274365544319,
          -0.026475004851818085,
          0.0010574497282505035,
          0.04048004001379013,
          0.0
        ],
        [
          0.18803340196609497,
          -0.09593462198972702,
          0.08279714733362198,
          0.11520323157310486,
          -0.02085869014263153,
          0.03525085747241974,
          0.05448485538363457,
          -0.09173445403575897,
          0.116063192486763,
          0.14597152173519135,
          0.0441306047141552,
          -0.09832824766635895,
          -0.014095734804868698,
          -0.18247537314891815,
          0.09119460731744766,
          0.0,
          0.07479895651340485,
          -0.00010797122376970947,
          0.05546010285615921,
          0.07687270641326904,
          0.051057685166597366,
          -0.027034537866711617,
          0.14757424592971802,
          -0.11357536911964417,
          -0.0918799340724945,
          -0.06912412494421005,
          0.06849509477615356,
          -0.047906294465065,
          0.17398376762866974,
          -0.00354047492146492,
          -0.0188780315220356,
          0.0,
          0.03756609186530113,
          -0.04527274891734123,
          0.055334631353616714,
          0.014205335639417171,
          -0.007797409780323505,
          -0.12838301062583923,
          0.016193583607673645,
          -0.04910986125469208,
          -0.036938898265361786,
          -0.03724106028676033,
          0.013745870441198349,
          0.00332762417383492,
          0.009324783459305763,
          -0.08030903339385986,
          -0.10772901773452759,
          0.0,
          0.08050292730331421,
          -0.08221118152141571,
          -0.031037315726280212,
          -0.05833645164966583,
          0.015215988270938396,
          0.02257375419139862,
          0.04495059698820114,
          0.05080244690179825,
          0.11652170866727829,
          -0.0725998505949974,
          -0.18657471239566803,
          0.14230774343013763,
          0.06295159459114075,
          0.0778546929359436,
          -0.018403256312012672,
          0.0
        ],
        [
          -0.05812465026974678,
          0.06927578151226044,
          0.062443807721138,
          -0.1332755833864212,
          -0.10471146553754807,
          0.0017794995801523328,
          -0.05556197091937065,
          0.17409417033195496,
          0.0974406898021698,
          0.0847393274307251,
          0.11084799468517303,
          0.0750202164053917,
          -0.01881316304206848,
          0.06168271601200104,
          -0.16556358337402344,
          0.0,
          -0.01623251847922802,
          0.01763404719531536,
          0.0217683557420969,
          0.23808544874191284,
          -0.1587294340133667,
          -0.23312030732631683,
          0.2276175320148468,
          -0.1309376358985901,
          -0.045069385319948196,
          -0.12007077783346176,
          0.0370761938393116,
          0.0015828462783247232,
          0.14876893162727356,
          -0.0136208925396204,
          -0.1451224684715271,
          0.0,
          0.018061023205518723,
          -0.01293316762894392,
          -0.033341214060783386,
          0.02845541574060917,
          0.1565757840871811,
          -0.20757628977298737,
          0.06651515513658524,
          0.04852922633290291,
          0.11133541911840439,
          -0.010803591459989548,
          -0.015606721863150597,
          -0.0881727933883667,
          0.005057745613157749,
          -0.011919871903955936,
          0.15330253541469574,
          0.0,
          -0.10727375000715256,
          0.046484097838401794,
          0.031586844474077225,
          -0.047804176807403564,
          -0.03471527248620987,
          -0.08027385920286179,
          -0.1100304126739502,
          -0.06461679935455322,
          -0.05633876100182533,
          -0.0926709994673729,
          0.05208979547023773,
          -0.004418655298650265,
          -0.06475987285375595,
          0.09736437350511551,
          -0.021991407498717308,
          0.0
        ],
        [
          -0.16373029351234436,
          0.031100468710064888,
          0.17354099452495575,
          -0.14363646507263184,
          -0.03742971643805504,
          -0.0002465779543854296,
          -0.1266249567270279,
          -0.05648767575621605,
          -0.066780224442482,
          0.12357819825410843,
          0.03412991017103195,
          0.10220915824174881,
          -0.051015906035900116,
          0.029430633410811424,
          -0.0013706415193155408,
          0.0,
          -0.038152195513248444,
          -0.1466379463672638,
          0.14688654243946075,
          -0.12179774791002274,
          -0.025421569123864174,
          -0.08239797502756119,
          -0.05254429578781128,
          0.0972958356142044,
          0.13245296478271484,
          0.03362034633755684,
          0.005419778637588024,
          -0.11097697168588638,
          -0.05846456438302994,
          -0.013937044888734818,
          -0.04636348783969879,
          0.0,
          0.019228873774409294,
          -0.01745063066482544,
          0.03741900995373726,
          0.11744316667318344,
          0.14046640694141388,
          0.11839240044355392,
          0.042835962027311325,
          -0.07277331501245499,
          -0.051637545228004456,
          0.2167099416255951,
          0.003136982908472419,
          0.08130071312189102,
          0.019766507670283318,
          -0.09157722443342209,
          -0.06510163098573685,
          0.0,
          -0.02384219504892826,
          0.06228657811880112,
          -0.0499570369720459,
          -0.06898511946201324,
          0.10709170997142792,
          0.061676234006881714,
          0.07122007012367249,
          0.08681317418813705,
          -0.03241300955414772,
          -0.07012724131345749,
          0.09307168424129486,
          -0.1262216418981552,
          -0.18345794081687927,
          -0.09307853132486343,
          0.028430573642253876,
          0.0
        ],
        [
          -0.027625922113656998,
          0.3276549279689789,
          0.23219040036201477,
          0.02319158986210823,
          0.059042561799287796,
          0.1399318426847458,
          0.07359927892684937,
          0.14275218546390533,
          0.021706391125917435,
          -0.03284873068332672,
          0.029428131878376007,
          0.02904016710817814,
          -0.05343981459736824,
          0.09740011394023895,
          -0.16666151583194733,
          0.0,
          0.11643113940954208,
          -0.037855587899684906,
          -0.08514871448278427,
          0.03662942349910736,
          0.01496327668428421,
          -0.032477930188179016,
          0.08063885569572449,
          -0.16448277235031128,
          -0.14878636598587036,
          -0.021753333508968353,
          -0.06201355159282684,
          0.04863298684358597,
          0.02416982874274254,
          0.12233973294496536,
          0.09641221165657043,
          0.0,
          0.01902252994477749,
          -0.03539469838142395,
          -0.059300921857357025,
          -0.0711461678147316,
          -0.01987774856388569,
          -0.048906248062849045,
          0.018498258665204048,
          0.013653934933245182,
          -0.010453350841999054,
          -0.04292841628193855,
          -0.031428150832653046,
          -0.1161445751786232,
          -0.028786327689886093,
          -0.07272239774465561,
          -0.0001347267534583807,
          0.0,
          0.07208172976970673,
          -0.02683071605861187,
          0.013781370595097542,
          0.12551693618297577,
          0.08587809652090073,
          -0.07308600842952728,
          -0.05576624348759651,
          -0.0730288028717041,
          -0.06540516763925552,
          0.08481509983539581,
          0.008408855646848679,
          0.016478942707180977,
          0.024266190826892853,
          0.012305411510169506,
          0.095655158162117,
          0.0
        ],
        [
          0.17447778582572937,
          0.10392043739557266,
          -0.04126806929707527,
          -0.1624862551689148,
          -0.11342592537403107,
          -0.0532168373465538,
          -0.1327795833349228,
          0.049651626497507095,
          0.16159996390342712,
          0.007656050845980644,
          0.15320387482643127,
          -0.06109870597720146,
          -0.08059137314558029,
          0.08686856180429459,
          0.010145248845219612,
          0.0,
          0.0386493019759655,
          0.015254073776304722,
          0.025400279089808464,
          0.0029522867407649755,
          -0.023745067417621613,
          -0.06308452039957047,
          -0.1408994048833847,
          0.05901561304926872,
          0.17911545932292938,
          0.14737029373645782,
          -0.0006302471738308668,
          0.01769265905022621,
          0.057829294353723526,
          -0.0853089690208435,
          0.02924158237874508,
          0.0,
          -0.04798303544521332,
          -0.005210349336266518,
          0.024248655885457993,
          0.08510740101337433,
          0.13601815700531006,
          -0.023142235353589058,
          -0.04179712012410164,
          0.14048436284065247,
          0.12614531815052032,
          0.11631260067224503,
          -0.06921051442623138,
          -0.06734751164913177,
          0.02241016924381256,
          -0.2549726963043213,
          0.14856959879398346,
          0.0,
          0.018656717613339424,
          -0.05076645687222481,
          0.09043638408184052,
          0.07920069992542267,
          -0.0809689313173294,
          -0.05859144777059555,
          0.0702160894870758,
          -0.05389894172549248,
          -0.020635776221752167,
          0.0646701231598854,
          0.09085871279239655,
          0.0005124455783516169,
          -0.04298314452171326,
          -0.008234305307269096,
          0.07774797081947327,
          0.0
        ],
        [
          0.19105413556098938,
          0.0278159212321043,
          0.013757693581283092,
          0.07700137048959732,
          -0.0006748399464413524,
          -0.00826114322990179,
          -0.0016945567913353443,
          0.05426986515522003,
          -0.00994465034455061,
          0.019459685310721397,
          -0.06190184876322746,
          -0.06192414462566376,
          -0.051808685064315796,
          0.03442399948835373,
          -0.08535319566726685,
          0.0,
          0.02639111876487732,
          0.05471939593553543,
          0.07041457295417786,
          -0.09326944500207901,
          0.012664657086133957,
          0.12629464268684387,
          -0.08300852030515671,
          0.07647603005170822,
          -0.005148961674422026,
          0.11535382270812988,
          -0.04951411858201027,
          -0.041262172162532806,
          0.07026641815900803,
          -0.05710872262716293,
          -0.1785719245672226,
          0.0,
          -0.10122887045145035,
          0.0843820795416832,
          -0.10759229212999344,
          0.1329241394996643,
          0.08211271464824677,
          -0.01252987515181303,
          0.20084626972675323,
          -0.13916708528995514,
          -0.128151997923851,
          -0.0789770856499672,
          -0.013390659354627132,
          0.0352473147213459,
          0.25575587153434753,
          -0.006372085772454739,
          -0.032725125551223755,
          0.0,
          -0.061970412731170654,
          -0.07209081947803497,
          0.07776190340518951,
          -0.08647893369197845,
          -0.1129852682352066,
          -0.05831300839781761,
          -0.12738722562789917,
          0.0490042045712471,
          0.08290787786245346,
          -0.0909612625837326,
          -0.15803253650665283,
          -0.050280891358852386,
          -0.12979385256767273,
          -0.09889405220746994,
          -0.07943450659513474,
          0.0
        ],
        [
          -0.14232149720191956,
          0.04800267145037651,
          -0.03472571447491646,
          -0.1615680754184723,
          -0.10250453650951385,
          0.08934377878904343,
          0.03813866525888443,
          -0.1009659618139267,
          0.055247962474823,
          -0.01358934585005045,
          0.1752985715866089,
          -0.04065462574362755,
          -0.06723253428936005,
          0.12596824765205383,
          0.002926521236076951,
          0.0,
          0.024647904559969902,
          0.005750015843659639,
          -0.1132260337471962,
          0.020804554224014282,
          -0.008264219388365746,
          0.13335539400577545,
          0.05776915326714516,
          -0.09422887861728668,
          -0.03578614816069603,
          -0.11175310611724854,
          0.04520754516124725,
          0.09444218873977661,
          -0.007585742045193911,
          0.07224223762750626,
          -0.06706803292036057,
          0.0,
          -0.0227283276617527,
          -0.16672150790691376,
          0.05207093805074692,
          -0.042542681097984314,
          0.09781964868307114,
          -0.09020081907510757,
          -0.05437082797288895,
          -0.13389579951763153,
          -0.007969538681209087,
          0.0011113198706880212,
          -0.07647984474897385,
          0.19222350418567657,
          -0.15414123237133026,
          0.11951804161071777,
          -0.08042974025011063,
          0.0,
          -0.05440037325024605,
          -0.0458388477563858,
          0.06777366995811462,
          0.09398260712623596,
          -0.012720542028546333,
          -0.13982169330120087,
          0.015513161197304726,
          0.05956896394491196,
          -0.06244293600320816,
          -0.0054940697737038136,
          -0.1948343813419342,
          -0.02148381434381008,
          0.09639003872871399,
          -0.10290949046611786,
          0.028897257521748543,
          0.0
        ],
        [
          -0.1642836481332779,
          -0.13559368252754211,
          0.2762273848056793,
          -0.10925164073705673,
          0.07687567174434662,
          -0.10443118214607239,
          -0.17476752400398254,
          0.03119548223912716,
          0.0184211116284132,
          0.06747358292341232,
          -0.012610147707164288,
          -0.007008039392530918,
          0.040758825838565826,
          0.09870808571577072,
          0.08726932108402252,
          0.0,
          0.034198492765426636,
          0.0014023521216586232,
          -0.08200102299451828,
          -0.04982362687587738,
          0.005949037149548531,
          0.0936610996723175,
          -0.031104983761906624,
          0.004286760929971933,
          0.18812233209609985,
          0.09166643768548965,
          0.02200555056333542,
          0.029530998319387436,
          -0.015145977959036827,
          0.03326813504099846,
          0.01042734645307064,
          0.0,
          -0.029338369145989418,
          -0.07070305943489075,
          0.0609712116420269,
          -0.01940482296049595,
          -0.06082924082875252,
          0.018281571567058563,
          0.10689336061477661,
          0.0574815459549427,
          0.0035998416133224964,
          0.02008773945271969,
          0.006874675862491131,
          -0.03168277069926262,
          0.026477470993995667,
          -0.11097566783428192,
          -0.052106570452451706,
          0.0,
          0.09991972148418427,
          0.06953500211238861,
          -0.03243587538599968,
          0.03983648121356964,
          0.09804920107126236,
          -0.1472621113061905,
          0.05820111557841301,
          0.036603864282369614,
          -0.0032635112293064594,
          -0.11005955189466476,
          0.0059548174031078815,
          0.12185986340045929,
          0.07794640958309174,
          -0.16809159517288208,
          -0.1420689821243286,
          0.0
        ],
        [
          -0.2549421191215515,
          0.045259028673172,
          0.0863756313920021,
          0.16561397910118103,
          -0.08398459851741791,
          -0.02008463628590107,
          0.08571140468120575,
          -0.0568542443215847,
          0.006732273381203413,
          0.043252553790807724,
          0.14167748391628265,
          -0.04338753968477249,
          -0.052453283220529556,
          0.016473859548568726,
          -0.17152799665927887,
          0.0,
          0.027811037376523018,
          -0.03838859498500824,
          0.09206335991621017,
          0.0010325959883630276,
          -0.0191915612667799,
          0.09374618530273438,
          -0.014450631104409695,
          0.013780220411717892,
          0.0842205062508583,
          0.005714068189263344,
          0.03783748298883438,
          0.04113665968179703,
          0.09339693933725357,
          -0.07557711750268936,
          0.012884123250842094,
          0.0,
          -0.045162782073020935,
          0.05202493444085121,
          -0.05913591384887695,
          -0.0003756427322514355,
          0.017391914501786232,
          0.043239526450634,
          -0.0032454216852784157,
          0.09617700427770615,
          -0.09806743264198303,
          -0.005639487411826849,
          -0.012622290290892124,
          -0.11659140884876251,
          -0.1296204775571823,
          -0.04018804803490639,
          -0.17045946419239044,
          0.0,
          0.013974468223750591,
          -0.01996835507452488,
          -0.06286972016096115,
          -0.0661567971110344,
          -0.049955759197473526,
          -0.027085045352578163,
          -0.16223347187042236,
          -0.0703873336315155,
          -0.1672758013010025,
          -0.07199317216873169,
          0.03988202288746834,
          -0.01738879084587097,
          0.05744422972202301,
          0.12473148852586746,
          0.07027243822813034,
          0.0
        ],
        [
          -0.26418712735176086,
          0.18429045379161835,
          0.14487513899803162,
          0.036656491458415985,
          -0.04941363260149956,
          -0.02806854248046875,
          0.004585352726280689,
          -0.127389594912529,
          -0.08539072424173355,
          -0.10430020093917847,
          0.06104139983654022,
          -0.012237419374287128,
          0.12387009710073471,
          -0.016271241009235382,
          0.10184165835380554,
          0.0,
          -0.003777543781325221,
          -0.1975453943014145,
          0.18232634663581848,
          0.01305957231670618,
          0.004161725286394358,
          0.02128165401518345,
          0.07426442205905914,
          0.03777892515063286,
          -0.012996722012758255,
          -0.033679477870464325,
          -0.0643361434340477,
          0.005211200565099716,
          -0.07899913191795349,
          0.005160002503544092,
          0.08833186328411102,
          0.0,
          0.15713180601596832,
          -0.12583136558532715,
          -0.0869591161608696,
          0.019575588405132294,
          0.013915358111262321,
          -0.06386497616767883,
          -0.001793565577827394,
          0.08634228259325027,
          0.004364260472357273,
          -0.005397729109972715,
          -0.010004207491874695,
          0.04014676436781883,
          -0.013993187807500362,
          0.03691975399851799,
          0.09079393744468689,
          0.0,
          0.08479857444763184,
          -0.029105672612786293,
          -0.1017686203122139,
          -0.11077109724283218,
          0.003989594988524914,
          -0.17941777408123016,
          -0.10087011754512787,
          -0.026973234489560127,
          -0.04956027492880821,
          0.052794717252254486,
          -0.07258609682321548,
          -0.06618721038103104,
          0.11745309084653854,
          0.05532852187752724,
          -0.10284572839736938,
          0.0
        ],
        [
          -0.057863082736730576,
          0.05972179397940636,
          -0.11884337663650513,
          -0.169293612241745,
          0.07538671046495438,
          0.012536123394966125,
          0.06590577214956284,
          -0.005836892407387495,
          0.16941101849079132,
          0.03610118851065636,
          -0.03118968941271305,
          -0.03195274621248245,
          0.11275191605091095,
          0.053951580077409744,
          0.13570325076580048,
          0.0,
          -0.006864938884973526,
          -0.12958204746246338,
          0.03760199621319771,
          0.06715456396341324,
          0.07865642756223679,
          -0.054021742194890976,
          0.0943257287144661,
          -0.15671215951442719,
          -0.19396601617336273,
          -0.1640661656856537,
          0.020036982372403145,
          -0.03089110367000103,
          -0.009871046058833599,
          -0.03175243362784386,
          0.05359676107764244,
          0.0,
          -0.07006457448005676,
          0.05485539510846138,
          -0.09830597043037415,
          0.12355231493711472,
          -0.006436942610889673,
          -0.0751880407333374,
          0.10798458009958267,
          -0.02903786301612854,
          0.0009121887851506472,
          -0.11177336424589157,
          -0.11946795880794525,
          0.1522282212972641,
          0.03713574633002281,
          0.15259043872356415,
          0.1428644061088562,
          0.0,
          0.002447685459628701,
          0.009330207481980324,
          -0.06166154891252518,
          0.09683151543140411,
          0.0692758709192276,
          -0.001719005056656897,
          -0.13801193237304688,
          0.025247465819120407,
          0.08751633018255234,
          -0.06475599110126495,
          0.0967223271727562,
          0.11428747326135635,
          0.04269921034574509,
          -0.002794276224449277,
          0.08347700536251068,
          0.0
        ],
        [
          -0.2947433590888977,
          -0.18977676331996918,
          0.06846228241920471,
          -0.07305818051099777,
          0.04088323190808296,
          -0.09288181364536285,
          -0.22578653693199158,
          0.06021663919091225,
          0.06476166844367981,
          0.016475509852170944,
          0.005345895886421204,
          0.04189145192503929,
          -0.0007943155942484736,
          -0.1485116332769394,
          -0.08942162990570068,
          0.0,
          0.004327563568949699,
          -0.060772012919187546,
          -0.0191228948533535,
          0.050274062901735306,
          0.17472195625305176,
          0.056133151054382324,
          0.04655114933848381,
          -0.08015307784080505,
          -0.1357281357049942,
          -0.04723537340760231,
          -0.047678351402282715,
          0.182870551943779,
          0.02793763019144535,
          0.07437623292207718,
          -0.017135651782155037,
          0.0,
          -0.10319036990404129,
          0.030260732397437096,
          -0.03971535712480545,
          -0.06574718654155731,
          -0.11860009282827377,
          0.050921689718961716,
          -0.00998219009488821,
          -0.05739723518490791,
          -0.10562476515769958,
          -0.07817231118679047,
          0.12042837589979172,
          0.029560452327132225,
          -0.06552205234766006,
          0.1255088746547699,
          0.009972825646400452,
          0.0,
          -0.014770643785595894,
          -0.010146846063435078,
          0.017341740429401398,
          -0.016538897529244423,
          -0.03446811065077782,
          -0.047786954790353775,
          0.064240962266922,
          0.10008957982063293,
          0.020631887018680573,
          -0.0763794556260109,
          -0.012965739704668522,
          0.10713382810354233,
          0.007706971373409033,
          0.02227982133626938,
          0.05223258212208748,
          0.0
        ],
        [
          -0.1206941306591034,
          0.07594463974237442,
          0.052916914224624634,
          -0.06877805292606354,
          0.03300740197300911,
          0.034939106553792953,
          -0.03811430558562279,
          0.025077572092413902,
          -0.004534880630671978,
          0.0874791219830513,
          0.06552758067846298,
          -0.0733889490365982,
          0.03322817012667656,
          0.09176097810268402,
          -0.03040936589241028,
          0.0,
          0.05512099713087082,
          -0.039063725620508194,
          0.08995990455150604,
          -0.14643146097660065,
          -0.14046801626682281,
          0.019185980781912804,
          -0.16595080494880676,
          0.0283966101706028,
          0.13981814682483673,
          0.09155063331127167,
          0.12363415211439133,
          -0.06853661686182022,
          -0.0017740301555022597,
          -0.14880786836147308,
          0.13348545134067535,
          0.0,
          -0.061067502945661545,
          0.002118838718160987,
          0.1131371259689331,
          0.04959028586745262,
          0.01565399207174778,
          -0.05778447538614273,
          0.07707156985998154,
          -0.005599748343229294,
          0.01095622405409813,
          0.022173523902893066,
          -0.07622404396533966,
          -0.017192983999848366,
          0.0016264403238892555,
          0.10174815356731415,
          -0.07219662517309189,
          0.0,
          0.10230997204780579,
          0.05372955650091171,
          -0.0468745231628418,
          0.011618225835263729,
          -0.019898520782589912,
          -0.04442017897963524,
          -0.0211756844073534,
          0.05000806227326393,
          0.036017924547195435,
          0.11221405118703842,
          0.12689560651779175,
          -0.09889958053827286,
          -0.13762402534484863,
          0.02381938323378563,
          0.0676739439368248,
          0.0
        ],
        [
          0.05017763748764992,
          -0.19968339800834656,
          0.11387720704078674,
          -0.1458771526813507,
          -0.03542499244213104,
          -0.011629438027739525,
          0.04873277619481087,
          0.09612444788217545,
          0.05177035555243492,
          0.007699253968894482,
          0.03512442111968994,
          -0.17163920402526855,
          0.05198520049452782,
          -0.14797478914260864,
          -0.17471128702163696,
          0.0,
          -0.09146662056446075,
          0.013739392161369324,
          -0.03521013259887695,
          -0.053281597793102264,
          0.05064833164215088,
          -0.0925094485282898,
          -0.04278264567255974,
          0.09792055189609528,
          0.00954953022301197,
          -0.10134070366621017,
          -0.09456565231084824,
          -0.0013726254692301154,
          0.07479199767112732,
          -0.12522174417972565,
          0.012399238534271717,
          0.0,
          -0.018830768764019012,
          -0.0316411554813385,
          0.17494502663612366,
          0.10647502541542053,
          0.039903465658426285,
          0.10280662775039673,
          0.054071683436632156,
          -0.03092868998646736,
          -0.004243487026542425,
          0.025919845327734947,
          -0.03156507387757301,
          -0.061783771961927414,
          -0.02009105496108532,
          -0.009281049482524395,
          -0.02772446908056736,
          0.0,
          -0.003389837685972452,
          -0.010152707807719707,
          -0.04497196525335312,
          -0.06743062287569046,
          -0.06590944528579712,
          0.06216070055961609,
          0.0030809412710368633,
          -0.022592945024371147,
          -0.01680314913392067,
          -0.14207442104816437,
          -0.050341688096523285,
          -0.049218472093343735,
          0.048293959349393845,
          -0.07428381592035294,
          -0.09848563373088837,
          0.0
        ],
        [
          -0.0616007037460804,
          0.06555815041065216,
          -0.22908279299736023,
          0.11102841049432755,
          -0.05847928673028946,
          -0.10873973369598389,
          0.023492569103837013,
          0.03199920803308487,
          0.026655368506908417,
          0.1549893021583557,
          0.008644232526421547,
          -0.014928056858479977,
          -0.1606823354959488,
          0.09160295873880386,
          0.07352814823389053,
          0.0,
          -0.07960273325443268,
          -0.06213002651929855,
          -0.0364530086517334,
          -0.04391864687204361,
          -0.002373326336964965,
          -0.005745180416852236,
          -0.1128142699599266,
          0.006173931062221527,
          0.05086129903793335,
          -0.046334072947502136,
          0.12350333482027054,
          0.02116963639855385,
          0.10649137943983078,
          0.010225527919828892,
          -0.11827445030212402,
          0.0,
          -0.10884350538253784,
          0.1412220299243927,
          0.04215840995311737,
          0.045707933604717255,
          0.019862154498696327,
          0.007928353734314442,
          0.08826238662004471,
          -0.026267485693097115,
          -0.05936707183718681,
          0.09539617598056793,
          -0.04661952704191208,
          -0.041732337325811386,
          0.005825648549944162,
          -0.06024719029664993,
          -0.004209394101053476,
          0.0,
          -0.06079642102122307,
          -0.020752819254994392,
          -0.0027758025098592043,
          -0.036521848291158676,
          0.017148002982139587,
          0.050734877586364746,
          0.03143538907170296,
          -0.08559182286262512,
          0.07463444024324417,
          -0.15914759039878845,
          -0.016555199399590492,
          -0.12568825483322144,
          -0.019302774220705032,
          0.05384303256869316,
          0.10723388195037842,
          0.0
        ],
        [
          -0.029944146052002907,
          -0.06987009197473526,
          0.17512302100658417,
          0.035564176738262177,
          0.06933706253767014,
          -0.07090532034635544,
          -0.10884784162044525,
          0.08861607313156128,
          0.12636582553386688,
          0.07320912927389145,
          -0.05041683465242386,
          -0.12884196639060974,
          0.06855089962482452,
          0.10547530651092529,
          -0.25670576095581055,
          0.0,
          -0.018140459433197975,
          0.04608096554875374,
          0.007251049391925335,
          -0.07190770655870438,
          -0.2490580976009369,
          -0.06072968244552612,
          0.10495606064796448,
          0.13524311780929565,
          0.12199962139129639,
          -0.0014444809639826417,
          0.05972390994429588,
          -0.07432535290718079,
          0.19429385662078857,
          -0.07317744195461273,
          0.04476170614361763,
          0.0,
          -0.062424056231975555,
          0.08882223069667816,
          -0.0489879809319973,
          -0.00681174173951149,
          -0.027508847415447235,
          -0.025073600932955742,
          0.0016950357239693403,
          0.028574934229254723,
          -0.08235970884561539,
          -0.013098998926579952,
          -0.04695797339081764,
          -0.09466105699539185,
          -0.09982669353485107,
          0.09887441992759705,
          -0.02775820530951023,
          0.0,
          -0.010273928754031658,
          -0.06963115185499191,
          0.08396391570568085,
          -0.11977075785398483,
          0.03108360432088375,
          -0.15669749677181244,
          -0.02084868773818016,
          -0.03854908049106598,
          0.09488433599472046,
          -0.023563716560602188,
          0.09379265457391739,
          0.09759921580553055,
          -0.09486770629882812,
          0.05789763480424881,
          0.020702123641967773,
          0.0
        ],
        [
          0.04028058797121048,
          0.18744346499443054,
          -0.2295769453048706,
          0.0576794408261776,
          -0.045232295989990234,
          0.009776678867638111,
          0.10510469228029251,
          -0.05069517716765404,
          0.034001823514699936,
          0.06997235119342804,
          -0.08270295709371567,
          0.1555696725845337,
          0.171427384018898,
          -0.046340376138687134,
          -0.05480976030230522,
          0.0,
          -0.11295056343078613,
          0.04685571789741516,
          0.012438775040209293,
          0.11630167067050934,
          0.10099446028470993,
          0.03689388930797577,
          0.07900599390268326,
          -0.07657108455896378,
          -0.010285299271345139,
          -0.10414952039718628,
          -0.0553671196103096,
          0.12077821046113968,
          -0.055695559829473495,
          -0.032844122499227524,
          0.049047231674194336,
          0.0,
          0.08886256814002991,
          0.07311418652534485,
          -0.0011066528968513012,
          0.06740423291921616,
          0.076139435172081,
          -0.06085463613271713,
          -0.03378976136445999,
          0.02685355581343174,
          0.030529946088790894,
          0.042404621839523315,
          -0.012650388292968273,
          0.007729952223598957,
          0.09950524568557739,
          0.1226559579372406,
          -0.04677760228514671,
          0.0,
          0.057058725506067276,
          -0.0662720799446106,
          0.022885622456669807,
          -0.03768731281161308,
          0.16945889592170715,
          0.09143584966659546,
          0.11659441143274307,
          0.011655413545668125,
          -0.038920480757951736,
          -0.04482192173600197,
          0.005409555044025183,
          -0.13608349859714508,
          -0.10465986281633377,
          -0.17783302068710327,
          -0.02996021881699562,
          0.0
        ],
        [
          0.02232157066464424,
          0.014138946309685707,
          -0.14654222130775452,
          0.030555006116628647,
          0.15046900510787964,
          0.10868439823389053,
          0.05258671194314957,
          -0.03149187192320824,
          0.11201749742031097,
          0.09524872899055481,
          -0.014835689216852188,
          0.0392739400267601,
          0.13987573981285095,
          0.011324617080390453,
          -0.12370127439498901,
          0.0,
          0.016268055886030197,
          -0.03787846490740776,
          -0.02805422618985176,
          -0.1418902426958084,
          -0.09356468915939331,
          -0.12719522416591644,
          -0.10180305689573288,
          0.15970982611179352,
          0.06347139924764633,
          0.14751024544239044,
          0.011587535962462425,
          -0.09134681522846222,
          -0.047202590852975845,
          -0.1623591035604477,
          -0.026772160083055496,
          0.0,
          0.008410647511482239,
          -0.03084859438240528,
          0.11186029762029648,
          0.006658418569713831,
          -0.007273436989635229,
          -0.02680034004151821,
          -0.02064737305045128,
          0.10739318281412125,
          0.05612283572554588,
          0.02075742557644844,
          -0.13396631181240082,
          -0.10057394951581955,
          -0.07235803455114365,
          -0.06557516008615494,
          -0.05796689912676811,
          0.0,
          -0.13847032189369202,
          0.01085122674703598,
          0.13960865139961243,
          -0.11699395626783371,
          0.12110259383916855,
          0.02581123448908329,
          -0.14318518340587616,
          0.18632087111473083,
          -0.1004636213183403,
          -0.032619282603263855,
          0.14646662771701813,
          0.0075655775144696236,
          0.03874533250927925,
          -0.009975677356123924,
          0.04908917471766472,
          0.0
        ],
        [
          0.033172786235809326,
          -0.07158656418323517,
          -0.07157198339700699,
          -0.019498486071825027,
          -0.0650765523314476,
          -0.13466128706932068,
          0.08307671546936035,
          -0.0983678475022316,
          0.08780443668365479,
          -0.11133703589439392,
          0.026310333982110023,
          -0.10800394415855408,
          -0.09430631995201111,
          0.13459034264087677,
          -0.001558195217512548,
          0.0,
          -0.08291983604431152,
          -0.001921044196933508,
          0.064817413687706,
          -0.07742723077535629,
          -0.15606263279914856,
          -0.16108909249305725,
          -0.0026599043048918247,
          -0.020746827125549316,
          0.0002879453240893781,
          -0.030788931995630264,
          0.024210596457123756,
          0.001480768551118672,
          -0.061951927840709686,
          -0.10776916146278381,
          -0.14094483852386475,
          0.0,
          0.018080435693264008,
          -0.07067634165287018,
          0.05889332666993141,
          -0.0016213722992688417,
          -0.016721300780773163,
          0.0052705793641507626,
          0.035413652658462524,
          -0.01591314747929573,
          0.011130004189908504,
          0.006935257464647293,
          -0.007512809243053198,
          0.033782947808504105,
          0.09244371205568314,
          0.08980481326580048,
          -0.029341844841837883,
          0.0,
          -0.11120111495256424,
          0.09628704935312271,
          0.07376350462436676,
          0.001574045862071216,
          0.11077293753623962,
          0.05823225900530815,
          -0.07739579677581787,
          0.07925156503915787,
          0.10576029866933823,
          0.10275831818580627,
          -0.08604602515697479,
          0.12070540338754654,
          -0.03892626240849495,
          0.0780719518661499,
          -0.034276824444532394,
          0.0
        ],
        [
          -0.12123878300189972,
          0.033463332802057266,
          -0.032123494893312454,
          0.03884775564074516,
          -0.04396999254822731,
          0.03620808944106102,
          0.05837423726916313,
          0.010471521876752377,
          0.05257881060242653,
          -0.012483284808695316,
          0.0011927214218303561,
          -0.11403345316648483,
          -0.019166436046361923,
          -0.038548413664102554,
          0.025400783866643906,
          0.0,
          0.06715045124292374,
          -0.09263806790113449,
          -0.07551436871290207,
          0.03176651522517204,
          0.050105977803468704,
          0.017693717032670975,
          0.08853898197412491,
          0.06276801973581314,
          -0.13050396740436554,
          -0.08430568873882294,
          -0.015559663064777851,
          0.14295411109924316,
          0.0006752419867552817,
          0.14359307289123535,
          0.0656433179974556,
          0.0,
          -0.08996409177780151,
          -0.05565481260418892,
          0.03341594710946083,
          0.12596233189105988,
          0.028088048100471497,
          -0.14950686693191528,
          0.07565171271562576,
          -0.07812854647636414,
          -0.016327938064932823,
          -0.09033780544996262,
          -0.059458352625370026,
          -0.02240757830440998,
          0.13276658952236176,
          0.16373027861118317,
          -0.07828734815120697,
          0.0,
          0.07141322642564774,
          -0.029494814574718475,
          -0.12467018514871597,
          -0.03662748262286186,
          -0.04565506801009178,
          -0.12442729622125626,
          -0.08785617351531982,
          -0.06152912229299545,
          -0.09959946572780609,
          -0.09660978615283966,
          -0.07326437532901764,
          -0.03589095547795296,
          -0.2261376827955246,
          0.1100149154663086,
          -0.03844660893082619,
          0.0
        ],
        [
          0.10433635115623474,
          0.16769015789031982,
          0.06350085139274597,
          -0.09586737304925919,
          0.0036050763446837664,
          0.0763562023639679,
          0.029280858114361763,
          -0.01710331439971924,
          0.06244279816746712,
          -0.04619169607758522,
          0.08153079450130463,
          -0.017108680680394173,
          -0.16506414115428925,
          0.09405430406332016,
          0.021890275180339813,
          0.0,
          0.09188354760408401,
          0.016287529841065407,
          -0.002821803092956543,
          -0.05337740480899811,
          0.01602829433977604,
          0.09649501740932465,
          -0.01014726422727108,
          0.12634041905403137,
          0.06484581530094147,
          -0.015143539756536484,
          0.023424385115504265,
          0.024505464360117912,
          -0.03498983755707741,
          0.06527014076709747,
          -0.0019242847338318825,
          0.0,
          -0.09498275071382523,
          0.10161223262548447,
          0.08158110082149506,
          0.12169061601161957,
          0.03659503161907196,
          -0.11680866777896881,
          -0.05472886562347412,
          -0.0021028819028288126,
          -0.06886248290538788,
          -0.10042905062437057,
          0.09188613295555115,
          0.03334575146436691,
          -0.02443709969520569,
          0.01730288937687874,
          -0.05894390121102333,
          0.0,
          -0.02060125209391117,
          -0.13852286338806152,
          -0.04854549095034599,
          0.11525104194879532,
          0.030867069959640503,
          -0.015249225310981274,
          -0.12225575000047684,
          -0.006228007376194,
          0.11709681153297424,
          -0.020878702402114868,
          -0.11397796124219894,
          -0.08104710280895233,
          0.0066812485456466675,
          -0.025679657235741615,
          -0.10163778066635132,
          0.0
        ],
        [
          -0.18064366281032562,
          -0.29964274168014526,
          0.04479869082570076,
          -0.10629348456859589,
          0.06831840425729752,
          -0.05967184901237488,
          0.012745736166834831,
          -0.10281840711832047,
          -0.008080788888037205,
          -0.006462929770350456,
          0.03448515012860298,
          -0.04068545997142792,
          0.11013776063919067,
          0.044499047100543976,
          0.007919916883111,
          0.0,
          0.08000214397907257,
          0.08633841574192047,
          -0.027640165761113167,
          0.07106722891330719,
          0.004683968611061573,
          -0.11401105672121048,
          0.0320754274725914,
          -0.05152266472578049,
          -0.09380149096250534,
          0.06835237145423889,
          0.013455906882882118,
          0.2209855169057846,
          0.06798656284809113,
          -0.013862039893865585,
          0.06504028290510178,
          0.0,
          -0.09511090815067291,
          0.009126058779656887,
          0.0993819460272789,
          -0.02793164551258087,
          -0.07114119082689285,
          0.08145954459905624,
          -0.016224972903728485,
          0.028599178418517113,
          -0.023964956402778625,
          0.00659866351634264,
          0.0019334458047524095,
          -0.06486011296510696,
          -0.1410570740699768,
          0.03493502736091614,
          0.05786532163619995,
          0.0,
          -0.06252725422382355,
          -0.08269783854484558,
          -0.07078070193529129,
          0.10600564628839493,
          0.18457423150539398,
          -0.01984657347202301,
          0.0008692709379829466,
          -0.11444242298603058,
          -0.020260894671082497,
          -0.1121482253074646,
          -0.21229231357574463,
          -0.042989011853933334,
          -0.12585335969924927,
          0.04235364869236946,
          0.10596154630184174,
          0.0
        ],
        [
          -0.06698174774646759,
          -0.006714068818837404,
          0.1359226107597351,
          -0.13742060959339142,
          0.04726517200469971,
          0.07376469671726227,
          -0.0712689682841301,
          -0.011865724809467793,
          0.0927753895521164,
          0.12872770428657532,
          0.007286697626113892,
          0.019649911671876907,
          -0.11096056550741196,
          -0.03941071778535843,
          -0.02485841140151024,
          0.0,
          0.07491400837898254,
          -0.03833885118365288,
          0.0007586012361571193,
          -0.014188653789460659,
          -0.006260532420128584,
          -0.16819770634174347,
          -0.0004986599669791758,
          0.008867673575878143,
          -0.038425810635089874,
          -0.035147204995155334,
          0.07649189978837967,
          0.052052151411771774,
          0.02691289223730564,
          -0.04785725101828575,
          0.01123881060630083,
          0.0,
          0.05386713892221451,
          -0.03185243532061577,
          0.07412174344062805,
          0.1799613982439041,
          0.16444863379001617,
          0.03110789693892002,
          0.1245160922408104,
          0.02893628366291523,
          0.16840872168540955,
          0.07953297346830368,
          0.01633475348353386,
          0.13036604225635529,
          -0.017706314101815224,
          -0.18994538486003876,
          0.07512568682432175,
          0.0,
          -0.14876075088977814,
          -0.0635155513882637,
          0.10518830269575119,
          -0.12452366948127747,
          -0.011824277229607105,
          -0.08868496119976044,
          0.15984418988227844,
          -0.016029460355639458,
          -0.00709952786564827,
          -0.03121667355298996,
          0.022917985916137695,
          -0.04602786898612976,
          -0.1126653179526329,
          -0.13567601144313812,
          0.039045609533786774,
          0.0
        ],
        [
          -0.10689283162355423,
          0.025665266439318657,
          0.14893752336502075,
          0.00824125949293375,
          0.11128612607717514,
          0.04444948956370354,
          0.0372348353266716,
          0.026120739057660103,
          -0.0321098268032074,
          0.0675697773694992,
          0.10122084617614746,
          0.07719383388757706,
          0.14036904275417328,
          -0.23321712017059326,
          -0.29217907786369324,
          0.0,
          -0.08472128212451935,
          -0.03557748720049858,
          0.055227894335985184,
          -0.05918624997138977,
          -0.13536515831947327,
          -0.010426207445561886,
          0.027682146057486534,
          0.07119204849004745,
          0.06694692373275757,
          0.02822999283671379,
          0.023569636046886444,
          -0.07923633605241776,
          0.0768570527434349,
          -0.1408395618200302,
          -0.08393663913011551,
          0.0,
          0.039698243141174316,
          -0.008654636330902576,
          -0.03668742999434471,
          -0.01606539636850357,
          0.044846564531326294,
          0.004160940181463957,
          0.08271375298500061,
          0.10233404487371445,
          -0.1183910146355629,
          0.03687548637390137,
          -0.06060514226555824,
          0.07230561971664429,
          -0.05860846862196922,
          0.05237667262554169,
          -0.06614863127470016,
          0.0,
          0.11793018132448196,
          0.04320230334997177,
          -0.12109442055225372,
          0.13674920797348022,
          -0.11708608269691467,
          0.1642027348279953,
          -0.13060219585895538,
          -0.03520146757364273,
          -0.01853431761264801,
          0.01014683861285448,
          0.000770871527493,
          0.03635314851999283,
          -0.10041923820972443,
          0.06899609416723251,
          0.046310532838106155,
          0.0
        ],
        [
          0.1242230162024498,
          -0.06678456813097,
          -0.15925061702728271,
          0.08121801167726517,
          0.03963996842503548,
          -0.005853768903762102,
          0.09592682123184204,
          0.15457186102867126,
          -0.10335269570350647,
          -0.12889178097248077,
          0.09111443907022476,
          -0.13738732039928436,
          0.10922058671712875,
          -0.053537312895059586,
          -0.10821949690580368,
          0.0,
          -0.0044839340262115,
          -0.04120737686753273,
          0.05425697937607765,
          -0.07000596821308136,
          -0.049091994762420654,
          0.03771568462252617,
          -0.09575429558753967,
          0.11848270148038864,
          0.034991439431905746,
          0.03702477365732193,
          -0.009699057787656784,
          -0.01930612325668335,
          0.04974016174674034,
          -0.081369549036026,
          0.019055292010307312,
          0.0,
          0.04654306173324585,
          -0.06189963221549988,
          -0.022672589868307114,
          0.0352364182472229,
          0.02731475606560707,
          0.06222459673881531,
          -0.015314426273107529,
          -0.012186989188194275,
          -0.01394571177661419,
          0.05179203301668167,
          -0.03723130747675896,
          -0.07282157987356186,
          -0.039747897535562515,
          -0.022017646580934525,
          -0.07992307841777802,
          0.0,
          -0.10697007924318314,
          0.08837086707353592,
          0.14553220570087433,
          -0.027758441865444183,
          0.06324370950460434,
          0.015825169160962105,
          0.0695469081401825,
          0.11053895205259323,
          0.025415610522031784,
          0.09515804797410965,
          0.14040397107601166,
          0.05561890825629234,
          0.10974273085594177,
          -0.05848860740661621,
          -0.025533348321914673,
          0.0
        ],
        [
          -0.10084369778633118,
          0.22060106694698334,
          -0.02291540615260601,
          -0.07571833580732346,
          -0.09147696942090988,
          -0.004405152052640915,
          -0.021642498672008514,
          -0.012187406420707703,
          -0.074753038585186,
          0.025141606107354164,
          -0.14172179996967316,
          -0.07073166966438293,
          0.18865631520748138,
          -0.2961866557598114,
          -0.09490396827459335,
          0.0,
          0.04332393780350685,
          -0.09023810178041458,
          0.02799469418823719,
          -0.1265370398759842,
          0.06564442813396454,
          -0.04360635578632355,
          -0.043173663318157196,
          0.004902563989162445,
          0.03581457957625389,
          -0.07318653911352158,
          -0.030532248318195343,
          -0.05997437983751297,
          -0.07063812762498856,
          -0.09082330018281937,
          -0.028926117345690727,
          0.0,
          0.0005740956985391676,
          -0.012301220558583736,
          0.07888757437467575,
          0.0787159875035286,
          -0.02176067605614662,
          0.0358634889125824,
          -0.06871877610683441,
          0.023198308423161507,
          0.053719110786914825,
          0.02114999108016491,
          -0.1445956528186798,
          -0.04504397138953209,
          -0.05026538670063019,
          0.06420246511697769,
          0.10305850952863693,
          0.0,
          0.09726855903863907,
          0.04457372799515724,
          -0.056782934814691544,
          -0.07403263449668884,
          0.058886513113975525,
          0.04377102106809616,
          -0.01084605511277914,
          -0.03989260271191597,
          0.1391482949256897,
          -0.011673658154904842,
          -0.06960336118936539,
          0.16254732012748718,
          -0.056832510977983475,
          0.005488195922225714,
          -0.1536998301744461,
          0.0
        ],
        [
          -0.1321057826280594,
          -0.17922712862491608,
          -0.23799443244934082,
          -0.0143926702439785,
          -0.04724865034222603,
          0.009859303943812847,
          -0.09399862587451935,
          0.07090206444263458,
          0.03126562759280205,
          0.15624216198921204,
          -0.08407129347324371,
          0.04678047075867653,
          0.05499105900526047,
          -0.1658390611410141,
          0.0037070163525640965,
          0.0,
          -0.0332089401781559,
          0.0012386401649564505,
          0.1204884946346283,
          -0.06949107348918915,
          0.016975583508610725,
          0.16423261165618896,
          0.07111125439405441,
          0.10942357033491135,
          0.08289109915494919,
          0.023151885718107224,
          0.025057008489966393,
          0.04574848711490631,
          0.036562059074640274,
          -0.036873798817396164,
          -0.07175791263580322,
          0.0,
          0.07732563465833664,
          -0.009743071161210537,
          0.012335502542555332,
          0.03892434015870094,
          0.05577246472239494,
          0.028587521985173225,
          0.06672811508178711,
          -0.09944809228181839,
          -0.036593563854694366,
          -0.055801235139369965,
          0.05001576989889145,
          0.07315648347139359,
          0.09124063700437546,
          0.06290166079998016,
          -0.11296822875738144,
          0.0,
          0.1076119914650917,
          0.029766742140054703,
          0.0033444450236856937,
          0.030752409249544144,
          0.022807365283370018,
          0.01307729072868824,
          -0.0809055045247078,
          -0.14761723577976227,
          -0.07642397284507751,
          -0.10306569933891296,
          -0.03192552924156189,
          0.12744292616844177,
          0.04137991741299629,
          0.01092201005667448,
          -0.14606571197509766,
          0.0
        ],
        [
          0.0049131582491099834,
          -0.0692601278424263,
          0.10064157098531723,
          -0.013761939480900764,
          0.032709237188100815,
          0.15822958946228027,
          0.12364745140075684,
          -0.054301876574754715,
          0.1452690064907074,
          0.056786663830280304,
          0.15953902900218964,
          -0.14357267320156097,
          0.1496584564447403,
          0.05589912831783295,
          -0.004780076444149017,
          0.0,
          -0.0891927108168602,
          0.06947992742061615,
          0.0756945013999939,
          -0.057802870869636536,
          -0.2510405480861664,
          -0.10714615136384964,
          0.01649334654211998,
          0.07253596186637878,
          0.09222180396318436,
          -0.057911984622478485,
          0.0567491315305233,
          -0.10346616804599762,
          0.15847331285476685,
          -0.10196634382009506,
          -0.07793078571557999,
          0.0,
          -0.18789872527122498,
          0.029829910025000572,
          -0.011699171736836433,
          -0.07245628535747528,
          0.17058242857456207,
          0.058352384716272354,
          -0.17096281051635742,
          0.10381672531366348,
          -0.04820580035448074,
          0.0027029835619032383,
          -0.059868328273296356,
          -0.0725054144859314,
          -0.01849881000816822,
          0.18419350683689117,
          0.08014557510614395,
          0.0,
          -0.04865962639451027,
          -0.06437787413597107,
          0.026855437085032463,
          -0.009585416875779629,
          0.1935722678899765,
          -0.015619325451552868,
          -0.056622035801410675,
          -0.005081264767795801,
          -0.08750201761722565,
          0.0400562547147274,
          -0.12087628990411758,
          -0.1256323605775833,
          0.04586188122630119,
          -0.08406438678503036,
          -0.025654485449194908,
          0.0
        ],
        [
          0.09206237643957138,
          0.08438771218061447,
          0.20462153851985931,
          -0.03474287688732147,
          0.09870734810829163,
          -0.038311224430799484,
          -0.22217752039432526,
          -0.022516805678606033,
          -0.0203511081635952,
          -0.008941616863012314,
          -0.056947045028209686,
          -0.06591259688138962,
          -0.008241861127316952,
          0.06980808824300766,
          0.02350986935198307,
          0.0,
          0.039183083921670914,
          0.02665737271308899,
          -0.04988750070333481,
          0.015727324411273003,
          0.10813072323799133,
          -0.1231839582324028,
          -0.07138533145189285,
          -0.083309605717659,
          -0.1183721050620079,
          -0.005096722859889269,
          0.03686151280999184,
          0.1542835235595703,
          0.126372829079628,
          0.10829906910657883,
          0.0209211353212595,
          0.0,
          -0.07167920470237732,
          -0.091092549264431,
          0.11362411826848984,
          0.013956031762063503,
          0.0020785247907042503,
          -0.09554463624954224,
          -0.15427564084529877,
          -0.03957442566752434,
          0.047250036150217056,
          -0.08173802495002747,
          0.02324044331908226,
          -0.08545362204313278,
          -0.04732738807797432,
          -0.07262402027845383,
          -0.025215696543455124,
          0.0,
          0.10814470797777176,
          -0.10883702337741852,
          -0.14718934893608093,
          0.006554066203534603,
          -0.1108902096748352,
          0.10704677551984787,
          0.10342241078615189,
          0.005374538712203503,
          -0.15270067751407623,
          -0.09783139079809189,
          -0.09347990900278091,
          -0.05441368743777275,
          0.09406577795743942,
          -0.0515114851295948,
          0.05690239369869232,
          0.0
        ],
        [
          -0.159081369638443,
          0.20278999209403992,
          -0.05275089293718338,
          -0.022156190127134323,
          0.07976871728897095,
          -0.06294535845518112,
          0.003537531243637204,
          0.12404792755842209,
          -0.001751231262460351,
          0.05497177690267563,
          0.06101400405168533,
          -0.0421464778482914,
          -0.04525897279381752,
          0.20513665676116943,
          -0.2985163927078247,
          0.0,
          -0.045734960585832596,
          0.06156744807958603,
          -0.05811768397688866,
          0.025588899850845337,
          0.12309171259403229,
          -0.04106459766626358,
          -0.07253622263669968,
          -0.06855906546115875,
          -0.07464133203029633,
          -0.090370312333107,
          -0.08256267756223679,
          0.15222148597240448,
          -0.053330034017562866,
          0.04707010090351105,
          0.044635798782110214,
          0.0,
          -0.07019098848104477,
          0.05962121859192848,
          -0.09183305501937866,
          -0.029304441064596176,
          -0.15650859475135803,
          0.17089153826236725,
          0.01903350278735161,
          0.06566756218671799,
          -0.10417797416448593,
          0.13631102442741394,
          -0.12158086895942688,
          -0.012820996344089508,
          -0.07228881865739822,
          0.0062141939997673035,
          0.003853600239381194,
          0.0,
          -0.030752122402191162,
          0.05124171823263168,
          -0.055159978568553925,
          0.10144087672233582,
          0.03249196708202362,
          -0.01667977310717106,
          -0.09472332149744034,
          0.08288364857435226,
          -0.06496432423591614,
          0.0989028736948967,
          0.004303846973925829,
          -0.10161533951759338,
          0.09621480852365494,
          -0.03894791752099991,
          -0.02001182548701763,
          0.0
        ],
        [
          0.11182456463575363,
          0.14330635964870453,
          0.11692464351654053,
          -0.14523464441299438,
          -0.12359443306922913,
          0.09503605216741562,
          -0.04860211908817291,
          0.140050008893013,
          0.13484305143356323,
          0.12119565159082413,
          -0.023389171808958054,
          -0.04739151522517204,
          -0.15001937747001648,
          0.14215189218521118,
          -0.13786445558071136,
          0.0,
          0.07764340192079544,
          -0.03348459303379059,
          -0.04879596084356308,
          -0.1446743905544281,
          0.05117538571357727,
          -0.02746705152094364,
          -0.0786520317196846,
          0.09823856502771378,
          0.0342121385037899,
          0.052487924695014954,
          0.016114039346575737,
          0.02821783535182476,
          0.13662089407444,
          0.09407079219818115,
          -0.02205514721572399,
          0.0,
          0.0484100840985775,
          -0.10434243083000183,
          -0.018434932455420494,
          -0.12763690948486328,
          0.16186657547950745,
          -0.042445652186870575,
          -0.06185801327228546,
          0.12768274545669556,
          0.019246581941843033,
          -0.05193786695599556,
          -0.15104717016220093,
          0.09155575931072235,
          0.03034316375851631,
          0.06024178862571716,
          0.10695265233516693,
          0.0,
          -0.032546266913414,
          -0.03682529553771019,
          0.15884727239608765,
          0.05631748214364052,
          -0.02580251544713974,
          -0.06637420505285263,
          -0.0593547560274601,
          -0.02164243720471859,
          -0.0442209430038929,
          0.06107831746339798,
          0.06450361013412476,
          -0.04045023396611214,
          0.06069514527916908,
          -0.01894676312804222,
          -0.07377643138170242,
          0.0
        ],
        [
          0.12263501435518265,
          -0.21653692424297333,
          0.0977097749710083,
          0.08474111557006836,
          0.1531251072883606,
          -0.17408214509487152,
          -0.09148791432380676,
          -0.002633269876241684,
          0.06458203494548798,
          0.07636792957782745,
          -0.12553806602954865,
          -0.09786749631166458,
          -0.05674205720424652,
          0.012255039997398853,
          -0.10920814424753189,
          0.0,
          -0.10918716341257095,
          0.0813186764717102,
