{
  "name": "4 genomes structured regeneration",
  "state_channels": 14,
  "genome_channels": 2,
  "hidden_channels": 9,
  "state_quantization_scale": 4.0,
  "hidden_quantization_scale": 8.0,
  "perception_quantization_scale": 12.0,
  "update_probability": 0.5,
  "layers": [
    {
      "name": "conv1",
      "in_channels": 64,
      "out_channels": 128,
      "activation": "relu",
      "weights": [
        [
          0.1429341435432434,
          0.10267769545316696,
          -0.24947252869606018,
          -0.029228931292891502,
          -0.06111988425254822,
          -0.016059162095189095,
          0.08541447669267654,
          -0.033532653003931046,
          0.00361491646617651,
          0.067705437541008,
          -0.15110579133033752,
          0.07833578437566757,
          -0.019378075376152992,
          -0.18339531123638153,
          0.0,
          0.0,
          0.0390000157058239,
          -0.09563881903886795,
          -0.0041757384315133095,
          -0.04450159892439842,
          -0.03283356875181198,
          0.00567754777148366,
          -0.042767975479364395,
          0.09012222290039062,
          0.024263055995106697,
          0.013486434705555439,
          -0.055854637175798416,
          0.06265108287334442,
          -0.13726453483104706,
          0.020469006150960922,
          0.0,
          0.0,
          -0.11972913146018982,
          0.03083505854010582,
          0.09231497347354889,
          -0.048828836530447006,
          0.1305244415998459,
          0.07130981981754303,
          -0.023734712973237038,
          0.10481259226799011,
          0.07317623496055603,
          0.035491764545440674,
          -0.049434106796979904,
          -0.08173356205224991,
          0.1150367259979248,
          -0.11432050168514252,
          0.0,
          0.0,
          0.006548682227730751,
          -0.11666937172412872,
          0.13891330361366272,
          -0.02146127261221409,
          -0.04608605057001114,
          -0.013617000542581081,
          -0.005998946726322174,
          -0.022592579945921898,
          0.09245029836893082,
          -0.023387810215353966,
          -0.040446434170007706,
          0.09310704469680786,
          -0.0496998056769371,
          0.15072643756866455,
          0.0,
          0.0
        ],
        [
          0.09051269292831421,
          -0.02154354564845562,
          -0.16000691056251526,
          0.05651731789112091,
          0.0861707329750061,
          0.16806216537952423,
          -0.10065463930368423,
          -0.1155107393860817,
          -0.045522306114435196,
          -0.16215696930885315,
          0.01649709977209568,
          -0.06658443808555603,
          -0.10060767829418182,
          -0.05446677282452583,
          0.0,
          0.0,
          -0.035531945526599884,
          0.06856288760900497,
          -0.09974507987499237,
          0.049986954778432846,
          -0.041366096585989,
          -0.09839919209480286,
          -0.048169106245040894,
          -0.07108982652425766,
          0.06747652590274811,
          0.12977111339569092,
          0.03491264209151268,
          0.09809941053390503,
          0.042050473392009735,
          0.06135743111371994,
          0.0,
          0.0,
          -0.09922070801258087,
          -0.10933911800384521,
          0.023683840408921242,
          -0.03719915822148323,
          0.07814612239599228,
          0.02425863966345787,
          0.04338822886347771,
          -0.03974452614784241,
          0.10213799774646759,
          0.09949453920125961,
          0.02283325418829918,
          0.13794149458408356,
          -0.0965966284275055,
          -0.03256452828645706,
          0.0,
          0.0,
          -0.10122580826282501,
          -0.018741482868790627,
          -0.05750599876046181,
          -0.05608563870191574,
          0.029481861740350723,
          -0.07685815542936325,
          0.048129208385944366,
          0.08800828456878662,
          -0.17788095772266388,
          -0.05153218284249306,
          -0.0730508491396904,
          0.11362326890230179,
          -0.08881556987762451,
          -0.022586772218346596,
          0.0,
          0.0
        ],
        [
          0.1105070635676384,
          0.05240017548203468,
          0.09579058736562729,
          0.10457173734903336,
          -0.01209245901554823,
          0.031460780650377274,
          -0.005230200011283159,
          -0.02605508081614971,
          0.05056571960449219,
          0.1042843610048294,
          0.16030298173427582,
          0.14288967847824097,
          0.17714230716228485,
          0.031870629638433456,
          0.0,
          0.0,
          -0.028706470504403114,
          -0.10160040110349655,
          -0.011920475400984287,
          0.026803184300661087,
          -0.06380048394203186,
          -0.021152399480342865,
          0.0740782767534256,
          -0.06778499484062195,
          -0.011560403741896152,
          0.05480356141924858,
          0.004716311581432819,
          -0.05804452300071716,
          -0.08352424949407578,
          0.15570063889026642,
          0.0,
          0.0,
          0.08375325053930283,
          0.047754693776369095,
          0.09706968069076538,
          0.05041155591607094,
          0.05033297464251518,
          -0.04471276327967644,
          -0.08998306840658188,
          -0.01803181692957878,
          -0.0365876667201519,
          0.0965283066034317,
          0.006251003593206406,
          0.004213573876768351,
          0.10989560931921005,
          -0.012047992087900639,
          0.0,
          0.0,
          -0.13395251333713531,
          0.051398761570453644,
          -0.11199400573968887,
          -0.08545070141553879,
          -0.13545405864715576,
          0.02358809858560562,
          0.08336930721998215,
          -0.04751630499958992,
          -0.015464751049876213,
          -0.0027204875368624926,
          -0.061016254127025604,
          -0.00914609245955944,
          -0.06643354147672653,
          0.1016836017370224,
          0.0,
          0.0
        ],
        [
          0.06134006381034851,
          0.16407178342342377,
          0.13070517778396606,
          0.0086943618953228,
          0.1109924241900444,
          0.018152471631765366,
          -0.034362368285655975,
          0.07561128586530685,
          -0.17188908159732819,
          -0.08091679215431213,
          -0.002929466078057885,
          -0.012883603572845459,
          -0.0019474670989438891,
          0.12348848581314087,
          0.0,
          0.0,
          -0.08590550720691681,
          0.04399370774626732,
          0.04539663344621658,
          -0.13930673897266388,
          0.13997337222099304,
          -0.06812679022550583,
          0.09430080652236938,
          0.09035918861627579,
          0.04281194508075714,
          0.08234605193138123,
          -0.12342502921819687,
          -0.04710930213332176,
          -0.03713163360953331,
          0.039074648171663284,
          0.0,
          0.0,
          -0.06877478957176208,
          0.08108784258365631,
          0.05253050476312637,
          -0.02299826219677925,
          -0.05444685369729996,
          0.01983742043375969,
          -0.00022454923600889742,
          0.11977622658014297,
          0.07107289880514145,
          -0.09061126410961151,
          -0.1285344660282135,
          0.0639462098479271,
          0.013803048059344292,
          0.11107771098613739,
          0.0,
          0.0,
          0.0269771795719862,
          0.01045169122517109,
          0.10864174365997314,
          0.09440203011035919,
          0.00743267172947526,
          0.013074108399450779,
          0.13644440472126007,
          -0.014790371991693974,
          -0.030206602066755295,
          0.20475035905838013,
          0.004089902620762587,
          0.07145790755748749,
          -0.07764969766139984,
          -0.11589315533638,
          0.0,
          0.0
        ],
        [
          -0.032270364463329315,
          0.1771007776260376,
          -0.13771624863147736,
          -0.024879222735762596,
          -0.09139552712440491,
          0.1585593819618225,
          0.05818794667720795,
          -0.05761448293924332,
          -0.029002457857131958,
          0.022834328934550285,
          0.1404118686914444,
          -0.02615872211754322,
          0.07382587343454361,
          0.06526573747396469,
          0.0,
          0.0,
          0.03599902614951134,
          -0.06763746589422226,
          -0.005152702797204256,
          0.0034269203897565603,
          -0.004478204529732466,
          -0.04723672568798065,
          0.08609724044799805,
          -0.07657264173030853,
          -0.08850102126598358,
          0.02168353646993637,
          0.030319467186927795,
          0.16186478734016418,
          0.058310139924287796,
          0.03403315320611,
          0.0,
          0.0,
          0.008192983455955982,
          -0.07224683463573456,
          0.10369943827390671,
          -0.050463929772377014,
          -0.026368964463472366,
          0.06597048044204712,
          0.014689243398606777,
          -0.1454596370458603,
          0.0019785426557064056,
          -0.03132087364792824,
          -0.06269975751638412,
          0.04716232046484947,
          -0.016147226095199585,
          -0.03946110978722572,
          0.0,
          0.0,
          0.01030740700662136,
          0.021148739382624626,
          0.08357030898332596,
          -0.02136724814772606,
          -0.030980659648776054,
          0.06858450919389725,
          -0.03880827873945236,
          -0.03562798351049423,
          -0.002291986485943198,
          -0.09711596369743347,
          0.09664859622716904,
          0.19405026733875275,
          0.1013370007276535,
          -0.007919290103018284,
          0.0,
          0.0
        ],
        [
          -0.17674796283245087,
          -0.021645937114953995,
          0.22622498869895935,
          -0.03563700243830681,
          0.058720678091049194,
          0.06512705981731415,
          -0.1671159416437149,
          0.022634020075201988,
          0.007702122908085585,
          -0.1357913613319397,
          -0.04714273288846016,
          0.059757497161626816,
          -0.13329853117465973,
          -0.06761595606803894,
          0.0,
          0.0,
          -0.07517912983894348,
          -0.06536903232336044,
          0.12148627638816833,
          0.0008255948196165264,
          0.019522806629538536,
          -0.07989227771759033,
          0.0657072588801384,
          0.1369602233171463,
          0.042179565876722336,
          0.024555034935474396,
          -0.023014666512608528,
          0.0015147619415074587,
          -0.013902959413826466,
          -0.11433982849121094,
          0.0,
          0.0,
          -0.10772234201431274,
          0.09096436947584152,
          0.09130119532346725,
          -0.11821068823337555,
          -0.13853654265403748,
          0.08154983073472977,
          0.015723830088973045,
          0.082707479596138,
          0.13931693136692047,
          0.021563924849033356,
          0.058947332203388214,
          -0.04287983849644661,
          -0.09348928183317184,
          -0.053655900061130524,
          0.0,
          0.0,
          -0.025808587670326233,
          -0.01085969153791666,
          -0.08570271730422974,
          -0.06254779547452927,
          0.0272089634090662,
          -0.12297996133565903,
          0.08757609128952026,
          0.054178737103939056,
          0.05762680247426033,
          0.09770623594522476,
          -0.06547053158283234,
          0.12367374449968338,
          -0.0008589063654653728,
          0.024391986429691315,
          0.0,
          0.0
        ],
        [
          -0.0005154487444087863,
          0.027491161599755287,
          0.029876194894313812,
          -0.14994165301322937,
          0.07374303042888641,
          0.09305398911237717,
          -0.06764768064022064,
          -0.08975733071565628,
          0.07140208780765533,
          -0.0522666871547699,
          -0.09980911761522293,
          0.06436754763126373,
          0.06726628541946411,
          -0.065058134496212,
          0.0,
          0.0,
          0.023781193420290947,
          -0.05466166511178017,
          -0.027940906584262848,
          0.007665336597710848,
          0.13873900473117828,
          0.05545314773917198,
          0.09541800618171692,
          0.056121546775102615,
          0.0932805985212326,
          0.002750806277617812,
          -0.0058242217637598515,
          -0.04533316567540169,
          0.006806265562772751,
          0.1329873651266098,
          0.0,
          0.0,
          -0.01594376750290394,
          -0.0027696588076651096,
          0.05013711005449295,
          0.06692448258399963,
          -0.06977149844169617,
          0.06740732491016388,
          -0.044089049100875854,
          0.02527160383760929,
          -0.021603429690003395,
          -0.032423872500658035,
          0.01587391458451748,
          -0.12752479314804077,
          -0.08427715301513672,
          0.07314788550138474,
          0.0,
          0.0,
          -0.0207670871168375,
          -0.09538067877292633,
          -0.04370288923382759,
          -0.17389069497585297,
          0.060684945434331894,
          0.018015915527939796,
          0.12401343137025833,
          0.021491361781954765,
          0.06529813259840012,
          0.09219373017549515,
          0.1564052700996399,
          -0.22034254670143127,
          0.08227009326219559,
          0.016306588426232338,
          0.0,
          0.0
        ],
        [
          -0.12726986408233643,
          0.2822626233100891,
          -0.046316713094711304,
          -0.1678404062986374,
          0.09997574985027313,
          0.04914986342191696,
          0.04581703245639801,
          0.029708784073591232,
          0.08007349818944931,
          0.05465144291520119,
          -0.0501241572201252,
          0.04455198347568512,
          0.05039326474070549,
          0.03963948041200638,
          0.0,
          0.0,
          -0.10749033838510513,
          0.05018503963947296,
          0.017459876835346222,
          0.020926758646965027,
          -0.014384475536644459,
          0.02464953064918518,
          0.07459115236997604,
          0.09236256033182144,
          -0.11742551624774933,
          -0.05254178121685982,
          -0.06574133038520813,
          -0.0168488547205925,
          0.1319543868303299,
          -0.11435424536466599,
          0.0,
          0.0,
          0.0594964474439621,
          -0.12042873352766037,
          -0.10589135438203812,
          -0.027709832414984703,
          -0.053717851638793945,
          0.044358912855386734,
          0.038246385753154755,
          0.1618625372648239,
          0.02242923155426979,
          0.0982116088271141,
          0.05889230966567993,
          0.013138001784682274,
          -0.03940747305750847,
          -0.03988591581583023,
          0.0,
          0.0,
          0.0711066946387291,
          -0.1515805572271347,
          0.018366074189543724,
          0.1196257472038269,
          0.05230409651994705,
          0.047185856848955154,
          -0.054061420261859894,
          -0.04905587062239647,
          0.03516034036874771,
          0.017288925126194954,
          0.12663674354553223,
          0.11085271835327148,
          -0.08102162927389145,
          -0.08517644554376602,
          0.0,
          0.0
        ],
        [
          0.03289346396923065,
          -0.028532590717077255,
          0.1988924741744995,
          0.08196354657411575,
          0.03690780699253082,
          0.08842512220144272,
          0.026984432712197304,
          -0.010209728963673115,
          -0.06159072369337082,
          -0.1330520659685135,
          -0.06366293132305145,
          0.16861435770988464,
          -0.01285911537706852,
          -0.07630827277898788,
          0.0,
          0.0,
          -0.05036065727472305,
          -0.028116507455706596,
          0.10012993961572647,
          -0.06936115771532059,
          0.031100893393158913,
          0.1395934671163559,
          -0.0559246689081192,
          -0.0738508477807045,
          0.08793598413467407,
          -0.1343080848455429,
          0.05526382476091385,
          0.02078610099852085,
          -0.024528788402676582,
          -0.016894835978746414,
          0.0,
          0.0,
          -0.029814034700393677,
          0.01489692460745573,
          -0.006188694387674332,
          0.07558794319629669,
          0.031869664788246155,
          -0.13747543096542358,
          -0.11102412641048431,
          0.1810837984085083,
          -0.12067966163158417,
          0.04180854558944702,
          -0.07615558058023453,
          0.05279120057821274,
          0.018128851428627968,
          -0.06425216048955917,
          0.0,
          0.0,
          -0.007610797882080078,
          -0.0352327898144722,
          -0.08620883524417877,
          -0.03725896403193474,
          -0.0385267548263073,
          -0.09931265562772751,
          0.07233957946300507,
          0.14777182042598724,
          -0.11611899733543396,
          -0.05280757322907448,
          0.008007953874766827,
          -0.04111849144101143,
          0.0944775864481926,
          -0.04152974858880043,
          0.0,
          0.0
        ],
        [
          0.09740998595952988,
          -0.3587664067745209,
          0.1257358193397522,
          -0.0734277293086052,
          -0.01020768191665411,
          -0.11950678378343582,
          -0.059198759496212006,
          -0.045082371681928635,
          -0.0731997936964035,
          -0.12334137409925461,
          0.05147587135434151,
          0.08231138437986374,
          -0.10365638881921768,
          -0.0799795463681221,
          0.0,
          0.0,
          0.059200871735811234,
          -0.08735672384500504,
          -0.04364713281393051,
          -0.11269941926002502,
          -0.010839489288628101,
          -0.014228175394237041,
          -0.009228858165442944,
          -0.06643415242433548,
          -0.10290659964084625,
          -0.06702690571546555,
          0.09705857932567596,
          -0.12878982722759247,
          -0.017902081832289696,
          -0.05282360315322876,
          0.0,
          0.0,
          -0.0029839056078344584,
          0.10782668739557266,
          0.03947673365473747,
          -0.054016344249248505,
          0.06144380941987038,
          0.14417007565498352,
          0.024718672037124634,
          0.10739889740943909,
          -0.04353344812989235,
          0.11463052779436111,
          0.06028088182210922,
          -0.11742252111434937,
          -0.03258432820439339,
          0.027536604553461075,
          0.0,
          0.0,
          -0.057309553027153015,
          -0.04511907696723938,
          0.009440082125365734,
          -0.12715254724025726,
          0.025030987337231636,
          0.0421944297850132,
          0.0903552696108818,
          -0.06937587261199951,
          0.026648368686437607,
          0.1175486147403717,
          0.08881542086601257,
          -0.0927322506904602,
          -0.09552061557769775,
          0.13912753760814667,
          0.0,
          0.0
        ],
        [
          -0.2653864920139313,
          -0.2009478509426117,
          0.24837416410446167,
          0.12854193150997162,
          0.020614897832274437,
          -0.0785478949546814,
          -0.08407597243785858,
          -0.0941397175192833,
          0.05435566231608391,
          0.14021286368370056,
          0.08358220010995865,
          0.061746399849653244,
          0.08176209032535553,
          0.06308786571025848,
          0.0,
          0.0,
          0.029344677925109863,
          -0.13697904348373413,
          0.023832030594348907,
          -0.021090008318424225,
          -0.014733297750353813,
          0.0503852479159832,
          -0.0787905752658844,
          -0.023627884685993195,
          -0.11939243227243423,
          -0.05405730754137039,
          0.07099080830812454,
          -0.0897376611828804,
          0.1405114382505417,
          -0.01596561260521412,
          0.0,
          0.0,
          -0.06132974103093147,
          -0.03619074821472168,
          -0.1367647498846054,
          -0.055761951953172684,
          -0.05115390196442604,
          -0.012698027305305004,
          0.029136644676327705,
          0.020800186321139336,
          -0.14479607343673706,
          0.03730793669819832,
          0.02745349518954754,
          -0.034123629331588745,
          0.010261929593980312,
          -0.014710568822920322,
          0.0,
          0.0,
          -0.0008077537640929222,
          0.10073225945234299,
          -0.02123359404504299,
          0.0865996703505516,
          0.05142291262745857,
          -0.04759128391742706,
          -0.0060773324221372604,
          0.0476505383849144,
          0.09556887298822403,
          0.06144024431705475,
          -0.07622237503528595,
          -0.04946546629071236,
          -0.07772359251976013,
          -0.02272912487387657,
          0.0,
          0.0
        ],
        [
          -0.10210246592760086,
          -0.043413370847702026,
          0.16757160425186157,
          -0.052003953605890274,
          0.012341663241386414,
          -0.002473639789968729,
          -0.07651354372501373,
          -0.1105639636516571,
          0.07214060425758362,
          0.03596910461783409,
          0.025904957205057144,
          -0.06881305575370789,
          0.14410483837127686,
          -0.008725815452635288,
          0.0,
          0.0,
          0.041922807693481445,
          0.07732498645782471,
          -0.10669515281915665,
          -0.01711801066994667,
          -0.08644512295722961,
          0.054070845246315,
          0.014099215157330036,
          -0.0349007248878479,
          -0.12727954983711243,
          -0.05753496289253235,
          -0.047574251890182495,
          -0.0014353819424286485,
          -0.06796940416097641,
          0.12066160887479782,
          0.0,
          0.0,
          0.10580870509147644,
          0.07763819396495819,
          -0.0758696049451828,
          -0.0655188038945198,
          -0.018303217366337776,
          -0.18877072632312775,
          -0.0436679907143116,
          0.01765379309654236,
          0.041653405874967575,
          0.0242458563297987,
          0.12267103046178818,
          0.12607811391353607,
          0.06033800169825554,
          0.05241603031754494,
          0.0,
          0.0,
          0.06475197523832321,
          0.054052624851465225,
          -0.08125445991754532,
          0.06556253880262375,
          0.03967645391821861,
          0.1135227382183075,
          0.10033465176820755,
          0.0314667709171772,
          -0.16821636259555817,
          -0.09626078605651855,
          -0.13663198053836823,
          0.09041682630777359,
          -0.061005327850580215,
          0.04053497314453125,
          0.0,
          0.0
        ],
        [
          -0.16957871615886688,
          0.08200989663600922,
          0.04019681736826897,
          -0.09417738765478134,
          -0.11408250033855438,
          0.005684750620275736,
          0.09411341696977615,
          0.03864462301135063,
          0.0040707713924348354,
          0.07295261323451996,
          0.013043745420873165,
          0.053763411939144135,
          0.174109548330307,
          0.013068069703876972,
          0.0,
          0.0,
          0.11829854547977448,
          0.11191610246896744,
          0.0019528965931385756,
          -0.06163814663887024,
          0.11194013059139252,
          0.0018345159478485584,
          -0.20739005506038666,
          -0.2183360606431961,
          -0.13584424555301666,
          -0.1568407267332077,
          -0.014927209354937077,
          0.11186839640140533,
          -0.1002054363489151,
          0.15338817238807678,
          0.0,
          0.0,
          0.07930982112884521,
          -0.06238127499818802,
          -0.10199244320392609,
          0.10402049124240875,
          0.1885043829679489,
          -0.20032434165477753,
          -0.06657105684280396,
          -0.08011629432439804,
          -0.16973504424095154,
          -0.050608888268470764,
          -0.022232379764318466,
          -0.09149694442749023,
          0.06254472583532333,
          0.11053375899791718,
          0.0,
          0.0,
          0.05983655899763107,
          0.08500943332910538,
          -0.14474526047706604,
          0.046302080154418945,
          -0.004445426631718874,
          -0.11252287030220032,
          -0.09666655957698822,
          -0.042319267988204956,
          -0.0212243665009737,
          0.03822731971740723,
          0.04761325195431709,
          0.07726645469665527,
          0.016660336405038834,
          0.08661104738712311,
          0.0,
          0.0
        ],
        [
          -0.15915469825267792,
          -0.1245192214846611,
          0.02260773815214634,
          0.0719168409705162,
          0.07472766190767288,
          0.09858647733926773,
          -0.18267294764518738,
          0.12094748765230179,
          -0.11458142846822739,
          0.031523097306489944,
          0.023256538435816765,
          0.06316156685352325,
          -0.13118432462215424,
          0.05478927120566368,
          0.0,
          0.0,
          0.11907533556222916,
          -0.10789092630147934,
          -0.08218055218458176,
          0.11255329847335815,
          -0.01609131321310997,
          -0.15951716899871826,
          -0.14328549802303314,
          0.11840640753507614,
          0.024342577904462814,
          0.08309275656938553,
          0.038393471390008926,
          0.1577022671699524,
          -0.04062866419553757,
          0.050238143652677536,
          0.0,
          0.0,
          0.09689122438430786,
          -0.12302954494953156,
          0.06145244091749191,
          0.12692759931087494,
          0.06428835541009903,
          0.026723971590399742,
          0.010373943485319614,
          0.031297557055950165,
          0.09756685048341751,
          0.0635785236954689,
          -0.1323254108428955,
          0.09629938751459122,
          -0.03711894899606705,
          -0.02647954225540161,
          0.0,
          0.0,
          0.07788246124982834,
          0.018073298037052155,
          -0.07447074353694916,
          -0.004105492029339075,
          -0.06355070322751999,
          0.07381945103406906,
          0.08619404584169388,
          0.08147543668746948,
          0.0942404717206955,
          0.08124178647994995,
          -0.03336409851908684,
          -0.10970138013362885,
          0.08238942176103592,
          -0.009833660908043385,
          0.0,
          0.0
        ],
        [
          -0.29059508442878723,
          0.31949564814567566,
          0.3085596561431885,
          -0.17157404124736786,
          0.049661532044410706,
          0.08372372388839722,
          0.03934880718588829,
          0.15695467591285706,
          -0.09337472915649414,
          0.020273873582482338,
          -0.036328256130218506,
          -0.21196205914020538,
          0.03445824235677719,
          0.0005909345927648246,
          0.0,
          0.0,
          0.04019252210855484,
          0.01785016618669033,
          -0.0502455048263073,
          -0.12316343188285828,
          -0.04260005056858063,
          -0.0524958111345768,
          0.01324787363409996,
          0.06582694500684738,
          0.11508675664663315,
          -0.06118236854672432,
          0.049655403941869736,
          -0.03489493951201439,
          -0.0988900437951088,
          -0.04998813197016716,
          0.0,
          0.0,
          0.04238263890147209,
          0.04153963550925255,
          -0.06620754301548004,
          -0.045515261590480804,
          0.08988811075687408,
          -0.008045627735555172,
          -0.02450047992169857,
          0.041450630873441696,
          0.03800835832953453,
          -0.0676000565290451,
          0.02151450142264366,
          -0.013332676142454147,
          0.09923992305994034,
          -0.06557346135377884,
          0.0,
          0.0,
          -0.036763425916433334,
          0.0400780588388443,
          0.08719061315059662,
          0.030961517244577408,
          -0.0907425507903099,
          -0.02213175781071186,
          -0.03225170448422432,
          -0.02764771692454815,
          -0.0349876843392849,
          -0.0351153127849102,
          -0.09114222228527069,
          0.1286396086215973,
          0.06681980192661285,
          0.04007074981927872,
          0.0,
          0.0
        ],
        [
          -0.029901446774601936,
          -0.17266900837421417,
          -0.2467576116323471,
          -0.15606138110160828,
          0.05059303715825081,
          0.04122341424226761,
          0.030804166570305824,
          -0.08994638919830322,
          0.08799844980239868,
          0.05438431352376938,
          -0.02521545998752117,
          -0.0558549202978611,
          -0.12848180532455444,
          0.029544159770011902,
          0.0,
          0.0,
          0.0658070296049118,
          -0.08658163249492645,
          -0.019825777038931847,
          0.05715290457010269,
          -0.037506505846977234,
          0.06316640973091125,
          0.092536561191082,
          -0.11499015241861343,
          -0.09853087365627289,
          0.08048561215400696,
          0.11962046474218369,
          -0.02017683908343315,
          -0.009445128031075,
          -0.054562002420425415,
          0.0,
          0.0,
          0.0777578055858612,
          -0.09084171056747437,
          0.016878433525562286,
          -0.06922250986099243,
          -0.14740079641342163,
          0.023273732513189316,
          -0.008655396290123463,
          0.06436774134635925,
          0.06744427233934402,
          -0.08670642971992493,
          -0.04382491111755371,
          0.12435262650251389,
          -0.01243773102760315,
          -0.08895505964756012,
          0.0,
          0.0,
          -0.13402624428272247,
          -0.056627772748470306,
          0.08248995989561081,
          0.03553695231676102,
          0.06722211092710495,
          -0.08009135723114014,
          0.10941071808338165,
          0.10722211748361588,
          0.04151634871959686,
          0.005579044576734304,
          -0.09710458666086197,
          0.07031169533729553,
          -0.066025011241436,
          0.08198629319667816,
          0.0,
          0.0
        ],
        [
          -0.1417386680841446,
          0.22439779341220856,
          -0.04242709279060364,
          -0.0022957075852900743,
          -0.015082605183124542,
          0.11407534778118134,
          -0.05335388705134392,
          -0.04557546600699425,
          0.009103101678192616,
          -0.007555774413049221,
          0.05078781396150589,
          -0.11021331697702408,
          -0.1883866786956787,
          0.016907574608922005,
          0.0,
          0.0,
          -0.041705988347530365,
          -0.10607222467660904,
          -0.0023527115117758512,
          -0.16876445710659027,
          -0.030782613903284073,
          0.09355466812849045,
          0.006798570975661278,
          -0.09382844716310501,
          0.09978456050157547,
          -0.009055604226887226,
          0.032099198549985886,
          -0.06081355735659599,
          -0.08387786149978638,
          0.062352925539016724,
          0.0,
          0.0,
          -0.0010601663962006569,
          0.0912352204322815,
          0.010637794621288776,
          0.2052750438451767,
          0.004932524636387825,
          -0.09878478944301605,
          -0.09575719386339188,
          -0.11597788333892822,
          -0.10724060237407684,
          -0.048331551253795624,
          0.05119016021490097,
          0.0011323237558826804,
          -0.019405469298362732,
          -0.04808047413825989,
          0.0,
          0.0,
          0.02927936241030693,
          0.03051193617284298,
          -0.005305828060954809,
          0.10544385015964508,
          0.07700245082378387,
          0.05708805471658707,
          -0.027179699391126633,
          0.09449754655361176,
          -0.09443943947553635,
          0.052206214517354965,
          0.026007603853940964,
          -0.1348475068807602,
          0.11552008241415024,
          0.13842950761318207,
          0.0,
          0.0
        ],
        [
          0.08503542095422745,
          -0.05221790447831154,
          0.02532683126628399,
          -0.1138133704662323,
          0.09344770759344101,
          0.10881057381629944,
          -0.106090247631073,
          -0.02966521680355072,
          -0.08081164956092834,
          -0.14257925748825073,
          -0.12226535379886627,
          -0.10737152397632599,
          -0.03811588138341904,
          0.07708413898944855,
          0.0,
          0.0,
          -0.05031571909785271,
          0.08461348712444305,
          -0.08296547085046768,
          0.005778972990810871,
          0.12753182649612427,
          -0.08511075377464294,
          -0.03164398670196533,
          0.06780006736516953,
          -0.08327285200357437,
          0.050814252346754074,
          0.04606934264302254,
          0.18297408521175385,
          0.01816469617187977,
          -0.06508323550224304,
          0.0,
          0.0,
          0.04347414895892143,
          0.09847032278776169,
          -0.04298797994852066,
          -0.10870810598134995,
          -0.011010674759745598,
          -0.04096095263957977,
          -0.07741449773311615,
          -0.019823212176561356,
          0.06774064898490906,
          -0.0754518061876297,
          0.12152296304702759,
          0.08754128217697144,
          -0.10271625220775604,
          0.005881544668227434,
          0.0,
          0.0,
          -0.023990709334611893,
          -0.08145920187234879,
          -0.010311933234333992,
          -0.1393350511789322,
          0.0814039409160614,
          -0.029590001329779625,
          -0.11064645648002625,
          0.026675719767808914,
          -0.10070058703422546,
          -0.05303947255015373,
          -0.012421431951224804,
          0.03417251259088516,
          -0.03865385800600052,
          -0.023819450289011,
          0.0,
          0.0
        ],
        [
          -0.14719055593013763,
          -0.0681576356291771,
          -0.09039609134197235,
          0.031044024974107742,
          0.11542337387800217,
          0.02672519162297249,
          0.03593827039003372,
          0.0403687059879303,
          -0.038726408034563065,
          -0.16374535858631134,
          0.13494105637073517,
          0.12129823118448257,
          0.048514846712350845,
          0.05890180170536041,
          0.0,
          0.0,
          -0.04283371567726135,
          -0.11754173040390015,
          0.0029126040171831846,
          -0.15133136510849,
          0.09943018108606339,
          0.13768383860588074,
          -0.001911920728161931,
          0.12880386412143707,
          0.09234089404344559,
          -0.04073284566402435,
          -0.038984134793281555,
          -0.1266091763973236,
          0.0802013948559761,
          0.03987444192171097,
          0.0,
          0.0,
          -0.08860976994037628,
          0.004851240199059248,
          0.08205229789018631,
          -0.020994720980525017,
          0.15735562145709991,
          -0.048586271703243256,
          0.006593069527298212,
          -0.05185285583138466,
          0.0890427753329277,
          0.00011374464520486072,
          -0.1390831470489502,
          0.03888567164540291,
          0.025540929287672043,
          0.07459108531475067,
          0.0,
          0.0,
          0.03727398067712784,
          -0.11057785898447037,
          -0.024482641369104385,
          -0.14668779075145721,
          0.04651111364364624,
          -0.07431139051914215,
          -0.03732661157846451,
          -0.020230138674378395,
          0.020277511328458786,
          0.1910485476255417,
          0.0037426601629704237,
          -0.09609752148389816,
          0.011141256429255009,
          -0.11988707631826401,
          0.0,
          0.0
        ],
        [
          0.10585253685712814,
          -0.1103406548500061,
          0.17861337959766388,
          -0.12479504197835922,
          -0.027904098853468895,
          -0.05088040977716446,
          -0.10653916001319885,
          -0.15064695477485657,
          -0.07332310080528259,
          -0.11006158590316772,
          -0.04162409529089928,
          -0.06390748918056488,
          0.11305424571037292,
          0.049240242689847946,
          0.0,
          0.0,
          -0.02346164360642433,
          0.0513559989631176,
          0.010391275398433208,
          0.028311679139733315,
          -0.076027512550354,
          0.15372224152088165,
          -0.0520121268928051,
          0.08029234409332275,
          -0.07080115377902985,
          -0.04712262004613876,
          -0.11288553476333618,
          0.10697229951620102,
          0.1460573375225067,
          -0.04140591248869896,
          0.0,
          0.0,
          -0.0780380442738533,
          -0.04297668859362602,
          -0.02235857956111431,
          -0.029918048530817032,
          0.07055356353521347,
          -0.051075153052806854,
          0.03974403068423271,
          0.04171161726117134,
          -0.10488492250442505,
          -0.03531699255108833,
          -0.011505477130413055,
          -0.09522467106580734,
          0.0006954489508643746,
          -0.01752622425556183,
          0.0,
          0.0,
          0.00537523627281189,
          -0.0427885465323925,
          0.045429669320583344,
          0.11789144575595856,
          -0.07405861467123032,
          0.012693766504526138,
          -0.028244346380233765,
          0.09393233805894852,
          0.03795968368649483,
          -0.06349768489599228,
          0.0724659189581871,
          0.022035781294107437,
          -0.13369619846343994,
          0.09796077013015747,
          0.0,
          0.0
        ],
        [
          0.023210566490888596,
          0.2287493199110031,
          0.09629415720701218,
          0.11451396346092224,
          -0.11913860589265823,
          0.14350862801074982,
          -0.1656331717967987,
          0.010510142892599106,
          0.013830597512423992,
          0.10783719271421432,
          -0.0223484355956316,
          0.0077905794605612755,
          -0.049162618815898895,
          0.06903693079948425,
          0.0,
          0.0,
          -0.07651091367006302,
          0.0256423931568861,
          -0.0034983523655682802,
          -0.08005033433437347,
          -0.06552209705114365,
          -0.00535019813105464,
          -0.08333440124988556,
          -0.0084522170946002,
          0.07267005741596222,
          -0.1573970764875412,
          0.05600963905453682,
          0.01858336292207241,
          0.0167551226913929,
          -0.09165920317173004,
          0.0,
          0.0,
          -0.039035994559526443,
          0.0629662424325943,
          -0.03060414455831051,
          0.06700600683689117,
          -0.027062617242336273,
          -0.09192989021539688,
          0.07092276960611343,
          -0.010079164057970047,
          -0.013371186330914497,
          -0.016637681052088737,
          0.0017686800565570593,
          -0.08640819042921066,
          0.1754293441772461,
          0.022554751485586166,
          0.0,
          0.0,
          0.00209448323585093,
          -0.010540934279561043,
          -0.09347241371870041,
          0.030193783342838287,
          -0.08248668909072876,
          0.004076942801475525,
          0.12056181579828262,
          -0.09513045102357864,
          0.06594417989253998,
          -0.017287561669945717,
          -0.02412920631468296,
          -0.06783802807331085,
          0.01827363111078739,
          0.01768329367041588,
          0.0,
          0.0
        ],
        [
          0.1479988992214203,
          0.1705072820186615,
          -0.11474210023880005,
          -0.14203496277332306,
          -0.038818687200546265,
          -0.022056130692362785,
          -0.014847809448838234,
          0.0815509557723999,
          0.09317446500062943,
          -0.12013494223356247,
          -0.061698175966739655,
          0.0807107537984848,
          -0.1472829282283783,
          -0.02632199600338936,
          0.0,
          0.0,
          0.026907499879598618,
          0.023576419800519943,
          -0.000710107444319874,
          0.16884754598140717,
          -0.002338108606636524,
          -0.13470545411109924,
          -0.017713388428092003,
          0.03412707895040512,
          -0.07619054615497589,
          0.12528708577156067,
          0.060160018503665924,
          -0.04282935708761215,
          -0.08508121967315674,
          0.020659074187278748,
          0.0,
          0.0,
          0.08797980099916458,
          -0.14124943315982819,
          0.027761301025748253,
          0.04040661081671715,
          -0.09608638286590576,
          -0.06547687202692032,
          -0.17464351654052734,
          0.014410335570573807,
          0.01388807874172926,
          -0.10442046076059341,
          0.04955379292368889,
          0.07010533660650253,
          -0.04089702293276787,
          -0.05283954367041588,
          0.0,
          0.0,
          0.02707025036215782,
          -0.048516783863306046,
          -0.07922513782978058,
          0.028829114511609077,
          -0.012839015573263168,
          0.11309155821800232,
          0.024803802371025085,
          0.04762941971421242,
          -0.043558936566114426,
          -0.04825776070356369,
          -0.004856043495237827,
          -0.007917395792901516,
          0.1265990436077118,
          0.008342004381120205,
          0.0,
          0.0
        ],
        [
          0.022858481854200363,
          -0.1108483225107193,
          0.0026918749790638685,
          -0.13709601759910583,
          0.05632700398564339,
          -0.012758428230881691,
          -0.1283322423696518,
          0.09086783975362778,
          0.04353916645050049,
          0.006279296241700649,
          -0.11566372960805893,
          0.008084500208497047,
          0.057726360857486725,
          -0.07555089890956879,
          0.0,
          0.0,
          0.037799760699272156,
          -0.025690196081995964,
          -0.06574031710624695,
          0.06883829087018967,
          -0.0717921182513237,
          0.12905123829841614,
          -0.14910022914409637,
          0.07413136959075928,
          0.07814875990152359,
          -0.1287514865398407,
          -0.166721373796463,
          -0.11703091859817505,
          0.030403118580579758,
          0.01937738060951233,
          0.0,
          0.0,
          -0.005478875711560249,
          0.11725550889968872,
          -0.05008315667510033,
          0.09251080453395844,
          -0.03008965775370598,
          0.12028922885656357,
          0.007051671389490366,
          -0.03750818595290184,
          -0.118178591132164,
          0.04470396041870117,
          0.106881283223629,
          -0.1573176085948944,
          -0.1382824033498764,
          0.059785451740026474,
          0.0,
          0.0,
          -0.1585899144411087,
          -0.0026259724982082844,
          0.057398151606321335,
          -0.06266424059867859,
          -0.0059983558021485806,
          -0.016979314386844635,
          0.15376482903957367,
          -0.14827990531921387,
          -0.1595562845468521,
          -0.06852470338344574,
          -0.050449930131435394,
          0.06614209711551666,
          0.06634095311164856,
          -0.09953076392412186,
          0.0,
          0.0
        ],
        [
          0.013958866707980633,
          0.26392000913619995,
          0.0032231223303824663,
          -0.10495325922966003,
          -0.07194375991821289,
          0.1195867732167244,
          0.047531623393297195,
          0.0729372650384903,
          -0.12334316223859787,
          0.03201865777373314,
          0.050271280109882355,
          -0.11236986517906189,
          0.14509424567222595,
          -0.06278043240308762,
          0.0,
          0.0,
          0.030754731968045235,
          -0.043092019855976105,
          0.018511293455958366,
          -0.021261729300022125,
          0.011169555597007275,
          0.0670618787407875,
          -0.1593288630247116,
          0.006294057238847017,
          0.07824517786502838,
          -0.10478024184703827,
          0.031895797699689865,
          -0.1148797944188118,
          0.022543195635080338,
          -0.037689611315727234,
          0.0,
          0.0,
          0.008158049546182156,
          -0.03760392218828201,
          -0.09540466964244843,
          0.049759846180677414,
          -0.10416893661022186,
          -0.011979660019278526,
          0.041734594851732254,
          0.046124961227178574,
          -0.13548409938812256,
          0.010290705598890781,
          -0.03418506681919098,
          -0.11312059313058853,
          0.11429667472839355,
          -0.012258080765604973,
          0.0,
          0.0,
          -0.07550167292356491,
          -0.008180424571037292,
          0.11855091154575348,
          -0.049620360136032104,
          0.12946298718452454,
          -0.03972175717353821,
          -0.0006415540119633079,
          -0.09032715111970901,
          0.028861675411462784,
          0.005520457401871681,
          0.046674661338329315,
          -0.07962970435619354,
          0.1019151583313942,
          -0.13727892935276031,
          0.0,
          0.0
        ],
        [
          -0.1275317221879959,
          -0.1836753785610199,
          0.03610637038946152,
          -0.1368226408958435,
          0.04255983233451843,
          0.12962459027767181,
          0.032914843410253525,
          0.04894055053591728,
          -0.02133670449256897,
          -0.032854702323675156,
          -0.06140032038092613,
          0.05736095458269119,
          0.07469119876623154,
          0.1001913845539093,
          0.0,
          0.0,
          0.05213341489434242,
          -0.01690317690372467,
          -0.10531432926654816,
          -0.057096462696790695,
          0.10338573902845383,
          0.10121292620897293,
          -0.023145252838730812,
          0.035670194774866104,
          0.009252804331481457,
          -0.09933120012283325,
          0.0890285074710846,
          0.05246353521943092,
          0.097576804459095,
          0.04659426212310791,
          0.0,
          0.0,
          0.13984574377536774,
          -0.10505352169275284,
          -0.12244623899459839,
          -0.11244025081396103,
          0.014396268874406815,
          -0.0096809770911932,
          0.10638617724180222,
          -0.0377226322889328,
          -0.01240734662860632,
          0.05492148920893669,
          -0.12389198690652847,
          0.102029949426651,
          0.1149112731218338,
          -0.06186717748641968,
          0.0,
          0.0,
          -0.08195384591817856,
          -0.036977723240852356,
          -0.1051042303442955,
          -0.10942667722702026,
          -0.03127875551581383,
          0.028551824390888214,
          0.04564851522445679,
          -0.05326975882053375,
          -0.005934836808592081,
          -0.09285923093557358,
          0.06003791093826294,
          0.14614640176296234,
          0.056616343557834625,
          0.06409458070993423,
          0.0,
          0.0
        ],
        [
          -0.16728262603282928,
          -0.09959160536527634,
          -0.11794202029705048,
          -0.16708651185035706,
          -0.11250492930412292,
          -0.0903027206659317,
          0.03498522937297821,
          0.09352092444896698,
          0.18561258912086487,
          -0.004407722968608141,
          -0.053536489605903625,
          -0.02152872458100319,
          -0.08231057226657867,
          -0.034447409212589264,
          0.0,
          0.0,
          0.016306545585393906,
          0.05287065729498863,
          -0.03872765600681305,
          0.001019101939164102,
          0.024861406534910202,
          0.11684616655111313,
          0.03141389787197113,
          0.04319639876484871,
          0.028396062552928925,
          0.09019537270069122,
          0.11880335211753845,
          0.039940446615219116,
          -0.11252809315919876,
          0.0818934366106987,
          0.0,
          0.0,
          -0.005327209364622831,
          -0.04702240228652954,
          -0.003807643661275506,
          -0.09165612608194351,
          -3.377490065759048e-05,
          0.05571766197681427,
          -0.07821042090654373,
          0.08559595793485641,
          -0.06226956099271774,
          -0.022265763953328133,
          -0.06922905147075653,
          0.11062183231115341,
          0.12872755527496338,
          -0.006868836935609579,
          0.0,
          0.0,
          -0.044638585299253464,
          0.08664438873529434,
          0.048499200493097305,
          0.004358125850558281,
          0.0182353425770998,
          -0.0111301364377141,
          0.068883016705513,
          0.053457822650671005,
          -0.1380145102739334,
          -0.04568277299404144,
          0.05900269001722336,
          0.09547312557697296,
          -0.09928378462791443,
          0.07740836590528488,
          0.0,
          0.0
        ],
        [
          0.058411892503499985,
          0.14499202370643616,
          0.14432373642921448,
          -0.1265176385641098,
          0.07121849805116653,
          0.11848597228527069,
          -0.09804515540599823,
          0.0502755343914032,
          0.18318906426429749,
          -0.040427811443805695,
          -0.008822687901556492,
          0.13320186734199524,
          0.07847938686609268,
          0.1829865723848343,
          0.0,
          0.0,
          -0.09643726795911789,
          -0.07426254451274872,
          0.15009427070617676,
          -0.11507879942655563,
          0.1460353285074234,
          -0.0062891715206205845,
          -0.026587044820189476,
          0.02117515169084072,
          0.035397887229919434,
          -0.12218096107244492,
          0.06394664198160172,
          0.02130584977567196,
          0.10927648842334747,
          -0.10479067265987396,
          0.0,
          0.0,
          -0.06853330880403519,
          -0.031134340912103653,
          0.01539952214807272,
          -0.1566605269908905,
          -0.10282400995492935,
          0.15264196693897247,
          -0.03902832418680191,
          -0.10532126575708389,
          0.04311404377222061,
          0.01216976623982191,
          -0.03202299773693085,
          -0.01617087610065937,
          0.16449786722660065,
          0.077713742852211,
          0.0,
          0.0,
          -0.016744844615459442,
          -0.019139453768730164,
          -0.05125841125845909,
          -0.06695951521396637,
          0.018330076709389687,
          0.003993078134953976,
          -0.02254387177526951,
          -0.08730068802833557,
          -0.07419466972351074,
          -0.004131702706217766,
          -0.07525559514760971,
          0.08752591162919998,
          0.06330673396587372,
          -0.03799402341246605,
          0.0,
          0.0
        ],
        [
          0.03877739608287811,
          0.12511266767978668,
          -0.011581656523048878,
          -0.1292271465063095,
          -0.04758187755942345,
          -0.04209310933947563,
          0.05981753021478653,
          -0.035029374063014984,
          0.13159598410129547,
          0.03730817511677742,
          0.05023397132754326,
          -0.08059655129909515,
          0.05368602275848389,
          0.19529996812343597,
          0.0,
          0.0,
          -0.05994090437889099,
          0.05140634626150131,
          -0.1378394514322281,
          -0.03949788585305214,
          0.021117964759469032,
          0.021422306075692177,
          0.044132884591817856,
          -0.04592223837971687,
          0.16874559223651886,
          -0.0862937942147255,
          -0.044061221182346344,
          -0.10793445259332657,
          0.0636119395494461,
          0.11272375285625458,
          0.0,
          0.0,
          -0.06862738728523254,
          -0.09841641038656235,
          -0.038477540016174316,
          -0.06550154089927673,
          0.11490893363952637,
          -0.014327132143080235,
          0.12573406100273132,
          0.03592062368988991,
          -0.04779835417866707,
          -0.14709341526031494,
          0.009829136542975903,
          -0.011930195614695549,
          0.07382924109697342,
          0.07212989032268524,
          0.0,
          0.0,
          0.06882169097661972,
          -0.051702119410037994,
          -0.10312368720769882,
          -0.060717880725860596,
          -0.08213963359594345,
          -0.0674499049782753,
          0.1505596786737442,
          0.07089904695749283,
          -0.05294433608651161,
          -0.03230992332100868,
          -0.09864947199821472,
          0.000841739762108773,
          -0.07008122652769089,
          0.012420332059264183,
          0.0,
          0.0
        ],
        [
          -0.08720333874225616,
          0.1395103484392166,
          -0.14371007680892944,
          -0.1086869090795517,
          0.04787679761648178,
          -0.08830246329307556,
          -0.15587344765663147,
          -0.08132348209619522,
          0.0008678845479153097,
          -0.049982648342847824,
          0.05251023918390274,
          -0.0027012277860194445,
          -0.12350823730230331,
          -0.028453005477786064,
          0.0,
          0.0,
          -0.06913381814956665,
          -0.1008080393075943,
          0.10602350533008575,
          0.053490933030843735,
          -0.011543363332748413,
          -0.060603778809309006,
          -0.04174086079001427,
          0.0688122808933258,
          -0.05114055424928665,
          0.03407330811023712,
          -0.17214001715183258,
          -0.027048539370298386,
          -0.02866998128592968,
          0.06721363216638565,
          0.0,
          0.0,
          0.002711431821808219,
          0.19168850779533386,
          -0.06552594155073166,
          -0.014994854107499123,
          -0.07193220406770706,
          -0.0993955060839653,
          0.05823087692260742,
          -0.07033298164606094,
          0.01465991698205471,
          -0.1319122165441513,
          -0.0367097370326519,
          -0.08322355896234512,
          0.006997601129114628,
          0.03015550784766674,
          0.0,
          0.0,
          -0.06609313935041428,
          -0.018647776916623116,
          -0.05050364136695862,
          0.034090958535671234,
          0.05847033113241196,
          0.0006158752366900444,
          0.08399397879838943,
          -0.07283589988946915,
          0.12258245050907135,
          -0.011448589153587818,
          -0.1319790631532669,
          -0.11377999186515808,
          0.0718461349606514,
          0.023587537929415703,
          0.0,
          0.0
        ],
        [
          0.10708362609148026,
          -0.11893156915903091,
          -0.13374768197536469,
          0.12545061111450195,
          -0.03783673048019409,
          0.02799367345869541,
          0.17104415595531464,
          0.12987950444221497,
          0.07150067389011383,
          -0.06191102787852287,
          -0.05592922121286392,
          0.029268894344568253,
          0.19871096312999725,
          -0.06865480542182922,
          0.0,
          0.0,
          0.031004080548882484,
          0.10539166629314423,
          -0.03373834490776062,
          0.010868092067539692,
          0.07072970271110535,
          0.05852915719151497,
          0.0053733778186142445,
          0.08067520707845688,
          0.03274206444621086,
          0.07489535212516785,
          -0.08910480886697769,
          -0.018716296181082726,
          0.06874339282512665,
          -0.10450173914432526,
          0.0,
          0.0,
          0.04194946214556694,
          0.07631940394639969,
          0.043079979717731476,
          0.05106314271688461,
          -0.011947253718972206,
          -0.03366870433092117,
          -0.07765624672174454,
          -0.05979949235916138,
          0.09291792660951614,
          0.07247566431760788,
          0.0832904502749443,
          0.011556319892406464,
          -0.1428697109222412,
          -0.04651252552866936,
          0.0,
          0.0,
          0.10765571892261505,
          -0.10293690860271454,
          0.023728273808956146,
          -0.1313336193561554,
          -0.05315953493118286,
          0.2016286998987198,
          -0.045447155833244324,
          -0.10084984451532364,
          -0.09246788918972015,
          0.09594199806451797,
          0.007529424503445625,
          -0.10281897336244583,
          -0.10371450334787369,
          -0.09770765900611877,
          0.0,
          0.0
        ],
        [
          -0.04653965309262276,
          -0.09730304777622223,
          0.009586058557033539,
          -0.09173936396837234,
          0.05180894955992699,
          0.1020696833729744,
          -0.13924811780452728,
          -0.14978991448879242,
          -0.006852051708847284,
          0.052578411996364594,
          0.23055800795555115,
          0.19549505412578583,
          0.017094828188419342,
          -0.03374957665801048,
          0.0,
          0.0,
          -0.049427445977926254,
          0.0563080795109272,
          -0.06137466058135033,
          0.05564803630113602,
          0.10088604688644409,
          0.03893798217177391,
          -0.0631280392408371,
          -0.15139439702033997,
          0.08207706362009048,
          -0.013462681323289871,
          -0.012606734409928322,
          -0.08288317173719406,
          0.15334127843379974,
          -0.055497970432043076,
          0.0,
          0.0,
          -0.115049347281456,
          -0.10957078635692596,
          0.056582290679216385,
          0.051728151738643646,
          0.044300325214862823,
          -0.0732681006193161,
          -0.10861556231975555,
          0.051437098532915115,
          -0.06583062559366226,
          0.05615844577550888,
          -0.07375188916921616,
          0.016094878315925598,
          -0.0036604951601475477,
          -0.028399506583809853,
          0.0,
          0.0,
          0.035523708909749985,
          -0.030023349449038506,
          -0.013250386342406273,
          -0.08810042589902878,
          -0.0188420582562685,
          -0.07738644629716873,
          -0.034101251512765884,
          0.028453046455979347,
          -0.003037302056327462,
          0.11233403533697128,
          -0.1318499594926834,
          0.008652015589177608,
          0.0684000626206398,
          -0.18020285665988922,
          0.0,
          0.0
        ],
        [
          -0.14406833052635193,
          -0.003824155777692795,
          -0.07233511656522751,
          0.09146419167518616,
          -0.031754765659570694,
          -0.008385458029806614,
          0.0816890075802803,
          0.07650686800479889,
          0.16296851634979248,
          -0.10557614266872406,
          0.15185293555259705,
          -0.07470615953207016,
          -0.040810417383909225,
          -0.056116193532943726,
          0.0,
          0.0,
          -0.08832326531410217,
          0.06363846361637115,
          -0.023375334218144417,
          0.020991787314414978,
          0.07194022834300995,
          -0.007563026621937752,
          0.092678003013134,
          -0.11227789521217346,
          0.07305708527565002,
          -0.0025683827698230743,
          0.18376055359840393,
          -0.09867651015520096,
          -0.08323703706264496,
          0.1052432730793953,
          0.0,
          0.0,
          -0.07536357641220093,
          0.04054686427116394,
          -0.06414595991373062,
          0.043950896710157394,
          -0.14441819489002228,
          0.08786250650882721,
          -0.06425943970680237,
          0.09831095486879349,
          0.0298822820186615,
          -0.012947763316333294,
          0.019827447831630707,
          -0.055982619524002075,
          0.11047544330358505,
          -0.02881559357047081,
          0.0,
          0.0,
          0.08514874428510666,
          0.04353286325931549,
          0.04677439481019974,
          -0.00018953839025925845,
          0.08188017457723618,
          -0.04422428458929062,
          0.0012381298001855612,
          0.029614655300974846,
          0.08107849955558777,
          -0.045045431703329086,
          -0.10712569206953049,
          -0.07961514592170715,
          -0.14703531563282013,
          0.19370058178901672,
          0.0,
          0.0
        ],
        [
          0.0060567110776901245,
          -0.050605058670043945,
          0.08106619119644165,
          -0.08996576815843582,
          0.08285423368215561,
          0.1166640892624855,
          0.0041107479482889175,
          0.07959845662117004,
          0.12259570509195328,
          -0.1969670057296753,
          0.10029789060354233,
          0.15199972689151764,
          0.014847676269710064,
          0.12495649605989456,
          0.0,
          0.0,
          0.09563763439655304,
          -0.0788692831993103,
          -0.0652613714337349,
          -0.026994453743100166,
          -0.1299339085817337,
          -0.03874822333455086,
          -0.015509585849940777,
          0.05879545956850052,
          0.06977617740631104,
          0.06205771118402481,
          0.033686865121126175,
          0.15497368574142456,
          0.15596696734428406,
          -0.15462012588977814,
          0.0,
          0.0,
          -0.05425221472978592,
          -0.08686131238937378,
          -0.0627095177769661,
          -0.11300861835479736,
          -0.11273234337568283,
          0.1011691614985466,
          0.06565960496664047,
          0.0034608454443514347,
          0.010805465281009674,
          0.1674557477235794,
          -0.0656503438949585,
          -0.07631237059831619,
          -0.07676144689321518,
          -0.09500724822282791,
          0.0,
          0.0,
          0.06386063247919083,
          -0.13464383780956268,
          0.08917360007762909,
          -0.008675185032188892,
          0.003843738231807947,
          -0.0025151455774903297,
          -0.12035376578569412,
          -0.00567147321999073,
          -0.0602145753800869,
          0.0261730644851923,
          -0.04760836809873581,
          0.06433430314064026,
          0.05065736547112465,
          -0.04137421399354935,
          0.0,
          0.0
        ],
        [
          -0.06531640142202377,
          -0.0023470474407076836,
          0.07269123196601868,
          -0.10454834252595901,
          -0.0057259248569607735,
          0.01722426898777485,
          -0.0811157152056694,
          0.04083609580993652,
          -0.11954860389232635,
          -0.11167247593402863,
          0.09212999045848846,
          -0.04838063567876816,
          -0.005074695218354464,
          -0.02490226738154888,
          0.0,
          0.0,
          -0.012938173487782478,
          -0.04836491122841835,
          0.08180280774831772,
          -0.1233639344573021,
          -0.09422580897808075,
          -0.09974721819162369,
          0.01611318252980709,
          0.013865694403648376,
          -0.004602822940796614,
          0.060363978147506714,
          -0.09068948775529861,
          0.07230939716100693,
          -0.09487270563840866,
          -0.01522972621023655,
          0.0,
          0.0,
          0.057991474866867065,
          0.0479939728975296,
          0.06988557428121567,
          0.15593960881233215,
          -0.056065574288368225,
          0.10955376923084259,
          -0.10509053617715836,
          0.07940543442964554,
          -0.13672830164432526,
          0.10268185287714005,
          0.10523635149002075,
          -0.0017269076779484749,
          -0.057144004851579666,
          0.08414455503225327,
          0.0,
          0.0,
          0.0069435578770935535,
          -0.036577995866537094,
          0.11584188044071198,
          -0.04469475895166397,
          -0.07733152061700821,
          -0.09919347614049911,
          -0.10058381408452988,
          -0.021909790113568306,
          0.12370853126049042,
          -0.09882250428199768,
          0.12310146540403366,
          -0.036293476819992065,
          0.04303087666630745,
          -0.07222312688827515,
          0.0,
          0.0
        ],
        [
          -0.07829112559556961,
          0.12760576605796814,
          -0.1258002668619156,
          -0.16310931742191315,
          0.19566510617733002,
          -0.11898531019687653,
          0.05781436339020729,
          -0.06582193076610565,
          -0.04254358261823654,
          0.017715629190206528,
          0.0637291967868805,
          0.051304809749126434,
          -0.06240680068731308,
          -0.07209093123674393,
          0.0,
          0.0,
          0.01897609420120716,
          -0.010720601305365562,
          -0.05917615070939064,
          0.06817996501922607,
          0.012940391898155212,
          0.03320161625742912,
          0.0018591153202578425,
          0.0012935773702338338,
          -0.03903856500983238,
          0.004379364661872387,
          -0.0888148620724678,
          -0.03232256695628166,
          -0.058255765587091446,
          0.029903240501880646,
          0.0,
          0.0,
          -0.08393335342407227,
          0.09869922697544098,
          0.1323966085910797,
          0.06873363256454468,
          -0.03888378664851189,
          -0.003954933490604162,
          0.030139876529574394,
          -0.012823659926652908,
          0.13380776345729828,
          -0.17863652110099792,
          0.004851098638027906,
          -0.007686919067054987,
          0.004059452097862959,
          -0.01937204599380493,
          0.0,
          0.0,
          0.06625363975763321,
          -0.10187985748052597,
          0.0335848405957222,
          0.04000238701701164,
          -0.09183797985315323,
          -0.010276624001562595,
          0.0055823056027293205,
          0.014498922973871231,
          0.03551679104566574,
          0.14004340767860413,
          -0.04854437708854675,
          -0.024091582745313644,
          0.1017543151974678,
          0.15064404904842377,
          0.0,
          0.0
        ],
        [
          0.10954450815916061,
          -0.1063595563173294,
          0.12706734240055084,
          -0.11537618190050125,
          -0.039023399353027344,
          0.14979451894760132,
          0.009651235304772854,
          -0.02759389951825142,
          0.06584866344928741,
          0.08895475417375565,
          0.08696117997169495,
          -0.025185925886034966,
          0.013483989983797073,
          0.1712254285812378,
          0.0,
          0.0,
          -0.008533848449587822,
          0.04116315022110939,
          0.020985130220651627,
          0.05615027993917465,
          -0.06893505901098251,
          0.08427425473928452,
          -0.13044360280036926,
          0.12994137406349182,
          -0.019407076761126518,
          -0.10033895820379257,
          -0.13991102576255798,
          0.10029763728380203,
          -0.06918149441480637,
          -0.013963830657303333,
          0.0,
          0.0,
          -0.07974725216627121,
          0.00591930141672492,
          0.06358431279659271,
          0.08403662592172623,
          0.14767590165138245,
          0.07446742802858353,
          -0.06166934594511986,
          0.08331958949565887,
          -0.026698607951402664,
          -0.00544938538223505,
          -0.02013452537357807,
          -0.03722697123885155,
          -0.018556440249085426,
          -0.12041828036308289,
          0.0,
          0.0,
          0.15244567394256592,
          -0.04980931803584099,
          -0.07695763558149338,
          -0.021999912336468697,
          0.022776072844862938,
          0.002203639131039381,
          0.04722876846790314,
          -0.01927463337779045,
          -0.028038503602147102,
          -0.04485257342457771,
          0.016013504937291145,
          -0.09027241915464401,
          -0.11163917183876038,
          0.11266451328992844,
          0.0,
          0.0
        ],
        [
          -0.044225286692380905,
          -0.11434422433376312,
          0.11575048416852951,
          0.027017228305339813,
          -0.08281859755516052,
          0.03583437204360962,
          0.07751203328371048,
          0.08818177878856659,
          0.11472655832767487,
          0.023290269076824188,
          0.08185219764709473,
          0.008266267366707325,
          -0.13263992965221405,
          -0.06304333359003067,
          0.0,
          0.0,
          0.0972178503870964,
          -0.07196500152349472,
          0.07654409110546112,
          -0.01869010366499424,
          -0.011376028880476952,
          0.08602302521467209,
          -0.11964552104473114,
          -0.11359991133213043,
          0.08813697099685669,
          0.10552753508090973,
          0.007884745486080647,
          -0.05941815301775932,
          -0.09874113649129868,
          -0.12665627896785736,
          0.0,
          0.0,
          0.036581095308065414,
          -0.061524681746959686,
          -0.07698453217744827,
          0.014549782499670982,
          -0.0380076989531517,
          -0.054321080446243286,
          0.11345018446445465,
          0.06599810719490051,
          0.04745609313249588,
          -0.07658718526363373,
          0.022229677066206932,
          0.08829931914806366,
          -0.0759352296590805,
          0.1212073415517807,
          0.0,
          0.0,
          -0.0062301671132445335,
          -0.021779796108603477,
          -0.0068719834089279175,
          -0.13200965523719788,
          0.013586052693426609,
          -0.1331583708524704,
          -0.06673279404640198,
          -0.003324283519759774,
          0.12660221755504608,
          0.08128923177719116,
          -0.06720603257417679,
          -0.09471388161182404,
          -0.13490305840969086,
          0.18320854008197784,
          0.0,
          0.0
        ],
        [
          -0.31050050258636475,
          -0.033387359231710434,
          0.3627470135688782,
          -0.06477725505828857,
          0.051166269928216934,
          -0.00629647308960557,
          0.04626954346895218,
          0.05078689008951187,
          0.06375022977590561,
          0.006833732593804598,
          -0.010002432391047478,
          -0.06015361100435257,
          -0.15097390115261078,
          -0.10937278717756271,
          0.0,
          0.0,
          -0.025693127885460854,
          0.09178199619054794,
          -0.05925542116165161,
          0.13528408110141754,
          -0.05373763293027878,
          -0.03699662163853645,
          0.09229177981615067,
          -0.0024703475646674633,
          -0.05281445011496544,
          0.15221786499023438,
          0.024460459128022194,
          -0.01986619085073471,
          -0.1745067983865738,
          -0.0699157640337944,
          0.0,
          0.0,
          0.03362789377570152,
          -0.0208172257989645,
          0.06686219573020935,
          -0.01781442202627659,
          -0.0028749334160238504,
          -0.0012167699169367552,
          0.013560060411691666,
          0.024881023913621902,
          0.13231468200683594,
          0.003984387964010239,
          0.04382200539112091,
          -0.015784308314323425,
          -0.07316357642412186,
          -0.07809964567422867,
          0.0,
          0.0,
          -0.004656410310417414,
          0.08530407398939133,
          -0.07673333585262299,
          0.0679740160703659,
          -0.09477819502353668,
          0.08368013054132462,
          -0.02903767116367817,
          0.04181251674890518,
          0.0023636810947209597,
          0.023812465369701385,
          0.004231661558151245,
          -0.056338682770729065,
          0.07301933318376541,
          0.02439856342971325,
          0.0,
          0.0
        ],
        [
          -0.1660548597574234,
          -0.07951399683952332,
          0.16640125215053558,
          0.06815402954816818,
          0.12072394043207169,
          0.008070769719779491,
          -0.1154516264796257,
          0.0808013305068016,
          0.10051417350769043,
          -0.14552102982997894,
          -0.04692680016160011,
          -0.1399393081665039,
          -0.13444022834300995,
          0.031517162919044495,
          0.0,
          0.0,
          -0.03940122202038765,
          0.10068336874246597,
          -0.1023491770029068,
          0.09386001527309418,
          -0.04928184673190117,
          -0.0478350892663002,
          -0.13850048184394836,
          0.025635438039898872,
          0.0763358399271965,
          0.0863000676035881,
          0.1256924867630005,
          -0.1466609537601471,
          0.043192025274038315,
          0.0281379371881485,
          0.0,
          0.0,
          0.07625055313110352,
          -0.022304115816950798,
          -0.09836876392364502,
          0.06847184896469116,
          0.06514888256788254,
          -0.03162088617682457,
          -0.10700418800115585,
          -0.14268715679645538,
          0.035209886729717255,
          -0.03732308745384216,
          -0.14069782197475433,
          0.005399192683398724,
          -0.06527514010667801,
          -0.08824469894170761,
          0.0,
          0.0,
          -0.041844502091407776,
          -0.01919364370405674,
          -0.11593885719776154,
          -0.006047941278666258,
          0.08315236866474152,
          0.00764751760289073,
          0.10243407636880875,
          -0.12513770163059235,
          -0.06771986186504364,
          0.040560659021139145,
          -0.12138291448354721,
          0.11774122714996338,
          0.11475576460361481,
          -0.1122342124581337,
          0.0,
          0.0
        ],
        [
          0.0608929768204689,
          -0.03138536959886551,
          -0.08706138283014297,
          -0.19441449642181396,
          0.1288469284772873,
          -0.0013269378105178475,
          -0.07548557966947556,
          -0.03386940807104111,
          -0.08521108329296112,
          -0.14472058415412903,
          0.10775510221719742,
          0.06403420120477676,
          -0.14840799570083618,
          -0.023498037829995155,
          0.0,
          0.0,
          -0.06855432689189911,
          -0.036183230578899384,
          0.14049486815929413,
          -0.09616586565971375,
          0.06572175025939941,
          0.07697486132383347,
          0.02752280980348587,
          -0.1081831306219101,
          -0.11119449883699417,
          -0.10119848698377609,
          -0.09375286102294922,
          0.0012238568160682917,
          0.16363689303398132,
          -0.12487541884183884,
          0.0,
          0.0,
          0.1319454312324524,
          0.036729104816913605,
          0.023197494447231293,
          -0.1338813304901123,
          -0.13018035888671875,
          0.030647197738289833,
          -0.046593572944402695,
          -0.03981498256325722,
          -0.02865210734307766,
          0.002467053011059761,
          0.15529756247997284,
          -0.029011771082878113,
          -0.07604809105396271,
          0.14722326397895813,
          0.0,
          0.0,
          -0.019891886040568352,
          -0.01226037461310625,
          -0.08537106961011887,
          0.05392827093601227,
          0.05910249799489975,
          -0.12449917197227478,
          0.06044808030128479,
          0.08015928417444229,
          0.045883484184741974,
          -0.11473796516656876,
          -0.06067029759287834,
          0.10456482321023941,
          0.020735975354909897,
          0.047393303364515305,
          0.0,
          0.0
        ],
        [
          0.1401672214269638,
          -0.17080558836460114,
          0.14442844688892365,
          -0.11239837855100632,
          -0.017346780747175217,
          0.006244482006877661,
          -0.07924766838550568,
          -0.09191390126943588,
          0.04261832311749458,
          -0.030539870262145996,
          0.011026470921933651,
          -0.07790599763393402,
          0.013118171133100986,
          -0.05301662161946297,
          0.0,
          0.0,
          0.05821038410067558,
          -0.04944510757923126,
          0.04654771462082863,
          0.05560646578669548,
          0.17502297461032867,
          -0.0023444483522325754,
          0.07896855473518372,
          -0.10294993966817856,
          -0.0458156019449234,
          -0.053439900279045105,
          -0.0738106518983841,
          0.025301707908511162,
          0.017223119735717773,
          -0.08845774829387665,
          0.0,
          0.0,
          0.0962609350681305,
          0.07301636040210724,
          -0.05551862344145775,
          -0.09957930445671082,
          0.10486171394586563,
          -0.19760464131832123,
          -0.008629558607935905,
          0.09750927984714508,
          -0.026238445192575455,
          0.1224045380949974,
          0.10031278431415558,
          -0.08605454862117767,
          -0.0777466744184494,
          0.16385658085346222,
          0.0,
          0.0,
          -0.06781615316867828,
          -0.0073727755807340145,
          -0.034262515604496,
          -0.12381454557180405,
          -0.031263843178749084,
          -0.17889465391635895,
          -0.031810350716114044,
          0.007918588817119598,
          -0.019411927089095116,
          -0.07068489491939545,
          0.06826135516166687,
          0.019027791917324066,
          0.02145015262067318,
          -0.049495771527290344,
          0.0,
          0.0
        ],
        [
          -0.08175487816333771,
          -0.01823868229985237,
          0.17321474850177765,
          -0.07635901868343353,
          -0.05832964926958084,
          0.11047954112291336,
          -0.04194251075387001,
          -0.09611829370260239,
          0.07161545008420944,
          -0.12050605565309525,
          0.0637112483382225,
          -0.1081986278295517,
          0.06772078573703766,
          -0.07021502405405045,
          0.0,
          0.0,
          -0.03791290894150734,
          0.04707588627934456,
          -0.017493007704615593,
          -0.05207616090774536,
          -0.11313482373952866,
          -0.12629787623882294,
          0.08579999208450317,
          -0.014170212671160698,
          -0.017060741782188416,
          0.16098953783512115,
          0.22720415890216827,
          -0.0474340096116066,
          -0.10184752196073532,
          -0.04195737838745117,
          0.0,
          0.0,
          -0.009329065680503845,
          -0.08368952572345734,
          0.07343509048223495,
          0.020116766914725304,
          -0.10264883190393448,
          0.14355158805847168,
          0.050788626074790955,
          -0.02778632752597332,
          0.13699905574321747,
          0.009544407948851585,
          0.07783016562461853,
          0.1039205938577652,
          -0.036825504153966904,
          0.01991552673280239,
          0.0,
          0.0,
          -0.07410942763090134,
          0.12112314999103546,
          -0.04057684540748596,
          -0.022529901936650276,
          0.019860582426190376,
          -0.15696579217910767,
          -0.06487707048654556,
          0.014725510962307453,
          0.11579195410013199,
          -0.10401410609483719,
          -0.03139499947428703,
          0.01869989186525345,
          0.025042260065674782,
          -0.053749073296785355,
          0.0,
          0.0
        ],
        [
          -0.06694357842206955,
          -0.19918064773082733,
          -0.07887034118175507,
          -0.005615756846964359,
          -0.047716401517391205,
          -0.012743337079882622,
          -0.014078146778047085,
          -0.04438231885433197,
          0.05625360459089279,
          -0.15042181313037872,
          -0.08413134515285492,
          -0.02456945739686489,
          -0.10639826208353043,
          0.19293101131916046,
          0.0,
          0.0,
          0.060353025794029236,
          0.02491329051554203,
          0.05675286427140236,
          0.003445382695645094,
          0.06270323693752289,
          0.05179944634437561,
          0.017312344163656235,
          0.05267691612243652,
          -0.09741366654634476,
          -0.08540088683366776,
          -0.06680610775947571,
          0.001893778215162456,
          -0.05853194743394852,
          0.09682170301675797,
          0.0,
          0.0,
          -0.0812612771987915,
          0.08275099843740463,
          -0.020413614809513092,
          -0.05420985072851181,
          0.004984288476407528,
          0.045948706567287445,
          0.05124065279960632,
          -0.08548083156347275,
          -0.030922608450055122,
          0.033993612974882126,
          0.04819691926240921,
          -0.017276322469115257,
          0.07118842005729675,
          -0.047684766352176666,
          0.0,
          0.0,
          -0.022735774517059326,
          -0.058421541005373,
          0.05820233002305031,
          0.0035213313531130552,
          -0.03912944346666336,
          -0.005637246184051037,
          -0.08478333055973053,
          -0.027982531115412712,
          0.03388779237866402,
          -0.005430322140455246,
          0.03252081200480461,
          0.07187392562627792,
          -0.017879923805594444,
          -0.0018474988173693419,
          0.0,
          0.0
        ],
        [
          -0.18698671460151672,
          0.08418606966733932,
          0.23992373049259186,
          -0.013591878116130829,
          0.1201208233833313,
          0.018759947270154953,
          0.017428506165742874,
          -0.02396511286497116,
          0.1789531707763672,
          -0.09239466488361359,
          -0.0479801706969738,
          0.01428890135139227,
          -0.02625660039484501,
          -0.1665186882019043,
          0.0,
          0.0,
          -0.05554256960749626,
          -0.08837176859378815,
          -0.034074194729328156,
          -0.005150239448994398,
          0.05286954715847969,
          0.02310170605778694,
          0.09849799424409866,
          -0.09325742721557617,
          0.05988779291510582,
          -0.06775609403848648,
          -0.038590192794799805,
          -0.03764719143509865,
          -0.11764760315418243,
          -0.08968055248260498,
          0.0,
          0.0,
          0.0669240653514862,
          0.1463526338338852,
          -0.10365494340658188,
          0.07548642158508301,
          -0.05871369317173958,
          0.04603486880660057,
          0.11407914757728577,
          0.13651040196418762,
          -0.06112252175807953,
          0.06500838696956635,
          0.017364364117383957,
          0.07069865614175797,
          0.14557024836540222,
          -0.03315574675798416,
          0.0,
          0.0,
          -0.09041257202625275,
          0.10183084011077881,
          -0.08337647467851639,
          -0.02504395879805088,
          0.04149095341563225,
          -0.024617735296487808,
          0.03330252319574356,
          0.06647666543722153,
          -0.08842374384403229,
          -0.10211741924285889,
          0.092307910323143,
          0.10373145341873169,
          -0.12450067698955536,
          0.028007183223962784,
          0.0,
          0.0
        ],
        [
          0.1986374706029892,
          0.20390836894512177,
          -0.0890970528125763,
          -0.03368388116359711,
          0.17383934557437897,
          0.09156255424022675,
          0.06665872037410736,
          -0.04192587360739708,
          -0.06965839862823486,
          0.053144671022892,
          0.03646828979253769,
          -0.01807265542447567,
          -0.10514134168624878,
          -0.08645442873239517,
          0.0,
          0.0,
          -0.07965884357690811,
          -0.06350503116846085,
          0.0027060520369559526,
          -0.02775861695408821,
          -0.043259941041469574,
          -0.04255443066358566,
          -0.032705552875995636,
          -0.12900348007678986,
          0.052646931260824203,
          -0.12614300847053528,
          0.0880865603685379,
          0.019141050055623055,
          -0.07654289156198502,
          0.10018770396709442,
          0.0,
          0.0,
          0.015377448871731758,
          0.058239445090293884,
          -0.04871841147542,
          -0.06778130680322647,
          -0.03484218940138817,
          -0.04890895262360573,
          -0.07177577912807465,
          -0.007101780269294977,
          -0.1345979869365692,
          -0.040898874402046204,
          -0.025728920474648476,
          -0.1405881643295288,
          0.05895216763019562,
          0.12859472632408142,
          0.0,
          0.0,
          0.024280479177832603,
          0.015830013900995255,
          -0.03366007283329964,
          0.07841140031814575,
          -0.16273805499076843,
          -0.067317895591259,
          -0.07671346515417099,
          0.11562652885913849,
          -0.014829294756054878,
          0.08946284651756287,
          0.05013101547956467,
          0.012869291007518768,
          0.1152973473072052,
          -0.01149187795817852,
          0.0,
          0.0
        ],
        [
          -0.14553117752075195,
          0.28480976819992065,
          0.0002557466214057058,
          -0.056733161211013794,
          -0.09993556886911392,
          0.07528997212648392,
          -0.11900360137224197,
          -0.06451501697301865,
          0.09260691702365875,
          -0.014087904244661331,
          -0.17599716782569885,
          -0.10991985350847244,
          -0.2296627014875412,
          0.009949585422873497,
          0.0,
          0.0,
          0.0390060655772686,
          -0.1503210961818695,
          0.07972373068332672,
          -0.061635032296180725,
          -0.03249963000416756,
          0.19385644793510437,
          0.041642479598522186,
          0.0739675909280777,
          0.11658690124750137,
          -0.09381750226020813,
          -0.11812030524015427,
          0.014558464288711548,
          -0.02491692826151848,
          -0.04930495098233223,
          0.0,
          0.0,
          0.07433092594146729,
          -0.025614311918616295,
          -0.04527130722999573,
          0.10768984258174896,
          -0.0041236612014472485,
          -0.12462510168552399,
          0.021259669214487076,
          -0.12672218680381775,
          -0.10685697197914124,
          0.10002739727497101,
          0.020019838586449623,
          -0.033507104963064194,
          0.05215265974402428,
          -0.028449827805161476,
          0.0,
          0.0,
          0.05613255500793457,
          -0.14157769083976746,
          -0.017185010015964508,
          -0.03147955611348152,
          -0.04797864705324173,
          -0.030898824334144592,
          0.02618691883981228,
          -0.048076871782541275,
          -0.04524729400873184,
          -0.11675949394702911,
          -0.08256620913743973,
          0.025906609371304512,
          0.1027592271566391,
          -0.0008951837662607431,
          0.0,
          0.0
        ],
        [
          0.25349175930023193,
          -0.1911417841911316,
          0.005346749909222126,
          -0.013659599237143993,
          -0.09434979408979416,
          -0.007275126874446869,
          0.09974757581949234,
          -0.07401195913553238,
          0.051235370337963104,
          0.0356006883084774,
          0.1519257128238678,
          -0.09363434463739395,
          -0.0232265442609787,
          0.10186086595058441,
          0.0,
          0.0,
          -0.025488795712590218,
          -0.023857686668634415,
          0.056509971618652344,
          0.10472258925437927,
          -0.17304688692092896,
          0.20448873937129974,
          0.07456216216087341,
          0.029969805851578712,
          0.004893681965768337,
          0.016061052680015564,
          -0.009286836721003056,
          -0.07983877509832382,
          0.08577405661344528,
          -0.146366149187088,
          0.0,
          0.0,
          0.04720871150493622,
          -0.017680121585726738,
          -0.015034088864922523,
          0.10318252444267273,
          0.16578279435634613,
          -0.0638001337647438,
          0.049189887940883636,
          -0.024434784427285194,
          -0.09735137969255447,
          0.12124978750944138,
          0.042519308626651764,
          -0.11898152530193329,
          0.03440970182418823,
          0.0025198243092745543,
          0.0,
          0.0,
          -0.004511367529630661,
          0.067442886531353,
          -0.03554393723607063,
          0.008549659512937069,
          -0.09343457967042923,
          -0.032560840249061584,
          -0.12350136786699295,
          -0.0034621001686900854,
          0.018978973850607872,
          0.027679413557052612,
          -0.013210764154791832,
          0.07647545635700226,
          -0.01810845173895359,
          0.10176177322864532,
          0.0,
          0.0
        ],
        [
          -0.08219193667173386,
          0.03095306269824505,
          -0.1751919835805893,
          0.10853555053472519,
          0.062252476811409,
          0.15743061900138855,
          -0.047127820551395416,
          -0.15649478137493134,
          0.11969704180955887,
          -0.09540238976478577,
          0.03649375960230827,
          -0.11402468383312225,
          0.009441865608096123,
          -0.13733497262001038,
          0.0,
          0.0,
          0.07855274528265,
          -0.030922481790184975,
          -0.06632927060127258,
          -0.08500257879495621,
          0.16839489340782166,
          -0.06358883529901505,
          0.015547404997050762,
          0.04913821443915367,
          0.08913785219192505,
          0.02324061654508114,
          -0.08907489478588104,
          0.0020410416182130575,
          0.1646791398525238,
          0.09207263588905334,
          0.0,
          0.0,
          0.015687912702560425,
          -0.047593045979738235,
          0.02727437950670719,
          -0.07427072525024414,
          0.03689140826463699,
          -0.03878616914153099,
          0.0816911980509758,
          -0.023889651522040367,
          0.05730102211236954,
          -0.11580280214548111,
          0.11050321906805038,
          -0.053899556398391724,
          -0.1321113556623459,
          -0.055625271052122116,
          0.0,
          0.0,
          -0.07154790312051773,
          -0.018303286284208298,
          0.09915982931852341,
          0.04783691465854645,
          0.08382435142993927,
          0.10826202481985092,
          0.010685981251299381,
          0.06905806809663773,
          -0.0027859550900757313,
          -0.021868083626031876,
          0.0755038782954216,
          0.07240667939186096,
          0.04490021616220474,
          -0.14075297117233276,
          0.0,
          0.0
        ],
        [
          -0.08982913196086884,
          0.08712215721607208,
          0.21641379594802856,
          -0.039657387882471085,
          0.041393451392650604,
          0.14038178324699402,
          0.08127490431070328,
          -0.06172943115234375,
          0.036071207374334335,
          0.0622456856071949,
          0.08607814460992813,
          -0.10511625558137894,
          0.16110046207904816,
          -0.08965092897415161,
          0.0,
          0.0,
          0.09232191741466522,
          0.05611663684248924,
          -0.12759597599506378,
          -0.03901076689362526,
          -0.01457013376057148,
          -0.07203540205955505,
          0.006292049307376146,
          0.05917781591415405,
          0.02074918895959854,
          0.17951804399490356,
          0.1000419408082962,
          -0.0312906950712204,
          -0.03128143772482872,
          0.11411605775356293,
          0.0,
          0.0,
          -0.011859355494379997,
          0.05525648593902588,
          0.045464418828487396,
          0.06468724459409714,
          -0.032051946967840195,
          -0.11301033943891525,
          -0.013121207244694233,
          -0.07283538579940796,
          -0.08389737457036972,
          0.1060221716761589,
          -0.05585607513785362,
          -0.149888277053833,
          -0.1085955873131752,
          0.06471118330955505,
          0.0,
          0.0,
          -0.046738773584365845,
          0.08742916584014893,
          0.04745499789714813,
          0.0714816004037857,
          0.012151711620390415,
          0.09217259287834167,
          -0.19775603711605072,
          0.0253503005951643,
          -0.0409165695309639,
          0.00974661111831665,
          -0.04216093569993973,
          0.04021254926919937,
          0.07893255352973938,
          0.029027681797742844,
          0.0,
          0.0
        ],
        [
          -0.061352308839559555,
          0.038519058376550674,
          0.2988602817058563,
          -0.13971158862113953,
          -0.05809920281171799,
          0.10833439975976944,
          -0.03719419240951538,
          -0.00010856575681827962,
          -0.0427267961204052,
          -0.061457641422748566,
          -0.13012513518333435,
          -0.18467244505882263,
          -0.11895618587732315,
          -0.20162564516067505,
          0.0,
          0.0,
          -0.03802453354001045,
          0.06134342402219772,
          -0.051595669239759445,
          -0.048478905111551285,
          -0.00538769643753767,
          -0.046669986099004745,
          -0.017708053812384605,
          -0.09357409924268723,
          0.04048270732164383,
          -0.13416650891304016,
          -0.16704674065113068,
          0.10164843499660492,
          -0.011110428720712662,
          0.042261384427547455,
          0.0,
          0.0,
          -0.05822630971670151,
          0.12924298644065857,
          -0.016358181834220886,
          0.054064877331256866,
          0.07141265273094177,
          0.005054274573922157,
          0.051873378455638885,
          -0.07148798555135727,
          -0.09907930344343185,
          -0.09500133246183395,
          -0.10401702672243118,
          -0.05369042977690697,
          0.005689684301614761,
          0.05515482276678085,
          0.0,
          0.0,
          -0.10023267567157745,
          0.05070515349507332,
          0.03056442178785801,
          0.0019005783833563328,
          0.10062231123447418,
          -0.012361906468868256,
          -0.02256092242896557,
          0.0021935540717095137,
          0.06642666459083557,
          0.11725352704524994,
          0.03372581675648689,
          0.036469969898462296,
          0.060495976358652115,
          -0.010252568870782852,
          0.0,
          0.0
        ],
        [
          -0.17314685881137848,
          -0.044098544865846634,
          0.21255932748317719,
          -0.1504877358675003,
          0.10297185182571411,
          0.060570280998945236,
          0.11144809424877167,
          0.01135779358446598,
          0.1164378821849823,
          -0.105185367166996,
          -0.09655652940273285,
          -0.09853816032409668,
          0.00593505147844553,
          0.05572306737303734,
          0.0,
          0.0,
          0.07880263030529022,
          -0.08267325162887573,
          -0.04154837876558304,
          -0.02635306306183338,
          -0.05363358557224274,
          0.0400097593665123,
          -0.02358756586909294,
          0.006924281362444162,
          0.11763659119606018,
          -0.07401321083307266,
          0.18179698288440704,
          0.02063664421439171,
          0.09925287216901779,
          0.17637208104133606,
          0.0,
          0.0,
          -0.06003589928150177,
          0.03609338402748108,
          0.09828456491231918,
          -0.016679564490914345,
          -0.06297653168439865,
          0.057009924203157425,
          0.11785861104726791,
          -0.05068261921405792,
          -0.08666355162858963,
          0.1837262064218521,
          -0.06165203079581261,
          0.0455949530005455,
          -0.07224337011575699,
          0.02904420718550682,
          0.0,
          0.0,
          -0.05291750282049179,
          -0.04416655749082565,
          -0.05836894363164902,
          0.05881921574473381,
          -0.019739307463169098,
          -0.06148051470518112,
          -0.05153375491499901,
          -0.033475909382104874,
          0.052763719111680984,
          0.08225242793560028,
          -0.0002064459113171324,
          -0.09094765037298203,
          0.08045191317796707,
          0.005021644290536642,
          0.0,
          0.0
        ],
        [
          -0.000299138919217512,
          -0.14053785800933838,
          -0.04813052713871002,
          -0.0725921243429184,
          0.12119404226541519,
          0.1631743609905243,
          0.027355169877409935,
          0.045654330402612686,
          0.05406741052865982,
          -0.016992690041661263,
          -0.08774880319833755,
          0.03337063640356064,
          -0.053711388260126114,
          -0.00845838151872158,
          0.0,
          0.0,
          0.031188225373625755,
          -0.02928318828344345,
          -0.007685420103371143,
          -0.0998273640871048,
          0.023285074159502983,
          0.06915538012981415,
          -0.07598445564508438,
          0.0322473905980587,
          0.17081516981124878,
          -0.06809456646442413,
          0.1376500427722931,
          0.05026216804981232,
          -0.03416018560528755,
          0.12321179360151291,
          0.0,
          0.0,
          -0.0026528812013566494,
          -0.08505892753601074,
          -0.003412985010072589,
          -0.006669434253126383,
          0.023442566394805908,
          -0.004503576550632715,
          -0.037283483892679214,
          -0.10698102414608002,
          0.037923287600278854,
          0.0591718852519989,
          -0.03657359257340431,
          0.0592714324593544,
          0.05048699304461479,
          -0.10212675482034683,
          0.0,
          0.0,
          0.11352861672639847,
          0.019934408366680145,
          -0.06650897115468979,
          0.011946972459554672,
          0.06588556617498398,
          -0.06859323382377625,
          -0.04253320023417473,
          -0.07855106890201569,
          0.0037822003941982985,
          0.03149818256497383,
          -0.0745035856962204,
          0.014728506095707417,
          -0.00590183911845088,
          -0.03183221071958542,
          0.0,
          0.0
        ],
        [
          0.2412205934524536,
